{"learner":{"attributes":{"best_iteration":"422","best_score":"0.17771140374893304","scikit_learn":"{\"_estimator_type\": \"regressor\"}"},"feature_names":[],"feature_types":[],"gradient_booster":{"model":{"cats":{"enc":[],"feature_segments":[],"sorted_idx":[]},"gbtree_model_param":{"num_parallel_tree":"1","num_trees":"453"},"iteration_indptr":[0,1,2,3,4,5,6,7,8,9,10,11,12,13,14,15,16,17,18,19,20,21,22,23,24,25,26,27,28,29,30,31,32,33,34,35,36,37,38,39,40,41,42,43,44,45,46,47,48,49,50,51,52,53,54,55,56,57,58,59,60,61,62,63,64,65,66,67,68,69,70,71,72,73,74,75,76,77,78,79,80,81,82,83,84,85,86,87,88,89,90,91,92,93,94,95,96,97,98,99,100,101,102,103,104,105,106,107,108,109,110,111,112,113,114,115,116,117,118,119,120,121,122,123,124,125,126,127,128,129,130,131,132,133,134,135,136,137,138,139,140,141,142,143,144,145,146,147,148,149,150,151,152,153,154,155,156,157,158,159,160,161,162,163,164,165,166,167,168,169,170,171,172,173,174,175,176,177,178,179,180,181,182,183,184,185,186,187,188,189,190,191,192,193,194,195,196,197,198,199,200,201,202,203,204,205,206,207,208,209,210,211,212,213,214,215,216,217,218,219,220,221,222,223,224,225,226,227,228,229,230,231,232,233,234,235,236,237,238,239,240,241,242,243,244,245,246,247,248,249,250,251,252,253,254,255,256,257,258,259,260,261,262,263,264,265,266,267,268,269,270,271,272,273,274,275,276,277,278,279,280,281,282,283,284,285,286,287,288,289,290,291,292,293,294,295,296,297,298,299,300,301,302,303,304,305,306,307,308,309,310,311,312,313,314,315,316,317,318,319,320,321,322,323,324,325,326,327,328,329,330,331,332,333,334,335,336,337,338,339,340,341,342,343,344,345,346,347,348,349,350,351,352,353,354,355,356,357,358,359,360,361,362,363,364,365,366,367,368,369,370,371,372,373,374,375,376,377,378,379,380,381,382,383,384,385,386,387,388,389,390,391,392,393,394,395,396,397,398,399,400,401,402,403,404,405,406,407,408,409,410,411,412,413,414,415,416,417,418,419,420,421,422,423,424,425,426,427,428,429,430,431,432,433,434,435,436,437,438,439,440,441,442,443,444,445,446,447,448,449,450,451,452,453],"tree_info":[0,0,0,0,0,0,0,0,0,0,0,0,0,0,0,0,0,0,0,0,0,0,0,0,0,0,0,0,0,0,0,0,0,0,0,0,0,0,0,0,0,0,0,0,0,0,0,0,0,0,0,0,0,0,0,0,0,0,0,0,0,0,0,0,0,0,0,0,0,0,0,0,0,0,0,0,0,0,0,0,0,0,0,0,0,0,0,0,0,0,0,0,0,0,0,0,0,0,0,0,0,0,0,0,0,0,0,0,0,0,0,0,0,0,0,0,0,0,0,0,0,0,0,0,0,0,0,0,0,0,0,0,0,0,0,0,0,0,0,0,0,0,0,0,0,0,0,0,0,0,0,0,0,0,0,0,0,0,0,0,0,0,0,0,0,0,0,0,0,0,0,0,0,0,0,0,0,0,0,0,0,0,0,0,0,0,0,0,0,0,0,0,0,0,0,0,0,0,0,0,0,0,0,0,0,0,0,0,0,0,0,0,0,0,0,0,0,0,0,0,0,0,0,0,0,0,0,0,0,0,0,0,0,0,0,0,0,0,0,0,0,0,0,0,0,0,0,0,0,0,0,0,0,0,0,0,0,0,0,0,0,0,0,0,0,0,0,0,0,0,0,0,0,0,0,0,0,0,0,0,0,0,0,0,0,0,0,0,0,0,0,0,0,0,0,0,0,0,0,0,0,0,0,0,0,0,0,0,0,0,0,0,0,0,0,0,0,0,0,0,0,0,0,0,0,0,0,0,0,0,0,0,0,0,0,0,0,0,0,0,0,0,0,0,0,0,0,0,0,0,0,0,0,0,0,0,0,0,0,0,0,0,0,0,0,0,0,0,0,0,0,0,0,0,0,0,0,0,0,0,0,0,0,0,0,0,0,0,0,0,0,0,0,0,0,0,0,0,0,0,0,0,0,0,0,0,0,0,0,0,0,0,0,0,0,0,0,0,0,0,0,0,0,0,0,0,0,0,0,0,0,0,0,0,0,0,0,0,0,0,0,0,0,0,0,0,0,0,0,0,0,0,0],"trees":[{"base_weights":[-3.9957347E-3,-1.2504221E-1,1.688054E-1,-1.6120222E-1,1.9050421E-1,4.3077126E-1,1.2902582E-1,-2.597927E-1,-1.0015141E-1,4.0341076E-1,1.555503E-1,2.975782E-1,8.2234657E-1,-1.1338909E-2,2.185298E-1,4.9286354E-3,-3.41966E-1,-2.1134555E-1,-3.857656E-2,3.5139978E-2,6.2851477E-3,1.9733317E-1,-4.6251312E-2,4.143638E-2,2.0775735E-1,1.0154976E-1,-1.7473487E-3,-4.2629007E-2,1.9617416E-1,1.6706504E-1,3.651172E-1,-3.3310443E-2,3.0127344E-1,-2.4744439E-1,-4.218273E-1,-2.3195767E-1,7.473519E-3,1.395808E-1,-7.353872E-2,-4.5519695E-3,2.1444991E-1,-1.3552139E-2,-1.3046251E-2,8.205645E-2,3.1752947E-1,2.0375713E-3,-9.120336E-3,-8.243701E-2,4.0574037E-3,2.3124138E-2,1.3902617E-1,2.9755041E-2,1.9642219E-1,4.4545102E-1,2.8308094E-1,-8.334005E-3,2.847762E-3,3.1008996E-2,-7.491493E-4,-2.4403933E-2,-1.3168898E-2,-3.8629673E-2,-2.6050929E-2,-2.5347289E-2,-1.53151415E-2,-7.720344E-3,2.6950141E-2,6.006182E-3,2.7169982E-2,-8.331256E-3,1.8277986E-3,1.943984E-2,5.8754734E-3,-5.5366457E-3,1.0477588E-2,-1.2523529E-2,1.1045847E-2,2.7846148E-2,1.5354531E-2,-7.7694166E-3,6.2384657E-3,-1.1666543E-3,6.898107E-3,4.7485037E-3,1.4756307E-2,7.638077E-3,-9.8913E-4,1.9458532E-2,1.3596321E-2,3.4263507E-2,5.532093E-2,2.3970207E-2,8.799168E-3],"categories":[],"categories_nodes":[],"categories_segments":[],"categories_sizes":[],"default_left":[0,0,0,0,0,0,0,0,0,0,0,0,0,0,0,0,0,0,0,0,0,0,0,0,0,0,0,0,0,0,0,0,0,0,0,0,0,0,0,0,0,0,0,0,0,0,0,0,0,0,0,0,0,0,0,0,0,0,0,0,0,0,0,0,0,0,0,0,0,0,0,0,0,0,0,0,0,0,0,0,0,0,0,0,0,0,0,0,0,0,0,0,0],"id":0,"left_children":[1,3,5,7,9,11,13,15,17,19,21,23,25,27,29,31,33,35,37,-1,-1,39,41,-1,43,-1,45,47,49,51,53,55,57,59,61,63,65,67,69,-1,71,-1,73,75,77,-1,-1,79,81,-1,83,85,87,89,91,-1,-1,-1,-1,-1,-1,-1,-1,-1,-1,-1,-1,-1,-1,-1,-1,-1,-1,-1,-1,-1,-1,-1,-1,-1,-1,-1,-1,-1,-1,-1,-1,-1,-1,-1,-1,-1,-1],"loss_changes":[1.4014409E2,4.5017445E1,2.8650497E1,2.1231247E1,2.895918E0,1.8442879E1,3.0144081E1,2.9391708E1,1.4957567E1,5.82942E-1,2.9862652E0,5.2084503E0,3.352802E1,6.094271E0,1.0930092E1,3.6689599E0,7.573868E0,3.517006E0,8.80309E0,0E0,0E0,1.295083E0,2.4911138E-1,0E0,2.6799831E0,0E0,1.0968727E-1,1.5153402E0,5.72484E-1,4.374073E0,2.2455254E0,1.408867E0,9.996054E-1,2.1756172E0,2.9502563E0,2.3275032E0,2.4283137E0,2.942626E0,3.4852967E0,0E0,1.0672855E0,0E0,4.306269E-1,1.3129613E0,2.6923847E-1,0E0,0E0,1.051367E0,5.79957E-1,0E0,2.6764035E-1,5.393744E-1,1.0274315E0,2.0134354E-1,4.868555E-1,0E0,0E0,0E0,0E0,0E0,0E0,0E0,0E0,0E0,0E0,0E0,0E0,0E0,0E0,0E0,0E0,0E0,0E0,0E0,0E0,0E0,0E0,0E0,0E0,0E0,0E0,0E0,0E0,0E0,0E0,0E0,0E0,0E0,0E0,0E0,0E0,0E0,0E0],"parents":[2147483647,0,0,1,1,2,2,3,3,4,4,5,5,6,6,7,7,8,8,9,9,10,10,11,11,12,12,13,13,14,14,15,15,16,16,17,17,18,18,21,21,22,22,24,24,26,26,27,27,28,28,29,29,30,30,31,31,32,32,33,33,34,34,35,35,36,36,37,37,38,38,40,40,42,42,43,43,44,44,47,47,48,48,50,50,51,51,52,52,53,53,54,54],"right_children":[2,4,6,8,10,12,14,16,18,20,22,24,26,28,30,32,34,36,38,-1,-1,40,42,-1,44,-1,46,48,50,52,54,56,58,60,62,64,66,68,70,-1,72,-1,74,76,78,-1,-1,80,82,-1,84,86,88,90,92,-1,-1,-1,-1,-1,-1,-1,-1,-1,-1,-1,-1,-1,-1,-1,-1,-1,-1,-1,-1,-1,-1,-1,-1,-1,-1,-1,-1,-1,-1,-1,-1,-1,-1,-1,-1,-1,-1],"split_conditions":[1.3478029E0,1.4932605E0,-1.557259E0,-1.1636873E-1,-6.404605E-1,1E0,1.7995147E0,-8.740429E-1,-9.757327E-2,-8.722742E-2,1E0,-1.3694453E0,-8.722742E-2,3.246818E0,3.246818E0,2.3102846E0,-5.826298E-1,1E0,-1.557259E0,3.5139978E-2,6.2851477E-3,-8.992955E-2,-1.4277279E0,4.143638E-2,7.1014184E-1,1.0154976E-1,1E0,9.629826E-1,-5.38594E-1,4.3270466E-1,-1.3111627E0,-1.3985866E0,-1.3985866E0,1.7995147E0,7.1014184E-1,2.0418574E-1,1E0,1E0,1.7995147E0,-4.5519695E-3,1E0,-1.3552139E-2,1.5102131E0,-5.243472E-1,1E0,2.0375713E-3,-9.120336E-3,1E0,1.981806E0,2.3124138E-2,-4.077819E-1,3.7820446E-1,-1.4277279E0,1E0,2.0400887E0,-8.334005E-3,2.847762E-3,3.1008996E-2,-7.491493E-4,-2.4403933E-2,-1.3168898E-2,-3.8629673E-2,-2.6050929E-2,-2.5347289E-2,-1.53151415E-2,-7.720344E-3,2.6950141E-2,6.006182E-3,2.7169982E-2,-8.331256E-3,1.8277986E-3,1.943984E-2,5.8754734E-3,-5.5366457E-3,1.0477588E-2,-1.2523529E-2,1.1045847E-2,2.7846148E-2,1.5354531E-2,-7.7694166E-3,6.2384657E-3,-1.1666543E-3,6.898107E-3,4.7485037E-3,1.4756307E-2,7.638077E-3,-9.8913E-4,1.9458532E-2,1.3596321E-2,3.4263507E-2,5.532093E-2,2.3970207E-2,8.799168E-3],"split_indices":[5,4,1,2,1,11,7,2,4,2,18,2,2,5,5,3,2,43,1,0,0,3,2,0,3,0,46,4,1,4,2,2,2,7,3,2,31,31,7,0,29,0,3,2,46,0,0,43,2,0,2,1,2,14,2,0,0,0,0,0,0,0,0,0,0,0,0,0,0,0,0,0,0,0,0,0,0,0,0,0,0,0,0,0,0,0,0,0,0,0,0,0,0],"split_type":[0,0,0,0,0,0,0,0,0,0,0,0,0,0,0,0,0,0,0,0,0,0,0,0,0,0,0,0,0,0,0,0,0,0,0,0,0,0,0,0,0,0,0,0,0,0,0,0,0,0,0,0,0,0,0,0,0,0,0,0,0,0,0,0,0,0,0,0,0,0,0,0,0,0,0,0,0,0,0,0,0,0,0,0,0,0,0,0,0,0,0,0,0],"sum_hessian":[6.696E3,3.938E3,2.758E3,3.534E3,4.04E2,3.61E2,2.397E3,1.349E3,2.185E3,5.4E1,3.5E2,2.72E2,8.9E1,9.34E2,1.463E3,3.2E2,1.029E3,7.77E2,1.408E3,4.8E1,6E0,2.9E2,6E1,7.6E1,1.96E2,5.7E1,3.2E1,8.13E2,1.21E2,1.086E3,3.77E2,2.85E2,3.5E1,4.75E2,5.54E2,7.1E2,6.7E1,2.3E2,1.178E3,1.8E1,2.72E2,1.1E1,4.9E1,9.3E1,1.03E2,2.7E1,5E0,4.38E2,3.75E2,4.3E1,7.8E1,1.92E2,8.94E2,1.86E2,1.91E2,1.4E2,1.45E2,2.7E1,8E0,2.77E2,1.98E2,3.34E2,2.2E2,2.25E2,4.85E2,5.2E1,1.5E1,1.76E2,5.4E1,8.94E2,2.84E2,2.25E2,4.7E1,3.6E1,1.3E1,1.7E1,7.6E1,8E1,2.3E1,4.02E2,3.6E1,3.07E2,6.8E1,3E1,4.8E1,7.4E1,1.18E2,3.17E2,5.77E2,1.79E2,7E0,1.73E2,1.8E1],"tree_param":{"num_deleted":"0","num_feature":"525","num_nodes":"93","size_leaf_vector":"1"}},{"base_weights":[-1.9520358E-3,-1.7884734E-1,1.1950875E-1,-2.2343206E-1,9.470117E-2,3.7755933E-1,7.829841E-2,-2.9274756E-1,-8.089508E-2,2.8728604E-1,6.6791475E-2,7.235384E-1,2.694964E-1,-3.1941894E-2,2.0390497E-1,-1.09570526E-1,-3.1779632E-1,-1.7307432E-1,-2.5214398E-2,1.8247029E-1,3.082794E-2,2.8544264E-2,2.2964536E-1,4.0905657E-1,1.0715573E0,5.0362813E-1,1.9024462E-1,-1.2677401E-1,3.510995E-2,8.0531694E-2,2.4503225E-1,-1.8452702E-1,1.379873E-1,-3.9878768E-1,-2.5137416E-1,-2.0803855E-1,-6.539385E-2,-5.7509653E-2,1.1904796E-1,5.7721194E-2,2.6302917E-2,1.3292667E-2,2.1247625E-1,2.3395896E-3,2.49368E-1,4.215875E-2,2.7890956E-1,9.3166895E-2,1.4057826E-2,1.9614283E-2,4.1591067E-2,1.2961291E-1,3.3132595E-1,-1.7462742E-1,-2.1396691E-2,2.0057341E-1,3.077911E-3,5.480149E-2,2.0831493E-1,2.1146265E-1,3.6100474E-1,-1.6816378E-2,1.1492871E-2,3.4458893E-3,2.6271926E-2,-2.3301274E-2,-3.5869237E-2,3.9923884E-2,-2.084693E-2,-1.9345514E-2,-8.1344275E-3,5.524021E-3,-7.704786E-3,1.1890637E-2,-5.267424E-3,5.2818493E-3,4.1979168E-2,-6.285684E-3,1.1707844E-2,-4.8067558E-4,1.846181E-2,3.5298668E-2,-2.6104355E-3,6.7964527E-3,2.1488223E-2,3.770822E-3,2.6256375E-2,1.2906904E-2,2.0828532E-4,1.8068507E-2,3.2911535E-2,3.464413E-3,-1.5125277E-2,-2.979929E-3,1.3286293E-2,1.2191102E-2,4.157056E-2,-8.336537E-3,2.397187E-3,2.7817055E-3,1.0462489E-2,1.9156197E-2,6.3305963E-3,1.7353449E-2,5.0298665E-3,3.1041326E-2,1.3289776E-2],"categories":[],"categories_nodes":[],"categories_segments":[],"categories_sizes":[],"default_left":[0,0,0,0,0,0,0,0,0,0,0,0,0,0,0,0,0,0,0,0,0,0,0,0,0,0,0,0,0,0,0,0,0,0,0,0,0,0,0,0,0,0,0,0,0,0,0,0,0,0,0,0,0,0,0,0,0,0,0,0,0,0,0,0,0,0,0,0,0,0,0,0,0,0,0,0,0,0,0,0,0,0,0,0,0,0,0,0,0,0,0,0,0,0,0,0,0,0,0,0,0,0,0,0,0,0,0],"id":1,"left_children":[1,3,5,7,9,11,13,15,17,19,21,23,25,27,29,31,33,35,37,39,-1,41,43,45,47,49,51,53,55,57,59,61,63,65,67,69,71,73,75,77,-1,79,81,-1,83,-1,85,-1,-1,-1,-1,87,89,91,93,95,97,99,101,103,105,-1,-1,-1,-1,-1,-1,-1,-1,-1,-1,-1,-1,-1,-1,-1,-1,-1,-1,-1,-1,-1,-1,-1,-1,-1,-1,-1,-1,-1,-1,-1,-1,-1,-1,-1,-1,-1,-1,-1,-1,-1,-1,-1,-1,-1,-1],"loss_changes":[1.4408383E2,3.333763E1,4.2223053E1,2.3150932E1,2.0256178E0,2.006099E1,4.7521763E1,7.1753693E0,3.9485087E0,3.5274148E-1,2.092193E0,1.3241829E1,7.6016273E0,1.1638906E1,8.099243E0,3.632246E0,7.2664185E0,1.0646315E0,2.2639847E0,4.5487005E-1,0E0,7.686021E-1,2.383697E-1,7.95743E-1,4.591011E0,1.8632507E-1,2.6257296E0,3.814868E0,5.6858068E0,1.305475E0,4.526886E0,1.3160362E0,8.030528E-1,3.0545044E0,5.5694656E0,7.340574E-1,3.2087916E-1,6.9982827E-1,1.8452547E0,2.2834307E-1,0E0,1.0815576E0,1.2062631E0,0E0,1.3778305E-1,0E0,4.0322328E-1,0E0,0E0,0E0,0E0,9.0572286E-1,6.0797596E-1,1.6557684E0,7.226659E-1,2.5166554E0,2.605228E0,5.06824E-1,2.3160553E-1,7.3228073E-1,1.2766075E0,0E0,0E0,0E0,0E0,0E0,0E0,0E0,0E0,0E0,0E0,0E0,0E0,0E0,0E0,0E0,0E0,0E0,0E0,0E0,0E0,0E0,0E0,0E0,0E0,0E0,0E0,0E0,0E0,0E0,0E0,0E0,0E0,0E0,0E0,0E0,0E0,0E0,0E0,0E0,0E0,0E0,0E0,0E0,0E0,0E0,0E0],"parents":[2147483647,0,0,1,1,2,2,3,3,4,4,5,5,6,6,7,7,8,8,9,9,10,10,11,11,12,12,13,13,14,14,15,15,16,16,17,17,18,18,19,19,21,21,22,22,23,23,24,24,25,25,26,26,27,27,28,28,29,29,30,30,31,31,32,32,33,33,34,34,35,35,36,36,37,37,38,38,39,39,41,41,42,42,44,44,46,46,51,51,52,52,53,53,54,54,55,55,56,56,57,57,58,58,59,59,60,60],"right_children":[2,4,6,8,10,12,14,16,18,20,22,24,26,28,30,32,34,36,38,40,-1,42,44,46,48,50,52,54,56,58,60,62,64,66,68,70,72,74,76,78,-1,80,82,-1,84,-1,86,-1,-1,-1,-1,88,90,92,94,96,98,100,102,104,106,-1,-1,-1,-1,-1,-1,-1,-1,-1,-1,-1,-1,-1,-1,-1,-1,-1,-1,-1,-1,-1,-1,-1,-1,-1,-1,-1,-1,-1,-1,-1,-1,-1,-1,-1,-1,-1,-1,-1,-1,-1,-1,-1,-1,-1,-1],"split_conditions":[1.3860437E0,1.4932605E0,-1.557259E0,1.3115557E0,-6.404605E-1,-2.9118773E-1,9.629826E-1,-8.449016E-1,-9.757327E-2,1E0,3.246818E0,1E0,-1.2820214E0,-9.757327E-2,1.7995147E0,2.2648148E-1,-1.1636873E-1,1.3478029E0,1.7995147E0,-6.575991E-2,3.082794E-2,1E0,1.7995147E0,-3.1925306E-1,-8.722742E-2,-2.550348E-1,1E0,1.3478029E0,-9.906082E-1,3.246818E0,3.246818E0,1E0,5.1817966E-1,-5.826298E-1,-3.373597E-1,1E0,1.6612515E0,-2.7398643E-1,1E0,-1.4277279E0,2.6302917E-2,7.5205725E-1,1.5453771E-1,2.3395896E-3,2.0235386E0,4.215875E-2,-6.278512E-1,9.3166895E-2,1.4057826E-2,1.9614283E-2,4.1591067E-2,1E0,1E0,-9.323256E-1,3.246818E0,3.246818E0,-2.32934E-1,1E0,1E0,1E0,1.8943821E0,-1.6816378E-2,1.1492871E-2,3.4458893E-3,2.6271926E-2,-2.3301274E-2,-3.5869237E-2,3.9923884E-2,-2.084693E-2,-1.9345514E-2,-8.1344275E-3,5.524021E-3,-7.704786E-3,1.1890637E-2,-5.267424E-3,5.2818493E-3,4.1979168E-2,-6.285684E-3,1.1707844E-2,-4.8067558E-4,1.846181E-2,3.5298668E-2,-2.6104355E-3,6.7964527E-3,2.1488223E-2,3.770822E-3,2.6256375E-2,1.2906904E-2,2.0828532E-4,1.8068507E-2,3.2911535E-2,3.464413E-3,-1.5125277E-2,-2.979929E-3,1.3286293E-2,1.2191102E-2,4.157056E-2,-8.336537E-3,2.397187E-3,2.7817055E-3,1.0462489E-2,1.9156197E-2,6.3305963E-3,1.7353449E-2,5.0298665E-3,3.1041326E-2,1.3289776E-2],"split_indices":[6,4,1,2,1,0,4,2,4,21,5,11,2,4,7,0,2,5,7,0,0,31,7,0,2,0,43,5,2,5,5,31,0,2,0,21,2,0,43,2,0,0,0,0,4,0,4,0,0,0,0,46,16,2,5,5,2,21,29,32,2,0,0,0,0,0,0,0,0,0,0,0,0,0,0,0,0,0,0,0,0,0,0,0,0,0,0,0,0,0,0,0,0,0,0,0,0,0,0,0,0,0,0,0,0,0,0],"split_type":[0,0,0,0,0,0,0,0,0,0,0,0,0,0,0,0,0,0,0,0,0,0,0,0,0,0,0,0,0,0,0,0,0,0,0,0,0,0,0,0,0,0,0,0,0,0,0,0,0,0,0,0,0,0,0,0,0,0,0,0,0,0,0,0,0,0,0,0,0,0,0,0,0,0,0,0,0,0,0,0,0,0,0,0,0,0,0,0,0,0,0,0,0,0,0,0,0,0,0,0,0,0,0,0,0,0,0],"sum_hessian":[6.702E3,2.728E3,3.974E3,2.346E3,3.82E2,5.45E2,3.429E3,1.577E3,7.69E2,4.6E1,3.36E2,1.27E2,4.18E2,1.827E3,1.602E3,1.91E2,1.386E3,2.88E2,4.81E2,2.5E1,2.1E1,2.74E2,6.2E1,6.9E1,5.8E1,1.03E2,3.15E2,7.56E2,1.071E3,4.02E2,1.2E3,1.47E2,4.4E1,6.2E2,7.66E2,2.16E2,7.2E1,3.94E2,8.7E1,1.5E1,1E1,2.55E2,1.9E1,6E0,5.6E1,3.3E1,3.6E1,5.2E1,6E0,8E0,9.5E1,2.23E2,9.2E1,5.19E2,2.37E2,1.72E2,8.99E2,3.37E2,6.5E1,9.35E2,2.65E2,1.37E2,1E1,3.1E1,1.3E1,2E2,4.2E2,8E0,7.58E2,1.62E2,5.4E1,1.3E1,5.9E1,1.4E1,3.8E2,7.9E1,8E0,6E0,9E0,2.36E2,1.9E1,9E0,1E1,7E0,4.9E1,7E0,2.9E1,1.78E2,4.5E1,4.3E1,4.9E1,3.2E1,4.87E2,2.2E2,1.7E1,1.52E2,2E1,1.79E2,7.2E2,2.69E2,6.8E1,5.1E1,1.4E1,9.01E2,3.4E1,2.31E2,3.4E1],"tree_param":{"num_deleted":"0","num_feature":"525","num_nodes":"107","size_leaf_vector":"1"}},{"base_weights":[-2.8125448E-3,-1.698253E-1,1.110053E-1,-2.1052015E-1,8.976836E-2,5.961875E-1,8.825375E-2,-2.7179697E-1,-8.646469E-2,6.8294466E-2,3.2500714E-1,3.4657055E-1,1.0017135E0,-7.95806E-3,2.0096344E-1,-6.987537E-2,-2.9266527E-1,-2.9500376E-2,-1.9294634E-1,9.255906E-2,-1.2750109E-1,4.910634E-1,3.230845E-2,2.6237807E-1,5.030484E-1,8.735319E-2,1.502327E-2,-9.461045E-2,5.5021875E-2,9.241372E-2,2.3697667E-1,-1.9123414E-1,9.993359E-2,-3.680426E-1,-2.2872588E-1,-5.1030677E-2,8.09372E-2,-2.1015546E-1,4.1462135E-2,6.133043E-2,1.5662558E-2,-1.6709555E-2,-5.010435E-3,5.483684E-2,9.819363E-3,-4.34716E-3,9.768295E-3,3.3748114E-1,1.2916182E-1,5.3258922E-2,3.461307E-1,9.5843166E-2,-1.11551985E-1,-4.354827E-3,1.2940131E-1,2.2804338E-1,7.401492E-2,3.8298512E-1,2.2023793E-1,-3.3706129E-3,-2.211616E-2,1.9444728E-2,3.269366E-3,-2.1511873E-2,-3.3336278E-2,-7.458655E-3,-2.2694087E-2,-7.664573E-3,7.915895E-4,2.6149263E-3,3.7632063E-2,-2.0455146E-2,-1.218047E-2,-3.974775E-3,7.854799E-3,1.7874118E-2,3.3234723E-3,2.9972523E-2,9.7026555E-3,2.0506626E-3,2.731561E-2,3.7625734E-2,1.4259362E-2,4.38457E-3,2.3077533E-2,-1.5948027E-2,-3.0185366E-3,1.291442E-2,-2.1796948E-3,1.206884E-2,-9.883307E-3,2.7849087E-2,5.1163933E-3,4.021653E-3,1.4381355E-2,3.6524113E-2,1.9643655E-2,1.5247422E-2,2.5976576E-2],"categories":[],"categories_nodes":[],"categories_segments":[],"categories_sizes":[],"default_left":[0,0,0,0,0,0,0,0,0,0,0,0,0,0,0,0,0,0,0,0,0,0,0,0,0,0,0,0,0,0,0,0,0,0,0,0,0,0,0,0,0,0,0,0,0,0,0,0,0,0,0,0,0,0,0,0,0,0,0,0,0,0,0,0,0,0,0,0,0,0,0,0,0,0,0,0,0,0,0,0,0,0,0,0,0,0,0,0,0,0,0,0,0,0,0,0,0,0,0],"id":2,"left_children":[1,3,5,7,9,11,13,15,17,19,21,23,25,27,29,31,33,35,37,39,41,43,45,47,49,-1,-1,51,53,55,57,59,61,63,65,67,69,71,73,75,-1,-1,-1,-1,-1,-1,-1,77,79,-1,81,83,85,87,89,91,93,95,97,-1,-1,-1,-1,-1,-1,-1,-1,-1,-1,-1,-1,-1,-1,-1,-1,-1,-1,-1,-1,-1,-1,-1,-1,-1,-1,-1,-1,-1,-1,-1,-1,-1,-1,-1,-1,-1,-1,-1,-1],"loss_changes":[1.2583947E2,2.8381332E1,4.3353928E1,1.7589012E1,1.799402E0,1.7121475E1,4.0809177E1,6.4988403E0,4.65917E0,1.6246558E0,1.4264028E0,1.2115393E0,4.4354095E0,1.1099771E1,6.7308884E0,3.0881767E0,6.607971E0,1.2066486E0,1.0985279E0,9.462619E-1,1.7441672E-1,1.1921415E0,1.1441756E-1,6.832018E-1,4.8369598E-1,0E0,0E0,2.7833319E0,5.2036533E0,1.0517519E0,3.0084991E0,1.0821364E0,5.1273096E-1,2.8731918E0,5.650242E0,1.1558535E0,1.5289729E0,5.8123684E-1,1.1315874E-1,7.319674E-1,0E0,0E0,0E0,0E0,0E0,0E0,0E0,2.94909E-1,6.637941E-1,0E0,3.1189346E-1,5.296069E-1,5.08574E0,2.502142E0,2.87609E0,9.602816E-1,9.5117307E-1,1.1003189E0,3.5028229E0,0E0,0E0,0E0,0E0,0E0,0E0,0E0,0E0,0E0,0E0,0E0,0E0,0E0,0E0,0E0,0E0,0E0,0E0,0E0,0E0,0E0,0E0,0E0,0E0,0E0,0E0,0E0,0E0,0E0,0E0,0E0,0E0,0E0,0E0,0E0,0E0,0E0,0E0,0E0,0E0],"parents":[2147483647,0,0,1,1,2,2,3,3,4,4,5,5,6,6,7,7,8,8,9,9,10,10,11,11,12,12,13,13,14,14,15,15,16,16,17,17,18,18,19,19,20,20,21,21,22,22,23,23,24,24,27,27,28,28,29,29,30,30,31,31,32,32,33,33,34,34,35,35,36,36,37,37,38,38,39,39,47,47,48,48,50,50,51,51,52,52,53,53,54,54,55,55,56,56,57,57,58,58],"right_children":[2,4,6,8,10,12,14,16,18,20,22,24,26,28,30,32,34,36,38,40,42,44,46,48,50,-1,-1,52,54,56,58,60,62,64,66,68,70,72,74,76,-1,-1,-1,-1,-1,-1,-1,78,80,-1,82,84,86,88,90,92,94,96,98,-1,-1,-1,-1,-1,-1,-1,-1,-1,-1,-1,-1,-1,-1,-1,-1,-1,-1,-1,-1,-1,-1,-1,-1,-1,-1,-1,-1,-1,-1,-1,-1,-1,-1,-1,-1,-1,-1,-1,-1],"split_conditions":[1.3860437E0,1.4932605E0,-2.9118773E-1,1.3115557E0,1E0,1E0,9.629826E-1,-1.1363147E0,1E0,1E0,1.5453771E-1,1E0,-8.722742E-2,-9.757327E-2,1.7995147E0,5.1933337E-2,-1.1636873E-1,1.7995147E0,1.7995147E0,3.246818E0,-1.340304E0,1.3478029E0,-1.3694453E0,-1.557259E0,-3.373597E-1,8.735319E-2,1.502327E-2,-9.906082E-1,1.7995147E0,-6.404605E-1,-1.557259E0,7.1014184E-1,-8.992955E-2,-5.826298E-1,-8.722742E-2,1.9526647E0,1E0,-6.278512E-1,1E0,-6.404605E-1,1.5662558E-2,-1.6709555E-2,-5.010435E-3,5.483684E-2,9.819363E-3,-4.34716E-3,9.768295E-3,1E0,1.5102131E0,5.3258922E-2,-8.992955E-2,5.7099074E-1,-1.1636873E-1,-1.557259E0,1E0,-8.722742E-2,3.246818E0,-1.2820214E0,3.246818E0,-3.3706129E-3,-2.211616E-2,1.9444728E-2,3.269366E-3,-2.1511873E-2,-3.3336278E-2,-7.458655E-3,-2.2694087E-2,-7.664573E-3,7.915895E-4,2.6149263E-3,3.7632063E-2,-2.0455146E-2,-1.218047E-2,-3.974775E-3,7.854799E-3,1.7874118E-2,3.3234723E-3,2.9972523E-2,9.7026555E-3,2.0506626E-3,2.731561E-2,3.7625734E-2,1.4259362E-2,4.38457E-3,2.3077533E-2,-1.5948027E-2,-3.0185366E-3,1.291442E-2,-2.1796948E-3,1.206884E-2,-9.883307E-3,2.7849087E-2,5.1163933E-3,4.021653E-3,1.4381355E-2,3.6524113E-2,1.9643655E-2,1.5247422E-2,2.5976576E-2],"split_indices":[6,4,0,2,31,11,4,2,18,18,0,65,2,4,7,0,2,7,7,5,2,5,2,1,0,0,0,2,7,1,1,3,3,2,2,2,43,4,14,1,0,0,0,0,0,0,0,73,3,0,3,0,2,1,18,2,5,2,5,0,0,0,0,0,0,0,0,0,0,0,0,0,0,0,0,0,0,0,0,0,0,0,0,0,0,0,0,0,0,0,0,0,0,0,0,0,0,0,0],"split_type":[0,0,0,0,0,0,0,0,0,0,0,0,0,0,0,0,0,0,0,0,0,0,0,0,0,0,0,0,0,0,0,0,0,0,0,0,0,0,0,0,0,0,0,0,0,0,0,0,0,0,0,0,0,0,0,0,0,0,0,0,0,0,0,0,0,0,0,0,0,0,0,0,0,0,0,0,0,0,0,0,0,0,0,0,0,0,0,0,0,0,0,0,0,0,0,0,0,0,0],"sum_hessian":[6.616E3,2.681E3,3.935E3,2.318E3,3.63E2,1.74E2,3.761E3,1.55E3,7.68E2,3.35E2,2.8E1,1.1E2,6.4E1,2.03E3,1.731E3,1.46E2,1.404E3,5.02E2,2.66E2,2.99E2,3.6E1,1.7E1,1.1E1,7.5E1,3.5E1,5.7E1,7E0,8.54E2,1.176E3,4.33E2,1.298E3,8.5E1,6.1E1,6.4E2,7.64E2,4.21E2,8.1E1,2.48E2,1.8E1,2.32E2,6.7E1,1.4E1,2.2E1,1E1,7E0,6E0,5E0,4.6E1,2.9E1,1.4E1,2.1E1,6.9E1,7.85E2,6.55E2,5.21E2,4.9E1,3.84E2,1.29E2,1.169E3,3.2E1,5.3E1,1.6E1,4.5E1,2.15E2,4.25E2,2.22E2,5.42E2,2.42E2,1.79E2,7.4E1,7E0,1.35E2,1.13E2,7E0,1.1E1,2.3E1,2.09E2,3.8E1,8E0,2.1E1,8E0,1E1,1.1E1,5.9E1,1E1,3.57E2,4.28E2,7.8E1,5.77E2,4.81E2,4E1,2.7E1,2.2E1,3.16E2,6.8E1,8.1E1,4.8E1,9.15E2,2.54E2],"tree_param":{"num_deleted":"0","num_feature":"525","num_nodes":"99","size_leaf_vector":"1"}},{"base_weights":[4.867088E-3,-1.4608677E-1,1.0651975E-1,-1.84012E-1,8.932306E-2,5.3952485E-1,8.6421706E-2,-2.4107617E-1,-6.485463E-2,7.0483215E-2,2.9383728E-1,3.2187665E-1,9.328441E-1,-6.8672496E-4,1.8836209E-1,-2.6098475E-1,-7.318239E-2,-1.2030944E-2,-1.6998728E-1,4.3057367E-2,1.5017793E-2,4.3625864E-1,-3.4983474E-4,4.445773E-1,2.2985715E-1,8.086434E-2,1.2312961E-2,-8.369679E-2,5.733953E-2,9.064968E-2,2.21439E-1,2.2755587E-1,-2.6695713E-1,-1.03518665E-1,1.4176893E-2,-3.707453E-2,1.0885784E-1,-1.8161309E-1,-1.3573208E-3,2.7116094E-2,1.83771E-2,2.1053897E-1,5.523454E-2,4.4690695E-2,2.8396812E-1,1.2295532E-4,2.588014E-1,-1.4139244E-1,-2.3109253E-2,-8.278274E-3,1.3474648E-1,2.194986E-1,7.041378E-2,3.5395536E-1,2.0580386E-1,4.160705E-2,-1.4444124E-2,-1.0977839E-2,-2.2459907E-2,-1.608247E-2,-3.2623287E-3,1.4671335E-2,-3.8308352E-3,4.240934E-3,3.8805246E-2,-1.743547E-2,-1.1805753E-2,1.5065091E-2,2.5242215E-4,2.4853839E-2,6.86964E-3,1.0510465E-2,3.142944E-2,2.2724953E-2,5.4486636E-3,4.780087E-3,-1.4909112E-2,8.386075E-3,-3.6495712E-3,1.2733211E-2,-2.633303E-3,1.2556232E-2,-8.186776E-3,2.6399871E-2,1.1052536E-2,6.645746E-3,-6.1428472E-3,1.1791975E-2,3.164681E-2,1.418239E-2,2.4207134E-2],"categories":[],"categories_nodes":[],"categories_segments":[],"categories_sizes":[],"default_left":[0,0,0,0,0,0,0,0,0,0,0,0,0,0,0,0,0,0,0,0,0,0,0,0,0,0,0,0,0,0,0,0,0,0,0,0,0,0,0,0,0,0,0,0,0,0,0,0,0,0,0,0,0,0,0,0,0,0,0,0,0,0,0,0,0,0,0,0,0,0,0,0,0,0,0,0,0,0,0,0,0,0,0,0,0,0,0,0,0,0,0],"id":3,"left_children":[1,3,5,7,9,11,13,15,17,19,21,23,25,27,29,31,33,35,37,39,-1,41,-1,43,45,-1,-1,47,49,51,53,55,57,59,-1,61,63,65,-1,67,-1,69,-1,-1,71,-1,73,75,77,79,81,83,85,87,89,-1,-1,-1,-1,-1,-1,-1,-1,-1,-1,-1,-1,-1,-1,-1,-1,-1,-1,-1,-1,-1,-1,-1,-1,-1,-1,-1,-1,-1,-1,-1,-1,-1,-1,-1,-1],"loss_changes":[1.0268825E2,2.4075897E1,3.470828E1,1.5743843E1,1.4034607E0,1.4551605E1,3.395687E1,5.202881E0,4.1832438E0,1.0963571E0,1.3204317E0,1.1166515E0,3.4538422E0,9.951398E0,5.654682E0,4.209259E0,1.3204145E0,1.533926E0,4.4214296E-1,8.296201E-1,0E0,9.140837E-1,0E0,5.620203E-1,4.6841264E-1,0E0,0E0,2.9647565E0,6.178627E0,1.1397996E0,2.5788727E0,2.336728E0,2.4010773E0,9.135206E-1,0E0,1.0162253E0,1.776421E0,2.2506952E-1,0E0,1.0146294E0,0E0,1.2141448E-1,0E0,0E0,2.955711E-1,0E0,2.6477718E-1,3.957158E0,1.2104702E0,2.733291E0,2.969841E0,4.4811296E-1,7.412901E-1,1.0528278E0,3.1531029E0,0E0,0E0,0E0,0E0,0E0,0E0,0E0,0E0,0E0,0E0,0E0,0E0,0E0,0E0,0E0,0E0,0E0,0E0,0E0,0E0,0E0,0E0,0E0,0E0,0E0,0E0,0E0,0E0,0E0,0E0,0E0,0E0,0E0,0E0,0E0,0E0],"parents":[2147483647,0,0,1,1,2,2,3,3,4,4,5,5,6,6,7,7,8,8,9,9,10,10,11,11,12,12,13,13,14,14,15,15,16,16,17,17,18,18,19,19,21,21,23,23,24,24,27,27,28,28,29,29,30,30,31,31,32,32,33,33,35,35,36,36,37,37,39,39,41,41,44,44,46,46,47,47,48,48,49,49,50,50,51,51,52,52,53,53,54,54],"right_children":[2,4,6,8,10,12,14,16,18,20,22,24,26,28,30,32,34,36,38,40,-1,42,-1,44,46,-1,-1,48,50,52,54,56,58,60,-1,62,64,66,-1,68,-1,70,-1,-1,72,-1,74,76,78,80,82,84,86,88,90,-1,-1,-1,-1,-1,-1,-1,-1,-1,-1,-1,-1,-1,-1,-1,-1,-1,-1,-1,-1,-1,-1,-1,-1,-1,-1,-1,-1,-1,-1,-1,-1,-1,-1,-1,-1],"split_conditions":[1.3860437E0,1.4932605E0,-2.9118773E-1,1.428121E0,1E0,1E0,9.629826E-1,1.3478029E0,1E0,3.246818E0,1.5453771E-1,-3.373597E-1,-8.722742E-2,-9.757327E-2,1.7995147E0,-3.373597E-1,3.246818E0,1.7995147E0,1.7995147E0,7.5205725E-1,1.5017793E-2,1E0,-3.4983474E-4,-6.404605E-1,-6.278512E-1,8.086434E-2,1.2312961E-2,-1.1636873E-1,1.7995147E0,-1.3985866E0,-1.557259E0,1E0,-1.0197495E0,-4.369232E-1,1.4176893E-2,-2.7096865E-1,1E0,1.9235234E0,-1.3573208E-3,-6.404605E-1,1.83771E-2,1.3478029E0,5.523454E-2,4.4690695E-2,1.7995147E0,1.2295532E-4,1E0,-8.740429E-1,-6.404605E-1,-1.557259E0,1E0,1E0,1E0,-2.5889754E-1,3.246818E0,4.160705E-2,-1.4444124E-2,-1.0977839E-2,-2.2459907E-2,-1.608247E-2,-3.2623287E-3,1.4671335E-2,-3.8308352E-3,4.240934E-3,3.8805246E-2,-1.743547E-2,-1.1805753E-2,1.5065091E-2,2.5242215E-4,2.4853839E-2,6.86964E-3,1.0510465E-2,3.142944E-2,2.2724953E-2,5.4486636E-3,4.780087E-3,-1.4909112E-2,8.386075E-3,-3.6495712E-3,1.2733211E-2,-2.633303E-3,1.2556232E-2,-8.186776E-3,2.6399871E-2,1.1052536E-2,6.645746E-3,-6.1428472E-3,1.1791975E-2,3.164681E-2,1.418239E-2,2.4207134E-2],"split_indices":[6,4,0,2,31,11,4,5,18,5,0,0,2,4,7,0,5,7,7,0,0,65,0,1,4,0,0,2,7,2,1,16,2,2,0,0,43,2,0,1,0,5,0,0,7,0,18,2,1,1,18,20,18,0,5,0,0,0,0,0,0,0,0,0,0,0,0,0,0,0,0,0,0,0,0,0,0,0,0,0,0,0,0,0,0,0,0,0,0,0,0],"split_type":[0,0,0,0,0,0,0,0,0,0,0,0,0,0,0,0,0,0,0,0,0,0,0,0,0,0,0,0,0,0,0,0,0,0,0,0,0,0,0,0,0,0,0,0,0,0,0,0,0,0,0,0,0,0,0,0,0,0,0,0,0,0,0,0,0,0,0,0,0,0,0,0,0,0,0,0,0,0,0,0,0,0,0,0,0,0,0,0,0,0,0],"sum_hessian":[6.688E3,2.691E3,3.997E3,2.318E3,3.73E2,1.75E2,3.822E3,1.566E3,7.52E2,3.44E2,2.9E1,1.15E2,6E1,2.062E3,1.76E3,1.399E3,1.67E2,5.02E2,2.5E2,2.81E2,6.3E1,1.9E1,1E1,4.6E1,6.9E1,5.4E1,6E0,8.48E2,1.214E3,4.47E2,1.313E3,1.6E1,1.383E3,1.5E2,1.7E1,4.17E2,8.5E1,2.32E2,1.8E1,2.61E2,2E1,1.2E1,7E0,2.4E1,2.2E1,8E0,6.1E1,4.33E2,4.15E2,6.58E2,5.56E2,5.8E1,3.89E2,1.34E2,1.179E3,9E0,7E0,1.35E2,1.248E3,5.7E1,9.3E1,1.8E1,3.99E2,7.6E1,9E0,1.07E2,1.25E2,3.2E1,2.29E2,5E0,7E0,1.1E1,1.1E1,5.3E1,8E0,7.9E1,3.54E2,6.1E1,3.54E2,8.3E1,5.75E2,5.09E2,4.7E1,2.2E1,3.6E1,3.59E2,3E1,2.4E1,1.1E2,9.15E2,2.64E2],"tree_param":{"num_deleted":"0","num_feature":"525","num_nodes":"91","size_leaf_vector":"1"}},{"base_weights":[-6.204381E-4,-1.381936E-1,9.440824E-2,-1.7353067E-1,8.011906E-2,3.0805916E-1,6.1502885E-2,-2.2215007E-1,-7.459151E-2,1.0098806E-1,-1.0283855E-1,5.643316E-1,2.2787623E-1,-2.5602676E-2,1.6471618E-1,-2.4358645E-1,-4.5984443E-2,-1.5210442E-1,-2.2095326E-2,1.531157E-1,4.6139162E-2,-1.4823617E-2,-3.8540926E-2,3.1797507E-1,8.521225E-1,3.9175367E-1,1.742537E-1,1.01512885E-2,-1.5927579E-1,6.8735205E-2,1.9708456E-1,2.1741305E-1,-2.4855316E-1,-8.3105825E-2,1.4433807E-2,-1.0263844E-1,-1.904406E-1,-4.9286146E-2,1.0423559E-1,1.2512463E-1,3.4646687E-1,1.8094003E-1,2.9784005E-2,3.927917E-3,-7.5180586E-3,3.8082745E-2,2.4495323E-1,7.44983E-2,1.1574187E-2,3.7360138E-3,3.274405E-2,1.2316868E-1,2.8450045E-1,-5.931278E-3,2.534642E-1,-1.7364517E-1,7.552516E-2,1.17621385E-1,3.3825886E-2,1.7115015E-1,2.8309402E-1,3.9785944E-2,-1.49463415E-2,-9.874324E-3,-2.1010084E-2,8.608355E-3,-8.471199E-3,-7.2322576E-4,-1.0576874E-2,-1.6609827E-2,-8.355388E-3,-7.2142254E-3,-1.15786184E-4,4.2098346E-3,3.7638668E-2,6.658983E-3,2.209644E-2,4.2672675E-2,9.388739E-3,4.858197E-3,2.3012608E-2,3.3154024E-3,-7.4177305E-3,1.6289786E-2,3.619793E-2,7.0810593E-3,1.41437305E-2,-5.521064E-3,2.510846E-2,8.054616E-3,-1.9702853E-3,3.8664386E-2,1.4008489E-2,-1.5001907E-2,-1.2265163E-3,-6.6424813E-4,1.4088364E-2,3.5080188E-3,1.3578467E-2,3.882E-3,-1.1901746E-2,3.725309E-2,1.3451619E-2,2.6156075E-2,1.6702699E-2],"categories":[],"categories_nodes":[],"categories_segments":[],"categories_sizes":[],"default_left":[0,0,0,0,0,0,0,0,0,0,0,0,0,0,0,0,0,0,0,0,0,0,0,0,0,0,0,0,0,0,0,0,0,0,0,0,0,0,0,0,0,0,0,0,0,0,0,0,0,0,0,0,0,0,0,0,0,0,0,0,0,0,0,0,0,0,0,0,0,0,0,0,0,0,0,0,0,0,0,0,0,0,0,0,0,0,0,0,0,0,0,0,0,0,0,0,0,0,0,0,0,0,0,0,0],"id":4,"left_children":[1,3,5,7,9,11,13,15,17,19,21,23,25,27,29,31,33,35,37,39,41,-1,43,45,47,49,51,53,55,57,59,61,63,65,-1,67,69,71,73,75,77,79,81,-1,-1,-1,83,-1,-1,-1,-1,85,87,89,91,93,95,97,99,101,103,-1,-1,-1,-1,-1,-1,-1,-1,-1,-1,-1,-1,-1,-1,-1,-1,-1,-1,-1,-1,-1,-1,-1,-1,-1,-1,-1,-1,-1,-1,-1,-1,-1,-1,-1,-1,-1,-1,-1,-1,-1,-1,-1,-1],"loss_changes":[8.71995E1,2.1049892E1,2.7696472E1,1.1251968E1,1.4754834E0,1.0551403E1,3.0764774E1,5.9140244E0,3.1509252E0,9.66557E-1,1.9778785E-1,8.249596E0,3.4136295E0,8.878475E0,4.83807E0,3.3158798E0,1.4839742E0,5.544596E-1,1.6075689E0,8.60415E-1,3.6401892E-1,0E0,1.3068575E-1,5.747123E-1,2.8644943E0,5.551262E-1,1.6645603E0,5.743519E0,1.348814E0,6.712631E-1,2.512909E0,1.9962611E0,2.3774796E0,6.745647E-1,0E0,3.8788748E-1,2.1374035E-1,7.5092334E-1,1.5194342E0,9.4124556E-1,7.742238E-1,1.959809E-1,2.2763349E-1,0E0,0E0,0E0,2.6173806E-1,0E0,0E0,0E0,0E0,3.6642098E-1,1.0395613E0,2.7518542E0,1.4696383E0,8.07209E-1,2.0527795E-1,6.1940336E-1,6.4518416E-1,6.434307E-1,7.368927E-1,0E0,0E0,0E0,0E0,0E0,0E0,0E0,0E0,0E0,0E0,0E0,0E0,0E0,0E0,0E0,0E0,0E0,0E0,0E0,0E0,0E0,0E0,0E0,0E0,0E0,0E0,0E0,0E0,0E0,0E0,0E0,0E0,0E0,0E0,0E0,0E0,0E0,0E0,0E0,0E0,0E0,0E0,0E0,0E0],"parents":[2147483647,0,0,1,1,2,2,3,3,4,4,5,5,6,6,7,7,8,8,9,9,10,10,11,11,12,12,13,13,14,14,15,15,16,16,17,17,18,18,19,19,20,20,22,22,23,23,24,24,25,25,26,26,27,27,28,28,29,29,30,30,31,31,32,32,33,33,35,35,36,36,37,37,38,38,39,39,40,40,41,41,42,42,46,46,51,51,52,52,53,53,54,54,55,55,56,56,57,57,58,58,59,59,60,60],"right_children":[2,4,6,8,10,12,14,16,18,20,22,24,26,28,30,32,34,36,38,40,42,-1,44,46,48,50,52,54,56,58,60,62,64,66,-1,68,70,72,74,76,78,80,82,-1,-1,-1,84,-1,-1,-1,-1,86,88,90,92,94,96,98,100,102,104,-1,-1,-1,-1,-1,-1,-1,-1,-1,-1,-1,-1,-1,-1,-1,-1,-1,-1,-1,-1,-1,-1,-1,-1,-1,-1,-1,-1,-1,-1,-1,-1,-1,-1,-1,-1,-1,-1,-1,-1,-1,-1,-1,-1],"split_conditions":[1.3860437E0,1.4932605E0,-1.557259E0,1.3115557E0,1E0,-2.9118773E-1,9.629826E-1,1.3478029E0,-9.757327E-2,1E0,-1.3694453E0,1E0,-1.2820214E0,1E0,1.7995147E0,-3.373597E-1,3.246818E0,1E0,1.7995147E0,1E0,-6.404605E-1,-1.4823617E-2,-6.274214E-2,-3.373597E-1,-8.722742E-2,-2.7096865E-1,1E0,3.246818E0,1E0,-5.38594E-1,3.246818E0,1E0,-8.449016E-1,-1.340304E0,1.4433807E-2,-6.404605E-1,-6.278512E-1,1.981806E0,1E0,1E0,-2.6528826E-2,-1.2007987E-1,1E0,3.927917E-3,-7.5180586E-3,3.8082745E-2,1E0,7.44983E-2,1.1574187E-2,3.7360138E-3,3.274405E-2,4.3270466E-1,-6.278512E-1,-9.906082E-1,-1.3111627E0,4.3270466E-1,1E0,-1.0462886E-1,1E0,-3.0416417E-1,-1.2237388E0,3.9785944E-2,-1.49463415E-2,-9.874324E-3,-2.1010084E-2,8.608355E-3,-8.471199E-3,-7.2322576E-4,-1.0576874E-2,-1.6609827E-2,-8.355388E-3,-7.2142254E-3,-1.15786184E-4,4.2098346E-3,3.7638668E-2,6.658983E-3,2.209644E-2,4.2672675E-2,9.388739E-3,4.858197E-3,2.3012608E-2,3.3154024E-3,-7.4177305E-3,1.6289786E-2,3.619793E-2,7.0810593E-3,1.41437305E-2,-5.521064E-3,2.510846E-2,8.054616E-3,-1.9702853E-3,3.8664386E-2,1.4008489E-2,-1.5001907E-2,-1.2265163E-3,-6.6424813E-4,1.4088364E-2,3.5080188E-3,1.3578467E-2,3.882E-3,-1.1901746E-2,3.725309E-2,1.3451619E-2,2.6156075E-2,1.6702699E-2],"split_indices":[6,4,1,2,18,0,4,5,4,20,2,11,2,18,7,0,5,18,7,31,1,0,0,0,2,0,43,5,43,1,5,16,2,2,0,1,4,2,43,35,0,0,36,0,0,0,9,0,0,0,0,4,4,2,2,4,16,0,18,0,2,0,0,0,0,0,0,0,0,0,0,0,0,0,0,0,0,0,0,0,0,0,0,0,0,0,0,0,0,0,0,0,0,0,0,0,0,0,0,0,0,0,0,0,0],"split_type":[0,0,0,0,0,0,0,0,0,0,0,0,0,0,0,0,0,0,0,0,0,0,0,0,0,0,0,0,0,0,0,0,0,0,0,0,0,0,0,0,0,0,0,0,0,0,0,0,0,0,0,0,0,0,0,0,0,0,0,0,0,0,0,0,0,0,0,0,0,0,0,0,0,0,0,0,0,0,0,0,0,0,0,0,0,0,0,0,0,0,0,0,0,0,0,0,0,0,0,0,0,0,0,0,0],"sum_hessian":[6.666E3,2.723E3,3.943E3,2.344E3,3.79E2,5.24E2,3.419E3,1.57E3,7.74E2,3.41E2,3.8E1,1.22E2,4.02E2,1.855E3,1.564E3,1.399E3,1.71E2,3.11E2,4.63E2,1.73E2,1.68E2,1.5E1,2.3E1,6.8E1,5.4E1,9.6E1,3.06E2,1.465E3,3.9E2,3.96E2,1.168E3,1.4E1,1.385E3,1.48E2,2.3E1,1.39E2,1.72E2,3.82E2,8.1E1,1.54E2,1.9E1,1.6E1,1.52E2,9E0,1.4E1,1.8E1,5E1,4.8E1,6E0,5E0,9.1E1,2.12E2,9.4E1,1.376E3,8.9E1,3.68E2,2.2E1,1.63E2,2.33E2,9.02E2,2.66E2,8E0,6E0,1.42E2,1.243E3,1.5E1,1.33E2,3.4E1,1.05E2,1.41E2,3.1E1,2.05E2,1.77E2,7.3E1,8E0,1.23E2,3.1E1,9E0,1E1,9E0,7E0,1.4E2,1.2E1,4.5E1,5E0,1.32E2,8E1,7E0,8.7E1,2.04E2,1.172E3,2E1,6.9E1,3.38E2,3E1,1.3E1,9E0,6.9E1,9.4E1,2.17E2,1.6E1,6E0,8.96E2,1.63E2,1.03E2],"tree_param":{"num_deleted":"0","num_feature":"525","num_nodes":"105","size_leaf_vector":"1"}},{"base_weights":[2.377837E-4,-1.328282E-1,9.014712E-2,-1.8202688E-1,1.4357787E-2,4.6313655E-1,7.29619E-2,-2.251167E-1,-8.638616E-2,-6.1864536E-2,7.219586E-2,2.7430433E-1,8.127743E-1,-1.45306215E-2,1.5265566E-1,-2.4159047E-1,-3.228E-2,-1.5826124E-1,-5.2148066E-2,-2.3230638E-1,-1.8361129E-2,2.3318654E-1,4.883697E-2,5.22127E-1,2.2421017E-1,7.009243E-2,6.6046957E-3,-6.971717E-2,6.633396E-2,6.7006424E-2,1.9018927E-1,2.7286524E-1,-2.4692318E-1,1.06699936E-1,-1.10524684E-1,-1.8349133E-1,6.370106E-2,-7.007066E-2,7.1621865E-2,-7.628345E-4,-2.7738062E-1,-4.654665E-2,4.383547E-3,1.1150786E-1,2.8173697E-1,2.3605501E-2,1.5782444E-1,2.1484936E-2,5.0772585E-2,-1.0593644E-2,2.667785E-1,-1.09275326E-1,2.0360516E-3,2.3076245E-1,3.8762387E-2,4.5304164E-2,1.642375E-1,1.6715972E-1,2.8043544E-1,-2.275021E-3,4.0476155E-2,-2.0586355E-2,-4.5551127E-3,1.4181063E-3,1.5867967E-2,-1.8790772E-2,-4.0085185E-3,-6.238866E-3,-1.7299026E-2,1.5765343E-2,-6.4225197E-3,1.5545618E-2,-6.0938E-3,1.7451961E-3,2.570742E-2,-1.3250101E-2,-2.7442407E-2,-4.7430694E-3,6.0083144E-3,-9.295693E-3,2.054693E-2,2.8141962E-2,9.58942E-3,1.2657986E-3,2.5454007E-2,1.3819173E-2,-8.68127E-4,2.6694043E-2,1.4251094E-2,-1.2809217E-2,-4.1114143E-3,-1.853125E-3,1.3703951E-2,9.811029E-3,2.723504E-2,1.1110476E-2,6.656075E-4,2.1716754E-3,1.3983688E-2,1.962262E-2,5.6884806E-3,2.2218479E-2,1.2133617E-2,3.1145705E-2,1.6920403E-2],"categories":[],"categories_nodes":[],"categories_segments":[],"categories_sizes":[],"default_left":[0,0,0,0,0,0,0,0,0,0,0,0,0,0,0,0,0,0,0,0,0,0,0,0,0,0,0,0,0,0,0,0,0,0,0,0,0,0,0,0,0,0,0,0,0,0,0,0,0,0,0,0,0,0,0,0,0,0,0,0,0,0,0,0,0,0,0,0,0,0,0,0,0,0,0,0,0,0,0,0,0,0,0,0,0,0,0,0,0,0,0,0,0,0,0,0,0,0,0,0,0,0,0,0,0],"id":5,"left_children":[1,3,5,7,9,11,13,15,17,19,21,23,25,27,29,31,33,35,37,39,41,43,45,47,49,-1,-1,51,53,55,57,59,61,63,65,67,69,71,73,-1,75,77,-1,79,81,83,85,-1,-1,-1,87,89,91,93,95,97,99,101,103,-1,-1,-1,-1,-1,-1,-1,-1,-1,-1,-1,-1,-1,-1,-1,-1,-1,-1,-1,-1,-1,-1,-1,-1,-1,-1,-1,-1,-1,-1,-1,-1,-1,-1,-1,-1,-1,-1,-1,-1,-1,-1,-1,-1,-1,-1],"loss_changes":[7.936837E1,1.937585E1,2.5309246E1,8.223999E0,2.9714794E0,1.1042084E1,2.6409706E1,4.3714905E0,1.5239954E0,2.1491761E0,1.4175193E0,1.2059469E0,2.6322403E0,8.073235E0,6.346092E0,3.624405E0,1.230649E0,1.149003E0,9.57242E-1,5.871427E-1,4.8759145E-1,2.2073078E-1,9.1926986E-1,1.7271852E-1,1.5887704E0,0E0,0E0,3.0517526E0,3.3097374E0,1.2659702E0,2.7681046E0,1.0119926E0,2.4617462E0,3.272984E-1,5.174412E-1,5.9161663E-1,4.5409307E-1,6.329677E-1,6.7006034E-1,0E0,2.4586439E-1,2.72412E-1,0E0,6.2224984E-1,2.8978586E-1,6.227002E-1,1.6224706E-1,0E0,0E0,0E0,4.1479635E-1,2.0228662E0,1.6458708E0,1.161654E0,1.9208753E0,1.16383E0,7.953832E-1,1.8031445E0,1.9143486E0,0E0,0E0,0E0,0E0,0E0,0E0,0E0,0E0,0E0,0E0,0E0,0E0,0E0,0E0,0E0,0E0,0E0,0E0,0E0,0E0,0E0,0E0,0E0,0E0,0E0,0E0,0E0,0E0,0E0,0E0,0E0,0E0,0E0,0E0,0E0,0E0,0E0,0E0,0E0,0E0,0E0,0E0,0E0,0E0,0E0,0E0],"parents":[2147483647,0,0,1,1,2,2,3,3,4,4,5,5,6,6,7,7,8,8,9,9,10,10,11,11,12,12,13,13,14,14,15,15,16,16,17,17,18,18,19,19,20,20,21,21,22,22,23,23,24,24,27,27,28,28,29,29,30,30,31,31,32,32,33,33,34,34,35,35,36,36,37,37,38,38,40,40,41,41,43,43,44,44,45,45,46,46,50,50,51,51,52,52,53,53,54,54,55,55,56,56,57,57,58,58],"right_children":[2,4,6,8,10,12,14,16,18,20,22,24,26,28,30,32,34,36,38,40,42,44,46,48,50,-1,-1,52,54,56,58,60,62,64,66,68,70,72,74,-1,76,78,-1,80,82,84,86,-1,-1,-1,88,90,92,94,96,98,100,102,104,-1,-1,-1,-1,-1,-1,-1,-1,-1,-1,-1,-1,-1,-1,-1,-1,-1,-1,-1,-1,-1,-1,-1,-1,-1,-1,-1,-1,-1,-1,-1,-1,-1,-1,-1,-1,-1,-1,-1,-1,-1,-1,-1,-1,-1,-1],"split_conditions":[1.3860437E0,9.629826E-1,-2.9118773E-1,1.3115557E0,1.4932605E0,1E0,4.3270466E-1,1.3478029E0,-6.278512E-1,-1.7465137E-1,-6.404605E-1,-1.2528801E0,4.0817496E-1,1E0,1.7995147E0,-3.373597E-1,-8.157603E-1,1.3478029E0,1.7995147E0,-7.283364E-1,1.9526647E0,-1.4277279E0,3.246818E0,1E0,-2.32934E-1,7.009243E-2,6.6046957E-3,1.3478029E0,-1.557259E0,2.0235386E0,3.246818E0,-6.404605E-1,4.4017017E-1,3.246818E0,-5.243472E-1,-6.404605E-1,1.8652408E0,-3.0416417E-1,1E0,-7.628345E-4,-5.38594E-1,1E0,4.383547E-3,-6.575991E-2,1E0,1.428039E0,-8.722742E-2,2.1484936E-2,5.0772585E-2,-1.0593644E-2,-3.1925306E-1,-1.1636873E-1,3.246818E0,1E0,-9.906082E-1,3.246818E0,-5.38594E-1,-1.557259E0,-1.3985866E0,-2.275021E-3,4.0476155E-2,-2.0586355E-2,-4.5551127E-3,1.4181063E-3,1.5867967E-2,-1.8790772E-2,-4.0085185E-3,-6.238866E-3,-1.7299026E-2,1.5765343E-2,-6.4225197E-3,1.5545618E-2,-6.0938E-3,1.7451961E-3,2.570742E-2,-1.3250101E-2,-2.7442407E-2,-4.7430694E-3,6.0083144E-3,-9.295693E-3,2.054693E-2,2.8141962E-2,9.58942E-3,1.2657986E-3,2.5454007E-2,1.3819173E-2,-8.68127E-4,2.6694043E-2,1.4251094E-2,-1.2809217E-2,-4.1114143E-3,-1.853125E-3,1.3703951E-2,9.811029E-3,2.723504E-2,1.1110476E-2,6.656075E-4,2.1716754E-3,1.3983688E-2,1.962262E-2,5.6884806E-3,2.2218479E-2,1.2133617E-2,3.1145705E-2,1.6920403E-2],"split_indices":[6,4,0,2,4,11,4,5,4,2,1,2,2,16,7,0,2,5,7,2,2,2,5,20,2,0,0,5,1,4,5,1,0,5,2,1,2,0,43,0,1,43,0,0,20,0,2,0,0,0,0,2,5,43,2,5,1,1,2,0,0,0,0,0,0,0,0,0,0,0,0,0,0,0,0,0,0,0,0,0,0,0,0,0,0,0,0,0,0,0,0,0,0,0,0,0,0,0,0,0,0,0,0,0,0],"split_type":[0,0,0,0,0,0,0,0,0,0,0,0,0,0,0,0,0,0,0,0,0,0,0,0,0,0,0,0,0,0,0,0,0,0,0,0,0,0,0,0,0,0,0,0,0,0,0,0,0,0,0,0,0,0,0,0,0,0,0,0,0,0,0,0,0,0,0,0,0,0,0,0,0,0,0,0,0,0,0,0,0,0,0,0,0,0,0,0,0,0,0,0,0,0,0,0,0,0,0,0,0,0,0,0,0],"sum_hessian":[6.63E3,2.673E3,3.957E3,2.003E3,6.7E2,1.72E2,3.785E3,1.379E3,6.24E2,2.89E2,3.81E2,1.14E2,5.8E1,1.805E3,1.98E3,1.27E3,1.09E2,1.99E2,4.25E2,5.7E1,2.32E2,4.6E1,3.35E2,1.6E1,9.8E1,5.3E1,5E0,1.073E3,7.32E2,6.05E2,1.375E3,1.2E1,1.258E3,3.9E1,7E1,1.79E2,2E1,3.72E2,5.3E1,1E1,4.7E1,1.68E2,6.4E1,1.5E1,3.1E1,2.74E2,6.1E1,7E0,9E0,1E1,8.8E1,6.91E2,3.82E2,1.03E2,6.29E2,4.97E2,1.08E2,1.1E3,2.75E2,6E0,6E0,1.192E3,6.6E1,2.1E1,1.8E1,2.1E1,4.9E1,4.4E1,1.35E2,1E1,1E1,7E0,3.65E2,4.6E1,7E0,2E1,2.7E1,1.53E2,1.5E1,6E0,9E0,2E1,1.1E1,2.69E2,5E0,5.6E1,5E0,4.7E1,4.1E1,3.66E2,3.25E2,3.34E2,4.8E1,5.4E1,4.9E1,1.45E2,4.84E2,4.38E2,5.9E1,5.6E1,5.2E1,1.31E2,9.69E2,1.03E2,1.72E2],"tree_param":{"num_deleted":"0","num_feature":"525","num_nodes":"105","size_leaf_vector":"1"}},{"base_weights":[-2.2878683E-4,-1.17246814E-1,8.1627764E-2,-1.6006793E-1,1.34342415E-2,4.118117E-1,6.6405766E-2,-1.96499E-1,-7.7012666E-2,8.797004E-2,-3.6080714E-2,2.5078472E-1,7.2521794E-1,1.8278976E-1,1.4193582E-2,-6.0753267E-2,-2.1678053E-1,-3.1470954E-2,-1.524635E-1,1.0967556E-1,-1.369909E-1,-2.0433766E-1,-5.1957993E-3,3.719793E-1,1.7401983E-1,6.3907556E-2,1.1747281E-2,1.7232953E-1,3.3781195E-1,-8.344603E-2,5.3842783E-2,-1.0406511E-1,1.4289971E-2,-2.7922556E-1,-1.6330059E-1,-5.2788295E-2,9.903327E-2,-1.6428496E-1,-4.7991084E-4,9.217955E-2,2.9251948E-1,4.658527E-3,-1.5329575E-2,-2.4125151E-1,9.149778E-3,-3.7495833E-2,7.4389495E-2,4.2956352E-1,4.2065703E-3,1.06411316E-1,2.5127673E-1,7.7369146E-2,1.8312988E-1,3.734582E-1,1.6622867E-2,-1.294618E-1,6.633062E-2,1.4118647E-2,1.1983879E-1,4.429889E-3,-1.2273637E-2,-1.979203E-2,-3.203145E-2,-2.5573554E-3,-1.7162153E-2,2.0700896E-2,-4.70993E-3,2.0481676E-3,3.2116335E-2,-1.54116E-2,-9.785309E-3,6.473979E-3,2.8245224E-2,4.7001228E-2,1.0151506E-2,-2.1585537E-2,-5.610517E-3,1.8143615E-2,-3.5769169E-3,8.150172E-3,-3.3069565E-3,4.1429784E-2,1.4948735E-2,2.8299918E-2,3.2396908E-3,2.4020225E-2,-1.8734114E-3,1.776472E-3,1.5515984E-2,1.7705502E-2,1.2581574E-2,3.462118E-2,1.6540805E-2,6.888871E-4,-1.1612871E-2,-4.1404725E-3,8.930912E-3,2.9177298E-3,-6.1576804E-3,7.492328E-3,1.7698405E-2],"categories":[],"categories_nodes":[],"categories_segments":[],"categories_sizes":[],"default_left":[0,0,0,0,0,0,0,0,0,0,0,0,0,0,0,0,0,0,0,0,0,0,0,0,0,0,0,0,0,0,0,0,0,0,0,0,0,0,0,0,0,0,0,0,0,0,0,0,0,0,0,0,0,0,0,0,0,0,0,0,0,0,0,0,0,0,0,0,0,0,0,0,0,0,0,0,0,0,0,0,0,0,0,0,0,0,0,0,0,0,0,0,0,0,0,0,0,0,0,0,0],"id":6,"left_children":[1,3,5,7,9,11,13,15,17,19,21,23,25,27,29,31,33,35,37,39,41,43,45,47,49,-1,-1,51,53,55,57,59,-1,61,63,65,67,69,-1,71,73,-1,-1,75,-1,77,79,81,-1,83,85,87,89,91,-1,93,95,97,99,-1,-1,-1,-1,-1,-1,-1,-1,-1,-1,-1,-1,-1,-1,-1,-1,-1,-1,-1,-1,-1,-1,-1,-1,-1,-1,-1,-1,-1,-1,-1,-1,-1,-1,-1,-1,-1,-1,-1,-1,-1,-1],"loss_changes":[6.441669E1,1.5493774E1,1.983342E1,6.278507E0,2.5344343E0,8.417486E0,2.299498E1,3.9601898E0,2.1861093E0,1.3679619E0,2.144073E0,9.683485E-1,2.235262E0,1.7840462E0,1.0132521E1,2.017446E0,4.113312E0,1.1260387E0,4.1357088E-1,7.490299E-1,2.8893578E-1,8.081329E-1,9.078618E-1,7.640834E-1,3.4348774E-1,0E0,0E0,1.1018791E0,1.7851734E-1,5.2275925E0,4.8754773E0,1.299663E0,0E0,2.030758E0,4.5813313E0,6.8649817E-1,1.2452497E0,2.1710396E-1,0E0,6.240593E-1,8.7693226E-1,0E0,0E0,2.4568772E-1,0E0,4.9894443E-1,3.3288968E-1,5.994806E-1,0E0,6.886945E-1,4.7148013E-1,7.3737866E-1,9.0610886E-1,3.5490322E-1,0E0,1.2575512E0,9.692059E-1,2.375664E0,1.8143368E0,0E0,0E0,0E0,0E0,0E0,0E0,0E0,0E0,0E0,0E0,0E0,0E0,0E0,0E0,0E0,0E0,0E0,0E0,0E0,0E0,0E0,0E0,0E0,0E0,0E0,0E0,0E0,0E0,0E0,0E0,0E0,0E0,0E0,0E0,0E0,0E0,0E0,0E0,0E0,0E0,0E0,0E0],"parents":[2147483647,0,0,1,1,2,2,3,3,4,4,5,5,6,6,7,7,8,8,9,9,10,10,11,11,12,12,13,13,14,14,15,15,16,16,17,17,18,18,19,19,20,20,21,21,22,22,23,23,24,24,27,27,28,28,29,29,30,30,31,31,33,33,34,34,35,35,36,36,37,37,39,39,40,40,43,43,45,45,46,46,47,47,49,49,50,50,51,51,52,52,53,53,55,55,56,56,57,57,58,58],"right_children":[2,4,6,8,10,12,14,16,18,20,22,24,26,28,30,32,34,36,38,40,42,44,46,48,50,-1,-1,52,54,56,58,60,-1,62,64,66,68,70,-1,72,74,-1,-1,76,-1,78,80,82,-1,84,86,88,90,92,-1,94,96,98,100,-1,-1,-1,-1,-1,-1,-1,-1,-1,-1,-1,-1,-1,-1,-1,-1,-1,-1,-1,-1,-1,-1,-1,-1,-1,-1,-1,-1,-1,-1,-1,-1,-1,-1,-1,-1,-1,-1,-1,-1,-1,-1],"split_conditions":[1.3860437E0,9.629826E-1,-2.9118773E-1,1.3115557E0,-1.2528801E0,1E0,-1.2237388E0,-8.449016E-1,1E0,1E0,-1.7465137E-1,-3.373597E-1,-8.722742E-2,9.0294605E-1,-1.1636873E-1,1E0,-1.1636873E-1,1.7995147E0,1.7995147E0,1E0,1.7995147E0,5.4081297E-1,1.9526647E0,1E0,1.515545E0,6.3907556E-2,1.1747281E-2,1.7995147E0,1E0,4.502797E-1,1.7995147E0,-8.992955E-2,1.4289971E-2,1E0,-8.722742E-2,-2.9118773E-1,1E0,-6.278512E-1,-4.7991084E-4,1.1141903E0,7.1014184E-1,4.658527E-3,-1.5329575E-2,1E0,9.149778E-3,-2.829492E-1,1E0,1E0,4.2065703E-3,-1.3985866E0,1E0,1E0,1E0,1E0,1.6622867E-2,-9.906082E-1,1.7995147E0,1E0,1E0,4.429889E-3,-1.2273637E-2,-1.979203E-2,-3.203145E-2,-2.5573554E-3,-1.7162153E-2,2.0700896E-2,-4.70993E-3,2.0481676E-3,3.2116335E-2,-1.54116E-2,-9.785309E-3,6.473979E-3,2.8245224E-2,4.7001228E-2,1.0151506E-2,-2.1585537E-2,-5.610517E-3,1.8143615E-2,-3.5769169E-3,8.150172E-3,-3.3069565E-3,4.1429784E-2,1.4948735E-2,2.8299918E-2,3.2396908E-3,2.4020225E-2,-1.8734114E-3,1.776472E-3,1.5515984E-2,1.7705502E-2,1.2581574E-2,3.462118E-2,1.6540805E-2,6.888871E-4,-1.1612871E-2,-4.1404725E-3,8.930912E-3,2.9177298E-3,-6.1576804E-3,7.492328E-3,1.7698405E-2],"split_indices":[6,4,0,2,2,11,2,2,18,18,2,0,2,0,2,35,2,7,7,31,7,0,2,46,2,0,0,7,21,0,7,3,0,43,2,0,43,4,0,0,3,0,0,73,0,0,18,16,0,2,18,35,20,20,0,2,7,18,43,0,0,0,0,0,0,0,0,0,0,0,0,0,0,0,0,0,0,0,0,0,0,0,0,0,0,0,0,0,0,0,0,0,0,0,0,0,0,0,0,0,0],"split_type":[0,0,0,0,0,0,0,0,0,0,0,0,0,0,0,0,0,0,0,0,0,0,0,0,0,0,0,0,0,0,0,0,0,0,0,0,0,0,0,0,0,0,0,0,0,0,0,0,0,0,0,0,0,0,0,0,0,0,0,0,0,0,0,0,0,0,0,0,0,0,0,0,0,0,0,0,0,0,0,0,0,0,0,0,0,0,0,0,0,0,0,0,0,0,0,0,0,0,0,0,0],"sum_hessian":[6.721E3,2.766E3,3.955E3,2.083E3,6.83E2,1.72E2,3.783E3,1.446E3,6.37E2,2.72E2,4.11E2,1.16E2,5.6E1,1.17E3,2.613E3,1.89E2,1.257E3,3.99E2,2.38E2,2.49E2,2.3E1,6.2E1,3.49E2,4.2E1,7.4E1,4.9E1,7E0,1.1E3,7E1,7.54E2,1.859E3,1.61E2,2.8E1,5.76E2,6.81E2,3.44E2,5.5E1,2.2E2,1.8E1,2.3E2,1.9E1,5E0,1.8E1,5.6E1,6E0,2.49E2,1E2,3.5E1,7E0,4.2E1,3.2E1,1.14E2,9.86E2,5.2E1,1.8E1,5.77E2,1.77E2,1.162E3,6.97E2,3.8E1,1.23E2,4.61E2,1.15E2,1.92E2,4.89E2,5E0,3.39E2,4.6E1,9E0,1.27E2,9.3E1,2.23E2,7E0,5E0,1.4E1,4.7E1,9E0,5E0,2.44E2,8.1E1,1.9E1,2.4E1,1.1E1,7E0,3.5E1,2.7E1,5E0,7.9E1,3.5E1,3.92E2,5.94E2,3.6E1,1.6E1,5.9E1,5.18E2,4.9E1,1.28E2,9.34E2,2.28E2,5.57E2,1.4E2],"tree_param":{"num_deleted":"0","num_feature":"525","num_nodes":"101","size_leaf_vector":"1"}},{"base_weights":[2.628995E-3,-1.1157648E-1,7.871711E-2,-1.5263359E-1,1.2984198E-2,2.6308146E-1,5.0246693E-2,-1.9072032E-1,-6.747248E-2,8.229462E-2,-3.5351805E-2,4.613802E-1,1.918271E-1,-2.8193329E-2,1.2008731E-1,-6.543287E-2,-2.0583145E-1,-8.52697E-2,6.483975E-2,2.2893336E-1,6.298974E-2,-2.2044174E-1,-2.542821E-3,2.4620488E-1,7.020839E-1,3.2121894E-1,1.4431079E-1,-7.204839E-2,4.1703153E-2,9.429233E-2,2.2212704E-1,-1.8205382E-1,2.5882874E-2,-2.6129588E-1,-1.5812522E-1,-1.437594E-1,-5.7894703E-2,9.590298E-3,2.826408E-2,1.0738647E-1,2.5311768E-2,3.549809E-2,1.5193611E-1,-2.531524E-1,7.590478E-3,9.247573E-2,-1.754546E-2,2.910003E-1,5.3868014E-2,5.949586E-2,1.1583505E-2,1.8110739E-3,2.6855614E-2,9.3907945E-2,2.68082E-1,-1.10238805E-1,-7.1987035E-3,3.0486006E-2,3.116166E-1,2.178253E-2,1.2647606E-1,3.0358997E-1,1.8472563E-1,-1.9143084E-2,3.8612045E-3,5.3878985E-3,-7.086192E-3,-1.3058944E-2,-2.4777694E-2,-8.809375E-3,-2.2677697E-2,-1.2809649E-2,1.2663237E-3,1.7389076E-2,-5.080238E-3,2.6868817E-3,-1.358206E-2,-4.3149358E-3,2.2575505E-2,-4.3415147E-4,8.546341E-3,-4.7108266E-3,1.3957778E-2,-1.2646208E-2,-2.641159E-2,9.462571E-3,-3.1921747E-3,-2.4895286E-3,9.398383E-3,2.5511835E-2,9.728848E-3,-6.073084E-3,1.7508054E-2,9.8207705E-3,-5.662937E-4,-3.0784744E-3,2.3076713E-2,-9.6501615E-3,1.307314E-2,-2.3941656E-3,1.1338621E-2,-3.77602E-4,5.622374E-3,2.8795643E-2,6.760047E-3,-1.1638221E-5,7.7966806E-3,9.373312E-3,1.4687615E-2,5.212919E-2,2.1172967E-2,2.5282629E-2,1.3226966E-2],"categories":[],"categories_nodes":[],"categories_segments":[],"categories_sizes":[],"default_left":[0,0,0,0,0,0,0,0,0,0,0,0,0,0,0,0,0,0,0,0,0,0,0,0,0,0,0,0,0,0,0,0,0,0,0,0,0,0,0,0,0,0,0,0,0,0,0,0,0,0,0,0,0,0,0,0,0,0,0,0,0,0,0,0,0,0,0,0,0,0,0,0,0,0,0,0,0,0,0,0,0,0,0,0,0,0,0,0,0,0,0,0,0,0,0,0,0,0,0,0,0,0,0,0,0,0,0,0,0,0,0,0,0],"id":7,"left_children":[1,3,5,7,9,11,13,15,17,19,21,23,25,27,29,31,33,35,37,39,41,43,45,47,49,51,53,55,57,59,61,63,65,67,69,71,73,75,-1,77,-1,79,81,83,-1,85,87,89,91,-1,-1,-1,-1,93,95,97,99,101,103,105,107,109,111,-1,-1,-1,-1,-1,-1,-1,-1,-1,-1,-1,-1,-1,-1,-1,-1,-1,-1,-1,-1,-1,-1,-1,-1,-1,-1,-1,-1,-1,-1,-1,-1,-1,-1,-1,-1,-1,-1,-1,-1,-1,-1,-1,-1,-1,-1,-1,-1,-1,-1],"loss_changes":[5.7960354E1,1.3643272E1,2.0985037E1,6.4807434E0,2.2269938E0,7.382351E0,1.9016472E1,2.5951958E0,1.478092E0,7.439792E-1,2.379343E0,6.9053764E0,2.348134E0,5.0208635E0,4.7906704E0,1.6281221E0,3.1851768E0,8.639891E-1,1.1885228E0,2.6160574E-1,5.85862E-1,6.565895E-1,4.8079726E-1,6.320658E-1,1.2920647E0,4.3864536E-1,1.7837458E0,2.4899096E0,1.8944805E0,3.4226027E0,1.0121193E0,9.063084E-1,4.2484993E-1,2.596054E0,3.963354E0,4.5939374E-1,6.111332E-1,2.911654E-1,0E0,4.8164877E-1,0E0,5.5289346E-1,2.9136014E-1,2.9090524E-1,0E0,1.6658455E-1,5.406523E-1,2.1542263E-1,3.9722654E-1,0E0,0E0,0E0,0E0,6.1942816E-1,5.469322E-1,1.8388948E0,1.2778467E0,8.538585E-1,2.135756E-1,7.5340664E-1,4.9777794E-1,1.1859941E0,5.523262E-1,0E0,0E0,0E0,0E0,0E0,0E0,0E0,0E0,0E0,0E0,0E0,0E0,0E0,0E0,0E0,0E0,0E0,0E0,0E0,0E0,0E0,0E0,0E0,0E0,0E0,0E0,0E0,0E0,0E0,0E0,0E0,0E0,0E0,0E0,0E0,0E0,0E0,0E0,0E0,0E0,0E0,0E0,0E0,0E0,0E0,0E0,0E0,0E0,0E0,0E0],"parents":[2147483647,0,0,1,1,2,2,3,3,4,4,5,5,6,6,7,7,8,8,9,9,10,10,11,11,12,12,13,13,14,14,15,15,16,16,17,17,18,18,19,19,20,20,21,21,22,22,23,23,24,24,25,25,26,26,27,27,28,28,29,29,30,30,31,31,32,32,33,33,34,34,35,35,36,36,37,37,39,39,41,41,42,42,43,43,45,45,46,46,47,47,48,48,53,53,54,54,55,55,56,56,57,57,58,58,59,59,60,60,61,61,62,62],"right_children":[2,4,6,8,10,12,14,16,18,20,22,24,26,28,30,32,34,36,38,40,42,44,46,48,50,52,54,56,58,60,62,64,66,68,70,72,74,76,-1,78,-1,80,82,84,-1,86,88,90,92,-1,-1,-1,-1,94,96,98,100,102,104,106,108,110,112,-1,-1,-1,-1,-1,-1,-1,-1,-1,-1,-1,-1,-1,-1,-1,-1,-1,-1,-1,-1,-1,-1,-1,-1,-1,-1,-1,-1,-1,-1,-1,-1,-1,-1,-1,-1,-1,-1,-1,-1,-1,-1,-1,-1,-1,-1,-1,-1,-1,-1],"split_conditions":[1.3860437E0,9.629826E-1,-1.557259E0,1.3115557E0,-9.614669E-1,-2.9118773E-1,4.3270466E-1,-1.0197495E0,1.7995147E0,-1.557259E0,-1.4551005E-1,1E0,-1.2820214E0,1E0,3.246818E0,-4.7653254E-2,-1.1636873E-1,-6.278512E-1,1E0,-1.4277279E0,3.246818E0,3.1146204E-1,-1.7439982E-1,1E0,-8.722742E-2,-2.7096865E-1,1E0,1.3478029E0,1E0,1.7995147E0,-1.3985866E0,-1.3694453E0,-1.340304E0,-5.826298E-1,1E0,1.3478029E0,-3.0416417E-1,1E0,2.826408E-2,-6.575991E-2,2.5311768E-2,1E0,1.7995147E0,-5.38594E-1,7.590478E-3,1E0,4.9554634E-1,1E0,4.3270466E-1,5.949586E-2,1.1583505E-2,1.8110739E-3,2.6855614E-2,1E0,-6.278512E-1,1E0,3.246818E0,1.7995147E0,6.9170177E-1,1E0,1E0,9.629826E-1,-2.6528826E-2,-1.9143084E-2,3.8612045E-3,5.3878985E-3,-7.086192E-3,-1.3058944E-2,-2.4777694E-2,-8.809375E-3,-2.2677697E-2,-1.2809649E-2,1.2663237E-3,1.7389076E-2,-5.080238E-3,2.6868817E-3,-1.358206E-2,-4.3149358E-3,2.2575505E-2,-4.3415147E-4,8.546341E-3,-4.7108266E-3,1.3957778E-2,-1.2646208E-2,-2.641159E-2,9.462571E-3,-3.1921747E-3,-2.4895286E-3,9.398383E-3,2.5511835E-2,9.728848E-3,-6.073084E-3,1.7508054E-2,9.8207705E-3,-5.662937E-4,-3.0784744E-3,2.3076713E-2,-9.6501615E-3,1.307314E-2,-2.3941656E-3,1.1338621E-2,-3.77602E-4,5.622374E-3,2.8795643E-2,6.760047E-3,-1.1638221E-5,7.7966806E-3,9.373312E-3,1.4687615E-2,5.212919E-2,2.1172967E-2,2.5282629E-2,1.3226966E-2],"split_indices":[6,4,1,2,2,0,4,2,7,1,2,11,2,16,5,0,2,4,43,2,5,0,0,46,2,0,43,5,81,7,2,2,2,2,33,5,0,31,0,0,0,21,7,1,0,22,0,73,4,0,0,0,0,46,4,81,5,7,0,21,80,4,0,0,0,0,0,0,0,0,0,0,0,0,0,0,0,0,0,0,0,0,0,0,0,0,0,0,0,0,0,0,0,0,0,0,0,0,0,0,0,0,0,0,0,0,0,0,0,0,0,0,0],"split_type":[0,0,0,0,0,0,0,0,0,0,0,0,0,0,0,0,0,0,0,0,0,0,0,0,0,0,0,0,0,0,0,0,0,0,0,0,0,0,0,0,0,0,0,0,0,0,0,0,0,0,0,0,0,0,0,0,0,0,0,0,0,0,0,0,0,0,0,0,0,0,0,0,0,0,0,0,0,0,0,0,0,0,0,0,0,0,0,0,0,0,0,0,0,0,0,0,0,0,0,0,0,0,0,0,0,0,0,0,0,0,0,0,0],"sum_hessian":[6.666E3,2.665E3,4.001E3,2.004E3,6.61E2,5.33E2,3.468E3,1.383E3,6.21E2,2.71E2,3.9E2,1.38E2,3.95E2,1.634E3,1.834E3,1.5E2,1.233E3,5.48E2,7.3E1,2.9E1,2.42E2,5.7E1,3.33E2,7.5E1,6.3E1,1.03E2,2.92E2,1.004E3,6.3E2,1.467E3,3.67E2,6.5E1,8.5E1,5.66E2,6.67E2,1.72E2,3.76E2,6.3E1,1E1,1.4E1,1.5E1,1.87E2,5.5E1,5.2E1,5E0,4.4E1,2.89E2,6E1,1.5E1,5.8E1,5E0,5E0,9.8E1,2.1E2,8.2E1,6.31E2,3.73E2,6.07E2,2.3E1,4.52E2,1.015E3,1.11E2,2.56E2,5.2E1,1.3E1,6.3E1,2.2E1,1.9E2,3.76E2,4.85E2,1.82E2,1.56E2,1.6E1,6E0,3.7E2,5.7E1,6E0,8E0,6E0,1.2E2,6.7E1,5E0,5E1,2.6E1,2.6E1,3.7E1,7E0,2.64E2,2.5E1,5E1,1E1,9E0,6E0,1.63E2,4.7E1,5E0,7.7E1,6.09E2,2.2E1,3.25E2,4.8E1,3.23E2,2.84E2,1.8E1,5E0,3.52E2,1E2,8.78E2,1.37E2,8E0,1.03E2,2.9E1,2.27E2],"tree_param":{"num_deleted":"0","num_feature":"525","num_nodes":"113","size_leaf_vector":"1"}},{"base_weights":[-1.0916952E-4,-9.685779E-2,6.48053E-2,-1.2182675E-1,5.7168394E-2,-7.8215875E-2,9.175721E-2,-1.6013466E-1,-4.4891622E-2,4.2127132E-2,2.1990441E-1,-9.728073E-2,2.9660473E-2,2.453134E-1,6.650244E-2,2.4746612E-1,-1.6478138E-1,-3.7821603E-3,-1.2724261E-1,-3.7369594E-2,7.377722E-2,3.58233E-1,-2.1392205E-3,-1.3894455E-1,-5.0094042E-2,1.81082E-2,-1.2352926E-2,4.45687E-1,1.859412E-1,1.438466E-1,2.1531975E-2,3.597873E-2,-9.424195E-3,-5.3304132E-2,-1.8171942E-1,1.7038489E-2,-7.999268E-2,-1.3539164E-1,-9.7602437E-4,-5.092246E-2,8.758013E-3,8.728143E-2,-1.06973976E-1,1.7865156E-1,4.3041687E-2,-1.9460578E-1,-8.093437E-2,1.8493183E-2,-5.9936717E-2,7.807175E-2,-7.777288E-2,5.4378007E-2,2.1244848E-1,2.9176632E-1,1.4451717E-1,1.1472327E-1,2.3361945E-1,-6.29814E-2,4.6068512E-2,-7.582329E-3,1.3187383E-2,-1.9588338E-2,-1.0642497E-2,-3.1199404E-3,4.102756E-3,3.7925474E-3,-7.724809E-3,-1.2510357E-2,-7.0879213E-3,-8.842121E-3,-5.444832E-4,6.248364E-3,2.188413E-2,-1.2963397E-2,2.0688057E-3,4.532125E-3,2.1362945E-2,-2.1207172E-3,-1.688061E-2,-3.7573045E-3,-1.5581134E-2,-8.888887E-4,-9.487248E-3,1.0810022E-2,-4.3041385E-3,-1.0549296E-2,-1.7486446E-3,2.9651899E-2,1.136521E-2,1.084373E-2,2.447634E-2,7.9260655E-3,1.8083246E-2,2.167477E-3,9.951848E-3,2.3880295E-2,1.2503519E-2,-8.5123E-3,5.05189E-3,1.2190831E-3,7.8118276E-3],"categories":[],"categories_nodes":[],"categories_segments":[],"categories_sizes":[],"default_left":[0,0,0,0,0,0,0,0,0,0,0,0,0,0,0,0,0,0,0,0,0,0,0,0,0,0,0,0,0,0,0,0,0,0,0,0,0,0,0,0,0,0,0,0,0,0,0,0,0,0,0,0,0,0,0,0,0,0,0,0,0,0,0,0,0,0,0,0,0,0,0,0,0,0,0,0,0,0,0,0,0,0,0,0,0,0,0,0,0,0,0,0,0,0,0,0,0,0,0,0,0],"id":8,"left_children":[1,3,5,7,9,11,13,15,17,19,21,23,25,27,29,31,33,35,37,39,41,43,-1,45,47,-1,49,51,53,55,57,-1,-1,59,61,63,65,67,-1,69,-1,71,73,75,-1,77,79,-1,81,83,85,-1,87,89,91,93,95,97,99,-1,-1,-1,-1,-1,-1,-1,-1,-1,-1,-1,-1,-1,-1,-1,-1,-1,-1,-1,-1,-1,-1,-1,-1,-1,-1,-1,-1,-1,-1,-1,-1,-1,-1,-1,-1,-1,-1,-1,-1,-1,-1],"loss_changes":[4.15573E1,1.0232418E1,1.527894E1,6.7259216E0,8.9203703E-1,1.2994018E0,1.2892836E1,2.9718094E0,2.5821018E0,8.685289E-1,1.0768167E0,1.0378776E0,7.9890746E-1,5.4256706E0,9.958857E0,1.4358382E0,2.8318176E0,8.135565E-1,2.3481703E-1,2.0817603E-1,6.1913526E-1,4.5349574E-1,0E0,8.822832E-1,7.3086894E-1,0E0,4.9130556E-1,5.4973774E0,1.5201044E0,2.6994476E0,3.767432E0,0E0,0E0,1.8588666E0,3.9616928E0,7.7738386E-1,2.4133027E-1,2.0504189E-1,0E0,2.4041115E-1,0E0,3.5042548E-1,1.4005032E-1,1.09922916E-1,0E0,3.830781E-1,5.3075933E-1,0E0,7.0472604E-1,2.7787465E-1,1.3941696E-1,0E0,5.1822877E-1,1.4091778E-1,9.443197E-1,6.7065334E-1,1.1910954E0,2.2534757E0,2.2344203E0,0E0,0E0,0E0,0E0,0E0,0E0,0E0,0E0,0E0,0E0,0E0,0E0,0E0,0E0,0E0,0E0,0E0,0E0,0E0,0E0,0E0,0E0,0E0,0E0,0E0,0E0,0E0,0E0,0E0,0E0,0E0,0E0,0E0,0E0,0E0,0E0,0E0,0E0,0E0,0E0,0E0,0E0],"parents":[2147483647,0,0,1,1,2,2,3,3,4,4,5,5,6,6,7,7,8,8,9,9,10,10,11,11,12,12,13,13,14,14,15,15,16,16,17,17,18,18,19,19,20,20,21,21,23,23,24,24,26,26,27,27,28,28,29,29,30,30,33,33,34,34,35,35,36,36,37,37,39,39,41,41,42,42,43,43,45,45,46,46,48,48,49,49,50,50,52,52,53,53,54,54,55,55,56,56,57,57,58,58],"right_children":[2,4,6,8,10,12,14,16,18,20,22,24,26,28,30,32,34,36,38,40,42,44,-1,46,48,-1,50,52,54,56,58,-1,-1,60,62,64,66,68,-1,70,-1,72,74,76,-1,78,80,-1,82,84,86,-1,88,90,92,94,96,98,100,-1,-1,-1,-1,-1,-1,-1,-1,-1,-1,-1,-1,-1,-1,-1,-1,-1,-1,-1,-1,-1,-1,-1,-1,-1,-1,-1,-1,-1,-1,-1,-1,-1,-1,-1,-1,-1,-1,-1,-1,-1,-1],"split_conditions":[1.3860437E0,1.4932605E0,-6.278512E-1,1.2824144E0,1E0,4.4017017E-1,-1.557259E0,-3.373597E-1,1E0,1.7995147E0,1.5453771E-1,-1.1636873E-1,-9.323256E-1,-2.9118773E-1,-1.2237388E0,1E0,-8.157603E-1,1E0,1.7995147E0,5.4081297E-1,1E0,1E0,-2.1392205E-3,1.7995147E0,-3.373597E-1,1.81082E-2,8.8753694E-1,-9.757327E-2,-1.2820214E0,4.2010197E-1,-1.1636873E-1,3.597873E-2,-9.424195E-3,2.823405E-1,-1.1636873E-1,1.8360995E0,-2.1227291E-1,-4.5057967E-2,-9.7602437E-4,2.0235386E0,8.758013E-3,1.1141903E0,-1.4277279E0,1E0,4.3041687E-2,-8.449016E-1,-5.534885E-1,1.8493183E-2,1E0,1E0,1.7995147E0,5.4378007E-2,-3.373597E-1,-2.550348E-1,1E0,1.7995147E0,8.8753694E-1,5.106352E-1,1.7995147E0,-7.582329E-3,1.3187383E-2,-1.9588338E-2,-1.0642497E-2,-3.1199404E-3,4.102756E-3,3.7925474E-3,-7.724809E-3,-1.2510357E-2,-7.0879213E-3,-8.842121E-3,-5.444832E-4,6.248364E-3,2.188413E-2,-1.2963397E-2,2.0688057E-3,4.532125E-3,2.1362945E-2,-2.1207172E-3,-1.688061E-2,-3.7573045E-3,-1.5581134E-2,-8.888887E-4,-9.487248E-3,1.0810022E-2,-4.3041385E-3,-1.0549296E-2,-1.7486446E-3,2.9651899E-2,1.136521E-2,1.084373E-2,2.447634E-2,7.9260655E-3,1.8083246E-2,2.167477E-3,9.951848E-3,2.3880295E-2,1.2503519E-2,-8.5123E-3,5.05189E-3,1.2190831E-3,7.8118276E-3],"split_indices":[6,4,4,2,31,0,1,0,18,7,0,2,2,0,2,16,2,40,7,0,18,43,0,7,0,0,1,4,2,0,2,0,0,0,2,2,0,0,0,4,0,0,2,21,0,2,2,0,18,65,7,0,0,0,43,7,1,0,7,0,0,0,0,0,0,0,0,0,0,0,0,0,0,0,0,0,0,0,0,0,0,0,0,0,0,0,0,0,0,0,0,0,0,0,0,0,0,0,0,0,0],"split_type":[0,0,0,0,0,0,0,0,0,0,0,0,0,0,0,0,0,0,0,0,0,0,0,0,0,0,0,0,0,0,0,0,0,0,0,0,0,0,0,0,0,0,0,0,0,0,0,0,0,0,0,0,0,0,0,0,0,0,0,0,0,0,0,0,0,0,0,0,0,0,0,0,0,0,0,0,0,0,0,0,0,0,0,0,0,0,0,0,0,0,0,0,0,0,0,0,0,0,0,0,0],"sum_hessian":[6.613E3,2.655E3,3.958E3,2.285E3,3.7E2,6.27E2,3.331E3,1.524E3,7.61E2,3.41E2,2.9E1,5.33E2,9.4E1,4.68E2,2.863E3,1.6E1,1.508E3,5.09E2,2.52E2,9.7E1,2.44E2,1.8E1,1.1E1,2.81E2,2.52E2,1.5E1,7.9E1,1.04E2,3.64E2,1.051E3,1.812E3,1E1,6E0,2E2,1.308E3,4.01E2,1.08E2,2.35E2,1.7E1,9E1,7E0,2.28E2,1.6E1,1.1E1,7E0,1.41E2,1.4E2,7E0,2.45E2,3.3E1,4.6E1,5E1,5.4E1,9.9E1,2.65E2,7.97E2,2.54E2,4.07E2,1.405E3,1.69E2,3.1E1,5.66E2,7.42E2,1.52E2,2.49E2,1.2E1,9.6E1,1.59E2,7.6E1,3.7E1,5.3E1,2.2E2,8E0,1.1E1,5E0,6E0,5E0,1.3E1,1.28E2,1.1E2,3E1,1.35E2,1.1E2,2.3E1,1E1,2.2E1,2.4E1,1.4E1,4E1,1E1,8.9E1,1.73E2,9.2E1,8E1,7.17E2,1.35E2,1.19E2,3.03E2,1.04E2,8.81E2,5.24E2],"tree_param":{"num_deleted":"0","num_feature":"525","num_nodes":"101","size_leaf_vector":"1"}},{"base_weights":[1.9395264E-3,-9.122639E-2,6.40957E-2,-1.1584871E-1,6.5034926E-2,2.1337083E-1,4.0309314E-2,-1.4764743E-1,-4.9224827E-2,8.177949E-2,-8.3360605E-2,1.7043455E-1,4.2619374E-1,-1.756436E-2,1.0703366E-1,-1.6168661E-1,-3.8061142E-2,-6.431014E-2,5.111937E-2,1.9868428E-1,6.514804E-2,-8.766634E-3,5.1261E-3,2.9205835E-1,1.324733E-1,5.629493E-1,6.033251E-2,1.05952635E-1,-3.660424E-2,8.622585E-2,1.8487537E-1,-6.804671E-2,-1.7785293E-1,-5.888634E-2,1.0754325E-2,-3.7202023E-2,-1.1209603E-1,1.228167E-1,-8.320249E-3,1.0712534E-2,2.6201138E-2,3.898439E-2,1.3437241E-1,3.1272826E-1,1.3587036E-2,-5.108228E-2,1.5350832E-1,4.99221E-2,2.9964405E-3,-1.8434444E-3,1.6534366E-2,7.268515E-2,3.17507E-2,-1.0802414E-1,4.712834E-5,3.0260487E-2,1.0602964E-1,1.4821626E-1,2.5398543E-1,-1.41410995E-2,-1.4422368E-3,-1.6119355E-2,-9.073028E-3,-1.2086073E-2,-4.770346E-4,-5.384053E-3,6.875191E-5,-1.0220457E-2,-5.657512E-3,1.5291426E-4,1.1599049E-2,8.704902E-3,-1.9256672E-3,1.6430613E-3,8.153718E-3,1.5175662E-2,5.1757954E-3,2.7292095E-2,1.3648438E-2,5.8155507E-3,-3.2975662E-2,1.3865497E-2,5.7853106E-3,6.7346888E-3,-7.042917E-3,-1.2476516E-2,-4.643917E-3,-2.089354E-3,5.0851246E-3,9.920653E-4,7.900109E-3,1.0921137E-2,6.7675314E-3,2.6927781E-3,1.282397E-2,2.9523449E-2,1.5128995E-2],"categories":[],"categories_nodes":[],"categories_segments":[],"categories_sizes":[],"default_left":[0,0,0,0,0,0,0,0,0,0,0,0,0,0,0,0,0,0,0,0,0,0,0,0,0,0,0,0,0,0,0,0,0,0,0,0,0,0,0,0,0,0,0,0,0,0,0,0,0,0,0,0,0,0,0,0,0,0,0,0,0,0,0,0,0,0,0,0,0,0,0,0,0,0,0,0,0,0,0,0,0,0,0,0,0,0,0,0,0,0,0,0,0,0,0,0,0],"id":9,"left_children":[1,3,5,7,9,11,13,15,17,19,21,23,25,27,29,31,33,35,37,39,41,-1,-1,43,45,47,49,51,53,55,57,59,61,63,-1,65,67,69,71,-1,-1,73,75,77,-1,79,81,-1,-1,-1,-1,83,-1,85,87,89,91,93,95,-1,-1,-1,-1,-1,-1,-1,-1,-1,-1,-1,-1,-1,-1,-1,-1,-1,-1,-1,-1,-1,-1,-1,-1,-1,-1,-1,-1,-1,-1,-1,-1,-1,-1,-1,-1,-1,-1],"loss_changes":[3.8665527E1,1.0295631E1,1.4203413E1,4.877203E0,9.205929E-1,4.8805275E0,1.3353252E1,2.390831E0,1.140354E0,6.1378527E-1,1.6095656E-1,2.051053E0,4.4851246E0,4.3655467E0,2.5693798E0,2.0709152E0,6.6241777E-1,8.3625126E-1,4.2394826E-1,2.4609911E-1,5.165715E-1,0E0,0E0,1.6661263E-1,1.3863707E0,2.0715637E0,3.3897284E-1,2.3425841E0,4.206553E0,1.4022655E0,7.785044E-1,1.1192701E0,1.750267E0,7.885941E-1,0E0,4.8012096E-1,1.3419962E-1,1.2007463E-1,1.0855224E-1,0E0,0E0,2.4425575E-1,2.7997172E-1,2.4715519E-1,0E0,1.7584307E0,4.8802662E-1,0E0,0E0,0E0,0E0,4.306339E-1,0E0,1.2874007E0,1.7715399E0,4.0733096E-1,5.898409E-1,3.006606E-1,7.113309E-1,0E0,0E0,0E0,0E0,0E0,0E0,0E0,0E0,0E0,0E0,0E0,0E0,0E0,0E0,0E0,0E0,0E0,0E0,0E0,0E0,0E0,0E0,0E0,0E0,0E0,0E0,0E0,0E0,0E0,0E0,0E0,0E0,0E0,0E0,0E0,0E0,0E0,0E0],"parents":[2147483647,0,0,1,1,2,2,3,3,4,4,5,5,6,6,7,7,8,8,9,9,10,10,11,11,12,12,13,13,14,14,15,15,16,16,17,17,18,18,19,19,20,20,23,23,24,24,25,25,26,26,27,27,28,28,29,29,30,30,31,31,32,32,33,33,35,35,36,36,37,37,38,38,41,41,42,42,43,43,45,45,46,46,51,51,53,53,54,54,55,55,56,56,57,57,58,58],"right_children":[2,4,6,8,10,12,14,16,18,20,22,24,26,28,30,32,34,36,38,40,42,-1,-1,44,46,48,50,52,54,56,58,60,62,64,-1,66,68,70,72,-1,-1,74,76,78,-1,80,82,-1,-1,-1,-1,84,-1,86,88,90,92,94,96,-1,-1,-1,-1,-1,-1,-1,-1,-1,-1,-1,-1,-1,-1,-1,-1,-1,-1,-1,-1,-1,-1,-1,-1,-1,-1,-1,-1,-1,-1,-1,-1,-1,-1,-1,-1,-1,-1],"split_conditions":[1.3860437E0,1.4932605E0,-1.557259E0,1.428121E0,1E0,1E0,9.629826E-1,1.3478029E0,1.7995147E0,-1.557259E0,1E0,-1.2528801E0,-8.722742E-2,-9.906082E-1,3.246818E0,-1.557259E0,3.246818E0,1E0,3.7820446E-1,1.5102131E0,1E0,-8.766634E-3,5.1261E-3,1E0,-2.0379268E-1,7.1014184E-1,1E0,1E0,-1.1636873E-1,1.7995147E0,1E0,1E0,1E0,-4.369232E-1,1.0754325E-2,1.9526647E0,1E0,-9.757327E-2,1.6903929E0,1.0712534E-2,2.6201138E-2,3.246818E0,-1.4277279E0,1E0,1.3587036E-2,-2.9121664E-1,1E0,4.99221E-2,2.9964405E-3,-1.8434444E-3,1.6534366E-2,1E0,3.17507E-2,1.7995147E0,1.7995147E0,1E0,-5.38594E-1,7.1014184E-1,-5.38594E-1,-1.41410995E-2,-1.4422368E-3,-1.6119355E-2,-9.073028E-3,-1.2086073E-2,-4.770346E-4,-5.384053E-3,6.875191E-5,-1.0220457E-2,-5.657512E-3,1.5291426E-4,1.1599049E-2,8.704902E-3,-1.9256672E-3,1.6430613E-3,8.153718E-3,1.5175662E-2,5.1757954E-3,2.7292095E-2,1.3648438E-2,5.8155507E-3,-3.2975662E-2,1.3865497E-2,5.7853106E-3,6.7346888E-3,-7.042917E-3,-1.2476516E-2,-4.643917E-3,-2.089354E-3,5.0851246E-3,9.920653E-4,7.900109E-3,1.0921137E-2,6.7675314E-3,2.6927781E-3,1.282397E-2,2.9523449E-2,1.5128995E-2],"split_indices":[6,4,1,2,18,11,4,5,7,1,45,2,2,2,5,1,5,18,1,3,35,0,0,46,2,3,21,81,2,7,35,21,65,2,0,2,40,4,2,0,0,5,2,43,0,2,46,0,0,0,0,22,0,7,7,21,1,3,1,0,0,0,0,0,0,0,0,0,0,0,0,0,0,0,0,0,0,0,0,0,0,0,0,0,0,0,0,0,0,0,0,0,0,0,0,0,0],"split_type":[0,0,0,0,0,0,0,0,0,0,0,0,0,0,0,0,0,0,0,0,0,0,0,0,0,0,0,0,0,0,0,0,0,0,0,0,0,0,0,0,0,0,0,0,0,0,0,0,0,0,0,0,0,0,0,0,0,0,0,0,0,0,0,0,0,0,0,0,0,0,0,0,0,0,0,0,0,0,0,0,0,0,0,0,0,0,0,0,0,0,0,0,0,0,0,0,0],"sum_hessian":[6.673E3,2.67E3,4.003E3,2.307E3,3.63E2,5.48E2,3.455E3,1.56E3,7.47E2,3.27E2,3.6E1,4.59E2,8.9E1,1.851E3,1.604E3,1.382E3,1.78E2,6.5E2,9.7E1,3.8E1,2.89E2,3.1E1,5E0,1.06E2,3.53E2,6.4E1,2.5E1,2.46E2,1.605E3,1.269E3,3.35E2,2.05E2,1.177E3,1.6E2,1.8E1,4.17E2,2.33E2,4.3E1,5.4E1,2.8E1,1E1,2.12E2,7.7E1,8.8E1,1.8E1,3.6E1,3.17E2,5.7E1,7E0,1.7E1,8E0,2.23E2,2.3E1,5.43E2,1.062E3,3.33E2,9.36E2,2.23E2,1.12E2,6.3E1,1.42E2,8.58E2,3.19E2,5.7E1,1.03E2,2.32E2,1.85E2,1.66E2,6.7E1,7E0,3.6E1,5E0,4.9E1,1.66E2,4.6E1,4.1E1,3.6E1,7.1E1,1.7E1,2.8E1,8E0,2.53E2,6.4E1,2.09E2,1.4E1,2.75E2,2.68E2,7.53E2,3.09E2,2.66E2,6.7E1,3.82E2,5.54E2,2.2E1,2.01E2,3.7E1,7.5E1],"tree_param":{"num_deleted":"0","num_feature":"525","num_nodes":"97","size_leaf_vector":"1"}},{"base_weights":[3.144096E-3,-5.680789E-2,8.518705E-2,-1.10539295E-1,4.6587433E-3,3.710528E-1,7.2977185E-2,-1.2196183E-1,4.5111384E-2,-8.666496E-2,3.9906718E-2,4.583414E-1,8.359718E-2,3.218293E-3,1.1664658E-1,-1.4330369E-1,-3.45834E-2,7.147597E-3,2.7407753E-1,-1.0266947E-1,1.1247757E-1,-5.462414E-2,6.891235E-2,4.5166817E-2,2.0691684E-1,2.0137593E-2,-6.46918E-2,-1.64686E-2,1.3698155E-1,9.4928086E-2,1.8061475E-1,-5.029639E-2,-1.5937056E-1,-9.068151E-2,2.3084542E-2,-2.0626826E-2,1.2179885E-2,3.211105E-2,2.3422686E-3,1.5799035E-1,-1.1333733E-1,2.8629746E-2,5.360742E-2,1.3527113E-1,-9.765539E-2,4.7552418E-2,1.4261355E-1,2.0667655E-2,7.280133E-3,-1.0957718E-2,2.399593E-3,-4.2127736E-2,1.4104429E-2,1.7508136E-2,1.1098091E-1,1.8806121E-1,8.012788E-2,2.288949E-1,1.3199711E-1,-1.3718841E-2,-1.0033449E-3,-1.35664E-2,-1.0284211E-4,-1.1173141E-2,-3.1439452E-3,1.5202694E-2,-4.0202469E-4,1.0314125E-2,-4.032804E-3,1.885997E-2,1.5361891E-3,-1.0600519E-2,-1.3423222E-3,-8.276821E-3,8.971672E-3,1.2871776E-2,-7.4994275E-3,-9.022488E-3,1.55428285E-2,1.2132774E-2,2.10322E-3,1.8727329E-2,9.430773E-3,-4.3139555E-3,6.195961E-3,3.599526E-3,-3.090501E-3,6.704846E-3,1.5655726E-2,5.824415E-4,1.8053861E-2,9.587447E-3,5.077161E-3,1.6735107E-2,4.3215647E-2,3.4446146E-2,9.64999E-3],"categories":[],"categories_nodes":[],"categories_segments":[],"categories_sizes":[],"default_left":[0,0,0,0,0,0,0,0,0,0,0,0,0,0,0,0,0,0,0,0,0,0,0,0,0,0,0,0,0,0,0,0,0,0,0,0,0,0,0,0,0,0,0,0,0,0,0,0,0,0,0,0,0,0,0,0,0,0,0,0,0,0,0,0,0,0,0,0,0,0,0,0,0,0,0,0,0,0,0,0,0,0,0,0,0,0,0,0,0,0,0,0,0,0,0,0,0],"id":10,"left_children":[1,3,5,7,9,11,13,15,17,19,21,23,25,27,29,31,33,35,37,39,41,43,45,-1,47,-1,49,51,53,55,57,59,61,63,65,67,-1,-1,-1,69,71,-1,73,75,77,79,81,-1,-1,-1,-1,83,85,-1,87,89,91,93,95,-1,-1,-1,-1,-1,-1,-1,-1,-1,-1,-1,-1,-1,-1,-1,-1,-1,-1,-1,-1,-1,-1,-1,-1,-1,-1,-1,-1,-1,-1,-1,-1,-1,-1,-1,-1,-1,-1],"loss_changes":[3.2561226E1,1.2633813E1,9.701464E0,3.6397495E0,5.7560067E0,2.7838097E0,8.172547E0,3.536974E0,1.2217138E0,1.6103115E0,3.5446148E0,2.0903263E0,7.555601E-1,2.730063E0,2.2580414E0,2.267311E0,1.2205702E0,5.0198257E-1,5.9980655E-1,1.320488E0,5.105939E-1,2.510535E0,1.5417986E0,0E0,1.2586033E-1,0E0,1.2456361E-1,7.103561E-1,2.3453736E-1,1.6735506E0,9.1603756E-1,1.0388998E0,2.1009445E0,4.6973932E-1,8.79485E-1,4.8068756E-1,0E0,0E0,0E0,1.9599515E-1,8.19222E-1,0E0,3.266239E-1,3.646834E-1,1.1433604E0,1.6942425E0,4.4474316E-1,0E0,0E0,0E0,0E0,7.0237684E-1,6.7787695E-1,0E0,2.0888114E-1,1.1390357E0,6.9290304E-1,1.0377035E0,6.159735E-1,0E0,0E0,0E0,0E0,0E0,0E0,0E0,0E0,0E0,0E0,0E0,0E0,0E0,0E0,0E0,0E0,0E0,0E0,0E0,0E0,0E0,0E0,0E0,0E0,0E0,0E0,0E0,0E0,0E0,0E0,0E0,0E0,0E0,0E0,0E0,0E0,0E0,0E0],"parents":[2147483647,0,0,1,1,2,2,3,3,4,4,5,5,6,6,7,7,8,8,9,9,10,10,11,11,12,12,13,13,14,14,15,15,16,16,17,17,18,18,19,19,20,20,21,21,22,22,24,24,26,26,27,27,28,28,29,29,30,30,31,31,32,32,33,33,34,34,35,35,39,39,40,40,42,42,43,43,44,44,45,45,46,46,51,51,52,52,54,54,55,55,56,56,57,57,58,58],"right_children":[2,4,6,8,10,12,14,16,18,20,22,24,26,28,30,32,34,36,38,40,42,44,46,-1,48,-1,50,52,54,56,58,60,62,64,66,68,-1,-1,-1,70,72,-1,74,76,78,80,82,-1,-1,-1,-1,84,86,-1,88,90,92,94,96,-1,-1,-1,-1,-1,-1,-1,-1,-1,-1,-1,-1,-1,-1,-1,-1,-1,-1,-1,-1,-1,-1,-1,-1,-1,-1,-1,-1,-1,-1,-1,-1,-1,-1,-1,-1,-1,-1],"split_conditions":[1.3478029E0,1.3860437E0,-2.9118773E-1,1.4932605E0,1E0,-8.722742E-2,1.7995147E0,1.8360995E0,1E0,1E0,-9.757327E-2,7.1014184E-1,-3.1925306E-1,3.246818E0,3.246818E0,-8.900009E-1,1E0,4.7291303E-1,-2.6528826E-2,-1.2528801E0,-1.8140107E-1,-1.3818653E-1,1.4932605E0,4.5166817E-2,-3.0416417E-1,2.0137593E-2,1.9526647E0,9.629826E-1,-4.5057967E-2,-6.404605E-1,-1.3111627E0,-1.1636873E-1,1E0,-6.278512E-1,1.8652408E0,-1.557259E0,1.2179885E-2,3.211105E-2,2.3422686E-3,-4.5057967E-2,1.8360995E0,2.8629746E-2,-1.557259E0,-5.38594E-1,1E0,-1.557259E0,-1.4277279E0,2.0667655E-2,7.280133E-3,-1.0957718E-2,2.399593E-3,1E0,1.00217745E-1,1.7508136E-2,1.8360995E0,-2.5889754E-1,-1.4277279E0,1E0,-8.6884335E-2,-1.3718841E-2,-1.0033449E-3,-1.35664E-2,-1.0284211E-4,-1.1173141E-2,-3.1439452E-3,1.5202694E-2,-4.0202469E-4,1.0314125E-2,-4.032804E-3,1.885997E-2,1.5361891E-3,-1.0600519E-2,-1.3423222E-3,-8.276821E-3,8.971672E-3,1.2871776E-2,-7.4994275E-3,-9.022488E-3,1.55428285E-2,1.2132774E-2,2.10322E-3,1.8727329E-2,9.430773E-3,-4.3139555E-3,6.195961E-3,3.599526E-3,-3.090501E-3,6.704846E-3,1.5655726E-2,5.824415E-4,1.8053861E-2,9.587447E-3,5.077161E-3,1.6735107E-2,4.3215647E-2,3.4446146E-2,9.64999E-3],"split_indices":[5,6,0,4,21,2,7,2,31,43,4,3,0,5,5,3,21,0,0,2,0,0,4,0,0,0,2,4,0,1,2,2,31,4,2,1,0,0,0,0,2,0,1,1,81,1,2,0,0,0,0,43,0,0,2,0,2,14,0,0,0,0,0,0,0,0,0,0,0,0,0,0,0,0,0,0,0,0,0,0,0,0,0,0,0,0,0,0,0,0,0,0,0,0,0,0,0],"split_type":[0,0,0,0,0,0,0,0,0,0,0,0,0,0,0,0,0,0,0,0,0,0,0,0,0,0,0,0,0,0,0,0,0,0,0,0,0,0,0,0,0,0,0,0,0,0,0,0,0,0,0,0,0,0,0,0,0,0,0,0,0,0,0,0,0,0,0,0,0,0,0,0,0,0,0,0,0,0,0,0,0,0,0,0,0,0,0,0,0,0,0,0,0,0,0,0,0],"sum_hessian":[6.616E3,3.823E3,2.793E3,2.039E3,1.784E3,1.12E2,2.681E3,1.9E3,1.39E2,4.96E2,1.288E3,8.5E1,2.7E1,1.033E3,1.648E3,1.526E3,3.74E2,1.21E2,1.8E1,4.6E2,3.6E1,3.02E2,9.86E2,5.8E1,2.7E1,1.2E1,1.5E1,9.02E2,1.31E2,1.234E3,4.14E2,2.26E2,1.3E3,1.89E2,1.85E2,1.03E2,1.8E1,1.1E1,7E0,1.7E1,4.43E2,5E0,3.1E1,5.5E1,2.47E2,7.67E2,2.19E2,1.7E1,1E1,8E0,7E0,4.9E2,4.12E2,2.8E1,1.03E2,1.66E2,1.068E3,2.04E2,2.1E2,5.2E1,1.74E2,1.221E3,7.9E1,9.5E1,9.4E1,2.5E1,1.6E2,1.6E1,8.7E1,1E1,7E0,3.69E2,7.4E1,8E0,2.3E1,5E1,5E0,2.36E2,1.1E1,1.28E2,6.39E2,4.3E1,1.76E2,4.47E2,4.3E1,2.6E2,1.52E2,8.1E1,2.2E1,2.9E1,1.37E2,3.12E2,7.56E2,1.95E2,9E0,5E0,2.05E2],"tree_param":{"num_deleted":"0","num_feature":"525","num_nodes":"97","size_leaf_vector":"1"}},{"base_weights":[-5.451657E-4,-5.3471323E-2,7.438722E-2,-7.0229456E-2,9.5364E-2,3.448769E-1,6.2798485E-2,-8.353524E-2,5.874125E-2,7.6503545E-2,2.1346867E-1,4.322171E-1,8.878044E-2,3.1342707E-3,1.00483105E-1,-1.4558375E-1,-4.703837E-2,7.509386E-2,-1.8669148E-1,1.0798749E-1,-1.1398214E-2,2.3222832E-2,1.2987652E-1,4.1268528E-2,1.9690488E-1,-3.0447745E-3,1.9771463E-1,-1.3148744E-2,1.1770707E-1,8.0057256E-2,1.6126199E-1,-9.1358095E-2,-2.1505098E-1,1.8558234E-1,-5.6080826E-2,1.3595466E-1,1.00140255E-2,-2.383021E-2,-2.516285E-3,1.7199588E-1,6.289585E-2,-6.1719384E-2,5.7105273E-2,1.2694585E-2,-4.79502E-4,2.4492335E-2,2.202061E-3,3.2156243E-3,2.3995128E-2,-3.050632E-2,4.738711E-2,1.5244379E-2,9.124791E-2,1.199785E-1,4.2370908E-2,2.057844E-1,1.1068544E-1,-1.6002392E-3,-1.0214311E-2,-1.4495292E-2,-3.0072294E-2,2.1659391E-2,-1.4355683E-3,-8.759326E-3,-1.8830608E-3,2.6523573E-2,9.470204E-3,-5.9495512E-3,3.2580448E-3,1.115208E-2,3.009651E-2,-8.0125574E-5,1.0495779E-2,-5.249364E-4,-1.083934E-2,1.1794113E-2,-7.105217E-4,4.0951712E-4,-4.8126797E-3,7.12352E-3,-3.5733002E-4,8.424124E-3,-5.690575E-4,1.4429251E-2,7.885069E-3,9.26781E-3,1.0442657E-3,1.4860299E-2,4.0693562E-2,2.878841E-2,7.215168E-3],"categories":[],"categories_nodes":[],"categories_segments":[],"categories_sizes":[],"default_left":[0,0,0,0,0,0,0,0,0,0,0,0,0,0,0,0,0,0,0,0,0,0,0,0,0,0,0,0,0,0,0,0,0,0,0,0,0,0,0,0,0,0,0,0,0,0,0,0,0,0,0,0,0,0,0,0,0,0,0,0,0,0,0,0,0,0,0,0,0,0,0,0,0,0,0,0,0,0,0,0,0,0,0,0,0,0,0,0,0,0,0],"id":11,"left_children":[1,3,5,7,9,11,13,15,17,19,21,23,25,27,29,31,33,35,37,39,41,-1,43,-1,45,-1,47,49,51,53,55,57,59,61,63,65,67,-1,-1,69,71,73,75,-1,-1,-1,-1,-1,-1,77,79,-1,81,83,85,87,89,-1,-1,-1,-1,-1,-1,-1,-1,-1,-1,-1,-1,-1,-1,-1,-1,-1,-1,-1,-1,-1,-1,-1,-1,-1,-1,-1,-1,-1,-1,-1,-1,-1,-1],"loss_changes":[2.6222446E1,9.678429E0,8.536178E0,5.988552E0,8.427484E-1,2.4284163E0,5.905979E0,7.1401005E0,1.3404422E0,9.489448E-1,2.6492524E-1,1.4304066E0,4.4338387E-1,1.9041324E0,1.9729309E0,4.3642178E0,4.2109127E0,1.2172068E0,3.437279E-1,7.0569754E-1,3.2418913E-1,0E0,1.1540395E-1,0E0,4.4575953E-1,0E0,2.4962729E-1,9.422668E-1,2.1001554E-1,1.8087568E0,8.619156E-1,1.7053967E0,2.6469135E0,1.309644E0,3.3303041E0,4.681325E-1,3.9738065E-1,0E0,0E0,5.80703E-1,6.5926945E-1,2.1795398E-1,2.4101885E-1,0E0,0E0,0E0,0E0,0E0,0E0,7.358476E-1,4.3280855E-1,0E0,1.355843E-1,7.222595E-1,1.3433257E0,1.0972261E0,9.2072964E-1,0E0,0E0,0E0,0E0,0E0,0E0,0E0,0E0,0E0,0E0,0E0,0E0,0E0,0E0,0E0,0E0,0E0,0E0,0E0,0E0,0E0,0E0,0E0,0E0,0E0,0E0,0E0,0E0,0E0,0E0,0E0,0E0,0E0,0E0],"parents":[2147483647,0,0,1,1,2,2,3,3,4,4,5,5,6,6,7,7,8,8,9,9,10,10,11,11,12,12,13,13,14,14,15,15,16,16,17,17,18,18,19,19,20,20,22,22,24,24,26,26,27,27,28,28,29,29,30,30,31,31,32,32,33,33,34,34,35,35,36,36,39,39,40,40,41,41,42,42,49,49,50,50,52,52,53,53,54,54,55,55,56,56],"right_children":[2,4,6,8,10,12,14,16,18,20,22,24,26,28,30,32,34,36,38,40,42,-1,44,-1,46,-1,48,50,52,54,56,58,60,62,64,66,68,-1,-1,70,72,74,76,-1,-1,-1,-1,-1,-1,78,80,-1,82,84,86,88,90,-1,-1,-1,-1,-1,-1,-1,-1,-1,-1,-1,-1,-1,-1,-1,-1,-1,-1,-1,-1,-1,-1,-1,-1,-1,-1,-1,-1,-1,-1,-1,-1,-1,-1],"split_conditions":[1.3478029E0,1.4932605E0,-2.9118773E-1,4.4017017E-1,1E0,-8.722742E-2,1.7995147E0,-1.1636873E-1,1E0,-8.740429E-1,-2.6528826E-2,7.1014184E-1,4.3270466E-1,3.246818E0,3.246818E0,-5.826298E-1,-2.9118773E-1,8.8753694E-1,5.7099074E-1,3.7820446E-1,1.2824144E0,2.3222832E-2,8.8753694E-1,4.1268528E-2,-3.0416417E-1,-3.0447745E-3,1.7486755E0,1.8943821E0,-4.5057967E-2,-5.38594E-1,-1.2820214E0,-1.0197495E0,1E0,1E0,-9.757327E-2,-8.900009E-1,-9.757327E-2,-2.383021E-2,-2.516285E-3,1E0,4.1104862E-1,1E0,-5.38594E-1,1.2694585E-2,-4.79502E-4,2.4492335E-2,2.202061E-3,3.2156243E-3,2.3995128E-2,-5.38594E-1,1.4512921E-2,1.5244379E-2,1E0,-1.557259E0,-1.4277279E0,1E0,-4.5057967E-2,-1.6002392E-3,-1.0214311E-2,-1.4495292E-2,-3.0072294E-2,2.1659391E-2,-1.4355683E-3,-8.759326E-3,-1.8830608E-3,2.6523573E-2,9.470204E-3,-5.9495512E-3,3.2580448E-3,1.115208E-2,3.009651E-2,-8.0125574E-5,1.0495779E-2,-5.249364E-4,-1.083934E-2,1.1794113E-2,-7.105217E-4,4.0951712E-4,-4.8126797E-3,7.12352E-3,-3.5733002E-4,8.424124E-3,-5.690575E-4,1.4429251E-2,7.885069E-3,9.26781E-3,1.0442657E-3,1.4860299E-2,4.0693562E-2,2.878841E-2,7.215168E-3],"split_indices":[5,4,0,0,43,2,7,2,22,2,0,3,4,5,5,2,0,1,0,1,2,0,1,0,0,0,2,2,0,1,2,2,43,18,4,3,4,0,0,31,0,65,1,0,0,0,0,0,0,1,0,0,29,1,2,14,0,0,0,0,0,0,0,0,0,0,0,0,0,0,0,0,0,0,0,0,0,0,0,0,0,0,0,0,0,0,0,0,0,0,0],"split_type":[0,0,0,0,0,0,0,0,0,0,0,0,0,0,0,0,0,0,0,0,0,0,0,0,0,0,0,0,0,0,0,0,0,0,0,0,0,0,0,0,0,0,0,0,0,0,0,0,0,0,0,0,0,0,0,0,0,0,0,0,0,0,0,0,0,0,0,0,0,0,0,0,0,0,0,0,0,0,0,0,0,0,0,0,0,0,0,0,0,0,0],"sum_hessian":[6.608E3,3.873E3,2.735E3,3.482E3,3.91E2,1.1E2,2.625E3,3.157E3,3.25E2,3.4E2,5.1E1,8.1E1,2.9E1,1.017E3,1.608E3,1.167E3,1.99E3,3.06E2,1.9E1,2.5E2,9E1,2.4E1,2.7E1,5.8E1,2.3E1,1.4E1,1.5E1,8.92E2,1.25E2,1.207E3,4.01E2,6.58E2,5.09E2,7.3E1,1.917E3,1.57E2,1.49E2,1E1,9E0,1.01E2,1.49E2,5.2E1,3.8E1,2.2E1,5E0,1.3E1,1E1,7E0,8E0,6.94E2,1.98E2,3E1,9.5E1,5.84E2,6.23E2,2.1E2,1.91E2,2.23E2,4.35E2,4.24E2,8.5E1,5.1E1,2.2E1,7.24E2,1.193E3,1E1,1.47E2,3.9E1,1.1E2,9E1,1.1E1,7.8E1,7.1E1,3.1E1,2.1E1,1.5E1,2.3E1,3.16E2,3.78E2,1.09E2,8.9E1,8.3E1,1.2E1,1.49E2,4.35E2,1.76E2,4.47E2,2E2,1E1,1.2E1,1.79E2],"tree_param":{"num_deleted":"0","num_feature":"525","num_nodes":"91","size_leaf_vector":"1"}},{"base_weights":[5.3474432E-5,-7.336872E-2,5.0200865E-2,-1.0643172E-1,-2.9499503E-3,6.8892814E-2,-7.820878E-2,-1.3132031E-1,-4.3255996E-2,5.8585577E-2,-3.102338E-2,2.8215566E-1,5.8778737E-2,1.6434205E-1,-8.838847E-2,3.1780204E-1,-1.3558327E-1,-1.0035342E-2,-9.903191E-2,4.153776E-2,2.4853462E-1,-1.6356823E-1,-8.335614E-3,1.8063872E-1,4.4745538E-1,1.11011535E-1,2.699064E-2,1.8254545E-2,-2.2825813E-3,-1.0001048E-1,9.4546E-2,5.9644645E-3,3.609536E-2,-3.8137402E-2,-1.54151E-1,1.4133946E-2,-8.591771E-2,-8.605285E-2,-1.4142109E-2,3.320374E-2,2.299396E-2,3.7590034E-2,8.259218E-2,-1.9419108E-1,1.1598674E-2,2.1639181E-2,-1.2719637E-2,2.2157524E-2,1.1266306E-1,3.904431E-2,9.777859E-4,9.137483E-2,1.9585334E-1,-5.838921E-2,5.0444588E-2,-1.1796308E-1,-1.1124294E-2,2.6799092E-2,1.9658376E-2,-7.3136925E-3,5.2660317E-3,-6.6387826E-3,-1.4656728E-2,-4.2913416E-3,4.0924456E-3,6.090429E-3,-8.688283E-3,-9.623392E-3,-4.3229153E-3,3.6916672E-3,-8.221239E-3,1.4089916E-2,-1.5120782E-3,-1.7121457E-2,-4.726338E-3,5.803062E-4,-5.9365374E-3,5.0722584E-3,2.068454E-2,1.6499016E-2,6.372338E-3,1.4412161E-2,4.0797014E-2,-7.4503236E-3,4.557941E-3,2.6093773E-3,1.0189086E-2,-1.1696596E-2,-5.3964383E-3,1.3723107E-3,-8.708951E-3,-7.719582E-3,4.667691E-3],"categories":[],"categories_nodes":[],"categories_segments":[],"categories_sizes":[],"default_left":[0,0,0,0,0,0,0,0,0,0,0,0,0,0,0,0,0,0,0,0,0,0,0,0,0,0,0,0,0,0,0,0,0,0,0,0,0,0,0,0,0,0,0,0,0,0,0,0,0,0,0,0,0,0,0,0,0,0,0,0,0,0,0,0,0,0,0,0,0,0,0,0,0,0,0,0,0,0,0,0,0,0,0,0,0,0,0,0,0,0,0,0,0],"id":12,"left_children":[1,3,5,7,9,11,13,15,17,19,21,23,25,27,29,31,33,35,37,39,41,43,45,47,49,51,53,-1,-1,55,57,-1,-1,59,61,63,65,67,-1,69,-1,-1,71,73,-1,-1,75,-1,77,-1,-1,79,81,83,85,87,89,-1,91,-1,-1,-1,-1,-1,-1,-1,-1,-1,-1,-1,-1,-1,-1,-1,-1,-1,-1,-1,-1,-1,-1,-1,-1,-1,-1,-1,-1,-1,-1,-1,-1,-1,-1],"loss_changes":[2.4532713E1,6.294977E0,9.513271E0,2.881771E0,1.4996616E0,7.4234314E0,1.2734745E0,2.6115208E0,9.670855E-1,8.601477E-1,1.7895325E0,2.4561377E0,5.4782467E0,2.7159512E-1,1.0500529E0,3.5452795E-1,2.354868E0,6.076563E-1,1.6634059E-1,4.9731767E-1,7.3044014E-1,8.783488E-1,6.315158E-1,5.9240365E-1,1.0129175E0,2.0450592E0,4.1230197E0,0E0,0E0,7.266283E-1,5.270148E-1,0E0,0E0,1.1864158E0,2.2402096E0,6.3779825E-1,3.1063157E-1,1.7445445E-1,0E0,4.4237745E-1,0E0,0E0,1.4905033E-1,1.890223E-1,0E0,0E0,6.212721E-1,0E0,4.1278857E-1,0E0,0E0,1.3376389E0,9.653988E-1,1.7900343E0,2.2049112E0,5.2236557E-1,2.2207825E-1,0E0,1.23602845E-1,0E0,0E0,0E0,0E0,0E0,0E0,0E0,0E0,0E0,0E0,0E0,0E0,0E0,0E0,0E0,0E0,0E0,0E0,0E0,0E0,0E0,0E0,0E0,0E0,0E0,0E0,0E0,0E0,0E0,0E0,0E0,0E0,0E0,0E0],"parents":[2147483647,0,0,1,1,2,2,3,3,4,4,5,5,6,6,7,7,8,8,9,9,10,10,11,11,12,12,13,13,14,14,15,15,16,16,17,17,18,18,19,19,20,20,21,21,22,22,23,23,24,24,25,25,26,26,29,29,30,30,33,33,34,34,35,35,36,36,37,37,39,39,42,42,43,43,46,46,48,48,51,51,52,52,53,53,54,54,55,55,56,56,58,58],"right_children":[2,4,6,8,10,12,14,16,18,20,22,24,26,28,30,32,34,36,38,40,42,44,46,48,50,52,54,-1,-1,56,58,-1,-1,60,62,64,66,68,-1,70,-1,-1,72,74,-1,-1,76,-1,78,-1,-1,80,82,84,86,88,90,-1,92,-1,-1,-1,-1,-1,-1,-1,-1,-1,-1,-1,-1,-1,-1,-1,-1,-1,-1,-1,-1,-1,-1,-1,-1,-1,-1,-1,-1,-1,-1,-1,-1,-1,-1],"split_conditions":[1.3860437E0,4.3270466E-1,1E0,1.428121E0,-1.1945975E0,-2.829492E-1,-1.2528801E0,-3.373597E-1,1E0,1E0,-2.0379268E-1,1E0,-1.0197495E0,2.9118955E-2,1E0,-6.404605E-1,-1.557259E0,1E0,1E0,1.1141903E0,7.1014184E-1,5.4081297E-1,-3.373597E-1,-3.373597E-1,4.0817496E-1,3.246818E0,-2.0379268E-1,1.8254545E-2,-2.2825813E-3,1.8360995E0,-1.8140107E-1,5.9644645E-3,3.609536E-2,-1.0876321E-1,-5.826298E-1,1.8360995E0,1.6029689E0,1.9235234E0,-1.4142109E-2,1E0,2.299396E-2,3.7590034E-2,-5.38594E-1,1E0,1.1598674E-2,2.1639181E-2,1E0,2.2157524E-2,1E0,3.904431E-2,9.777859E-4,-6.404605E-1,1E0,5.106352E-1,1E0,1.7995147E0,1E0,2.6799092E-2,-1.557259E0,-7.3136925E-3,5.2660317E-3,-6.6387826E-3,-1.4656728E-2,-4.2913416E-3,4.0924456E-3,6.090429E-3,-8.688283E-3,-9.623392E-3,-4.3229153E-3,3.6916672E-3,-8.221239E-3,1.4089916E-2,-1.5120782E-3,-1.7121457E-2,-4.726338E-3,5.803062E-4,-5.9365374E-3,5.0722584E-3,2.068454E-2,1.6499016E-2,6.372338E-3,1.4412161E-2,4.0797014E-2,-7.4503236E-3,4.557941E-3,2.6093773E-3,1.0189086E-2,-1.1696596E-2,-5.3964383E-3,1.3723107E-3,-8.708951E-3,-7.719582E-3,4.667691E-3],"split_indices":[6,4,18,2,2,0,2,0,18,31,2,11,2,0,43,1,1,40,22,0,3,0,0,0,2,5,2,0,0,2,0,0,0,0,2,2,2,2,0,18,0,0,1,73,0,0,18,0,22,0,0,1,14,0,43,7,29,0,1,0,0,0,0,0,0,0,0,0,0,0,0,0,0,0,0,0,0,0,0,0,0,0,0,0,0,0,0,0,0,0,0,0,0],"split_type":[0,0,0,0,0,0,0,0,0,0,0,0,0,0,0,0,0,0,0,0,0,0,0,0,0,0,0,0,0,0,0,0,0,0,0,0,0,0,0,0,0,0,0,0,0,0,0,0,0,0,0,0,0,0,0,0,0,0,0,0,0,0,0,0,0,0,0,0,0,0,0,0,0,0,0,0,0,0,0,0,0,0,0,0,0,0,0,0,0,0,0,0,0],"sum_hessian":[6.659E3,2.702E3,3.957E3,1.838E3,8.64E2,3.455E3,5.02E2,1.317E3,5.21E2,2.7E2,5.94E2,1.54E2,3.301E3,1.9E1,4.83E2,1.1E1,1.306E3,3.28E2,1.93E2,2.5E2,2E1,8.5E1,5.09E2,9.8E1,5.6E1,1.247E3,2.054E3,1.4E1,5E0,4.55E2,2.8E1,5E0,6E0,2.1E2,1.096E3,2.5E2,7.8E1,1.69E2,2.4E1,2.44E2,6E0,7E0,1.3E1,7.8E1,7E0,6E0,5.03E2,3.8E1,6E1,5.1E1,5E0,1.016E3,2.31E2,4.42E2,1.612E3,3.78E2,7.7E1,5E0,2.3E1,1.39E2,7.1E1,3.2E2,7.76E2,8.8E1,1.62E2,9E0,6.9E1,7.9E1,9E1,2.24E2,2E1,6E0,7E0,6.7E1,1.1E1,3.81E2,1.22E2,4.7E1,1.3E1,9.1E1,9.25E2,2.23E2,8E0,3.4E2,1.02E2,1.311E3,3.01E2,2.4E2,1.38E2,6.1E1,1.6E1,5E0,1.8E1],"tree_param":{"num_deleted":"0","num_feature":"525","num_nodes":"93","size_leaf_vector":"1"}},{"base_weights":[6.597376E-4,-7.057967E-2,4.9442127E-2,2.5445543E-2,-8.87576E-2,1.7105381E-1,3.0481502E-2,-4.9435746E-2,5.9931505E-2,-1.7514087E-1,-5.5558696E-2,2.9720306E-1,1.2697722E-1,-1.4987713E-2,8.313087E-2,-7.5470455E-2,2.3703929E-2,4.9133576E-2,2.4583487E-2,-1.833233E-1,2.1048991E-1,-3.7399765E-2,-1.4755592E-1,1.8001734E-1,4.1966692E-1,2.1466084E-1,9.479786E-2,-2.2111088E-2,2.0365177E-1,3.8102005E-2,9.8676465E-2,5.014605E-2,-1.1794489E-1,1.1256115E-1,1.5901104E-2,-1.1276481E-1,-2.1762934E-1,2.9389748E-2,7.8840254E-5,3.5796228E-1,-4.1408774E-2,-2.5520357E-1,-9.270207E-2,1.478187E-1,3.2374136E-2,3.6314253E-2,4.875428E-4,2.3797144E-1,8.41001E-2,1.15916714E-1,1.0330193E-2,-4.6522776E-3,-9.004496E-2,3.1070866E-2,8.598196E-2,1.4882618E-1,2.9183555E-2,1.0312015E-1,-3.8017728E-3,-3.2722773E-3,1.9836744E-2,-6.182742E-3,-1.5656518E-2,6.8287966E-3,2.497423E-2,-9.446515E-4,5.7707434E-3,-5.475633E-3,-1.3211465E-2,-1.4949922E-2,-2.5908317E-2,1.1441968E-2,3.5647105E-2,-7.1970904E-3,-1.182429E-3,-4.5151594E-3,-2.3995586E-2,-9.297466E-3,3.1505208E-3,1.9491239E-2,8.439493E-3,2.1245848E-2,9.9693E-3,-2.0934017E-3,1.5085957E-2,1.0941288E-2,-2.4087469E-3,-1.5319048E-3,1.9456858E-2,-1.0296337E-3,1.0069808E-2,-8.487552E-3,6.266198E-4,1.0972739E-2,-6.779701E-3,2.0239031E-2,4.1020224E-3,1.02603E-3,7.4746697E-3,8.848072E-3,1.7779614E-3],"categories":[],"categories_nodes":[],"categories_segments":[],"categories_sizes":[],"default_left":[0,0,0,0,0,0,0,0,0,0,0,0,0,0,0,0,0,0,0,0,0,0,0,0,0,0,0,0,0,0,0,0,0,0,0,0,0,0,0,0,0,0,0,0,0,0,0,0,0,0,0,0,0,0,0,0,0,0,0,0,0,0,0,0,0,0,0,0,0,0,0,0,0,0,0,0,0,0,0,0,0,0,0,0,0,0,0,0,0,0,0,0,0,0,0,0,0,0,0,0,0],"id":13,"left_children":[1,3,5,7,9,11,13,15,17,19,21,23,25,27,29,31,-1,33,-1,35,37,39,41,43,45,47,49,51,53,55,57,59,61,63,65,67,69,-1,-1,71,73,75,77,79,-1,-1,-1,81,83,85,87,89,91,-1,93,95,97,99,-1,-1,-1,-1,-1,-1,-1,-1,-1,-1,-1,-1,-1,-1,-1,-1,-1,-1,-1,-1,-1,-1,-1,-1,-1,-1,-1,-1,-1,-1,-1,-1,-1,-1,-1,-1,-1,-1,-1,-1,-1,-1,-1],"loss_changes":[2.30686E1,4.7139816E0,9.074555E0,1.1189198E0,6.487644E0,2.8770046E0,8.16817E0,1.2778752E0,7.6041865E-1,2.0619164E0,2.73204E0,1.8006439E0,1.0794778E0,2.8622565E0,1.0991821E0,7.001071E-1,0E0,5.9926695E-1,0E0,1.444418E0,4.5942032E-1,2.2074487E0,1.5470047E0,4.0842485E-1,9.1548634E-1,2.795353E-1,5.220604E-1,2.1055772E0,1.1939938E0,3.9519608E-1,7.7250195E-1,6.3265204E-1,2.7644777E-1,4.7882676E-1,2.9775763E-1,4.555986E-1,1.2282181E0,0E0,0E0,1.3621926E-1,1.758323E0,7.665081E-1,5.74466E-1,2.2032416E-1,0E0,0E0,0E0,2.0914459E-1,2.287517E-1,7.2370625E-1,4.280846E-1,1.521071E0,5.718925E-1,0E0,3.552689E-1,2.7888793E-1,3.980382E-1,6.849661E-1,0E0,0E0,0E0,0E0,0E0,0E0,0E0,0E0,0E0,0E0,0E0,0E0,0E0,0E0,0E0,0E0,0E0,0E0,0E0,0E0,0E0,0E0,0E0,0E0,0E0,0E0,0E0,0E0,0E0,0E0,0E0,0E0,0E0,0E0,0E0,0E0,0E0,0E0,0E0,0E0,0E0,0E0,0E0],"parents":[2147483647,0,0,1,1,2,2,3,3,4,4,5,5,6,6,7,7,8,8,9,9,10,10,11,11,12,12,13,13,14,14,15,15,17,17,19,19,20,20,21,21,22,22,23,23,24,24,25,25,26,26,27,27,28,28,29,29,30,30,31,31,32,32,33,33,34,34,35,35,36,36,39,39,40,40,41,41,42,42,43,43,47,47,48,48,49,49,50,50,51,51,52,52,54,54,55,55,56,56,57,57],"right_children":[2,4,6,8,10,12,14,16,18,20,22,24,26,28,30,32,-1,34,-1,36,38,40,42,44,46,48,50,52,54,56,58,60,62,64,66,68,70,-1,-1,72,74,76,78,80,-1,-1,-1,82,84,86,88,90,92,-1,94,96,98,100,-1,-1,-1,-1,-1,-1,-1,-1,-1,-1,-1,-1,-1,-1,-1,-1,-1,-1,-1,-1,-1,-1,-1,-1,-1,-1,-1,-1,-1,-1,-1,-1,-1,-1,-1,-1,-1,-1,-1,-1,-1,-1,-1],"split_conditions":[1.3860437E0,-1.0197495E0,-1.557259E0,-4.7653254E-2,-1.1636873E-1,-2.9118773E-1,9.629826E-1,1E0,1.1141903E0,6.403996E-1,1E0,1E0,-1.2820214E0,1E0,1.7995147E0,-6.404605E-1,2.3703929E-2,3.7820446E-1,2.4583487E-2,-5.826298E-1,8.8753694E-1,-3.373597E-1,1.4590311E-1,1E0,-8.722742E-2,1E0,1E0,1E0,-1.2528801E0,-1.4277279E0,1E0,-1.3516875E-1,1E0,2.541243E-1,1E0,-9.757327E-2,1E0,2.9389748E-2,7.8840254E-5,1E0,-9.757327E-2,-1.2542133E-1,1.3478029E0,-3.373597E-1,3.2374136E-2,3.6314253E-2,4.875428E-4,1E0,1E0,1E0,1E0,3.246818E0,1.8652408E0,3.1070866E-2,6.9170177E-1,1E0,1.8943821E0,1E0,-3.8017728E-3,-3.2722773E-3,1.9836744E-2,-6.182742E-3,-1.5656518E-2,6.8287966E-3,2.497423E-2,-9.446515E-4,5.7707434E-3,-5.475633E-3,-1.3211465E-2,-1.4949922E-2,-2.5908317E-2,1.1441968E-2,3.5647105E-2,-7.1970904E-3,-1.182429E-3,-4.5151594E-3,-2.3995586E-2,-9.297466E-3,3.1505208E-3,1.9491239E-2,8.439493E-3,2.1245848E-2,9.9693E-3,-2.0934017E-3,1.5085957E-2,1.0941288E-2,-2.4087469E-3,-1.5319048E-3,1.9456858E-2,-1.0296337E-3,1.0069808E-2,-8.487552E-3,6.266198E-4,1.0972739E-2,-6.779701E-3,2.0239031E-2,4.1020224E-3,1.02603E-3,7.4746697E-3,8.848072E-3,1.7779614E-3],"split_indices":[6,2,1,0,2,0,4,31,0,0,33,11,2,81,7,1,0,1,0,2,1,0,2,9,2,46,46,18,2,2,32,0,16,0,35,4,43,0,0,31,4,0,5,0,0,0,0,43,43,45,31,5,2,0,0,20,2,45,0,0,0,0,0,0,0,0,0,0,0,0,0,0,0,0,0,0,0,0,0,0,0,0,0,0,0,0,0,0,0,0,0,0,0,0,0,0,0,0,0,0,0],"split_type":[0,0,0,0,0,0,0,0,0,0,0,0,0,0,0,0,0,0,0,0,0,0,0,0,0,0,0,0,0,0,0,0,0,0,0,0,0,0,0,0,0,0,0,0,0,0,0,0,0,0,0,0,0,0,0,0,0,0,0,0,0,0,0,0,0,0,0,0,0,0,0,0,0,0,0,0,0,0,0,0,0,0,0,0,0,0,0,0,0,0,0,0,0,0,0,0,0,0,0,0,0],"sum_hessian":[6.634E3,2.696E3,3.938E3,4.29E2,2.267E3,5.29E2,3.409E3,1.35E2,2.94E2,6.27E2,1.64E3,1.34E2,3.95E2,1.83E3,1.579E3,1.27E2,8E0,2.84E2,1E1,6.15E2,1.2E1,1.372E3,2.68E2,7.1E1,6.3E1,1.03E2,2.92E2,1.774E3,5.6E1,4.07E2,1.172E3,3.2E1,9.5E1,9.6E1,1.88E2,2.04E2,4.11E2,6E0,6E0,1.2E1,1.36E3,8.8E1,1.8E2,6.5E1,6E0,5.8E1,5E0,8.6E1,1.7E1,2.33E2,5.9E1,1.413E3,3.61E2,2E1,3.6E1,2.8E1,3.79E2,1.138E3,3.4E1,2.3E1,9E0,6.5E1,3E1,8.7E1,9E0,1.27E2,6.1E1,1.13E2,9.1E1,3.23E2,8.8E1,5E0,7E0,4.8E2,8.8E2,1.7E1,7.1E1,1.53E2,2.7E1,1.7E1,4.8E1,6.7E1,1.9E1,9E0,8E0,2.04E2,2.9E1,5.4E1,5E0,1.331E3,8.2E1,3.1E2,5.1E1,2.8E1,8E0,1.2E1,1.6E1,3.04E2,7.5E1,1.041E3,9.7E1],"tree_param":{"num_deleted":"0","num_feature":"525","num_nodes":"101","size_leaf_vector":"1"}},{"base_weights":[9.069062E-4,-6.185554E-2,4.4200245E-2,-8.875527E-2,-3.7883855E-3,1.5319924E-1,2.6725346E-2,-6.959239E-2,-1.4686053E-1,-1.4142782E-2,1.06714256E-1,1.9431335E-1,6.8823926E-2,-2.1072721E-2,7.034396E-2,-8.914889E-2,1.971271E-3,-1.1348923E-2,-1.8320936E-1,5.9112977E-2,-2.4946557E-2,6.660413E-3,1.503088E-2,1.5736443E-1,3.5052142E-1,4.3393947E-2,2.3156223E-1,-5.1398415E-2,2.0366052E-2,5.518292E-2,1.3106199E-1,-1.5433902E-1,-5.836113E-2,1.3311559E-1,-2.263369E-2,-4.569882E-2,2.7384426E-2,-6.3484065E-2,-2.0028996E-1,-1.2171785E-2,1.4304926E-1,-3.0469619E-2,1.1272771E-1,1.1960657E-1,2.502485E-2,3.3163786E-2,-1.3885895E-3,5.7944216E-2,-1.3032688E-2,6.811811E-3,2.3530085E-2,-1.06690824E-1,-2.4852911E-2,9.368676E-3,1.9291654E-1,8.3058834E-2,3.0783843E-2,2.0491369E-1,1.0066378E-1,-5.918338E-3,-1.9200385E-2,3.1190932E-2,-5.0424314E-3,2.2760633E-2,5.3476393E-3,-9.783404E-3,1.2323186E-4,-9.8461155E-3,6.751622E-4,-1.3456903E-3,-1.2376585E-2,-1.776653E-2,-1.0722162E-2,-3.3785067E-3,1.4600065E-2,5.140901E-3,2.3013467E-2,1.2980802E-2,-2.7611617E-3,2.1979703E-2,2.2837257E-3,1.229483E-2,2.8827514E-3,1.3379805E-2,3.6812557E-3,1.2374928E-3,-1.0031028E-2,-3.2055113E-3,4.588316E-3,-1.4188556E-3,5.3072684E-3,1.8592054E-2,7.070965E-5,7.19793E-3,-6.919955E-3,5.558519E-3,1.0995418E-4,2.2935128E-2,1.2543722E-2,1.8984951E-2,6.6399537E-3],"categories":[],"categories_nodes":[],"categories_segments":[],"categories_sizes":[],"default_left":[0,0,0,0,0,0,0,0,0,0,0,0,0,0,0,0,0,0,0,0,0,0,0,0,0,0,0,0,0,0,0,0,0,0,0,0,0,0,0,0,0,0,0,0,0,0,0,0,0,0,0,0,0,0,0,0,0,0,0,0,0,0,0,0,0,0,0,0,0,0,0,0,0,0,0,0,0,0,0,0,0,0,0,0,0,0,0,0,0,0,0,0,0,0,0,0,0,0,0,0,0],"id":14,"left_children":[1,3,5,7,9,11,13,15,17,19,21,23,25,27,29,31,33,35,37,39,41,-1,-1,43,45,47,49,51,53,55,57,59,61,63,65,67,-1,69,71,73,75,77,79,81,-1,-1,-1,83,-1,-1,-1,85,87,89,91,93,95,97,99,-1,-1,-1,-1,-1,-1,-1,-1,-1,-1,-1,-1,-1,-1,-1,-1,-1,-1,-1,-1,-1,-1,-1,-1,-1,-1,-1,-1,-1,-1,-1,-1,-1,-1,-1,-1,-1,-1,-1,-1,-1,-1],"loss_changes":[1.8058516E1,4.237009E0,7.483179E0,2.0439215E0,9.881645E-1,1.8569288E0,7.074896E0,1.9569016E0,2.2518053E0,6.273945E-1,1.0962701E-1,1.9905863E0,7.289593E-1,2.037882E0,1.6185875E0,2.1857347E0,9.805197E-1,1.2339367E0,7.1280956E-1,6.1378694E-1,5.3077364E-1,0E0,0E0,1.6742282E0,1.6160488E0,4.9615863E-1,1.6975796E-1,1.3685246E0,1.2981406E0,9.627352E-1,7.5121593E-1,2.380803E0,1.6167953E0,4.4353753E-1,6.1712223E-1,3.874743E-1,0E0,1.9911902E-1,3.953228E-1,3.4896547E-1,4.985578E-1,5.288367E-1,3.525644E-1,6.809981E-1,0E0,0E0,0E0,1.8018198E-1,0E0,0E0,0E0,6.959369E-1,7.9889095E-1,1.0014474E0,3.1046128E-1,7.929621E-1,8.670224E-1,3.0751085E-1,5.7371235E-1,0E0,0E0,0E0,0E0,0E0,0E0,0E0,0E0,0E0,0E0,0E0,0E0,0E0,0E0,0E0,0E0,0E0,0E0,0E0,0E0,0E0,0E0,0E0,0E0,0E0,0E0,0E0,0E0,0E0,0E0,0E0,0E0,0E0,0E0,0E0,0E0,0E0,0E0,0E0,0E0,0E0,0E0],"parents":[2147483647,0,0,1,1,2,2,3,3,4,4,5,5,6,6,7,7,8,8,9,9,10,10,11,11,12,12,13,13,14,14,15,15,16,16,17,17,18,18,19,19,20,20,23,23,24,24,25,25,26,26,27,27,28,28,29,29,30,30,31,31,32,32,33,33,34,34,35,35,37,37,38,38,39,39,40,40,41,41,42,42,43,43,47,47,51,51,52,52,53,53,54,54,55,55,56,56,57,57,58,58],"right_children":[2,4,6,8,10,12,14,16,18,20,22,24,26,28,30,32,34,36,38,40,42,-1,-1,44,46,48,50,52,54,56,58,60,62,64,66,68,-1,70,72,74,76,78,80,82,-1,-1,-1,84,-1,-1,-1,86,88,90,92,94,96,98,100,-1,-1,-1,-1,-1,-1,-1,-1,-1,-1,-1,-1,-1,-1,-1,-1,-1,-1,-1,-1,-1,-1,-1,-1,-1,-1,-1,-1,-1,-1,-1,-1,-1,-1,-1,-1,-1,-1,-1,-1,-1,-1],"split_conditions":[1.3860437E0,4.3270466E-1,-1.557259E0,1E0,3.246818E0,1.9653238E-4,4.3270466E-1,1.7867991E-1,-1.0097735E-1,-6.404605E-1,1E0,1E0,1E0,1.7995147E0,3.246818E0,-1.1636873E-1,-8.449016E-1,1E0,-7.283364E-1,1.7995147E0,7.5205725E-1,6.660413E-3,1.503088E-2,1E0,-2.9118773E-1,1E0,1.6029689E0,-1.1636873E-1,1E0,-1.3111627E0,-1.3985866E0,-5.826298E-1,-3.373597E-1,-8.992955E-2,-4.077819E-1,-4.660645E-1,2.7384426E-2,1.9376878E-1,7.1014184E-1,1E0,-6.575991E-2,-2.4712822E-1,8.8753694E-1,1E0,2.502485E-2,3.3163786E-2,-1.3885895E-3,-3.373597E-1,-1.3032688E-2,6.811811E-3,2.3530085E-2,-1.0488908E0,1E0,3.9897752E-1,6.9170177E-1,1E0,-5.38594E-1,3.7820446E-1,-3.5582155E-2,-5.918338E-3,-1.9200385E-2,3.1190932E-2,-5.0424314E-3,2.2760633E-2,5.3476393E-3,-9.783404E-3,1.2323186E-4,-9.8461155E-3,6.751622E-4,-1.3456903E-3,-1.2376585E-2,-1.776653E-2,-1.0722162E-2,-3.3785067E-3,1.4600065E-2,5.140901E-3,2.3013467E-2,1.2980802E-2,-2.7611617E-3,2.1979703E-2,2.2837257E-3,1.229483E-2,2.8827514E-3,1.3379805E-2,3.6812557E-3,1.2374928E-3,-1.0031028E-2,-3.2055113E-3,4.588316E-3,-1.4188556E-3,5.3072684E-3,1.8592054E-2,7.070965E-5,7.19793E-3,-6.919955E-3,5.558519E-3,1.0995418E-4,2.2935128E-2,1.2543722E-2,1.8984951E-2,6.6399537E-3],"split_indices":[6,4,1,33,5,2,4,0,0,1,35,11,22,7,5,2,2,81,2,7,0,0,0,31,0,36,2,2,81,2,2,2,0,3,2,2,0,0,3,31,0,0,1,21,0,0,0,0,0,0,0,2,43,0,0,32,1,1,0,0,0,0,0,0,0,0,0,0,0,0,0,0,0,0,0,0,0,0,0,0,0,0,0,0,0,0,0,0,0,0,0,0,0,0,0,0,0,0,0,0,0],"split_type":[0,0,0,0,0,0,0,0,0,0,0,0,0,0,0,0,0,0,0,0,0,0,0,0,0,0,0,0,0,0,0,0,0,0,0,0,0,0,0,0,0,0,0,0,0,0,0,0,0,0,0,0,0,0,0,0,0,0,0,0,0,0,0,0,0,0,0,0,0,0,0,0,0,0,0,0,0,0,0,0,0,0,0,0,0,0,0,0,0,0,0,0,0,0,0,0,0,0,0,0,0],"sum_hessian":[6.642E3,2.711E3,3.931E3,1.852E3,8.59E2,5.41E2,3.39E3,1.396E3,4.56E2,7.87E2,7.2E1,3.62E2,1.79E2,1.618E3,1.772E3,1.096E3,3E2,9.7E1,3.59E2,1E2,6.87E2,5.9E1,1.3E1,2.96E2,6.6E1,1.57E2,2.2E1,9.34E2,6.84E2,1.421E3,3.51E2,3.49E2,7.47E2,4.6E1,2.54E2,9E1,7E0,4.6E1,3.13E2,5.5E1,4.5E1,6.62E2,2.5E1,2.41E2,5.5E1,5.6E1,1E1,1.48E2,9E0,8E0,1.4E1,3.01E2,6.33E2,6.45E2,3.9E1,6.61E2,7.6E2,9.9E1,2.52E2,1.82E2,1.67E2,6E0,7.41E2,1.2E1,3.4E1,4.8E1,2.06E2,3.6E1,5.4E1,3.2E1,1.4E1,2.32E2,8.1E1,4.9E1,6E0,3.1E1,1.4E1,1.2E1,6.5E2,7E0,1.8E1,1.7E2,7.1E1,1.2E1,1.36E2,4E1,2.61E2,5.35E2,9.8E1,4.38E2,2.07E2,3.2E1,7E0,6.36E2,2.5E1,3.27E2,4.33E2,3.3E1,6.6E1,2.6E1,2.26E2],"tree_param":{"num_deleted":"0","num_feature":"525","num_nodes":"101","size_leaf_vector":"1"}},{"base_weights":[2.300176E-3,-5.8645666E-2,4.442197E-2,-8.089339E-2,9.4990805E-3,1.5050273E-1,2.734652E-2,2.16615E-1,-8.359426E-2,-1.853695E-2,5.3682398E-2,2.6354843E-1,1.116242E-1,-1.4702324E-2,7.5676024E-2,3.3523655E-3,2.688465E-2,-9.8558E-2,-2.2957006E-2,6.734996E-5,-8.7036125E-2,6.864881E-2,-1.0715685E-1,1.6616282E-1,2.9676637E-2,7.636558E-2,1.6901523E-1,8.261167E-2,-2.9351676E-2,3.0990569E-2,9.074601E-2,-1.0374387E-1,8.8710874E-2,1.5370178E-1,-3.8936857E-2,8.341488E-2,-1.3528824E-2,2.704202E-3,-1.088829E-1,1.3970375E-2,5.6891464E-2,-2.3509525E-3,-1.38838515E-2,2.5483605E-2,1.3886651E-1,4.6755243E-2,1.4697321E-1,3.1068404E-3,1.9364175E-1,2.8232042E-2,1.977832E-1,-8.60324E-2,-2.228998E-4,6.659646E-2,4.479409E-3,2.9521717E-2,8.797462E-2,-3.424113E-3,-9.439994E-3,1.2370918E-3,2.7358674E-2,-1.8204914E-3,3.272283E-2,-1.51026E-2,-2.4576585E-3,1.3987946E-3,1.6387833E-2,-2.0586064E-3,8.2907975E-3,-1.4356494E-2,-3.3283797E-3,5.7342937E-3,1.1488623E-3,-3.7208255E-3,1.2404438E-2,1.013084E-2,1.7076068E-3,1.5362017E-2,1.6785596E-3,1.6749687E-2,1.6861313E-3,-5.8932626E-3,4.2472333E-3,2.1503283E-2,7.939448E-3,-8.988884E-3,1.0720837E-3,-1.0779186E-3,5.412996E-3,6.9247475E-3,-2.6399759E-3,-8.809579E-4,7.627336E-3,6.2546395E-3,1.3544858E-2],"categories":[],"categories_nodes":[],"categories_segments":[],"categories_sizes":[],"default_left":[0,0,0,0,0,0,0,0,0,0,0,0,0,0,0,0,0,0,0,0,0,0,0,0,0,0,0,0,0,0,0,0,0,0,0,0,0,0,0,0,0,0,0,0,0,0,0,0,0,0,0,0,0,0,0,0,0,0,0,0,0,0,0,0,0,0,0,0,0,0,0,0,0,0,0,0,0,0,0,0,0,0,0,0,0,0,0,0,0,0,0,0,0,0,0],"id":15,"left_children":[1,3,5,7,9,11,13,15,17,19,21,23,25,27,29,-1,-1,31,33,35,37,39,41,43,-1,45,47,49,51,53,55,57,59,61,63,65,67,-1,69,-1,71,-1,-1,-1,73,75,77,-1,79,81,83,85,87,89,91,-1,93,-1,-1,-1,-1,-1,-1,-1,-1,-1,-1,-1,-1,-1,-1,-1,-1,-1,-1,-1,-1,-1,-1,-1,-1,-1,-1,-1,-1,-1,-1,-1,-1,-1,-1,-1,-1,-1,-1],"loss_changes":[1.7079313E1,4.1237183E0,7.1177244E0,1.6834574E0,8.331746E-1,2.3364658E0,6.893415E0,3.683265E-1,1.8401384E0,5.2505594E-1,6.4298797E-1,1.32022E0,8.0180883E-1,2.59229E0,1.0570154E0,0E0,0E0,1.601387E0,1.1552768E0,3.7168267E-1,2.3967522E-1,2.791829E-1,1.0855463E-1,2.2764921E-1,0E0,5.2357054E-1,4.786644E-1,1.4794228E0,2.6069539E0,3.779288E-1,8.44327E-1,1.368681E0,8.242414E-1,1.5505083E0,4.476201E-1,3.6111587E-1,4.08548E-1,0E0,3.4117055E-1,0E0,1.3567257E-1,0E0,0E0,0E0,2.1849537E-1,3.6807165E-1,4.1765368E-1,0E0,3.4132385E-1,4.2323625E-1,4.784298E-1,1.4062319E0,9.4185764E-1,3.456996E-1,3.2865894E-1,0E0,9.0532875E-1,0E0,0E0,0E0,0E0,0E0,0E0,0E0,0E0,0E0,0E0,0E0,0E0,0E0,0E0,0E0,0E0,0E0,0E0,0E0,0E0,0E0,0E0,0E0,0E0,0E0,0E0,0E0,0E0,0E0,0E0,0E0,0E0,0E0,0E0,0E0,0E0,0E0,0E0],"parents":[2147483647,0,0,1,1,2,2,3,3,4,4,5,5,6,6,7,7,8,8,9,9,10,10,11,11,12,12,13,13,14,14,17,17,18,18,19,19,20,20,21,21,22,22,23,23,25,25,26,26,27,27,28,28,29,29,30,30,31,31,32,32,33,33,34,34,35,35,36,36,38,38,40,40,44,44,45,45,46,46,48,48,49,49,50,50,51,51,52,52,53,53,54,54,56,56],"right_children":[2,4,6,8,10,12,14,16,18,20,22,24,26,28,30,-1,-1,32,34,36,38,40,42,44,-1,46,48,50,52,54,56,58,60,62,64,66,68,-1,70,-1,72,-1,-1,-1,74,76,78,-1,80,82,84,86,88,90,92,-1,94,-1,-1,-1,-1,-1,-1,-1,-1,-1,-1,-1,-1,-1,-1,-1,-1,-1,-1,-1,-1,-1,-1,-1,-1,-1,-1,-1,-1,-1,-1,-1,-1,-1,-1,-1,-1,-1,-1],"split_conditions":[1.3860437E0,9.629826E-1,-1.557259E0,-3.373597E-1,2.0235386E0,-2.9118773E-1,9.629826E-1,-6.404605E-1,1.8360995E0,1E0,1E0,1E0,1.4932605E0,-1.0488908E0,1.7995147E0,3.3523655E-3,2.688465E-2,1E0,1.8652408E0,-6.404605E-1,-1.2528801E0,-2.1227291E-1,1.7995147E0,-1.2528801E0,2.9676637E-2,1E0,-2.5889754E-1,4.502797E-1,-1.1636873E-1,1E0,-3.0416417E-1,-6.404605E-1,1E0,1E0,-1.1581291E0,1.7995147E0,5.7099074E-1,2.704202E-3,1.4590311E-1,1.3970375E-2,1E0,-2.3509525E-3,-1.38838515E-2,2.5483605E-2,-2.0379268E-1,-2.4079089E-1,-4.5057967E-2,3.1068404E-3,-8.722742E-2,-6.877769E-2,8.8753694E-1,4.291553E-1,1E0,1E0,2.0109472E0,2.9521717E-2,9.210527E-1,-3.424113E-3,-9.439994E-3,1.2370918E-3,2.7358674E-2,-1.8204914E-3,3.272283E-2,-1.51026E-2,-2.4576585E-3,1.3987946E-3,1.6387833E-2,-2.0586064E-3,8.2907975E-3,-1.4356494E-2,-3.3283797E-3,5.7342937E-3,1.1488623E-3,-3.7208255E-3,1.2404438E-2,1.013084E-2,1.7076068E-3,1.5362017E-2,1.6785596E-3,1.6749687E-2,1.6861313E-3,-5.8932626E-3,4.2472333E-3,2.1503283E-2,7.939448E-3,-8.988884E-3,1.0720837E-3,-1.0779186E-3,5.412996E-3,6.9247475E-3,-2.6399759E-3,-8.809579E-4,7.627336E-3,6.2546395E-3,1.3544858E-2],"split_indices":[6,4,1,0,4,0,4,1,2,33,18,11,4,2,7,0,0,35,2,1,2,0,7,2,0,43,0,0,2,20,0,1,21,43,4,7,0,0,2,0,65,0,0,0,2,0,0,0,2,0,1,0,43,18,2,0,0,0,0,0,0,0,0,0,0,0,0,0,0,0,0,0,0,0,0,0,0,0,0,0,0,0,0,0,0,0,0,0,0,0,0,0,0,0,0],"split_type":[0,0,0,0,0,0,0,0,0,0,0,0,0,0,0,0,0,0,0,0,0,0,0,0,0,0,0,0,0,0,0,0,0,0,0,0,0,0,0,0,0,0,0,0,0,0,0,0,0,0,0,0,0,0,0,0,0,0,0,0,0,0,0,0,0,0,0,0,0,0,0,0,0,0,0,0,0,0,0,0,0,0,0,0,0,0,0,0,0,0,0,0,0,0,0],"sum_hessian":[6.649E3,2.717E3,3.932E3,2.048E3,6.69E2,5.43E2,3.389E3,1.7E1,2.031E3,4.1E2,2.59E2,1.36E2,4.07E2,1.813E3,1.576E3,8E0,9E0,1.628E3,4.03E2,3.24E2,8.6E1,2.38E2,2.1E1,7.4E1,6.2E1,2.55E2,1.52E2,2.36E2,1.577E3,3.99E2,1.177E3,1.585E3,4.3E1,3.2E1,3.71E2,4.4E1,2.8E2,1.3E1,7.3E1,2.1E1,2.17E2,1.1E1,1E1,8E0,6.6E1,1.82E2,7.3E1,2.5E1,1.27E2,1.62E2,7.4E1,5.34E2,1.043E3,1.69E2,2.3E2,9E0,1.168E3,3.02E2,1.283E3,3.5E1,8E0,2E1,1.2E1,1.7E1,3.54E2,3E1,1.4E1,2.55E2,2.5E1,3.4E1,3.9E1,1.6E2,5.7E1,5E0,6.1E1,4.2E1,1.4E2,5.3E1,2E1,1.16E2,1.1E1,3.1E1,1.31E2,4.1E1,3.3E1,4.22E2,1.12E2,8.74E2,1.69E2,1.41E2,2.8E1,1.98E2,3.2E1,1.046E3,1.22E2],"tree_param":{"num_deleted":"0","num_feature":"525","num_nodes":"95","size_leaf_vector":"1"}},{"base_weights":[1.6766499E-3,-5.168838E-2,3.796402E-2,-7.1587056E-2,9.982229E-3,1.366671E-1,2.2521256E-2,-7.573806E-2,1.19310945E-1,-2.5367609E-3,9.316149E-2,2.29637E-1,1.049972E-1,-1.3187436E-2,6.4273655E-2,-7.555839E-3,-8.841411E-2,3.0937484E-1,2.870106E-2,7.499663E-2,-1.3801429E-2,1.4832816E-1,4.948524E-2,1.3829833E-1,3.3767807E-1,7.679292E-2,2.3888765E-1,5.1985034E-3,-8.153825E-2,5.0603148E-2,1.1597973E-1,-2.35091E-2,2.2930801E-1,-1.0431529E-1,-2.7309831E-2,3.363482E-2,9.677655E-3,5.598714E-2,-6.7796432E-3,8.426063E-3,1.5575005E-2,-2.200833E-2,8.649035E-3,5.445097E-3,1.8779952E-2,9.124388E-3,-7.3644537E-3,1.09051004E-1,2.8771026E-2,2.8754495E-2,5.6224875E-3,4.702748E-2,1.2073917E-1,1.8605739E-1,3.5027195E-2,-3.681343E-3,1.3239802E-1,-9.6852496E-2,1.762112E-2,1.1972806E-2,6.392542E-2,1.0129218E-1,3.1106186E-1,1.6583418E-2,-2.4427206E-3,-1.2216701E-2,3.0160649E-2,1.8948754E-2,-8.580705E-3,-3.6616756E-3,6.588475E-3,8.936291E-3,-1.6960334E-3,-2.1016162E-3,7.913569E-3,1.4286779E-2,-2.1698612E-3,-4.7797784E-3,1.1606171E-2,1.723219E-2,4.631548E-3,1.5888348E-3,8.126373E-3,1.4508925E-2,4.947095E-3,1.7166218E-2,7.3622903E-3,8.043237E-3,-9.822347E-4,2.5915712E-2,8.179251E-3,-8.175873E-3,9.750034E-3,2.111361E-2,-1.9330342E-3,2.3688904E-3,-4.2098537E-3,2.4833445E-2,4.8888195E-3,5.4021296E-3,1.2935882E-2,3.1097587E-2,2.6871245E-3],"categories":[],"categories_nodes":[],"categories_segments":[],"categories_sizes":[],"default_left":[0,0,0,0,0,0,0,0,0,0,0,0,0,0,0,0,0,0,0,0,0,0,0,0,0,0,0,0,0,0,0,0,0,0,0,0,0,0,0,0,0,0,0,0,0,0,0,0,0,0,0,0,0,0,0,0,0,0,0,0,0,0,0,0,0,0,0,0,0,0,0,0,0,0,0,0,0,0,0,0,0,0,0,0,0,0,0,0,0,0,0,0,0,0,0,0,0,0,0,0,0,0,0],"id":16,"left_children":[1,3,5,7,9,11,13,15,17,19,21,23,25,27,29,31,33,35,37,39,41,43,45,47,49,51,53,55,57,59,61,63,65,67,69,-1,-1,71,-1,73,-1,75,-1,-1,-1,-1,77,79,-1,-1,-1,81,83,85,-1,87,89,91,93,95,97,99,101,-1,-1,-1,-1,-1,-1,-1,-1,-1,-1,-1,-1,-1,-1,-1,-1,-1,-1,-1,-1,-1,-1,-1,-1,-1,-1,-1,-1,-1,-1,-1,-1,-1,-1,-1,-1,-1,-1,-1,-1],"loss_changes":[1.2850511E1,3.2975907E0,6.014626E0,1.6274729E0,6.8462014E-1,1.5240583E0,5.0976725E0,1.71772E0,7.399945E-1,5.0252146E-1,1.9253463E-1,1.2289557E0,1.4813762E0,2.3181913E0,1.1022553E0,1.1973095E0,1.6237249E0,1.9121873E-1,1.0854573E-1,5.7837534E-1,5.070295E-1,2.2469664E-1,1.8888879E-1,4.135549E-1,2.984805E-1,4.2685056E-1,5.623119E-1,1.644415E0,5.971668E-1,6.417742E-1,8.767953E-1,4.925819E-1,1.2436231E0,1.3864756E0,7.1410775E-1,0E0,0E0,1.2085307E-1,0E0,1.5904689E-1,0E0,4.939693E-1,0E0,0E0,0E0,0E0,2.4891001E-1,3.5589933E-1,0E0,0E0,0E0,2.9681557E-1,4.560418E-1,1.1604571E-1,0E0,1.222756E0,4.8253572E-1,4.2130446E-1,5.684881E-1,3.7113133E-1,6.0671234E-1,6.063757E-1,4.4794202E-1,0E0,0E0,0E0,0E0,0E0,0E0,0E0,0E0,0E0,0E0,0E0,0E0,0E0,0E0,0E0,0E0,0E0,0E0,0E0,0E0,0E0,0E0,0E0,0E0,0E0,0E0,0E0,0E0,0E0,0E0,0E0,0E0,0E0,0E0,0E0,0E0,0E0,0E0,0E0,0E0],"parents":[2147483647,0,0,1,1,2,2,3,3,4,4,5,5,6,6,7,7,8,8,9,9,10,10,11,11,12,12,13,13,14,14,15,15,16,16,17,17,18,18,19,19,20,20,21,21,22,22,23,23,24,24,25,25,26,26,27,27,28,28,29,29,30,30,31,31,32,32,33,33,34,34,37,37,39,39,41,41,46,46,47,47,51,51,52,52,53,53,55,55,56,56,57,57,58,58,59,59,60,60,61,61,62,62],"right_children":[2,4,6,8,10,12,14,16,18,20,22,24,26,28,30,32,34,36,38,40,42,44,46,48,50,52,54,56,58,60,62,64,66,68,70,-1,-1,72,-1,74,-1,76,-1,-1,-1,-1,78,80,-1,-1,-1,82,84,86,-1,88,90,92,94,96,98,100,102,-1,-1,-1,-1,-1,-1,-1,-1,-1,-1,-1,-1,-1,-1,-1,-1,-1,-1,-1,-1,-1,-1,-1,-1,-1,-1,-1,-1,-1,-1,-1,-1,-1,-1,-1,-1,-1,-1,-1,-1],"split_conditions":[1.3860437E0,9.629826E-1,-1.557259E0,7.2836775E-1,1E0,-2.9118773E-1,9.629826E-1,-1.557259E0,8.8753694E-1,-6.404605E-1,3.7820446E-1,1E0,1E0,1E0,3.246818E0,1E0,1.8069581E0,9.210527E-1,1E0,-6.575991E-2,6.9170177E-1,6.311535E-4,-1.4277279E0,1E0,-8.722742E-2,1.4932605E0,1.5102131E0,3.246818E0,2.9939094E-1,1.7995147E0,1.5608815E0,-1.4277279E0,-1.8345316E-1,-2.829492E-1,1.7995147E0,3.363482E-2,9.677655E-3,1E0,-6.7796432E-3,1E0,1.5575005E-2,-2.4079089E-1,8.649035E-3,5.445097E-3,1.8779952E-2,9.124388E-3,3.246818E0,-3.373597E-1,2.8771026E-2,2.8754495E-2,5.6224875E-3,1E0,1.5102131E0,1.9653238E-4,3.5027195E-2,-1.9341181E-1,-1.3985866E0,2.3102846E0,-5.38594E-1,1.3968694E0,-2.9118773E-1,1E0,2.5627227E0,1.6583418E-2,-2.4427206E-3,-1.2216701E-2,3.0160649E-2,1.8948754E-2,-8.580705E-3,-3.6616756E-3,6.588475E-3,8.936291E-3,-1.6960334E-3,-2.1016162E-3,7.913569E-3,1.4286779E-2,-2.1698612E-3,-4.7797784E-3,1.1606171E-2,1.723219E-2,4.631548E-3,1.5888348E-3,8.126373E-3,1.4508925E-2,4.947095E-3,1.7166218E-2,7.3622903E-3,8.043237E-3,-9.822347E-4,2.5915712E-2,8.179251E-3,-8.175873E-3,9.750034E-3,2.111361E-2,-1.9330342E-3,2.3688904E-3,-4.2098537E-3,2.4833445E-2,4.8888195E-3,5.4021296E-3,1.2935882E-2,3.1097587E-2,2.6871245E-3],"split_indices":[6,4,1,0,35,0,4,1,1,1,1,11,31,18,5,31,2,0,46,0,0,0,2,9,2,4,3,5,0,7,0,2,0,0,7,0,0,31,0,21,0,0,0,0,0,0,5,0,0,0,0,16,3,2,0,0,2,3,1,1,0,35,0,0,0,0,0,0,0,0,0,0,0,0,0,0,0,0,0,0,0,0,0,0,0,0,0,0,0,0,0,0,0,0,0,0,0,0,0,0,0,0,0],"split_type":[0,0,0,0,0,0,0,0,0,0,0,0,0,0,0,0,0,0,0,0,0,0,0,0,0,0,0,0,0,0,0,0,0,0,0,0,0,0,0,0,0,0,0,0,0,0,0,0,0,0,0,0,0,0,0,0,0,0,0,0,0,0,0,0,0,0,0,0,0,0,0,0,0,0,0,0,0,0,0,0,0,0,0,0,0,0,0,0,0,0,0,0,0,0,0,0,0,0,0,0,0,0,0],"sum_hessian":[6.632E3,2.684E3,3.948E3,2.029E3,6.55E2,5.32E2,3.416E3,1.987E3,4.2E1,5.71E2,8.4E1,1.32E2,4E2,1.842E3,1.574E3,3.12E2,1.675E3,1.2E1,3E1,7.1E1,5E2,3.5E1,4.9E1,7.4E1,5.8E1,3.33E2,6.7E1,