{"learner":{"attributes":{"best_iteration":"282","best_score":"0.15033969591776042","scikit_learn":"{\"_estimator_type\": \"regressor\"}"},"feature_names":[],"feature_types":[],"gradient_booster":{"model":{"cats":{"enc":[],"feature_segments":[],"sorted_idx":[]},"gbtree_model_param":{"num_parallel_tree":"1","num_trees":"313"},"iteration_indptr":[0,1,2,3,4,5,6,7,8,9,10,11,12,13,14,15,16,17,18,19,20,21,22,23,24,25,26,27,28,29,30,31,32,33,34,35,36,37,38,39,40,41,42,43,44,45,46,47,48,49,50,51,52,53,54,55,56,57,58,59,60,61,62,63,64,65,66,67,68,69,70,71,72,73,74,75,76,77,78,79,80,81,82,83,84,85,86,87,88,89,90,91,92,93,94,95,96,97,98,99,100,101,102,103,104,105,106,107,108,109,110,111,112,113,114,115,116,117,118,119,120,121,122,123,124,125,126,127,128,129,130,131,132,133,134,135,136,137,138,139,140,141,142,143,144,145,146,147,148,149,150,151,152,153,154,155,156,157,158,159,160,161,162,163,164,165,166,167,168,169,170,171,172,173,174,175,176,177,178,179,180,181,182,183,184,185,186,187,188,189,190,191,192,193,194,195,196,197,198,199,200,201,202,203,204,205,206,207,208,209,210,211,212,213,214,215,216,217,218,219,220,221,222,223,224,225,226,227,228,229,230,231,232,233,234,235,236,237,238,239,240,241,242,243,244,245,246,247,248,249,250,251,252,253,254,255,256,257,258,259,260,261,262,263,264,265,266,267,268,269,270,271,272,273,274,275,276,277,278,279,280,281,282,283,284,285,286,287,288,289,290,291,292,293,294,295,296,297,298,299,300,301,302,303,304,305,306,307,308,309,310,311,312,313],"tree_info":[0,0,0,0,0,0,0,0,0,0,0,0,0,0,0,0,0,0,0,0,0,0,0,0,0,0,0,0,0,0,0,0,0,0,0,0,0,0,0,0,0,0,0,0,0,0,0,0,0,0,0,0,0,0,0,0,0,0,0,0,0,0,0,0,0,0,0,0,0,0,0,0,0,0,0,0,0,0,0,0,0,0,0,0,0,0,0,0,0,0,0,0,0,0,0,0,0,0,0,0,0,0,0,0,0,0,0,0,0,0,0,0,0,0,0,0,0,0,0,0,0,0,0,0,0,0,0,0,0,0,0,0,0,0,0,0,0,0,0,0,0,0,0,0,0,0,0,0,0,0,0,0,0,0,0,0,0,0,0,0,0,0,0,0,0,0,0,0,0,0,0,0,0,0,0,0,0,0,0,0,0,0,0,0,0,0,0,0,0,0,0,0,0,0,0,0,0,0,0,0,0,0,0,0,0,0,0,0,0,0,0,0,0,0,0,0,0,0,0,0,0,0,0,0,0,0,0,0,0,0,0,0,0,0,0,0,0,0,0,0,0,0,0,0,0,0,0,0,0,0,0,0,0,0,0,0,0,0,0,0,0,0,0,0,0,0,0,0,0,0,0,0,0,0,0,0,0,0,0,0,0,0,0,0,0,0,0,0,0,0,0,0,0,0,0,0,0,0,0,0,0,0,0,0,0,0,0,0,0,0,0,0,0],"trees":[{"base_weights":[1.6156416E-3,2.3663987E-1,-5.9371296E-2,2.5159654E-1,3.0709889E-2,1.1317459E-1,-8.033129E-2,3.2135934E-1,2.049181E-1,9.664085E-2,-2.3403283E-2,8.287641E-2,3.4512106E-1,-1.04641855E-1,4.652159E-2,2.2299086E-1,3.5312313E-1,1.446307E-1,2.3932454E-1,1.0999819E-2,1.5215528E-1,1.0237135E-1,-1.7340276E-1,4.5825128E-2,2.8338882E-1,-9.09411E-2,-2.8802365E-1,6.1278746E-2,-1.6065717E-2,2.5516036E-1,1.14085145E-1,3.6975947E-1,1.48664545E-2,1.0734259E-1,1.6859286E-2,2.4486452E-1,-5.888365E-3,-3.8101454E-3,7.739185E-3,1.5429814E-2,1.9201966E-3,9.140213E-2,3.5621017E-2,-9.053707E-5,-1.8456055E-2,2.659274E-2,1.1339972E-2,-7.785385E-2,-2.8646308E-1,-2.1930607E-1,-3.726703E-1,7.2598785E-2,-1.8389529E-1,2.213274E-2,8.4199906E-5,3.4532105E-3,1.7185032E-2,3.3090256E-2,2.2523662E-2,9.770736E-3,-3.9868415E-3,2.0116966E-2,4.4765547E-3,6.0483078E-3,2.2732949E-2,-5.1849214E-3,-1.9539986E-2,-2.4271531E-2,-8.7086065E-3,-7.635562E-3,-2.185612E-2,-3.1001152E-2,-1.19693335E-2,7.0083886E-3,-7.3872064E-3,-2.1370512E-2,-6.1557046E-3],"categories":[],"categories_nodes":[],"categories_segments":[],"categories_sizes":[],"default_left":[0,0,0,0,0,0,0,0,0,0,0,0,0,0,0,0,0,0,0,0,0,0,0,0,0,0,0,0,0,0,0,0,0,0,0,0,0,0,0,0,0,0,0,0,0,0,0,0,0,0,0,0,0,0,0,0,0,0,0,0,0,0,0,0,0,0,0,0,0,0,0,0,0,0,0,0,0],"id":0,"left_children":[1,3,5,7,9,11,13,15,17,19,-1,21,23,25,27,29,31,33,35,37,39,41,43,-1,45,47,49,51,-1,53,55,57,-1,59,-1,61,-1,-1,-1,-1,-1,63,-1,-1,-1,-1,-1,65,67,69,71,73,75,-1,-1,-1,-1,-1,-1,-1,-1,-1,-1,-1,-1,-1,-1,-1,-1,-1,-1,-1,-1,-1,-1,-1,-1],"loss_changes":[6.1360756E1,2.70113E0,1.2310871E1,2.5450668E0,1.3779019E0,2.5359635E0,9.360016E0,8.6112213E-1,9.637604E-1,2.4863124E-1,0E0,1.6792355E0,2.6569366E-1,6.3418446E0,1.809501E0,2.3957253E-1,5.388775E-1,4.1327143E-1,5.804062E-1,1.2482773E-1,1.5771878E-1,1.073308E0,2.3637635E-1,0E0,1.6266131E-1,6.022417E0,8.602829E-1,1.3117018E0,0E0,3.4905195E-1,1.4575827E-1,6.1458015E-1,0E0,2.9813802E-1,0E0,3.5697174E-1,0E0,0E0,0E0,0E0,0E0,8.706143E-1,0E0,0E0,0E0,0E0,0E0,4.797017E0,3.7899017E-1,6.28757E-1,1.3568115E-1,1.1151168E0,1.4583278E-1,0E0,0E0,0E0,0E0,0E0,0E0,0E0,0E0,0E0,0E0,0E0,0E0,0E0,0E0,0E0,0E0,0E0,0E0,0E0,0E0,0E0,0E0,0E0,0E0],"parents":[2147483647,0,0,1,1,2,2,3,3,4,4,5,5,6,6,7,7,8,8,9,9,11,11,12,12,13,13,14,14,15,15,16,16,17,17,18,18,19,19,20,20,21,21,22,22,24,24,25,25,26,26,27,27,29,29,30,30,31,31,33,33,35,35,41,41,47,47,48,48,49,49,50,50,51,51,52,52],"right_children":[2,4,6,8,10,12,14,16,18,20,-1,22,24,26,28,30,32,34,36,38,40,42,44,-1,46,48,50,52,-1,54,56,58,-1,60,-1,62,-1,-1,-1,-1,-1,64,-1,-1,-1,-1,-1,66,68,70,72,74,76,-1,-1,-1,-1,-1,-1,-1,-1,-1,-1,-1,-1,-1,-1,-1,-1,-1,-1,-1,-1,-1,-1,-1,-1],"split_conditions":[-1.0488908E0,1E0,-6.404605E-1,-6.302739E-1,1E0,1.3478029E0,1.3478029E0,1.7995147E0,1.7995147E0,1.5102131E0,-2.3403283E-2,1E0,-1.7465137E-1,1E0,1E0,1E0,1E0,1E0,1E0,1E0,1E0,1E0,1E0,4.5825128E-2,1E0,1E0,1E0,1E0,-1.6065717E-2,-1.2237388E0,-1.3111627E0,-1.3985866E0,1.48664545E-2,-1.165456E0,1.6859286E-2,1E0,-5.888365E-3,-3.8101454E-3,7.739185E-3,1.5429814E-2,1.9201966E-3,1E0,3.5621017E-2,-9.053707E-5,-1.8456055E-2,2.659274E-2,1.1339972E-2,1E0,4.3270466E-1,3.7820446E-1,1E0,1E0,7.1014184E-1,2.213274E-2,8.4199906E-5,3.4532105E-3,1.7185032E-2,3.3090256E-2,2.2523662E-2,9.770736E-3,-3.9868415E-3,2.0116966E-2,4.4765547E-3,6.0483078E-3,2.2732949E-2,-5.1849214E-3,-1.9539986E-2,-2.4271531E-2,-8.7086065E-3,-7.635562E-3,-2.185612E-2,-3.1001152E-2,-1.19693335E-2,7.0083886E-3,-7.3872064E-3,-2.1370512E-2,-6.1557046E-3],"split_indices":[2,18,1,1,396,5,5,7,7,3,0,247,2,425,336,20,247,43,167,381,33,344,18,0,299,447,16,447,0,2,2,2,0,2,0,344,0,0,0,0,0,11,0,0,0,0,0,336,4,1,22,425,3,0,0,0,0,0,0,0,0,0,0,0,0,0,0,0,0,0,0,0,0,0,0,0,0],"split_type":[0,0,0,0,0,0,0,0,0,0,0,0,0,0,0,0,0,0,0,0,0,0,0,0,0,0,0,0,0,0,0,0,0,0,0,0,0,0,0,0,0,0,0,0,0,0,0,0,0,0,0,0,0,0,0,0,0,0,0,0,0,0,0,0,0,0,0,0,0,0,0,0,0,0,0,0,0],"sum_hessian":[4.277E3,8.8E2,3.397E3,8.2E2,6E1,3.67E2,3.03E3,3.24E2,4.96E2,5.1E1,9E0,3.27E2,4E1,2.543E3,4.87E2,8.3E1,2.41E2,1.84E2,3.12E2,2.1E1,3E1,3.05E2,2.2E1,5E0,3.5E1,2.369E3,1.74E2,4.61E2,2.6E1,6.2E1,2.1E1,2.17E2,2.4E1,1.21E2,6.3E1,3.07E2,5E0,1.3E1,8E0,2.2E1,8E0,2.98E2,7E0,6E0,1.6E1,2.4E1,1.1E1,2.223E3,1.46E2,1E2,7.4E1,4.42E2,1.9E1,5.7E1,5E0,1.4E1,7E0,1.4E2,7.7E1,1.11E2,1E1,2.96E2,1.1E1,2.78E2,2E1,2.064E3,1.59E2,1.32E2,1.4E1,3.2E1,6.8E1,6.8E1,6E0,4.06E2,3.6E1,9E0,1E1],"tree_param":{"num_deleted":"0","num_feature":"525","num_nodes":"77","size_leaf_vector":"1"}},{"base_weights":[6.1879953E-4,2.2190109E-1,-5.5461276E-2,1.5448947E-1,2.5415435E-1,-7.9338506E-2,7.614191E-2,1.6364327E-1,-1.0470714E-2,2.641912E-1,5.1194564E-2,1.0127259E-1,-9.578446E-2,1.7990835E-1,2.0819528E-2,1.2992595E-1,2.2792128E-1,3.0789292E-1,2.2829567E-1,-2.1078102E-1,1.800417E-2,1.1093353E-1,-2.0490732E-2,-8.159074E-2,-2.915233E-1,3.729261E-1,1.4172034E-1,3.724711E-2,-1.704958E-2,1.583683E-1,5.9500612E-2,2.3810372E-2,1.5098817E-2,2.819345E-1,4.23299E-1,2.3542063E-1,3.3996338E-3,-2.6053531E-2,-4.6046935E-3,2.514319E-2,9.831018E-2,-6.9655195E-2,-2.7023154E-1,-2.2044285E-1,-2.9917946E-2,4.7173464E-1,1.429928E-2,1.5299872E-1,-1.1364955E-2,8.494524E-3,1.0565704E-1,-4.3293037E-3,1.3835986E-2,1.0338955E-2,9.313011E-4,1.8676607E-2,2.7742634E-2,4.241895E-2,2.4269197E-2,1.920088E-2,5.6610643E-3,1.2218919E-2,3.0114676E-3,-4.8477533E-3,-2.4657631E-2,-1.0524283E-3,-2.2631792E-2,-9.960532E-3,-2.0906087E-2,4.3333974E-2,1.6565178E-2,1.3210336E-2,-8.409277E-3,-8.28573E-4,9.778588E-3,9.383091E-3,-4.1290116E-3],"categories":[],"categories_nodes":[],"categories_segments":[],"categories_sizes":[],"default_left":[0,0,0,0,0,0,0,0,0,0,0,0,0,0,0,0,0,0,0,0,0,0,0,0,0,0,0,0,0,0,0,0,0,0,0,0,0,0,0,0,0,0,0,0,0,0,0,0,0,0,0,0,0,0,0,0,0,0,0,0,0,0,0,0,0,0,0,0,0,0,0,0,0,0,0,0,0],"id":1,"left_children":[1,3,5,7,9,11,13,15,-1,17,19,21,23,25,27,29,31,33,35,37,-1,39,-1,41,43,45,47,49,-1,51,53,-1,-1,55,57,59,-1,-1,-1,-1,61,63,65,67,-1,69,-1,71,-1,73,75,-1,-1,-1,-1,-1,-1,-1,-1,-1,-1,-1,-1,-1,-1,-1,-1,-1,-1,-1,-1,-1,-1,-1,-1,-1,-1],"loss_changes":[5.32739E1,1.8087158E0,1.0774527E1,7.899399E-1,1.1625977E0,8.633337E0,3.0178087E0,5.432782E-1,0E0,7.31617E-1,1.4612664E0,8.958781E-1,7.3398304E0,1.2431846E0,1.3455738E0,3.5572672E-1,1.4169216E-1,4.952736E-1,3.9434624E-1,1.913544E-1,0E0,5.491593E-1,0E0,5.5506554E0,8.8417816E-1,3.877902E-1,5.4276466E-1,6.374677E-1,0E0,4.2770123E-1,1.8723056E-1,0E0,0E0,4.856739E-1,2.0413542E-1,1.9353867E-1,0E0,0E0,0E0,0E0,7.3802567E-1,5.0128765E0,4.7120285E-1,3.310671E-1,0E0,1.088748E-1,0E0,5.0750494E-1,0E0,4.9783063E-1,1.877197E-1,0E0,0E0,0E0,0E0,0E0,0E0,0E0,0E0,0E0,0E0,0E0,0E0,0E0,0E0,0E0,0E0,0E0,0E0,0E0,0E0,0E0,0E0,0E0,0E0,0E0,0E0],"parents":[2147483647,0,0,1,1,2,2,3,3,4,4,5,5,6,6,7,7,9,9,10,10,11,11,12,12,13,13,14,14,15,15,16,16,17,17,18,18,19,19,21,21,23,23,24,24,25,25,26,26,27,27,29,29,30,30,33,33,34,34,35,35,40,40,41,41,42,42,43,43,45,45,47,47,49,49,50,50],"right_children":[2,4,6,8,10,12,14,16,-1,18,20,22,24,26,28,30,32,34,36,38,-1,40,-1,42,44,46,48,50,-1,52,54,-1,-1,56,58,60,-1,-1,-1,-1,62,64,66,68,-1,70,-1,72,-1,74,76,-1,-1,-1,-1,-1,-1,-1,-1,-1,-1,-1,-1,-1,-1,-1,-1,-1,-1,-1,-1,-1,-1,-1,-1,-1,-1],"split_conditions":[-1.0780321E0,1.7995147E0,1.3478029E0,2.4155345E0,1E0,-1.149793E0,-6.302739E-1,1E0,-1.0470714E-2,-6.302739E-1,1.3478029E0,1E0,1E0,-1.149793E0,1E0,-1.3111627E0,-6.302739E-1,1E0,1E0,-1.4277279E0,1.800417E-2,-3.494308E-1,-2.0490732E-2,1E0,1E0,-8.722742E-2,1E0,9.629826E-1,-1.704958E-2,-2.649331E-1,-6.302739E-1,2.3810372E-2,1.5098817E-2,1E0,1.5102131E0,1E0,3.3996338E-3,-2.6053531E-2,-4.6046935E-3,2.514319E-2,-5.80861E-2,1E0,-2.7398643E-1,3.7820446E-1,-2.9917946E-2,-1.5025763E-1,1.429928E-2,1E0,-1.1364955E-2,1E0,1E0,-4.3293037E-3,1.3835986E-2,1.0338955E-2,9.313011E-4,1.8676607E-2,2.7742634E-2,4.241895E-2,2.4269197E-2,1.920088E-2,5.6610643E-3,1.2218919E-2,3.0114676E-3,-4.8477533E-3,-2.4657631E-2,-1.0524283E-3,-2.2631792E-2,-9.960532E-3,-2.0906087E-2,4.3333974E-2,1.6565178E-2,1.3210336E-2,-8.409277E-3,-8.28573E-4,9.778588E-3,9.383091E-3,-4.1290116E-3],"split_indices":[2,7,5,1,396,1,1,43,0,1,5,167,425,1,336,2,1,43,425,2,0,0,0,447,16,2,167,4,0,0,1,0,0,35,3,344,0,0,0,0,2,167,0,1,0,0,0,447,0,271,39,0,0,0,0,0,0,0,0,0,0,0,0,0,0,0,0,0,0,0,0,0,0,0,0,0,0],"split_type":[0,0,0,0,0,0,0,0,0,0,0,0,0,0,0,0,0,0,0,0,0,0,0,0,0,0,0,0,0,0,0,0,0,0,0,0,0,0,0,0,0,0,0,0,0,0,0,0,0,0,0,0,0,0,0,0,0,0,0,0,0,0,0,0,0,0,0,0,0,0,0,0,0,0,0,0,0],"sum_hessian":[4.289E3,8.66E2,3.423E3,2.84E2,5.82E2,2.898E3,5.25E2,2.76E2,8E0,5.54E2,2.8E1,2.41E2,2.657E3,1.81E2,3.44E2,1.85E2,9.1E1,2.43E2,3.11E2,1.1E1,1.7E1,2.36E2,5E0,2.48E3,1.77E2,2.7E1,1.54E2,3.23E2,2.1E1,1.3E2,5.5E1,2.8E1,6.3E1,2.04E2,3.9E1,2.99E2,1.2E1,5E0,6E0,1.1E1,2.25E2,2.335E3,1.45E2,9.9E1,7.8E1,1.6E1,1.1E1,1.49E2,5E0,2.29E2,9.4E1,8E0,1.22E2,2.1E1,3.4E1,1.22E2,8.2E1,1.7E1,2.2E1,2.9E2,9E0,1.17E2,1.08E2,2.252E3,8.3E1,7E0,1.38E2,3.2E1,6.7E1,1.1E1,5E0,1.43E2,6E0,1.98E2,3.1E1,8.8E1,6E0],"tree_param":{"num_deleted":"0","num_feature":"525","num_nodes":"77","size_leaf_vector":"1"}},{"base_weights":[7.410625E-4,1.9289224E-1,-5.3571798E-2,2.0778921E-1,1.6135298E-2,9.899995E-2,-7.193699E-2,1.451226E-1,2.4303843E-1,6.1104156E-2,-1.8410819E-2,7.2251245E-2,2.909671E-1,-9.2163466E-2,3.8107026E-2,1.589599E-1,2.4945525E-2,2.854579E-1,2.0605049E-1,-1.729695E-2,9.142089E-2,8.844499E-2,-1.6365562E-1,3.5833216E-1,9.395313E-3,-7.8766875E-2,-2.600024E-1,1.2213528E-1,3.1873063E-4,3.2035252E-3,1.676537E-1,6.9284424E-2,-1.3776449E-2,3.2222453E-1,1.6593901E-2,2.1708618E-1,9.971376E-2,1.8146489E-2,6.497685E-2,2.1998493E-2,7.077968E-2,7.8039884E-4,-1.8745642E-2,3.760646E-2,1.3077208E-2,-6.6547E-2,-2.5089204E-1,-1.9709E-1,-2.6291154E-2,1.3398242E-1,-8.902461E-3,1.405267E-2,-1.3619007E-2,1.348835E-2,-9.413637E-3,1.3851591E-2,-2.3078038E-3,-6.208184E-3,8.389596E-3,3.8801465E-2,2.2938589E-2,1.8101275E-2,5.03349E-3,1.040763E-2,-3.676969E-3,1.2348759E-2,8.1504736E-4,6.691739E-3,-2.2851195E-2,-4.604949E-3,-2.3730528E-2,-1.3553355E-2,-2.27057E-2,-7.433032E-3,-1.9245673E-2,1.162651E-2,-9.464579E-3,1.9303029E-3,-1.4341378E-2],"categories":[],"categories_nodes":[],"categories_segments":[],"categories_sizes":[],"default_left":[0,0,0,0,0,0,0,0,0,0,0,0,0,0,0,0,0,0,0,0,0,0,0,0,0,0,0,0,0,0,0,0,0,0,0,0,0,0,0,0,0,0,0,0,0,0,0,0,0,0,0,0,0,0,0,0,0,0,0,0,0,0,0,0,0,0,0,0,0,0,0,0,0,0,0,0,0,0,0],"id":2,"left_children":[1,3,5,7,9,11,13,15,17,19,-1,21,23,25,27,29,31,33,35,-1,37,39,41,43,-1,45,47,49,51,53,55,57,-1,59,-1,61,63,-1,65,-1,67,-1,-1,-1,-1,69,71,73,-1,75,-1,77,-1,-1,-1,-1,-1,-1,-1,-1,-1,-1,-1,-1,-1,-1,-1,-1,-1,-1,-1,-1,-1,-1,-1,-1,-1,-1,-1],"loss_changes":[4.4374855E1,2.4605522E0,9.302905E0,1.8379936E0,8.5871226E-1,1.7911036E0,6.5954E0,5.175533E-1,7.4531555E-1,5.860081E-1,0E0,1.236137E0,4.1848516E-1,5.5824623E0,1.4637284E0,3.8214064E-1,3.298136E-1,5.864563E-1,3.0992985E-1,0E0,1.8537003E-1,9.397538E-1,2.619065E-1,4.9959993E-1,0E0,4.8442698E0,6.6499233E-1,4.2525864E-1,7.5435585E-1,3.795548E-1,2.9916906E-1,1.7308755E-1,0E0,6.867695E-1,0E0,3.5505295E-1,1.5358672E-1,0E0,2.5640446E-1,0E0,1.3043692E0,0E0,0E0,0E0,0E0,4.4478464E0,3.143177E-1,4.1279697E-1,0E0,4.2664933E-1,0E0,5.8912927E-1,0E0,0E0,0E0,0E0,0E0,0E0,0E0,0E0,0E0,0E0,0E0,0E0,0E0,0E0,0E0,0E0,0E0,0E0,0E0,0E0,0E0,0E0,0E0,0E0,0E0,0E0,0E0],"parents":[2147483647,0,0,1,1,2,2,3,3,4,4,5,5,6,6,7,7,8,8,9,9,11,11,12,12,13,13,14,14,15,15,16,16,17,17,18,18,20,20,21,21,22,22,23,23,25,25,26,26,27,27,28,28,29,29,30,30,31,31,33,33,35,35,36,36,38,38,40,40,45,45,46,46,47,47,49,49,51,51],"right_children":[2,4,6,8,10,12,14,16,18,20,-1,22,24,26,28,30,32,34,36,-1,38,40,42,44,-1,46,48,50,52,54,56,58,-1,60,-1,62,64,-1,66,-1,68,-1,-1,-1,-1,70,72,74,-1,76,-1,78,-1,-1,-1,-1,-1,-1,-1,-1,-1,-1,-1,-1,-1,-1,-1,-1,-1,-1,-1,-1,-1,-1,-1,-1,-1,-1,-1],"split_conditions":[-9.031843E-1,1E0,-6.404605E-1,1.7995147E0,1E0,1.3478029E0,1.3478029E0,1E0,-6.302739E-1,1.3860437E0,-1.8410819E-2,1E0,-1.149793E0,1E0,-6.302739E-1,-2.649331E-1,1E0,-1.3985866E0,-1.2528801E0,-1.729695E-2,-6.404605E-1,-3.1925306E-1,1E0,-5.80861E-2,9.395313E-3,1E0,1E0,1E0,1E0,-3.1925306E-1,1.906202E0,-1.774176E-1,-1.3776449E-2,1.5102131E0,1.6593901E-2,1E0,5.1667076E-1,1.8146489E-2,-1.3694453E0,2.1998493E-2,1E0,7.8039884E-4,-1.8745642E-2,3.760646E-2,1.3077208E-2,1E0,-6.302739E-1,3.7820446E-1,-2.6291154E-2,1E0,-8.902461E-3,1E0,-1.3619007E-2,1.348835E-2,-9.413637E-3,1.3851591E-2,-2.3078038E-3,-6.208184E-3,8.389596E-3,3.8801465E-2,2.2938589E-2,1.8101275E-2,5.03349E-3,1.040763E-2,-3.676969E-3,1.2348759E-2,8.1504736E-4,6.691739E-3,-2.2851195E-2,-4.604949E-3,-2.3730528E-2,-1.3553355E-2,-2.27057E-2,-7.433032E-3,-1.9245673E-2,1.162651E-2,-9.464579E-3,1.9303029E-3,-1.4341378E-2],"split_indices":[2,18,1,7,396,5,5,17,1,6,0,247,1,425,1,0,36,2,2,0,1,0,18,2,0,447,16,336,336,0,1,0,0,3,0,31,0,0,2,0,167,0,0,0,0,167,1,1,0,447,0,447,0,0,0,0,0,0,0,0,0,0,0,0,0,0,0,0,0,0,0,0,0,0,0,0,0,0,0],"split_type":[0,0,0,0,0,0,0,0,0,0,0,0,0,0,0,0,0,0,0,0,0,0,0,0,0,0,0,0,0,0,0,0,0,0,0,0,0,0,0,0,0,0,0,0,0,0,0,0,0,0,0,0,0,0,0,0,0,0,0,0,0,0,0,0,0,0,0,0,0,0,0,0,0,0,0,0,0,0,0],"sum_hessian":[4.248E3,9.35E2,3.313E3,8.62E2,7.3E1,3.55E2,2.958E3,3.14E2,5.48E2,6.3E1,1E1,3.14E2,4.1E1,2.499E3,4.59E2,2.81E2,3.3E1,2.49E2,2.99E2,5E0,5.8E1,2.95E2,1.9E1,2.8E1,1.3E1,2.317E3,1.82E2,1.41E2,3.18E2,1.5E1,2.66E2,2.8E1,5E0,1.65E2,8.4E1,2.69E2,3E1,7E0,5.1E1,2.3E1,2.72E2,6E0,1.3E1,1.6E1,1.2E1,2.166E3,1.51E2,9.9E1,8.3E1,1.35E2,6E0,2.96E2,2.2E1,6E0,9E0,2.59E2,7E0,5E0,2.3E1,2.5E1,1.4E2,2.53E2,1.6E1,2.5E1,5E0,1.8E1,3.3E1,2.64E2,8E0,2.087E3,7.9E1,4.7E1,1.04E2,3.1E1,6.8E1,1.3E2,5E0,2.83E2,1.3E1],"tree_param":{"num_deleted":"0","num_feature":"525","num_nodes":"79","size_leaf_vector":"1"}},{"base_weights":[-1.4059369E-3,1.8241599E-1,-4.9163032E-2,2.2973028E-1,1.4837247E-1,8.806577E-2,-6.481403E-2,2.4586469E-1,3.3171706E-2,1.05985984E-1,1.8563516E-1,6.361938E-2,2.5850558E-1,-8.530498E-2,3.809846E-2,5.2407548E-2,2.5581455E-1,-4.143393E-2,1.0968589E-2,1.185123E-1,-6.6544674E-2,1.7180091E-1,2.2326946E-2,7.995537E-2,-1.3567206E-1,3.826151E-2,2.044173E-1,-7.333682E-2,-2.42345E-1,4.9901552E-2,-1.2791246E-2,-1.4336196E-3,1.2287065E-2,2.6423454E-1,6.280545E-2,8.839563E-3,-1.1877969E-2,1.2776786E-1,-8.927128E-3,3.3798043E-3,-1.2962237E-2,1.6065033E-1,2.479348E-2,8.9490056E-2,-1.6011734E-2,-1.9085193E-2,-2.8096464E-2,1.236108E-2,3.0501854E-2,-6.244526E-2,-2.3319094E-1,-9.372221E-3,-2.722234E-1,5.8067525E-3,1.1598327E-1,2.227711E-2,1.0371417E-2,-7.862669E-3,1.4329233E-2,1.0904071E-2,-3.59905E-3,1.3306942E-2,3.2462059E-3,7.9984665E-3,-1.2707568E-2,6.383818E-3,-8.46164E-3,-4.0821517E-3,-1.7427651E-2,-1.1167519E-2,-2.01907E-2,-2.3424456E-2,-1.0592181E-2,1.3990639E-3,-1.6854936E-2,6.9013434E-3,1.6961398E-2],"categories":[],"categories_nodes":[],"categories_segments":[],"categories_sizes":[],"default_left":[0,0,0,0,0,0,0,0,0,0,0,0,0,0,0,0,0,0,0,0,0,0,0,0,0,0,0,0,0,0,0,0,0,0,0,0,0,0,0,0,0,0,0,0,0,0,0,0,0,0,0,0,0,0,0,0,0,0,0,0,0,0,0,0,0,0,0,0,0,0,0,0,0,0,0,0,0],"id":3,"left_children":[1,3,5,7,9,11,13,15,17,19,21,23,25,27,29,31,33,35,-1,37,39,41,-1,43,45,-1,47,49,51,53,-1,-1,-1,55,57,-1,-1,59,-1,-1,-1,61,-1,63,-1,-1,65,-1,-1,67,69,-1,71,73,75,-1,-1,-1,-1,-1,-1,-1,-1,-1,-1,-1,-1,-1,-1,-1,-1,-1,-1,-1,-1,-1,-1],"loss_changes":[3.7503418E1,1.3508949E0,7.2944984E0,1.1412334E0,7.787981E-1,1.417098E0,6.427718E0,6.2187004E-1,2.439874E-1,5.495827E-1,2.570486E-1,1.0211713E0,3.155918E-1,4.7383347E0,1.2007573E0,1.4070526E-1,4.8685074E-1,3.417993E-1,0E0,5.204797E-1,2.006717E-1,2.7466536E-1,0E0,7.96968E-1,2.522446E-1,0E0,2.17556E-1,4.085E0,6.057749E-1,1.3973058E0,0E0,0E0,0E0,5.13834E-1,3.3498788E-1,0E0,0E0,3.409953E-1,0E0,0E0,0E0,1.4285946E-1,0E0,7.5340915E-1,0E0,0E0,1.3420859E-1,0E0,0E0,3.908105E0,1.9899559E-1,0E0,3.3399487E-1,7.407728E-1,5.1134896E-1,0E0,0E0,0E0,0E0,0E0,0E0,0E0,0E0,0E0,0E0,0E0,0E0,0E0,0E0,0E0,0E0,0E0,0E0,0E0,0E0,0E0,0E0],"parents":[2147483647,0,0,1,1,2,2,3,3,4,4,5,5,6,6,7,7,8,8,9,9,10,10,11,11,12,12,13,13,14,14,15,15,16,16,17,17,19,19,20,20,21,21,23,23,24,24,26,26,27,27,28,28,29,29,33,33,34,34,37,37,41,41,43,43,46,46,49,49,50,50,52,52,53,53,54,54],"right_children":[2,4,6,8,10,12,14,16,18,20,22,24,26,28,30,32,34,36,-1,38,40,42,-1,44,46,-1,48,50,52,54,-1,-1,-1,56,58,-1,-1,60,-1,-1,-1,62,-1,64,-1,-1,66,-1,-1,68,70,-1,72,74,76,-1,-1,-1,-1,-1,-1,-1,-1,-1,-1,-1,-1,-1,-1,-1,-1,-1,-1,-1,-1,-1,-1],"split_conditions":[-1.0488908E0,-6.302739E-1,-6.404605E-1,1E0,1.5102131E0,1.3478029E0,1.3478029E0,-6.278512E-1,-1.774176E-1,1E0,1E0,1E0,-1.7465137E-1,1E0,1E0,-1.4457724E-2,1E0,1.7995147E0,1.0968589E-2,2.4155345E0,-1.3694453E0,3.246818E0,2.2326946E-2,1E0,-8.722742E-2,3.826151E-2,1E0,1E0,-6.302739E-1,4.3270466E-1,-1.2791246E-2,-1.4336196E-3,1.2287065E-2,1E0,-1.774176E-1,8.839563E-3,-1.1877969E-2,1E0,-8.927128E-3,3.3798043E-3,-1.2962237E-2,1E0,2.479348E-2,1E0,-1.6011734E-2,-1.9085193E-2,-2.3475534E-1,1.236108E-2,3.0501854E-2,1E0,-2.3475534E-1,-9.372221E-3,1E0,1E0,5.8302283E-1,2.227711E-2,1.0371417E-2,-7.862669E-3,1.4329233E-2,1.0904071E-2,-3.59905E-3,1.3306942E-2,3.2462059E-3,7.9984665E-3,-1.2707568E-2,6.383818E-3,-8.46164E-3,-4.0821517E-3,-1.7427651E-2,-1.1167519E-2,-2.01907E-2,-2.3424456E-2,-1.0592181E-2,1.3990639E-3,-1.6854936E-2,6.9013434E-3,1.6961398E-2],"split_indices":[2,1,1,18,3,5,5,4,0,396,450,247,2,425,336,0,425,7,0,1,2,5,0,167,2,0,22,447,1,4,0,0,0,247,0,0,0,167,0,0,0,18,0,336,0,0,0,0,0,336,0,0,22,447,2,0,0,0,0,0,0,0,0,0,0,0,0,0,0,0,0,0,0,0,0,0,0],"split_type":[0,0,0,0,0,0,0,0,0,0,0,0,0,0,0,0,0,0,0,0,0,0,0,0,0,0,0,0,0,0,0,0,0,0,0,0,0,0,0,0,0,0,0,0,0,0,0,0,0,0,0,0,0,0,0,0,0,0,0,0,0,0,0,0,0,0,0,0,0,0,0,0,0,0,0,0,0],"sum_hessian":[4.268E3,8.79E2,3.389E3,3.63E2,5.16E2,3.46E2,3.043E3,3.35E2,2.8E1,2.45E2,2.71E2,3.05E2,4.1E1,2.538E3,5.05E2,1.7E1,3.18E2,1.7E1,1.1E1,2.29E2,1.6E1,2.41E2,3E1,2.83E2,2.2E1,5E0,3.6E1,2.361E3,1.77E2,4.78E2,2.7E1,1.1E1,6E0,3.04E2,1.4E1,7E0,1E1,2.21E2,8E0,8E0,8E0,2.27E2,1.4E1,2.75E2,8E0,1E1,1.2E1,3.1E1,5E0,2.213E3,1.48E2,3.6E1,1.41E2,2.88E2,1.9E2,2.73E2,3.1E1,6E0,8E0,2.11E2,1E1,2.16E2,1.1E1,2.65E2,1E1,5E0,7E0,2.064E3,1.49E2,2.8E1,1.2E2,1.21E2,2E1,2.75E2,1.3E1,1.48E2,4.2E1],"tree_param":{"num_deleted":"0","num_feature":"525","num_nodes":"77","size_leaf_vector":"1"}},{"base_weights":[3.578403E-4,1.7294778E-1,-4.3382645E-2,1.8260044E-1,3.70329E-2,1.35911275E-2,-8.112921E-2,2.3430258E-1,1.4937158E-1,9.5797636E-2,-1.9372404E-2,2.3049314E-2,-2.413695E-1,-9.958968E-2,3.6806148E-2,2.4408653E-1,4.6833906E-2,1.376166E-1,2.0117475E-2,7.6372763E-3,1.3210683E-1,3.1375468E-3,1.4269836E-1,-2.9080752E-1,-1.4167681E-3,-1.13248326E-1,8.625473E-2,4.6016052E-2,-2.3026772E-2,3.6206496E-1,2.2960672E-1,-4.565348E-3,9.866268E-3,1.198251E-1,2.0631754E-1,8.7909065E-3,-1.078916E-2,4.888811E-3,1.4623453E-2,9.914946E-2,-2.156427E-2,2.8260547E-1,1.1675517E-1,-8.72697E-3,-2.7528679E-2,-1.355472E-1,1.1745045E-2,3.507804E-2,1.1698037E-1,6.196602E-2,-7.422255E-2,3.5494898E-2,1.5467884E-2,1.931568E-2,1.0658038E-2,8.104314E-3,1.4465855E-2,1.8292474E-2,5.953636E-3,8.539581E-3,-1.1216408E-2,-2.8020537E-3,6.967734E-3,1.4967327E-2,3.336897E-2,7.479898E-3,1.993397E-2,-1.2093646E-2,5.5886427E-4,-6.3920417E-4,1.8442545E-2,1.4677764E-2,7.900357E-4,4.814961E-3,1.1956953E-2,5.451437E-3,-9.1022E-3,1.6434597E-3,-9.877841E-3],"categories":[],"categories_nodes":[],"categories_segments":[],"categories_sizes":[],"default_left":[0,0,0,0,0,0,0,0,0,0,0,0,0,0,0,0,0,0,0,0,0,0,0,0,0,0,0,0,0,0,0,0,0,0,0,0,0,0,0,0,0,0,0,0,0,0,0,0,0,0,0,0,0,0,0,0,0,0,0,0,0,0,0,0,0,0,0,0,0,0,0,0,0,0,0,0,0,0,0],"id":4,"left_children":[1,3,5,7,9,11,13,15,17,19,-1,21,23,25,27,29,31,33,-1,35,37,39,41,43,-1,45,47,49,-1,51,53,-1,-1,55,57,-1,-1,-1,-1,59,61,63,65,-1,-1,67,69,71,73,75,77,-1,-1,-1,-1,-1,-1,-1,-1,-1,-1,-1,-1,-1,-1,-1,-1,-1,-1,-1,-1,-1,-1,-1,-1,-1,-1,-1,-1],"loss_changes":[3.237074E1,1.12393E0,7.3592854E0,1.3198681E0,1.0307801E0,3.3027766E0,4.4878902E0,5.512352E-1,5.284605E-1,1.6123474E-1,0E0,3.1391392E0,5.315075E-1,4.537859E0,8.636651E-1,3.411026E-1,1.571369E-1,5.018101E-1,0E0,2.7734095E-1,1.0720724E-1,2.6890051E0,6.163802E-1,3.1235933E-1,0E0,4.6271667E0,1.8520278E-1,5.346762E-1,0E0,2.2778225E-1,2.4375916E-1,0E0,0E0,3.7346554E-1,2.311399E-1,0E0,0E0,0E0,0E0,4.5170116E-1,1.3254824E0,2.0364666E-1,4.5230103E-1,0E0,0E0,3.1375122E0,1.0960819E0,1.7963207E-1,1.22208714E-1,2.79297E-1,1.590926E-1,0E0,0E0,0E0,0E0,0E0,0E0,0E0,0E0,0E0,0E0,0E0,0E0,0E0,0E0,0E0,0E0,0E0,0E0,0E0,0E0,0E0,0E0,0E0,0E0,0E0,0E0,0E0,0E0],"parents":[2147483647,0,0,1,1,2,2,3,3,4,4,5,5,6,6,7,7,8,8,9,9,11,11,12,12,13,13,14,14,15,15,16,16,17,17,19,19,20,20,21,21,22,22,23,23,25,25,26,26,27,27,29,29,30,30,33,33,34,34,39,39,40,40,41,41,42,42,45,45,46,46,47,47,48,48,49,49,50,50],"right_children":[2,4,6,8,10,12,14,16,18,20,-1,22,24,26,28,30,32,34,-1,36,38,40,42,44,-1,46,48,50,-1,52,54,-1,-1,56,58,-1,-1,-1,-1,60,62,64,66,-1,-1,68,70,72,74,76,78,-1,-1,-1,-1,-1,-1,-1,-1,-1,-1,-1,-1,-1,-1,-1,-1,-1,-1,-1,-1,-1,-1,-1,-1,-1,-1,-1,-1],"split_conditions":[-1.0488908E0,1E0,-6.302739E-1,-6.302739E-1,1E0,1E0,1E0,1E0,1E0,-1.6232872E-1,-1.9372404E-2,1.3478029E0,7.1014184E-1,1E0,1E0,-6.404605E-1,1.7995147E0,3.265509E-1,2.0117475E-2,-9.757327E-2,1.7995147E0,-1.149793E0,-1.149793E0,-8.900009E-1,-1.4167681E-3,1E0,-2.9546602E-2,1.2241318E0,-2.3026772E-2,-1.8948871E-1,1E0,-4.565348E-3,9.866268E-3,2.3102846E0,-1.2528801E0,8.7909065E-3,-1.078916E-2,4.888811E-3,1.4623453E-2,1E0,1E0,1.7995147E0,1E0,-8.72697E-3,-2.7528679E-2,1E0,2.8430206E-1,-2.4079089E-1,-1.4551005E-1,2.4155345E0,-8.992955E-2,3.5494898E-2,1.5467884E-2,1.931568E-2,1.0658038E-2,8.104314E-3,1.4465855E-2,1.8292474E-2,5.953636E-3,8.539581E-3,-1.1216408E-2,-2.8020537E-3,6.967734E-3,1.4967327E-2,3.336897E-2,7.479898E-3,1.993397E-2,-1.2093646E-2,5.5886427E-4,-6.3920417E-4,1.8442545E-2,1.4677764E-2,7.900357E-4,4.814961E-3,1.1956953E-2,5.451437E-3,-9.1022E-3,1.6434597E-3,-9.877841E-3],"split_indices":[2,18,1,1,396,167,381,17,450,0,0,5,3,450,38,1,7,0,0,4,7,1,1,3,0,271,0,2,0,0,247,0,0,3,2,0,0,0,0,336,381,7,271,0,0,435,0,0,2,1,3,0,0,0,0,0,0,0,0,0,0,0,0,0,0,0,0,0,0,0,0,0,0,0,0,0,0,0,0],"split_type":[0,0,0,0,0,0,0,0,0,0,0,0,0,0,0,0,0,0,0,0,0,0,0,0,0,0,0,0,0,0,0,0,0,0,0,0,0,0,0,0,0,0,0,0,0,0,0,0,0,0,0,0,0,0,0,0,0,0,0,0,0,0,0,0,0,0,0,0,0,0,0,0,0,0,0,0,0,0,0],"sum_hessian":[4.284E3,8.65E2,3.419E3,8.07E2,5.8E1,1.363E3,2.056E3,3.11E2,4.96E2,4.9E1,9E0,1.316E3,4.7E1,1.778E3,2.78E2,2.95E2,1.6E1,4.49E2,4.7E1,1.5E1,3.4E1,1.13E3,1.86E2,3.8E1,9E0,1.657E3,1.21E2,2.72E2,6E0,2.7E1,2.68E2,7E0,9E0,3.61E2,8.8E1,9E0,6E0,1.6E1,1.8E1,2.3E2,9E2,2.6E1,1.6E2,1E1,2.8E1,1.406E3,2.51E2,4.7E1,7.4E1,2.41E2,3.1E1,1.6E1,1.1E1,2.36E2,3.2E1,2.81E2,8E1,7.4E1,1.4E1,2.24E2,6E0,8.02E2,9.8E1,1.8E1,8E0,1.39E2,2.1E1,1.267E3,1.39E2,2.32E2,1.9E1,5E0,4.2E1,2.9E1,4.5E1,2.34E2,7E0,1.1E1,2E1],"tree_param":{"num_deleted":"0","num_feature":"525","num_nodes":"79","size_leaf_vector":"1"}},{"base_weights":[6.212547E-5,1.5868646E-1,-4.209547E-2,1.0832223E-1,1.8581294E-1,-5.3152416E-2,1.2603495E-1,7.704179E-2,1.4026401E-2,1.9282871E-1,8.673106E-3,-6.933988E-2,5.347293E-2,2.700127E-1,1.0599422E-1,2.5841447E-2,1.12362325E-1,1.8329228E-1,3.3663794E-1,-1.5335705E-2,1.0625589E-2,5.1486973E-2,-8.244143E-2,4.6809953E-2,2.5116915E-2,3.0999938E-2,4.856848E-3,1.1507677E-1,1.4527992E-2,-2.4004757E-2,1.0862682E-2,9.9544555E-2,1.959879E-2,1.6953263E-1,2.6477206E-1,1.4453322E-2,3.914533E-2,-3.9929546E-2,1.0133187E-1,-9.83274E-2,7.581036E-3,5.2506015E-2,-1.7340055E-2,1.4861271E-1,8.746568E-2,7.2823362E-3,-7.2561656E-3,-4.4011995E-3,8.680003E-3,1.2495783E-2,5.7500177E-3,1.3858001E-2,-4.0895855E-3,1.4081138E-2,2.481631E-2,-6.5738163E-3,2.4114832E-2,5.956193E-3,2.1049926E-2,-8.651652E-3,1.9246916E-3,-3.1686787E-4,1.6842974E-2,5.2598487E-3,-1.7444518E-3,1.4559504E-2,2.7666297E-3,1.8314535E-3,9.603637E-3],"categories":[],"categories_nodes":[],"categories_segments":[],"categories_sizes":[],"default_left":[0,0,0,0,0,0,0,0,0,0,0,0,0,0,0,0,0,0,0,0,0,0,0,0,0,0,0,0,0,0,0,0,0,0,0,0,0,0,0,0,0,0,0,0,0,0,0,0,0,0,0,0,0,0,0,0,0,0,0,0,0,0,0,0,0,0,0,0,0],"id":5,"left_children":[1,3,5,7,9,11,13,15,-1,17,19,21,23,25,27,29,31,33,35,-1,-1,37,39,41,-1,-1,-1,43,45,47,-1,49,-1,51,53,-1,-1,55,57,59,61,63,-1,65,67,-1,-1,-1,-1,-1,-1,-1,-1,-1,-1,-1,-1,-1,-1,-1,-1,-1,-1,-1,-1,-1,-1,-1,-1],"loss_changes":[2.8313675E1,1.1743011E0,6.2317824E0,6.3533115E-1,7.112522E-1,5.4270363E0,5.400424E-1,3.9023757E-1,0E0,6.349926E-1,6.479273E-1,4.325383E0,6.908928E-1,5.431136E-1,1.5034485E-1,5.106968E-1,1.7051661E-1,4.9657822E-1,5.852263E-1,0E0,0E0,1.2292736E0,3.5209522E0,6.3377357E-1,0E0,0E0,0E0,1.2956476E-1,1.694674E-1,2.7902356E-1,0E0,1.6721928E-1,0E0,3.867855E-1,1.811347E-1,0E0,0E0,1.4338919E0,7.1752584E-1,2.5189857E0,8.7073404E-1,3.9648402E-1,0E0,2.652824E-1,1.985681E-1,0E0,0E0,0E0,0E0,0E0,0E0,0E0,0E0,0E0,0E0,0E0,0E0,0E0,0E0,0E0,0E0,0E0,0E0,0E0,0E0,0E0,0E0,0E0,0E0],"parents":[2147483647,0,0,1,1,2,2,3,3,4,4,5,5,6,6,7,7,9,9,10,10,11,11,12,12,13,13,14,14,15,15,16,16,17,17,18,18,21,21,22,22,23,23,27,27,28,28,29,29,31,31,33,33,34,34,37,37,38,38,39,39,40,40,41,41,43,43,44,44],"right_children":[2,4,6,8,10,12,14,16,-1,18,20,22,24,26,28,30,32,34,36,-1,-1,38,40,42,-1,-1,-1,44,46,48,-1,50,-1,52,54,-1,-1,56,58,60,62,64,-1,66,68,-1,-1,-1,-1,-1,-1,-1,-1,-1,-1,-1,-1,-1,-1,-1,-1,-1,-1,-1,-1,-1,-1,-1,-1],"split_conditions":[-9.614669E-1,1.7995147E0,1E0,1E0,1E0,1E0,-1.149793E0,4.3270466E-1,1.4026401E-2,1E0,1.3478029E0,-6.404605E-1,1E0,1E0,1E0,1E0,3.246818E0,1E0,1E0,-1.5335705E-2,1.0625589E-2,1.3860437E0,1.3478029E0,1E0,2.5116915E-2,3.0999938E-2,4.856848E-3,3.7820446E-1,-8.722742E-2,1E0,1.0862682E-2,3.7820446E-1,1.959879E-2,1E0,2.0235386E0,1.4453322E-2,3.914533E-2,1.2532731E0,4.3270466E-1,1E0,3.246818E0,8.8753694E-1,-1.7340055E-2,2.9337848E-2,-1.7465137E-1,7.2823362E-3,-7.2561656E-3,-4.4011995E-3,8.680003E-3,1.2495783E-2,5.7500177E-3,1.3858001E-2,-4.0895855E-3,1.4081138E-2,2.481631E-2,-6.5738163E-3,2.4114832E-2,5.956193E-3,2.1049926E-2,-8.651652E-3,1.9246916E-3,-3.1686787E-4,1.6842974E-2,5.2598487E-3,-1.7444518E-3,1.4559504E-2,2.7666297E-3,1.8314535E-3,9.603637E-3],"split_indices":[2,7,450,43,396,381,1,4,0,371,5,1,26,65,33,381,5,450,43,0,0,6,5,38,0,0,0,1,2,45,0,1,0,167,4,0,0,2,4,435,5,1,0,2,2,0,0,0,0,0,0,0,0,0,0,0,0,0,0,0,0,0,0,0,0,0,0,0,0],"split_type":[0,0,0,0,0,0,0,0,0,0,0,0,0,0,0,0,0,0,0,0,0,0,0,0,0,0,0,0,0,0,0,0,0,0,0,0,0,0,0,0,0,0,0,0,0,0,0,0,0,0,0,0,0,0,0,0,0,0,0,0,0,0,0,0,0,0,0,0,0],"sum_hessian":[4.23E3,8.87E2,3.343E3,3.14E2,5.73E2,3.138E3,2.05E2,2.17E2,9.7E1,5.51E2,2.2E1,2.725E3,4.13E2,2.2E1,1.83E2,9E1,1.27E2,5.21E2,3E1,8E0,1.4E1,2.66E2,2.459E3,4.05E2,8E0,1.3E1,9E0,1.66E2,1.7E1,6.3E1,2.7E1,1.19E2,8E0,4.51E2,7E1,1.7E1,1.3E1,9.4E1,1.72E2,2.09E3,3.69E2,3.98E2,7E0,7.1E1,9.5E1,1E1,7E0,5.2E1,1.1E1,3.6E1,8.3E1,4.44E2,7E0,2.7E1,4.3E1,8.5E1,9E0,1.5E2,2.2E1,1.935E3,1.55E2,3.51E2,1.8E1,3.38E2,6E1,5.4E1,1.7E1,3.3E1,6.2E1],"tree_param":{"num_deleted":"0","num_feature":"525","num_nodes":"69","size_leaf_vector":"1"}},{"base_weights":[-3.9021946E-9,1.4208294E-1,-3.7486073E-2,9.275895E-2,1.6896105E-1,-4.685575E-2,1.10554926E-1,6.4736344E-2,1.2267898E-2,1.7975162E-1,8.951661E-3,-6.2260967E-2,5.459799E-2,9.5638394E-2,2.1508051E-1,9.3955316E-2,1.0471626E-2,1.7012669E-1,3.3427942E-1,7.782984E-2,-1.9035023E-2,-8.228055E-2,2.7329374E-2,5.9403736E-2,-1.4544244E-2,8.7695956E-2,2.162224E-2,2.5192818E-3,2.600787E-1,1.030763E-1,-2.0060078E-3,2.67238E-2,-8.821085E-3,1.563857E-1,2.4853173E-1,1.1564912E-2,3.5575654E-2,-6.509947E-2,1.2711802E-2,-9.683071E-2,5.5077657E-2,9.590935E-2,-3.391456E-2,2.3519034E-2,5.5160612E-2,7.762892E-3,1.2644014E-2,2.6221981E-2,6.8042334E-3,-2.827264E-3,8.890818E-3,3.5153169E-3,-6.264845E-3,1.1431457E-2,1.9943096E-2,1.378784E-2,2.5885899E-2,3.994499E-3,-1.1958118E-2,-9.113193E-3,3.2963876E-3,9.546397E-3,1.741846E-3,1.1458778E-3,1.4021793E-2,-4.3055816E-3,1.0982038E-2,5.3317673E-3,-1.6684947E-3,5.0058193E-3,-7.229955E-3],"categories":[],"categories_nodes":[],"categories_segments":[],"categories_sizes":[],"default_left":[0,0,0,0,0,0,0,0,0,0,0,0,0,0,0,0,0,0,0,0,0,0,0,0,0,0,0,0,0,0,0,0,0,0,0,0,0,0,0,0,0,0,0,0,0,0,0,0,0,0,0,0,0,0,0,0,0,0,0,0,0,0,0,0,0,0,0,0,0,0,0],"id":6,"left_children":[1,3,5,7,9,11,13,15,-1,17,19,21,23,25,27,29,31,33,35,37,-1,39,41,43,-1,45,-1,-1,47,49,-1,51,-1,53,55,-1,-1,57,-1,59,61,63,65,-1,67,-1,69,-1,-1,-1,-1,-1,-1,-1,-1,-1,-1,-1,-1,-1,-1,-1,-1,-1,-1,-1,-1,-1,-1,-1,-1],"loss_changes":[2.311541E1,1.1697693E0,4.77365E0,5.3025985E-1,1.0051117E0,5.0565825E0,2.7848744E-1,3.5478312E-1,0E0,6.998234E-1,7.002439E-1,5.0372295E0,5.067072E-1,2.0642841E-1,1.8188834E-1,1.6367781E-1,1.6483226E-1,4.814167E-1,4.9986696E-1,3.914706E-1,0E0,4.595419E0,2.1653605E0,3.8562238E-1,0E0,1.2232399E-1,0E0,0E0,1.6936624E-1,1.5956223E-1,0E0,1.3889875E-1,0E0,4.8906803E-1,3.11522E-1,0E0,0E0,1.4110439E-1,0E0,4.90271E0,4.6772075E-1,1.5683811E0,9.450439E-1,0E0,3.6514354E-1,0E0,1.24468714E-1,0E0,0E0,0E0,0E0,0E0,0E0,0E0,0E0,0E0,0E0,0E0,0E0,0E0,0E0,0E0,0E0,0E0,0E0,0E0,0E0,0E0,0E0,0E0,0E0],"parents":[2147483647,0,0,1,1,2,2,3,3,4,4,5,5,6,6,7,7,9,9,10,10,11,11,12,12,13,13,14,14,15,15,16,16,17,17,18,18,19,19,21,21,22,22,23,23,25,25,28,28,29,29,31,31,33,33,34,34,37,37,39,39,40,40,41,41,42,42,44,44,46,46],"right_children":[2,4,6,8,10,12,14,16,-1,18,20,22,24,26,28,30,32,34,36,38,-1,40,42,44,-1,46,-1,-1,48,50,-1,52,-1,54,56,-1,-1,58,-1,60,62,64,66,-1,68,-1,70,-1,-1,-1,-1,-1,-1,-1,-1,-1,-1,-1,-1,-1,-1,-1,-1,-1,-1,-1,-1,-1,-1,-1,-1],"split_conditions":[-9.614669E-1,1.7995147E0,1E0,1E0,1E0,1E0,1E0,-1.3111627E0,1.2267898E-2,1E0,1E0,1E0,1E0,1E0,-2.32934E-1,1E0,1E0,1E0,1E0,-1.774176E-1,-1.9035023E-2,1E0,1E0,-3.494308E-1,-1.4544244E-2,1E0,2.162224E-2,2.5192818E-3,1.9653238E-4,-2.5889754E-1,-2.0060078E-3,1E0,-8.821085E-3,1E0,1E0,1.1564912E-2,3.5575654E-2,-6.278512E-1,1.2711802E-2,1E0,-2.8944783E-2,-6.278512E-1,1E0,2.3519034E-2,4.955989E-1,7.762892E-3,1.9653238E-4,2.6221981E-2,6.8042334E-3,-2.827264E-3,8.890818E-3,3.5153169E-3,-6.264845E-3,1.1431457E-2,1.9943096E-2,1.378784E-2,2.5885899E-2,3.994499E-3,-1.1958118E-2,-9.113193E-3,3.2963876E-3,9.546397E-3,1.741846E-3,1.1458778E-3,1.4021793E-2,-4.3055816E-3,1.0982038E-2,5.3317673E-3,-1.6684947E-3,5.0058193E-3,-7.229955E-3],"split_indices":[2,7,450,43,18,381,45,2,0,371,396,271,38,35,2,31,396,450,43,0,0,299,16,0,0,9,0,0,2,0,0,16,0,271,35,0,0,4,0,435,2,4,43,0,2,0,2,0,0,0,0,0,0,0,0,0,0,0,0,0,0,0,0,0,0,0,0,0,0,0,0],"split_type":[0,0,0,0,0,0,0,0,0,0,0,0,0,0,0,0,0,0,0,0,0,0,0,0,0,0,0,0,0,0,0,0,0,0,0,0,0,0,0,0,0,0,0,0,0,0,0,0,0,0,0,0,0,0,0,0,0,0,0,0,0,0,0,0,0,0,0,0,0,0,0],"sum_hessian":[4.336E3,9.04E2,3.432E3,3.22E2,5.82E2,3.229E3,2.03E2,2.23E2,9.9E1,5.45E2,3.7E1,2.804E3,4.25E2,1.81E2,2.2E1,1.44E2,7.9E1,5.17E2,2.8E1,3E1,7E0,2.292E3,5.12E2,4.18E2,7E0,1.76E2,5E0,5E0,1.7E1,1.34E2,1E1,7.1E1,8E0,4.45E2,7.2E1,1.2E1,1.6E1,1.1E1,1.9E1,2.073E3,2.19E2,2.41E2,2.71E2,5E0,4.13E2,1.56E2,2E1,1.1E1,6E0,7E0,1.27E2,6.2E1,9E0,3.93E2,5.2E1,3.9E1,3.3E1,5E0,6E0,1.845E3,2.28E2,7.3E1,1.46E2,1.2E2,1.21E2,2.44E2,2.7E1,3.59E2,5.4E1,1.4E1,6E0],"tree_param":{"num_deleted":"0","num_feature":"525","num_nodes":"71","size_leaf_vector":"1"}},{"base_weights":[1.9373979E-3,-3.8138323E-2,1.1516488E-1,7.910223E-3,-6.93188E-2,1.6991371E-1,7.948096E-2,1.6173437E-2,-1.9120322E-1,-5.5542283E-2,-2.1790911E-1,1.7840652E-1,-4.951746E-3,-2.0685952E-2,1.069449E-1,9.05748E-2,-1.9142011E-3,-2.7019775E-1,-5.2620776E-2,-4.5594633E-2,-2.1800384E-1,-8.157251E-2,-2.470677E-1,3.0022362E-1,1.6125847E-1,3.221638E-2,-9.3084864E-2,3.64913E-2,1.3179393E-1,6.9584996E-2,2.1894747E-2,1.16866924E-1,-1.1495417E-2,-6.943309E-3,-2.5168657E-2,3.282151E-2,-1.2253727E-2,-3.505971E-2,-2.0417587E-1,-5.5318656E-3,-1.8508222E-2,-1.310857E-3,-1.4892033E-1,-7.0000878E-3,-2.6330158E-1,3.464931E-1,9.21815E-3,1.6891365E-1,-9.762698E-3,5.050165E-2,-8.264025E-3,-9.876202E-3,-1.54491365E-2,4.95482E-2,-7.197151E-3,1.3773039E-1,-9.896959E-3,4.1692425E-3,1.7638741E-2,1.3554018E-2,6.507076E-3,-3.1963736E-4,-1.1310779E-2,-9.928537E-3,1.2954266E-2,-1.8014186E-3,-1.3396356E-2,-1.2725805E-2,-2.331903E-2,-3.910862E-3,-1.9942254E-2,-2.2027334E-2,-6.352323E-3,3.20511E-2,1.0865946E-2,1.198114E-2,1.8658863E-2,-6.0431766E-3,7.307479E-3,7.5156367E-3,-3.0814244E-3,6.003781E-3,-6.0578957E-3,5.0896322E-3,-7.95455E-3,1.1447086E-2,3.9128796E-3],"categories":[],"categories_nodes":[],"categories_segments":[],"categories_sizes":[],"default_left":[0,0,0,0,0,0,0,0,0,0,0,0,0,0,0,0,0,0,0,0,0,0,0,0,0,0,0,0,0,0,0,0,0,0,0,0,0,0,0,0,0,0,0,0,0,0,0,0,0,0,0,0,0,0,0,0,0,0,0,0,0,0,0,0,0,0,0,0,0,0,0,0,0,0,0,0,0,0,0,0,0,0,0,0,0,0,0],"id":7,"left_children":[1,3,5,7,9,11,13,15,17,19,21,23,-1,25,27,29,31,33,35,37,39,41,43,45,47,49,51,53,55,57,-1,59,61,-1,-1,63,-1,65,67,-1,-1,-1,69,-1,71,73,-1,75,77,79,-1,-1,81,83,-1,85,-1,-1,-1,-1,-1,-1,-1,-1,-1,-1,-1,-1,-1,-1,-1,-1,-1,-1,-1,-1,-1,-1,-1,-1,-1,-1,-1,-1,-1,-1,-1],"loss_changes":[1.9389185E1,4.5325317E0,2.155221E0,2.1056097E0,3.8283558E0,8.8635445E-1,1.8750896E0,1.6515759E0,5.298741E-1,2.7679124E0,5.917778E-1,7.888775E-1,0E0,5.7284826E-1,9.252572E-1,8.843359E-1,1.1282358E0,2.0603466E-1,1.9047177E-1,2.7054868E0,1.6472387E-1,1.312155E-1,2.9067183E-1,3.4813452E-1,4.9555588E-1,2.2601607E-1,1.4471531E-1,2.433741E-1,6.316967E-1,5.5169487E-1,0E0,1.1061978E-1,8.9217794E-1,0E0,0E0,3.0357936E-1,0E0,2.5313501E0,3.050089E-1,0E0,0E0,0E0,1.262165E-1,0E0,2.1532917E-1,3.3603287E-1,0E0,3.735628E-1,1.3350846E-1,3.0889004E-1,0E0,0E0,1.2045835E-1,2.8519395E-1,0E0,1.6970491E-1,0E0,0E0,0E0,0E0,0E0,0E0,0E0,0E0,0E0,0E0,0E0,0E0,0E0,0E0,0E0,0E0,0E0,0E0,0E0,0E0,0E0,0E0,0E0,0E0,0E0,0E0,0E0,0E0,0E0,0E0,0E0],"parents":[2147483647,0,0,1,1,2,2,3,3,4,4,5,5,6,6,7,7,8,8,9,9,10,10,11,11,13,13,14,14,15,15,16,16,17,17,18,18,19,19,20,20,21,21,22,22,23,23,24,24,25,25,26,26,27,27,28,28,29,29,31,31,32,32,35,35,37,37,38,38,42,42,44,44,45,45,47,47,48,48,49,49,52,52,53,53,55,55],"right_children":[2,4,6,8,10,12,14,16,18,20,22,24,-1,26,28,30,32,34,36,38,40,42,44,46,48,50,52,54,56,58,-1,60,62,-1,-1,64,-1,66,68,-1,-1,-1,70,-1,72,74,-1,76,78,80,-1,-1,82,84,-1,86,-1,-1,-1,-1,-1,-1,-1,-1,-1,-1,-1,-1,-1,-1,-1,-1,-1,-1,-1,-1,-1,-1,-1,-1,-1,-1,-1,-1,-1,-1,-1],"split_conditions":[4.3270466E-1,-6.302739E-1,-6.302739E-1,1E0,1E0,1E0,-1.08008765E-1,-1.149793E0,1E0,1E0,-4.9520585E-1,-1.149793E0,-4.951746E-3,-8.722742E-2,1.4932605E0,1E0,-1.1071734E0,-6.700537E-1,-8.722742E-2,1E0,-6.700537E-1,1E0,-2.124238E-1,3.20751E-1,1E0,1E0,5.8302283E-1,1E0,1E0,1E0,2.1894747E-2,-1.4277279E0,1E0,-6.943309E-3,-2.5168657E-2,1.3860437E0,-1.2253727E-2,1E0,1E0,-5.5318656E-3,-1.8508222E-2,-1.310857E-3,1E0,-7.0000878E-3,1E0,1E0,9.21815E-3,1E0,-8.990211E-2,1E0,-8.264025E-3,-9.876202E-3,1.8069581E0,1E0,-7.197151E-3,1E0,-9.896959E-3,4.1692425E-3,1.7638741E-2,1.3554018E-2,6.507076E-3,-3.1963736E-4,-1.1310779E-2,-9.928537E-3,1.2954266E-2,-1.8014186E-3,-1.3396356E-2,-1.2725805E-2,-2.331903E-2,-3.910862E-3,-1.9942254E-2,-2.2027334E-2,-6.352323E-3,3.20511E-2,1.0865946E-2,1.198114E-2,1.8658863E-2,-6.0431766E-3,7.307479E-3,7.5156367E-3,-3.0814244E-3,6.003781E-3,-6.0578957E-3,5.0896322E-3,-7.95455E-3,1.1447086E-2,3.9128796E-3],"split_indices":[4,1,1,167,425,336,0,1,16,447,2,1,0,2,4,11,2,2,2,336,2,46,0,2,425,396,2,193,167,450,0,2,447,0,0,6,0,396,73,0,0,0,21,0,33,10,0,35,0,10,0,0,2,336,0,425,0,0,0,0,0,0,0,0,0,0,0,0,0,0,0,0,0,0,0,0,0,0,0,0,0,0,0,0,0,0,0],"split_type":[0,0,0,0,0,0,0,0,0,0,0,0,0,0,0,0,0,0,0,0,0,0,0,0,0,0,0,0,0,0,0,0,0,0,0,0,0,0,0,0,0,0,0,0,0,0,0,0,0,0,0,0,0,0,0,0,0,0,0,0,0,0,0,0,0,0,0,0,0,0,0,0,0,0,0,0,0,0,0,0,0,0,0,0,0,0,0],"sum_hessian":[4.269E3,3.154E3,1.115E3,1.274E3,1.88E3,4.37E2,6.78E2,1.225E3,4.9E1,1.723E3,1.57E2,4.22E2,1.5E1,1.46E2,5.32E2,2.38E2,9.87E2,3E1,1.9E1,1.626E3,9.7E1,2.9E1,1.28E2,4.8E1,3.74E2,8.5E1,6.1E1,1.4E2,3.92E2,2.16E2,2.2E1,7.2E1,9.15E2,7E0,2.3E1,1.1E1,8E0,1.527E3,9.9E1,9E0,8.8E1,1.6E1,1.3E1,1.3E1,1.15E2,3.7E1,1.1E1,3.58E2,1.6E1,7.6E1,9E0,4.3E1,1.8E1,1.28E2,1.2E1,3.84E2,8E0,1.96E2,2E1,2.6E1,4.6E1,8.67E2,4.8E1,5E0,6E0,1.397E3,1.3E2,6.9E1,3E1,8E0,5E0,1.07E2,8E0,2.8E1,9E0,2.81E2,7.7E1,1E1,6E0,5.1E1,2.5E1,7E0,1.1E1,1.18E2,1E1,3.61E2,2.3E1],"tree_param":{"num_deleted":"0","num_feature":"525","num_nodes":"87","size_leaf_vector":"1"}},{"base_weights":[-4.5728288E-4,1.2671517E-1,-3.1171765E-2,1.3448347E-1,-1.4085187E-2,7.788274E-2,-4.4012774E-2,1.2765907E-1,2.4073E-1,-4.4620264E-2,1.3154023E-2,6.6994116E-2,3.0429426E-1,-3.4942336E-2,-1.6435693E-1,1.1714225E-1,2.0390268E-1,9.320479E-3,2.9728359E-2,-1.1394575E-2,-1.2192018E-3,1.0799799E-1,2.5927873E-2,3.208891E-2,8.575942E-3,-2.6216516E-2,-1.8422563E-1,-1.8795948E-1,-1.2899299E-2,1.2245869E-1,3.155183E-2,1.8649995E-2,1.0054035E-2,1.2687603E-1,-1.1509306E-2,-1.8725647E-2,1.6928557E-1,-1.7008156E-2,-1.5540652E-1,-1.9849575E-1,-9.299978E-2,-7.3201396E-2,-2.166289E-1,-7.7971276E-3,6.8208665E-2,9.094569E-3,1.649315E-2,-2.1462163E-3,1.0905604E-2,1.1126085E-2,-6.9103944E-3,-3.4704655E-3,9.633782E-3,1.7734913E-2,-5.7691666E-3,-2.3054648E-3,7.622467E-3,-7.94038E-3,-1.4735317E-2,-1.8275553E-2,-1.1773718E-2,2.9122024E-3,-1.0319248E-2,-8.022141E-3,3.3873536E-3,-1.8749142E-2,-7.5643067E-3,1.3489723E-5,1.3228844E-2],"categories":[],"categories_nodes":[],"categories_segments":[],"categories_sizes":[],"default_left":[0,0,0,0,0,0,0,0,0,0,0,0,0,0,0,0,0,0,0,0,0,0,0,0,0,0,0,0,0,0,0,0,0,0,0,0,0,0,0,0,0,0,0,0,0,0,0,0,0,0,0,0,0,0,0,0,0,0,0,0,0,0,0,0,0,0,0,0,0],"id":8,"left_children":[1,3,5,7,9,11,13,15,17,19,-1,21,23,25,27,29,31,-1,-1,-1,-1,33,35,-1,-1,37,39,41,43,45,47,-1,-1,49,-1,51,53,55,57,59,61,63,65,-1,67,-1,-1,-1,-1,-1,-1,-1,-1,-1,-1,-1,-1,-1,-1,-1,-1,-1,-1,-1,-1,-1,-1,-1,-1],"loss_changes":[1.6585117E1,9.072504E-1,4.7961206E0,5.062666E-1,2.599608E-1,8.4920454E-1,3.3298216E0,5.4558945E-1,6.450107E-1,1.10608175E-1,0E0,5.787045E-1,2.1931708E-1,3.7015026E0,7.601552E-1,2.9032135E-1,1.4028382E-1,0E0,0E0,0E0,0E0,8.590698E-1,1.1329908E0,0E0,0E0,3.1995726E0,1.674633E-1,5.769439E-1,2.2592103E-1,4.056692E-1,2.5808346E-1,0E0,0E0,4.4550753E-1,0E0,4.7702545E-1,5.632559E-1,3.3434126E0,2.527585E-1,1.3872957E-1,1.2582357E-1,1.3362692E-1,2.7394247E-1,0E0,1.1231795E-1,0E0,0E0,0E0,0E0,0E0,0E0,0E0,0E0,0E0,0E0,0E0,0E0,0E0,0E0,0E0,0E0,0E0,0E0,0E0,0E0,0E0,0E0,0E0,0E0],"parents":[2147483647,0,0,1,1,2,2,3,3,4,4,5,5,6,6,7,7,8,8,9,9,11,11,12,12,13,13,14,14,15,15,16,16,21,21,22,22,25,25,26,26,27,27,28,28,29,29,30,30,33,33,35,35,36,36,37,37,38,38,39,39,40,40,41,41,42,42,44,44],"right_children":[2,4,6,8,10,12,14,16,18,20,-1,22,24,26,28,30,32,-1,-1,-1,-1,34,36,-1,-1,38,40,42,44,46,48,-1,-1,50,-1,52,54,56,58,60,62,64,66,-1,68,-1,-1,-1,-1,-1,-1,-1,-1,-1,-1,-1,-1,-1,-1,-1,-1,-1,-1,-1,-1,-1,-1,-1,-1],"split_conditions":[-1.1071734E0,1E0,-6.404605E-1,1E0,2.8430206E-1,1E0,1E0,1E0,1E0,7.1014184E-1,1.3154023E-2,-5.80861E-2,-5.80861E-2,1E0,1E0,1E0,-1.3985866E0,9.320479E-3,2.9728359E-2,-1.1394575E-2,-1.2192018E-3,1E0,1.3115557E0,3.208891E-2,8.575942E-3,1E0,4.0817496E-1,-6.302739E-1,1E0,1E0,-8.6884335E-2,1.8649995E-2,1.0054035E-2,1E0,-1.1509306E-2,1E0,1E0,9.629826E-1,-6.302739E-1,7.1014184E-1,1.3860437E0,3.7903365E-1,1E0,-7.7971276E-3,1.7995147E0,9.094569E-3,1.649315E-2,-2.1462163E-3,1.0905604E-2,1.1126085E-2,-6.9103944E-3,-3.4704655E-3,9.633782E-3,1.7734913E-2,-5.7691666E-3,-2.3054648E-3,7.622467E-3,-7.94038E-3,-1.4735317E-2,-1.8275553E-2,-1.1773718E-2,2.9122024E-3,-1.0319248E-2,-8.022141E-3,3.3873536E-3,-1.8749142E-2,-7.5643067E-3,1.3489723E-5,1.3228844E-2],"split_indices":[2,425,1,371,0,39,425,450,43,3,0,2,2,447,33,18,2,0,0,0,0,247,2,0,0,336,2,1,65,271,0,0,0,336,0,381,193,4,1,3,6,2,22,0,7,0,0,0,0,0,0,0,0,0,0,0,0,0,0,0,0,0,0,0,0,0,0,0,0],"split_type":[0,0,0,0,0,0,0,0,0,0,0,0,0,0,0,0,0,0,0,0,0,0,0,0,0,0,0,0,0,0,0,0,0,0,0,0,0,0,0,0,0,0,0,0,0,0,0,0,0,0,0,0,0,0,0,0,0,0,0,0,0,0,0,0,0,0,0,0,0],"sum_hessian":[4.242E3,8.24E2,3.418E3,7.81E2,4.3E1,3.59E2,3.059E3,7.38E2,4.3E1,3.8E1,5E0,3.45E2,1.4E1,2.847E3,2.12E2,6.53E2,8.5E1,2.4E1,1.9E1,7E0,3.1E1,1.71E2,1.74E2,8E0,6E0,2.692E3,1.55E2,1.83E2,2.9E1,6.14E2,3.9E1,5.9E1,2.6E1,1.6E2,1.1E1,1.34E2,4E1,2.515E3,1.77E2,1.32E2,2.3E1,3.8E1,1.45E2,1.4E1,1.5E1,5.6E2,5.4E1,2.6E1,1.3E1,1.52E2,8E0,1.15E2,1.9E1,3.3E1,7E0,2.277E3,2.38E2,6.3E1,1.14E2,7.9E1,5.3E1,5E0,1.8E1,3.1E1,7E0,1.25E2,2E1,1E1,5E0],"tree_param":{"num_deleted":"0","num_feature":"525","num_nodes":"69","size_leaf_vector":"1"}},{"base_weights":[-1.2638139E-3,1.1971773E-1,-3.1237407E-2,1.2801932E-1,-1.939065E-2,-4.667795E-2,4.972241E-2,1.6940095E-1,9.953206E-2,2.8830955E-2,-1.9637898E-2,6.323969E-2,-5.7026453E-2,2.688393E-1,3.7936553E-2,2.9010797E-1,1.5525472E-1,1.0480161E-1,-6.336215E-3,6.2928185E-2,-9.117186E-3,7.30296E-2,-1.2722614E-1,-6.9050185E-2,2.9673368E-2,2.593543E-2,9.947894E-3,1.8158937E-2,1.1469636E-1,3.211083E-2,1.1576016E-2,1.473562E-1,2.441095E-2,9.898638E-2,1.8617857E-2,6.8502924E-3,-4.446558E-3,1.1620147E-1,2.8650627E-2,-1.9432133E-2,4.6371817E-4,-7.791354E-2,7.879995E-2,3.573902E-2,-1.7569026E-2,2.4542566E-3,1.2538335E-1,1.3426752E-1,-8.316358E-3,1.3600914E-2,7.670986E-3,6.88939E-3,1.0868546E-2,-1.0968981E-3,1.3382972E-2,-1.5176163E-3,1.3949213E-2,-7.446534E-3,-6.065212E-4,3.2686475E-3,8.49449E-3,3.667738E-3,-4.371178E-3,9.540158E-4,-1.1909873E-2,7.16702E-3,1.7188659E-2,1.2614175E-2,5.0246865E-3],"categories":[],"categories_nodes":[],"categories_segments":[],"categories_sizes":[],"default_left":[0,0,0,0,0,0,0,0,0,0,0,0,0,0,0,0,0,0,0,0,0,0,0,0,0,0,0,0,0,0,0,0,0,0,0,0,0,0,0,0,0,0,0,0,0,0,0,0,0,0,0,0,0,0,0,0,0,0,0,0,0,0,0,0,0,0,0,0,0],"id":9,"left_children":[1,3,5,7,9,11,13,15,17,19,-1,21,23,25,27,29,31,33,-1,35,-1,37,39,41,43,-1,-1,45,47,-1,-1,49,-1,51,-1,-1,-1,53,55,-1,-1,57,59,61,-1,63,65,67,-1,-1,-1,-1,-1,-1,-1,-1,-1,-1,-1,-1,-1,-1,-1,-1,-1,-1,-1,-1,-1],"loss_changes":[1.5651128E1,9.946451E-1,4.3286123E0,9.1996765E-1,5.59259E-1,3.3127384E0,1.4128786E0,4.682865E-1,4.724579E-1,2.2370762E-1,0E0,4.866078E-1,2.773901E0,1.4332008E-1,7.989233E-1,4.0161824E-1,2.6167536E-1,3.0430079E-1,0E0,1.0636735E-1,0E0,4.5316315E-1,2.028529E-1,3.0708656E0,5.0712454E-1,0E0,0E0,7.116848E-1,4.900744E-1,0E0,0E0,3.008833E-1,0E0,1.9201756E-1,0E0,0E0,0E0,8.076254E-1,8.4624016E-1,0E0,0E0,2.3487606E0,1.2949598E-1,2.964236E-1,0E0,5.352737E-1,1.3445437E-1,1.4747584E-1,0E0,0E0,0E0,0E0,0E0,0E0,0E0,0E0,0E0,0E0,0E0,0E0,0E0,0E0,0E0,0E0,0E0,0E0,0E0,0E0,0E0],"parents":[2147483647,0,0,1,1,2,2,3,3,4,4,5,5,6,6,7,7,8,8,9,9,11,11,12,12,13,13,14,14,15,15,16,16,17,17,19,19,21,21,22,22,23,23,24,24,27,27,28,28,31,31,33,33,37,37,38,38,41,41,42,42,43,43,45,45,46,46,47,47],"right_children":[2,4,6,8,10,12,14,16,18,20,-1,22,24,26,28,30,32,34,-1,36,-1,38,40,42,44,-1,-1,46,48,-1,-1,50,-1,52,-1,-1,-1,54,56,-1,-1,58,60,62,-1,64,66,68,-1,-1,-1,-1,-1,-1,-1,-1,-1,-1,-1,-1,-1,-1,-1,-1,-1,-1,-1,-1,-1],"split_conditions":[-1.1071734E0,1E0,1.3478029E0,-6.302739E-1,1E0,-1.149793E0,-1.149793E0,-6.404605E-1,1E0,1E0,-1.9637898E-2,1E0,1E0,-5.80861E-2,1.7995147E0,-1.4277279E0,-1.2237388E0,3.246818E0,-6.336215E-3,1E0,-9.117186E-3,-5.80861E-2,-8.722742E-2,1E0,1E0,2.593543E-2,9.947894E-3,1E0,1E0,3.211083E-2,1.1576016E-2,-1.3985866E0,2.441095E-2,1E0,1.8617857E-2,6.8502924E-3,-4.446558E-3,-5.826298E-1,1.1658492E0,-1.9432133E-2,4.6371817E-4,1E0,-6.278512E-1,1.1658492E0,-1.7569026E-2,1E0,1E0,1E0,-8.316358E-3,1.3600914E-2,7.670986E-3,6.88939E-3,1.0868546E-2,-1.0968981E-3,1.3382972E-2,-1.5176163E-3,1.3949213E-2,-7.446534E-3,-6.065212E-4,3.2686475E-3,8.49449E-3,3.667738E-3,-4.371178E-3,9.540158E-4,-1.1909873E-2,7.16702E-3,1.7188659E-2,1.2614175E-2,5.0246865E-3],"split_indices":[2,18,5,1,396,1,1,1,167,22,0,247,381,2,7,2,2,5,0,435,0,2,2,450,38,0,0,271,336,0,0,2,0,435,0,0,0,2,2,0,0,271,4,2,0,447,65,17,0,0,0,0,0,0,0,0,0,0,0,0,0,0,0,0,0,0,0,0,0],"split_type":[0,0,0,0,0,0,0,0,0,0,0,0,0,0,0,0,0,0,0,0,0,0,0,0,0,0,0,0,0,0,0,0,0,0,0,0,0,0,0,0,0,0,0,0,0,0,0,0,0,0,0,0,0,0,0,0,0,0,0,0,0,0,0,0,0,0,0,0,0],"sum_hessian":[4.312E3,8.55E2,3.457E3,8.07E2,4.8E1,2.904E3,5.53E2,3.25E2,4.82E2,4.1E1,7E0,2.49E2,2.655E3,2.6E1,5.27E2,3E1,2.95E2,4.69E2,1.3E1,3.4E1,7E0,2.38E2,1.1E1,2.332E3,3.23E2,1.7E1,9E0,4.21E2,1.06E2,1.5E1,1.5E1,2.84E2,1.1E1,4.52E2,1.7E1,2.9E1,5E0,1.19E2,1.19E2,5E0,6E0,2.201E3,1.31E2,3.17E2,6E0,3.69E2,5.2E1,9.8E1,8E0,1.94E2,9E1,3.4E2,1.12E2,3.4E1,8.5E1,9.1E1,2.8E1,1.81E3,3.91E2,5.7E1,7.4E1,2.86E2,3.1E1,3.49E2,2E1,4E1,1.2E1,7.2E1,2.6E1],"tree_param":{"num_deleted":"0","num_feature":"525","num_nodes":"69","size_leaf_vector":"1"}},{"base_weights":[-8.357991E-4,1.0390806E-1,-2.9950008E-2,6.19497E-2,1.2845314E-1,1.1743023E-2,-5.765306E-2,3.6742643E-2,1.23224206E-1,1.3549736E-1,1.0417989E-2,-3.824897E-3,1.14127874E-1,-6.600211E-2,6.8905935E-2,4.2083494E-2,-1.2732727E-2,9.213204E-2,2.0913014E-1,1.6994166E-1,1.0629727E-1,-1.0973481E-1,7.311461E-3,3.582665E-3,-1.9624361E-1,1.3067913E-1,-6.4757E-3,-7.685668E-2,1.4978833E-2,4.5052607E-2,1.7211553E-2,2.9285831E-2,1.07523285E-1,1.3396806E-2,5.4804455E-3,1.0336868E-2,3.0217556E-2,1.8146299E-1,5.283508E-3,9.063166E-2,1.6086885E-1,6.820202E-5,-1.4691932E-2,6.9639854E-2,-1.3031897E-2,-9.684239E-2,-2.6686606E-1,2.473909E-2,1.123931E-1,-9.1010496E-2,7.586187E-3,2.4824468E-2,-7.322211E-2,2.7345384E-2,1.7332459E-2,3.0716737E-3,-7.3468345E-3,1.3653282E-2,-6.7387084E-3,1.6350606E-2,1.1093621E-2,5.113407E-3,1.04611E-2,1.3847672E-2,8.082444E-4,4.3898546E-3,1.8668765E-2,-1.5928971E-3,9.184167E-3,1.8972397E-4,-1.4997445E-2,-1.0389243E-2,-2.6540076E-2,-9.842307E-4,1.1179445E-2,-8.11407E-3,3.4267777E-3,-9.097979E-4,1.0175834E-2,-1.0715652E-2,2.414944E-3,4.5335237E-3,-1.0970649E-2,3.0060657E-3,-8.180496E-3],"categories":[],"categories_nodes":[],"categories_segments":[],"categories_sizes":[],"default_left":[0,0,0,0,0,0,0,0,0,0,0,0,0,0,0,0,0,0,0,0,0,0,0,0,0,0,0,0,0,0,0,0,0,0,0,0,0,0,0,0,0,0,0,0,0,0,0,0,0,0,0,0,0,0,0,0,0,0,0,0,0,0,0,0,0,0,0,0,0,0,0,0,0,0,0,0,0,0,0,0,0,0,0,0,0],"id":10,"left_children":[1,3,5,7,9,11,13,15,17,19,21,23,25,27,29,31,-1,33,35,37,39,41,-1,43,45,47,-1,49,51,53,-1,55,57,-1,-1,-1,-1,59,-1,61,63,-1,-1,65,67,69,71,-1,73,75,77,79,81,83,-1,-1,-1,-1,-1,-1,-1,-1,-1,-1,-1,-1,-1,-1,-1,-1,-1,-1,-1,-1,-1,-1,-1,-1,-1,-1,-1,-1,-1,-1,-1],"loss_changes":[1.2997242E1,9.3877506E-1,3.8533595E0,5.2535915E-1,4.819212E-1,2.1255674E0,2.126617E0,2.7287394E-1,2.2856498E-1,5.170479E-1,3.6058727E-1,1.6533909E0,5.8941126E-1,1.6557264E0,4.166487E-1,1.9720891E-1,0E0,1.1409575E-1,2.3922753E-1,2.7409363E-1,2.2987437E-1,1.22923E-1,0E0,1.2288327E0,2.5017047E-1,4.627061E-1,0E0,1.9841986E0,1.9815572E-1,3.223986E-1,0E0,2.343579E-1,5.009665E-1,0E0,0E0,0E0,0E0,1.620326E-1,0E0,2.4058557E-1,1.1632478E-1,0E0,0E0,5.183486E-1,7.916442E-1,1.8970715E-1,1.2717628E-1,0E0,5.1841366E-1,1.9896317E0,5.47136E-1,1.8091655E-1,2.0647635E-1,1.4292458E-1,0E0,0E0,0E0,0E0,0E0,0E0,0E0,0E0,0E0,0E0,0E0,0E0,0E0,0E0,0E0,0E0,0E0,0E0,0E0,0E0,0E0,0E0,0E0,0E0,0E0,0E0,0E0,0E0,0E0,0E0,0E0],"parents":[2147483647,0,0,1,1,2,2,3,3,4,4,5,5,6,6,7,7,8,8,9,9,10,10,11,11,12,12,13,13,14,14,15,15,17,17,18,18,19,19,20,20,21,21,23,23,24,24,25,25,27,27,28,28,29,29,31,31,32,32,37,37,39,39,40,40,43,43,44,44,45,45,46,46,48,48,49,49,50,50,51,51,52,52,53,53],"right_children":[2,4,6,8,10,12,14,16,18,20,22,24,26,28,30,32,-1,34,36,38,40,42,-1,44,46,48,-1,50,52,54,-1,56,58,-1,-1,-1,-1,60,-1,62,64,-1,-1,66,68,70,72,-1,74,76,78,80,82,84,-1,-1,-1,-1,-1,-1,-1,-1,-1,-1,-1,-1,-1,-1,-1,-1,-1,-1,-1,-1,-1,-1,-1,-1,-1,-1,-1,-1,-1,-1,-1],"split_conditions":[-9.031843E-1,1.7995147E0,-6.302739E-1,1E0,1E0,4.3270466E-1,3.5974646E-1,1E0,2.4808875E-1,-6.302739E-1,-1.774176E-1,1E0,1E0,1E0,1E0,1E0,-1.2732727E-2,-1.6232872E-1,-8.992955E-2,1E0,3.5974646E-1,-9.757327E-2,7.311461E-3,-1.149793E0,1E0,-3.0718195E-1,-6.4757E-3,1E0,1.1658492E0,1E0,1.7211553E-2,1E0,-1.2237388E0,1.3396806E-2,5.4804455E-3,1.0336868E-2,3.0217556E-2,-1.3985866E0,5.283508E-3,2.3102846E0,1E0,6.820202E-5,-1.4691932E-2,1.3478029E0,1E0,-1.8647093E-1,-4.369232E-1,2.473909E-2,-2.2570202E-1,1E0,1E0,-2.3475534E-1,-8.992955E-2,1E0,1.7332459E-2,3.0716737E-3,-7.3468345E-3,1.3653282E-2,-6.7387084E-3,1.6350606E-2,1.1093621E-2,5.113407E-3,1.04611E-2,1.3847672E-2,8.082444E-4,4.3898546E-3,1.8668765E-2,-1.5928971E-3,9.184167E-3,1.8972397E-4,-1.4997445E-2,-1.0389243E-2,-2.6540076E-2,-9.842307E-4,1.1179445E-2,-8.11407E-3,3.4267777E-3,-9.097979E-4,1.0175834E-2,-1.0715652E-2,2.414944E-3,4.5335237E-3,-1.0970649E-2,3.0060657E-3,-8.180496E-3],"split_indices":[2,7,1,43,18,4,0,9,0,1,0,167,336,381,271,45,0,0,3,247,0,4,0,1,17,0,0,271,2,344,0,344,2,0,0,0,0,2,0,3,29,0,0,5,450,0,2,0,0,450,43,0,3,425,0,0,0,0,0,0,0,0,0,0,0,0,0,0,0,0,0,0,0,0,0,0,0,0,0,0,0,0,0,0,0],"split_type":[0,0,0,0,0,0,0,0,0,0,0,0,0,0,0,0,0,0,0,0,0,0,0,0,0,0,0,0,0,0,0,0,0,0,0,0,0,0,0,0,0,0,0,0,0,0,0,0,0,0,0,0,0,0,0,0,0,0,0,0,0,0,0,0,0,0,0,0,0,0,0,0,0,0,0,0,0,0,0,0,0,0,0,0,0],"sum_hessian":[4.258E3,9.25E2,3.333E3,3.44E2,5.81E2,1.331E3,2.002E3,2.46E2,9.8E1,5.48E2,3.3E1,1.157E3,1.74E2,1.879E3,1.23E2,2.41E2,5E0,7.5E1,2.3E1,2.47E2,3.01E2,1.3E1,2E1,1.116E3,4.1E1,1.61E2,1.3E1,1.657E3,2.22E2,1.08E2,1.5E1,2.04E2,3.7E1,1.5E1,6E1,1.8E1,5E0,2.21E2,2.6E1,2.38E2,6.3E1,6E0,7E0,2.23E2,8.93E2,1.9E1,2.2E1,1.2E1,1.49E2,1.419E3,2.38E2,2.01E2,2.1E1,1E2,8E0,1.91E2,1.3E1,2.8E1,9E0,1.39E2,8.2E1,1.46E2,9.2E1,5.8E1,5E0,2.07E2,1.6E1,8.49E2,4.4E1,1E1,9E0,9E0,1.3E1,2.7E1,1.22E2,1.317E3,1.02E2,2.07E2,3.1E1,5E0,1.96E2,7E0,1.4E1,9.4E1,6E0],"tree_param":{"num_deleted":"0","num_feature":"525","num_nodes":"85","size_leaf_vector":"1"}},{"base_weights":[-4.888946E-4,9.801551E-2,-2.7348042E-2,8.8451624E-2,1.8162097E-1,-4.0156152E-2,4.5711655E-2,9.470565E-2,-2.2909736E-2,1.2941863E-2,2.9885774E-2,-3.2004535E-2,-1.4568922E-1,9.748811E-2,3.3932044E-3,1.2460713E-1,7.44718E-2,-1.1752907E-2,3.1085469E-2,-2.6385862E-2,-1.9151221E-1,-9.7205E-2,-2.062891E-1,2.3878671E-1,7.723539E-2,-9.977788E-3,1.1325482E-1,1.364673E-1,1.3413407E-2,7.484557E-3,8.627518E-2,-3.9179143E-4,1.0250246E-2,-1.9383192E-2,-1.3682696E-1,-2.1257666E-1,3.4373302E-3,-1.1276016E-2,-1.3559115E-1,-1.7431058E-2,-5.779066E-3,2.5257101E-2,7.2007147E-3,5.020712E-2,1.5960678E-1,-3.0312635E-2,5.5845544E-2,3.3178935E-3,1.4360492E-2,1.1610593E-2,1.7639298E-3,-3.0545439E-3,1.2300213E-2,2.7322567E-3,-1.0524073E-2,7.2561298E-3,-6.8113115E-3,-8.013068E-4,-9.3591595E-3,-1.4607004E-3,-1.2541185E-2,-1.8291324E-2,1.989885E-3,9.482958E-3,-3.441961E-3,-1.3836782E-2,-4.307037E-3,1.5906635E-3,1.0506673E-2,2.3744801E-2,9.3860505E-3,-3.6031157E-3,7.399081E-3,1.7639053E-3,1.2906245E-2],"categories":[],"categories_nodes":[],"categories_segments":[],"categories_sizes":[],"default_left":[0,0,0,0,0,0,0,0,0,0,0,0,0,0,0,0,0,0,0,0,0,0,0,0,0,0,0,0,0,0,0,0,0,0,0,0,0,0,0,0,0,0,0,0,0,0,0,0,0,0,0,0,0,0,0,0,0,0,0,0,0,0,0,0,0,0,0,0,0,0,0,0,0,0,0],"id":11,"left_children":[1,3,5,7,9,11,13,15,17,-1,-1,19,21,23,25,27,29,-1,31,33,35,37,39,41,43,45,47,49,51,53,55,-1,-1,57,59,61,-1,63,65,-1,-1,-1,-1,67,69,71,73,-1,-1,-1,-1,-1,-1,-1,-1,-1,-1,-1,-1,-1,-1,-1,-1,-1,-1,-1,-1,-1,-1,-1,-1,-1,-1,-1,-1],"loss_changes":[1.11756935E1,6.915026E-1,3.1094477E0,5.726476E-1,2.2582269E-1,2.4209228E0,1.0861237E0,4.4912195E-1,3.1043077E-1,0E0,0E0,2.342475E0,5.5339956E-1,6.0126925E-1,4.0622374E-1,4.0384054E-1,3.6716366E-1,0E0,1.1648673E-1,1.9575409E0,4.5785356E-1,3.7956607E-1,1.05348825E-1,2.521819E-1,4.247918E-1,3.3399698E-1,1.2777835E-1,2.702136E-1,2.4344778E-1,2.7595374E-1,3.1591582E-1,0E0,0E0,2.1818342E0,3.512385E-1,3.241725E-1,0E0,1.6681196E-1,2.2577679E-1,0E0,0E0,0E0,0E0,3.687064E-1,2.0880651E-1,3.5192865E-1,2.0321868E-1,0E0,0E0,0E0,0E0,0E0,0E0,0E0,0E0,0E0,0E0,0E0,0E0,0E0,0E0,0E0,0E0,0E0,0E0,0E0,0E0,0E0,0E0,0E0,0E0,0E0,0E0,0E0,0E0],"parents":[2147483647,0,0,1,1,2,2,3,3,4,4,5,5,6,6,7,7,8,8,11,11,12,12,13,13,14,14,15,15,16,16,18,18,19,19,20,20,21,21,22,22,23,23,24,24,25,25,26,26,27,27,28,28,29,29,30,30,33,33,34,34,35,35,37,37,38,38,43,43,44,44,45,45,46,46],"right_children":[2,4,6,8,10,12,14,16,18,-1,-1,20,22,24,26,28,30,-1,32,34,36,38,40,42,44,46,48,50,52,54,56,-1,-1,58,60,62,-1,64,66,-1,-1,-1,-1,68,70,72,74,-1,-1,-1,-1,-1,-1,-1,-1,-1,-1,-1,-1,-1,-1,-1,-1,-1,-1,-1,-1,-1,-1,-1,-1,-1,-1,-1,-1],"split_conditions":[-9.614669E-1,1E0,1.3478029E0,1E0,1E0,1E0,3.7820446E-1,-6.302739E-1,-1.774176E-1,1.2941863E-2,2.9885774E-2,1E0,1E0,-1.149793E0,1E0,1E0,-1.0197321E-1,-1.1752907E-2,2.8430206E-1,1E0,1E0,-6.302739E-1,1E0,-5.80861E-2,3.4989232E-1,1.5102131E0,-4.1617703E-2,1E0,-1.0780321E0,-1.2237388E0,1E0,-3.9179143E-4,1.0250246E-2,1E0,-2.649331E-1,1.7995147E0,3.4373302E-3,-1.149793E0,1E0,-1.7431058E-2,-5.779066E-3,2.5257101E-2,7.2007147E-3,1.7995147E0,-8.992955E-2,1E0,1.4932605E0,3.3178935E-3,1.4360492E-2,1.1610593E-2,1.7639298E-3,-3.0545439E-3,1.2300213E-2,2.7322567E-3,-1.0524073E-2,7.2561298E-3,-6.8113115E-3,-8.013068E-4,-9.3591595E-3,-1.4607004E-3,-1.2541185E-2,-1.8291324E-2,1.989885E-3,9.482958E-3,-3.441961E-3,-1.3836782E-2,-4.307037E-3,1.5906635E-3,1.0506673E-2,2.3744801E-2,9.3860505E-3,-3.6031157E-3,7.399081E-3,1.7639053E-3,1.2906245E-2],"split_indices":[2,450,5,425,31,425,1,1,0,0,0,167,16,1,271,18,0,0,0,447,29,1,18,2,2,3,0,17,2,2,167,0,0,396,0,7,0,1,21,0,0,0,0,7,3,450,4,0,0,0,0,0,0,0,0,0,0,0,0,0,0,0,0,0,0,0,0,0,0,0,0,0,0,0,0],"split_type":[0,0,0,0,0,0,0,0,0,0,0,0,0,0,0,0,0,0,0,0,0,0,0,0,0,0,0,0,0,0,0,0,0,0,0,0,0,0,0,0,0,0,0,0,0,0,0,0,0,0,0,0,0,0,0,0,0,0,0,0,0,0,0,0,0,0,0,0,0,0,0,0,0,0,0],"sum_hessian":[4.22E3,9.03E2,3.317E3,8.14E2,8.9E1,2.823E3,4.94E2,7.71E2,4.3E1,8.4E1,5E0,2.623E3,2E2,2.21E2,2.73E2,3.07E2,4.64E2,1.2E1,3.1E1,2.536E3,8.7E1,1.14E2,8.6E1,2.5E1,1.96E2,2.45E2,2.8E1,2.77E2,3E1,7E1,3.94E2,2.4E1,7E0,2.387E3,1.49E2,8E1,7E0,3.6E1,7.8E1,7.8E1,8E0,1.5E1,1E1,1.5E2,4.6E1,1.88E2,5.7E1,1.5E1,1.3E1,2.57E2,2E1,2.3E1,7E0,6E1,1E1,3.85E2,9E0,2.18E3,2.07E2,2.2E1,1.27E2,7.5E1,5E0,6E0,3E1,5.2E1,2.6E1,1.11E2,3.9E1,8E0,3.8E1,1.69E2,1.9E1,4.5E1,1.2E1],"tree_param":{"num_deleted":"0","num_feature":"525","num_nodes":"75","size_leaf_vector":"1"}},{"base_weights":[-1.4457147E-3,-2.8301518E-2,7.335064E-2,-2.2756247E-2,-2.0261899E-1,8.971764E-2,-4.3272837E-3,1.3208583E-2,-4.6510674E-2,-2.0878755E-3,-2.3994371E-1,2.6657775E-1,8.154891E-2,-2.5341948E-2,1.0866714E-2,5.5585136E-3,1.2369783E-1,-5.455201E-2,8.7529756E-2,-2.2235336E-2,-1.0852626E-1,3.56264E-1,2.5496464E-2,8.697501E-2,-8.517426E-2,3.1603683E-2,-5.692133E-2,-7.084367E-3,8.954147E-2,2.3297784E-1,8.060841E-2,-6.5953694E-2,1.7798875E-2,6.2451776E-2,2.1550851E-2,-1.2460813E-3,-1.3066407E-2,3.3787753E-2,1.1698958E-2,8.343556E-3,-5.7474463E-3,7.4125715E-2,1.3377048E-1,4.7007343E-3,-9.604559E-3,-4.112757E-3,6.978706E-2,-1.4431147E-3,-1.0109183E-1,-1.033062E-3,1.4860653E-2,8.076236E-3,-5.6750686E-3,3.2019757E-2,7.373212E-3,8.1070885E-3,-1.397969E-3,-5.9001646E-3,4.4308025E-3,2.1867193E-3,-5.8305175E-3,1.0340707E-2,-5.565963E-4,2.0269703E-3,7.5942916E-3,8.016563E-3,1.367532E-2,9.443392E-3,-5.0754985E-3,-9.64632E-3,3.8960553E-4],"categories":[],"categories_nodes":[],"categories_segments":[],"categories_sizes":[],"default_left":[0,0,0,0,0,0,0,0,0,0,0,0,0,0,0,0,0,0,0,0,0,0,0,0,0,0,0,0,0,0,0,0,0,0,0,0,0,0,0,0,0,0,0,0,0,0,0,0,0,0,0,0,0,0,0,0,0,0,0,0,0,0,0,0,0,0,0,0,0,0,0],"id":12,"left_children":[1,3,5,7,9,11,13,15,17,-1,19,21,23,25,-1,27,29,31,33,-1,35,37,39,41,43,45,47,49,51,53,55,57,59,61,-1,-1,-1,-1,-1,-1,-1,63,65,-1,-1,-1,67,-1,69,-1,-1,-1,-1,-1,-1,-1,-1,-1,-1,-1,-1,-1,-1,-1,-1,-1,-1,-1,-1,-1,-1],"loss_changes":[8.523116E0,3.008621E0,1.4259653E0,2.5881214E0,6.199789E-1,1.2943363E0,5.8713645E-1,1.0179968E0,1.9755745E0,0E0,3.3416653E-1,8.4669995E-1,8.181515E-1,3.147051E-1,0E0,1.2010874E0,3.297274E-1,1.422863E0,4.4065285E-1,0E0,1.01886526E-1,2.7897167E-1,1.1469775E-1,4.9787807E-1,1.5971188E-1,2.0686795E-1,1.8870774E-1,1.1108738E0,2.85357E-1,4.2084825E-1,1.23505235E-1,1.4161811E0,2.0804113E-1,4.3767914E-1,0E0,0E0,0E0,0E0,0E0,0E0,0E0,6.853528E-1,1.940496E-1,0E0,0E0,0E0,2.9785836E-1,0E0,1.0854912E-1,0E0,0E0,0E0,0E0,0E0,0E0,0E0,0E0,0E0,0E0,0E0,0E0,0E0,0E0,0E0,0E0,0E0,0E0,0E0,0E0,0E0,0E0],"parents":[2147483647,0,0,1,1,2,2,3,3,4,4,5,5,6,6,7,7,8,8,10,10,11,11,12,12,13,13,15,15,16,16,17,17,18,18,20,20,21,21,22,22,23,23,24,24,25,25,26,26,27,27,28,28,29,29,30,30,31,31,32,32,33,33,41,41,42,42,46,46,48,48],"right_children":[2,4,6,8,10,12,14,16,18,-1,20,22,24,26,-1,28,30,32,34,-1,36,38,40,42,44,46,48,50,52,54,56,58,60,62,-1,-1,-1,-1,-1,-1,-1,64,66,-1,-1,-1,68,-1,70,-1,-1,-1,-1,-1,-1,-1,-1,-1,-1,-1,-1,-1,-1,-1,-1,-1,-1,-1,-1,-1,-1],"split_conditions":[4.3270466E-1,1E0,1E0,-6.302739E-1,-7.86619E-1,-6.404605E-1,1E0,1E0,3.899242E-1,-2.0878755E-3,7.1014184E-1,-5.80861E-2,1E0,-6.302739E-1,1.0866714E-2,1E0,-8.992955E-2,1E0,1E0,-2.2235336E-2,-6.302739E-1,1E0,1E0,1E0,-1.340304E0,-8.992955E-2,1.9653238E-4,2.299821E-1,1.8471546E-1,-1.149793E0,1.9653238E-4,1E0,1.1658492E0,1.3968694E0,2.1550851E-2,-1.2460813E-3,-1.3066407E-2,3.3787753E-2,1.1698958E-2,8.343556E-3,-5.7474463E-3,-6.877769E-2,2.3102846E0,4.7007343E-3,-9.604559E-3,-4.112757E-3,1E0,-1.4431147E-3,3.1962628E-3,-1.033062E-3,1.4860653E-2,8.076236E-3,-5.6750686E-3,3.2019757E-2,7.373212E-3,8.1070885E-3,-1.397969E-3,-5.9001646E-3,4.4308025E-3,2.1867193E-3,-5.8305175E-3,1.0340707E-2,-5.565963E-4,2.0269703E-3,7.5942916E-3,8.016563E-3,1.367532E-2,9.443392E-3,-5.0754985E-3,-9.64632E-3,3.8960553E-4],"split_indices":[4,167,18,1,2,1,299,450,0,0,3,2,336,1,0,381,3,381,271,0,1,435,8,35,2,3,2,0,0,1,2,450,2,1,0,0,0,0,0,0,0,0,3,0,0,0,22,0,0,0,0,0,0,0,0,0,0,0,0,0,0,0,0,0,0,0,0,0,0,0,0],"split_type":[0,0,0,0,0,0,0,0,0,0,0,0,0,0,0,0,0,0,0,0,0,0,0,0,0,0,0,0,0,0,0,0,0,0,0,0,0,0,0,0,0,0,0,0,0,0,0,0,0,0,0,0,0,0,0,0,0,0,0,0,0,0,0,0,0,0,0,0,0,0,0],"sum_hessian":[4.239E3,3.12E3,1.119E3,3.026E3,9.4E1,9.24E2,1.95E2,1.204E3,1.822E3,1.7E1,7.7E1,3.8E1,8.86E2,1.71E2,2.4E1,1.128E3,7.6E1,1.72E3,1.02E2,5.8E1,1.9E1,2.7E1,1.1E1,8.59E2,2.7E1,6.1E1,1.1E2,9.82E2,1.46E2,1.9E1,5.7E1,1.486E3,2.34E2,9.2E1,1E1,8E0,1.1E1,1.9E1,8E0,6E0,5E0,6.78E2,1.81E2,5E0,2.2E1,1.9E1,4.2E1,6E1,5E1,9.55E2,2.7E1,1.37E2,9E0,7E0,1.2E1,4.7E1,1E1,1.397E3,8.9E1,2.13E2,2.1E1,4.6E1,4.6E1,2.04E2,4.74E2,9.9E1,8.2E1,3.1E1,1.1E1,4.2E1,8E0],"tree_param":{"num_deleted":"0","num_feature":"525","num_nodes":"71","size_leaf_vector":"1"}},{"base_weights":[6.6709425E-4,-2.2021791E-2,8.016047E-2,-3.437062E-2,4.5490738E-2,9.021733E-2,-9.011205E-3,4.7706004E-2,-4.3484706E-2,7.479732E-2,-1.987649E-2,1.2482155E-1,6.64548E-2,-2.3203494E-2,1.0919287E-2,-2.072181E-2,8.380839E-2,-3.817433E-2,-1.8672456E-1,8.2821235E-2,-1.0643772E-2,-1.5380114E-3,-1.9785833E-2,1.298079E-1,-7.214549E-3,-5.017107E-2,7.65939E-2,2.3402989E-2,-6.7830965E-2,-5.8128096E-2,1.6654712E-1,7.147959E-2,2.7097063E-2,-2.9910656E-2,-1.331753E-1,-2.0820746E-1,4.231193E-3,6.1564382E-2,1.5256728E-1,9.274421E-3,-2.5562415E-2,1.3383105E-1,-5.5683935E-3,-7.890034E-2,9.2814565E-3,8.1166685E-2,-8.916952E-3,9.200341E-3,-5.019394E-3,-1.7039253E-1,-3.0901216E-2,-1.704072E-3,-2.0478735E-2,1.751608E-2,2.33016E-3,4.414316E-3,1.9387411E-2,-1.8110868E-3,-1.1780036E-2,-1.1303677E-2,2.2681279E-3,-7.6821274E-3,-1.8410314E-2,4.322749E-3,1.3834975E-2,2.0733675E-2,7.7299927E-3,-2.9995602E-3,9.723354E-3,1.1465018E-2,2.601693E-3,1.1418387E-3,-1.044469E-2,5.9791002E-3,1.5743865E-2,-2.4522454E-3,-2.0915873E-2,-5.9698E-3,6.8806196E-3],"categories":[],"categories_nodes":[],"categories_segments":[],"categories_sizes":[],"default_left":[0,0,0,0,0,0,0,0,0,0,0,0,0,0,0,0,0,0,0,0,0,0,0,0,0,0,0,0,0,0,0,0,0,0,0,0,0,0,0,0,0,0,0,0,0,0,0,0,0,0,0,0,0,0,0,0,0,0,0,0,0,0,0,0,0,0,0,0,0,0,0,0,0,0,0,0,0,0,0],"id":13,"left_children":[1,3,5,7,9,11,13,15,17,19,21,23,25,27,-1,29,31,33,35,37,-1,39,-1,41,-1,43,45,47,49,51,53,55,-1,57,59,61,-1,63,65,-1,67,69,-1,71,-1,73,-1,-1,-1,75,77,-1,-1,-1,-1,-1,-1,-1,-1,-1,-1,-1,-1,-1,-1,-1,-1,-1,-1,-1,-1,-1,-1,-1,-1,-1,-1,-1,-1],"loss_changes":[7.708578E0,2.7751822E0,8.5267735E-1,2.107675E0,9.895536E-1,6.8481827E-1,2.0870516E-1,7.001282E-1,1.9117284E0,6.157491E-1,6.707737E-1,3.9328146E-1,6.107509E-1,1.924485E-1,0E0,7.128605E-1,5.3297234E-1,1.9107134E0,4.8530912E-1,4.9122262E-1,0E0,4.3206483E-1,0E0,2.8979778E-1,0E0,2.1883658E-1,4.2226553E-1,3.774187E-1,1.6748522E-1,6.0115945E-1,1.09668136E-1,4.7180212E-1,0E0,1.9141188E0,2.637949E-1,1.5991426E-1,0E0,2.052275E-1,4.2104435E-1,0E0,2.320326E-1,3.095932E-1,0E0,1.8181442E-1,0E0,3.1248808E-1,0E0,0E0,0E0,1.3666084E-1,2.0195845E-1,0E0,0E0,0E0,0E0,0E0,0E0,0E0,0E0,0E0,0E0,0E0,0E0,0E0,0E0,0E0,0E0,0E0,0E0,0E0,0E0,0E0,0E0,0E0,0E0,0E0,0E0,0E0,0E0],"parents":[2147483647,0,0,1,1,2,2,3,3,4,4,5,5,6,6,7,7,8,8,9,9,10,10,11,11,12,12,13,13,15,15,16,16,17,17,18,18,19,19,21,21,23,23,25,25,26,26,27,27,28,28,29,29,30,30,31,31,33,33,34,34,35,35,37,37,38,38,40,40,41,41,43,43,45,45,49,49,50,50],"right_children":[2,4,6,8,10,12,14,16,18,20,22,24,26,28,-1,30,32,34,36,38,-1,40,-1,42,-1,44,46,48,50,52,54,56,-1,58,60,62,-1,64,66,-1,68,70,-1,72,-1,74,-1,-1,-1,76,78,-1,-1,-1,-1,-1,-1,-1,-1,-1,-1,-1,-1,-1,-1,-1,-1,-1,-1,-1,-1,-1,-1,-1,-1,-1,-1,-1,-1],"split_conditions":[9.629826E-1,1.7995147E0,1E0,-6.404605E-1,-5.80861E-2,-6.302739E-1,1.8471546E-1,1.3860437E0,1E0,1E0,1E0,1E0,-1.7439982E-1,1.4932605E0,1.0919287E-2,1E0,1E0,1E0,1E0,2.2394654E-1,-1.0643772E-2,-6.404605E-1,-1.9785833E-2,1E0,-7.214549E-3,1E0,1E0,-6.302739E-1,-1.774176E-1,-8.990211E-2,1E0,1E0,2.7097063E-2,1E0,1.8652408E0,-7.86619E-1,4.231193E-3,1E0,3.7820446E-1,9.274421E-3,1E0,1E0,-5.5683935E-3,-1.340304E0,9.2814565E-3,3.246818E0,-8.916952E-3,9.200341E-3,-5.019394E-3,-2.124238E-1,1E0,-1.704072E-3,-2.0478735E-2,1.751608E-2,2.33016E-3,4.414316E-3,1.9387411E-2,-1.8110868E-3,-1.1780036E-2,-1.1303677E-2,2.2681279E-3,-7.6821274E-3,-1.8410314E-2,4.322749E-3,1.3834975E-2,2.0733675E-2,7.7299927E-3,-2.9995602E-3,9.723354E-3,1.1465018E-2,2.601693E-3,1.1418387E-3,-1.044469E-2,5.9791002E-3,1.5743865E-2,-2.4522454E-3,-2.0915873E-2,-5.9698E-3,6.8806196E-3],"split_indices":[4,7,18,1,2,1,0,6,167,336,425,336,0,4,0,29,344,425,29,0,0,1,0,447,0,73,167,1,0,0,16,31,0,447,2,2,0,371,1,0,39,247,0,2,0,5,0,0,0,0,381,0,0,0,0,0,0,0,0,0,0,0,0,0,0,0,0,0,0,0,0,0,0,0,0,0,0,0,0],"split_type":[0,0,0,0,0,0,0,0,0,0,0,0,0,0,0,0,0,0,0,0,0,0,0,0,0,0,0,0,0,0,0,0,0,0,0,0,0,0,0,0,0,0,0,0,0,0,0,0,0,0,0,0,0,0,0,0,0,0,0,0,0,0,0,0,0,0,0,0,0,0,0,0,0,0,0,0,0,0,0],"sum_hessian":[4.27E3,3.323E3,9.47E2,2.81E3,5.13E2,8.51E2,9.6E1,2.8E2,2.53E3,3.54E2,1.59E2,3.43E2,5.08E2,8.9E1,7E0,9.7E1,1.83E2,2.442E3,8.8E1,3.42E2,1.2E1,1.49E2,1E1,3.36E2,7E0,4E1,4.68E2,4.4E1,4.5E1,8.2E1,1.5E1,1.77E2,6E0,2.249E3,1.93E2,8.1E1,7E0,2.65E2,7.7E1,2.4E1,1.25E2,3.3E2,6E0,3.5E1,5E0,4.58E2,1E1,2.1E1,2.3E1,1E1,3.5E1,7.1E1,1.1E1,1E1,5E0,1.64E2,1.3E1,2.12E3,1.29E2,1.84E2,9E0,1.5E1,6.6E1,2.51E2,1.4E1,2.4E1,5.3E1,1.17E2,8E0,3.01E2,2.9E1,1.3E1,2.2E1,4.37E2,2.1E1,5E0,5E0,2.6E1,9E0],"tree_param":{"num_deleted":"0","num_feature":"525","num_nodes":"79","size_leaf_vector":"1"}},{"base_weights":[-1.2829531E-3,7.7494755E-2,-2.4541037E-2,1.0323025E-1,4.6084438E-2,-1.8376773E-2,-1.3056767E-1,3.040906E-1,9.540378E-2,-8.8847885E-3,6.746925E-2,-1.0769461E-2,-1.1998965E-1,-1.4430878E-1,-5.879026E-3,8.931991E-3,3.181915E-2,8.813771E-2,1.5184697E-2,1.6622601E-2,-2.1375634E-2,2.1661703E-2,9.263066E-2,-5.7689063E-3,-1.6103843E-1,-1.5090848E-2,-1.3740414E-1,-1.282893E-2,-8.1080385E-2,7.301157E-2,1.215126E-1,-3.1965487E-2,9.306878E-3,-3.6743887E-2,7.834307E-2,1.2960602E-1,7.427137E-2,1.4816044E-3,-1.112803E-1,-1.8141223E-1,5.5544744E-3,-7.97339E-3,5.772E-2,-1.4798853E-1,4.554296E-3,-8.382928E-3,2.9528236E-3,3.6924742E-3,9.747514E-3,7.536495E-3,1.3657503E-2,-4.469457E-3,2.1487656E-3,4.4232295E-3,-6.208122E-3,9.376283E-3,1.8883578E-3,6.8352185E-3,1.5474887E-2,1.4267149E-2,5.1578972E-3,8.346277E-4,-7.6656695E-3,-1.006831E-2,3.8606772E-4,-2.984839E-3,-1.6124176E-2,1.23407375E-2,-8.4549974E-4,-1.2673098E-2,2.975345E-3],"categories":[],"categories_nodes":[],"categories_segments":[],"categories_sizes":[],"default_left":[0,0,0,0,0,0,0,0,0,0,0,0,0,0,0,0,0,0,0,0,0,0,0,0,0,0,0,0,0,0,0,0,0,0,0,0,0,0,0,0,0,0,0,0,0,0,0,0,0,0,0,0,0,0,0,0,0,0,0,0,0,0,0,0,0,0,0,0,0,0,0],"id":14,"left_children":[1,3,5,7,9,11,13,15,17,19,21,23,25,27,-1,-1,-1,29,-1,-1,31,33,35,37,39,41,43,-1,45,47,49,51,-1,53,55,57,59,61,63,65,-1,-1,67,69,-1,-1,-1,-1,-1,-1,-1,-1,-1,-1,-1,-1,-1,-1,-1,-1,-1,-1,-1,-1,-1,-1,-1,-1,-1,-1,-1],"loss_changes":[7.7889E0,7.73787E-1,2.1402385E0,7.7672386E-1,5.1842165E-1,2.3968105E0,1.19971275E-1,2.5359976E-1,3.1912136E-1,3.471777E-1,3.6135566E-1,2.1697695E0,3.9043283E-1,1.1914039E-1,0E0,0E0,0E0,2.2508144E-1,0E0,0E0,1.8243894E-1,3.8646576E-1,1.1923158E-1,2.1415968E0,4.6187615E-1,2.1472256E-1,3.973751E-1,0E0,1.0004011E-1,4.293908E-1,1.653502E-1,1.6188812E-1,0E0,2.2667877E-1,1.19969845E-1,1.5018737E-1,1.20770395E-1,2.284833E0,3.057897E-1,2.3454976E-1,0E0,0E0,1.2851894E-1,3.515582E-1,0E0,0E0,0E0,0E0,0E0,0E0,0E0,0E0,0E0,0E0,0E0,0E0,0E0,0E0,0E0,0E0,0E0,0E0,0E0,0E0,0E0,0E0,0E0,0E0,0E0,0E0,0E0],"parents":[2147483647,0,0,1,1,2,2,3,3,4,4,5,5,6,6,7,7,8,8,9,9,10,10,11,11,12,12,13,13,17,17,20,20,21,21,22,22,23,23,24,24,25,25,26,26,28,28,29,29,30,30,31,31,33,33,34,34,35,35,36,36,37,37,38,38,39,39,42,42,43,43],"right_children":[2,4,6,8,10,12,14,16,18,20,22,24,26,28,-1,-1,-1,30,-1,-1,32,34,36,38,40,42,44,-1,46,48,50,52,-1,54,56,58,60,62,64,66,-1,-1,68,70,-1,-1,-1,-1,-1,-1,-1,-1,-1,-1,-1,-1,-1,-1,-1,-1,-1,-1,-1,-1,-1,-1,-1,-1,-1,-1,-1],"split_conditions":[-8.449016E-1,-1.3985866E0,1E0,-1.149793E0,7.1014184E-1,1E0,4.3270466E-1,2.0235386E0,1E0,-3.0718195E-1,-5.4081116E-2,1E0,-5.826298E-1,1E0,-5.879026E-3,8.931991E-3,3.181915E-2,1E0,1.5184697E-2,1.6622601E-2,4.3519083E-1,1E0,3.7820446E-1,1E0,1E0,-7.283364E-1,1.8943821E0,-1.282893E-2,1E0,1E0,1E0,-1.0488908E0,9.306878E-3,-1.340304E0,-1.5025763E-1,-1.2237388E0,1.3860437E0,1E0,1.7995147E0,-2.3173757E-1,5.5544744E-3,-7.97339E-3,-1.6232872E-1,1E0,4.554296E-3,-8.382928E-3,2.9528236E-3,3.6924742E-3,9.747514E-3,7.536495E-3,1.3657503E-2,-4.469457E-3,2.1487656E-3,4.4232295E-3,-6.208122E-3,9.376283E-3,1.8883578E-3,6.8352185E-3,1.5474887E-2,1.4267149E-2,5.1578972E-3,8.346277E-4,-7.6656695E-3,-1.006831E-2,3.8606772E-4,-2.984839E-3,-1.6124176E-2,1.23407375E-2,-8.4549974E-4,-1.2673098E-2,2.975345E-3],"split_indices":[2,2,336,1,3,425,4,4,271,0,0,167,2,46,0,0,0,35,0,0,0,65,1,447,29,2,2,0,36,43,435,2,0,2,0,2,6,396,7,0,0,0,0,25,0,0,0,0,0,0,0,0,0,0,0,0,0,0,0,0,0,0,0,0,0,0,0,0,0,0,0],"split_type":[0,0,0,0,0,0,0,0,0,0,0,0,0,0,0,0,0,0,0,0,0,0,0,0,0,0,0,0,0,0,0,0,0,0,0,0,0,0,0,0,0,0,0,0,0,0,0,0,0,0,0,0,0,0,0,0,0,0,0,0,0,0,0,0,0,0,0,0,0,0,0],"sum_hessian":[4.247E3,9.67E2,3.28E3,5.29E2,4.38E2,3.102E3,1.78E2,1.7E1,5.12E2,1.23E2,3.15E2,2.888E3,2.14E2,1.41E2,3.7E1,7E0,1E1,4.79E2,3.3E1,5E0,1.18E2,1.13E2,2.02E2,2.797E3,9.1E1,3.1E1,1.83E2,1.1E2,3.1E1,3.34E2,1.45E2,1.11E2,7E0,5.6E1,5.7E1,6.3E1,1.39E2,2.619E3,1.78E2,8.4E1,7E0,1.4E1,1.7E1,1.74E2,9E0,2.6E1,5E0,2.18E2,1.16E2,9.7E1,4.8E1,7.9E1,3.2E1,1.7E1,3.9E1,3.2E1,2.5E1,4E1,2.3E1,9E0,1.3E2,2.4E3,2.19E2,1.58E2,2E1,1.1E1,7.3E1,6E0,1.1E1,1.65E2,9E0],"tree_param":{"num_deleted":"0","num_feature":"525","num_nodes":"71","size_leaf_vector":"1"}},{"base_weights":[3.3025425E-3,-1.8643452E-2,6.507854E-2,5.12548E-2,-2.7351866E-2,7.811448E-2,-7.9718314E-4,3.4382593E-2,2.1124649E-1,-3.7426572E-2,3.1850692E-2,2.3251429E-1,7.051334E-2,-1.9763676E-2,1.0892858E-2,1.3119358E-1,2.074999E-2,1.282853E-2,2.8355984E-2,-4.7132555E-2,2.9739864E-2,6.10756E-2,-3.3261426E-2,3.1458348E-2,1.6684093E-1,7.506681E-2,-7.568107E-2,-6.211821E-3,-1.1682866E-2,1.57419E-2,-3.0239655E-2,9.11785E-3,1.6445251E-1,-5.507622E-2,5.1710857E-3,3.6536537E-2,-1.8469691E-2,7.092808E-2,-9.952993E-3,-1.7723061E-2,-2.0952491E-2,2.714384E-1,1.2191188E-3,7.852561E-2,-6.3550994E-3,2.4197958E-3,-1.07320435E-1,1.0283612E-2,-1.7512245E-2,5.5816732E-3,-8.815119E-3,3.7327937E-3,-2.2175852E-3,1.98434E-2,-2.6713465E-3,-5.449274E-3,7.1720884E-4,5.6887576E-3,1.1720208E-3,1.4356403E-3,7.350419E-3,-2.862708E-3,6.716171E-3,3.1210896E-2,5.9770662E-3,6.772725E-3,-1.3521872E-3,-1.3626152E-2,-2.1141774E-3,-2.2013101E-3,1.2554884E-2],"categories":[],"categories_nodes":[],"categories_segments":[],"categories_sizes":[],"default_left":[0,0,0,0,0,0,0,0,0,0,0,0,0,0,0,0,0,0,0,0,0,0,0,0,0,0,0,0,0,0,0,0,0,0,0,0,0,0,0,0,0,0,0,0,0,0,0,0,0,0,0,0,0,0,0,0,0,0,0,0,0,0,0,0,0,0,0,0,0,0,0],"id":15,"left_children":[1,3,5,7,9,11,13,15,17,19,21,23,25,27,-1,29,31,-1,-1,33,35,37,39,-1,41,43,45,47,-1,-1,49,51,53,55,-1,57,-1,59,-1,61,-1,63,-1,65,-1,-1,67,-1,69,-1,-1,-1,-1,-1,-1,-1,-1,-1,-1,-1,-1,-1,-1,-1,-1,-1,-1,-1,-1,-1,-1],"loss_changes":[5.7927737E0,1.9220443E0,9.6192646E-1,9.3026835E-1,1.6754215E0,1.0645394E0,4.911354E-1,4.1556707E-1,1.2681389E-1,1.5660989E0,7.823474E-1,3.226385E-1,6.0649204E-1,2.8224856E-1,0E0,4.2478663E-1,4.6838322E-1,0E0,0E0,1.8681002E0,5.5534196E-1,5.3483593E-1,4.454703E-1,0E0,5.3087115E-1,4.763379E-1,1.00334644E-1,2.3596947E-1,0E0,0E0,1.193211E-1,3.6630592E-1,3.6385912E-1,1.6363087E0,0E0,2.2340497E-1,0E0,2.9642916E-1,0E0,2.3004103E-1,0E0,4.0872002E-1,0E0,5.003691E-1,0E0,0E0,1.03127E-1,0E0,2.5645554E-1,0E0,0E0,0E0,0E0,0E0,0E0,0E0,0E0,0E0,0E0,0E0,0E0,0E0,0E0,0E0,0E0,0E0,0E0,0E0,0E0,0E0,0E0],"parents":[2147483647,0,0,1,1,2,2,3,3,4,4,5,5,6,6,7,7,8,8,9,9,10,10,11,11,12,12,13,13,15,15,16,16,19,19,20,20,21,21,22,22,24,24,25,25,26,26,27,27,30,30,31,31,32,32,33,33,35,35,37,37,39,39,41,41,43,43,46,46,48,48],"right_children":[2,4,6,8,10,12,14,16,18,20,22,24,26,28,-1,30,32,-1,-1,34,36,38,40,-1,42,44,46,48,-1,-1,50,52,54,56,-1,58,-1,60,-1,62,-1,64,-1,66,-1,-1,68,-1,70,-1,-1,-1,-1,-1,-1,-1,-1,-1,-1,-1,-1,-1,-1,-1,-1,-1,-1,-1,-1,-1,-1],"split_conditions":[4.3270466E-1,-6.404605E-1,1E0,1E0,1.7995147E0,-6.404605E-1,1E0,-6.99195E-1,1E0,1E0,-5.80861E-2,-1.4277279E0,1E0,1E0,1.0892858E-2,1E0,1.6612515E0,1.282853E-2,2.8355984E-2,1E0,1E0,1E0,1E0,3.1458348E-2,1.4932605E0,1E0,-1.2820214E0,-2.9209307E-1,-1.1682866E-2,1.57419E-2,-1.3111627E0,-5.80861E-2,1E0,1E0,5.1710857E-3,-3.4949926E-1,-1.8469691E-2,-6.274214E-2,-9.952993E-3,1E0,-2.0952491E-2,-5.80861E-2,1.2191188E-3,1E0,-6.3550994E-3,2.4197958E-3,-5.80861E-2,1.0283612E-2,1E0,5.5816732E-3,-8.815119E-3,3.7327937E-3,-2.2175852E-3,1.98434E-2,-2.6713465E-3,-5.449274E-3,7.1720884E-4,5.6887576E-3,1.1720208E-3,1.4356403E-3,7.350419E-3,-2.862708E-3,6.716171E-3,3.1210896E-2,5.9770662E-3,6.772725E-3,-1.3521872E-3,-1.3626152E-2,-2.1141774E-3,-2.2013101E-3,1.2554884E-2],"split_indices":[4,1,18,11,7,1,299,2,271,381,2,2,336,247,0,22,2,0,0,450,38,336,425,0,4,167,2,0,0,0,2,2,193,271,0,2,0,0,0,435,0,2,0,425,0,0,2,0,344,0,0,0,0,0,0,0,0,0,0,0,0,0,0,0,0,0,0,0,0,0,0],"split_type":[0,0,0,0,0,0,0,0,0,0,0,0,0,0,0,0,0,0,0,0,0,0,0,0,0,0,0,0,0,0,0,0,0,0,0,0,0,0,0,0,0,0,0,0,0,0,0,0,0,0,0,0,0,0,0,0,0,0,0,0,0,0,0,0,0,0,0,0,0,0,0],"sum_hessian":[4.269E3,3.151E3,1.118E3,3.48E2,2.803E3,9.33E2,1.85E2,3.17E2,3.1E1,2.396E3,4.07E2,4.1E1,8.92E2,1.64E2,2.1E1,3.7E1,2.8E2,2.6E1,5E0,2.094E3,3.02E2,2.81E2,1.26E2,9E0,3.2E1,8.66E2,2.6E1,1.5E2,1.4E1,2.6E1,1.1E1,2.61E2,1.9E1,1.956E3,1.38E2,2.96E2,6E0,2.68E2,1.3E1,1.2E2,6E0,1.8E1,1.4E1,8.48E2,1.8E1,6E0,2E1,1E1,1.4E2,5E0,6E0,1.29E2,1.32E2,1.3E1,6E0,1.625E3,3.31E2,1.13E2,1.83E2,7.7E1,1.91E2,1.03E2,1.7E1,1E1,8E0,7.97E2,5.1E1,1E1,1E1,1.34E2,6E0],"tree_param":{"num_deleted":"0","num_feature":"525","num_nodes":"71","size_leaf_vector":"1"}},{"base_weights":[-8.423353E-4,7.077737E-2,-1.79914E-2,7.310974E-2,-1.067726E-2,1.3378885E-2,-3.8570262E-2,6.831906E-2,1.5802772E-1,-6.5707304E-3,4.838779E-2,-4.7704007E-2,3.338988E-2,5.694826E-2,1.00659184E-1,2.8405944E-3,2.5615254E-1,1.5974674E-2,-1.1149497E-2,5.7821486E-2,-7.890206E-2,-5.38708E-2,5.53972E-2,5.1097117E-2,-6.109746E-2,5.298768E-2,2.2092918E-1,1.1730254E-1,1.7158077E-3,2.4263458E-2,4.9397685E-3,-5.1870523E-3,-1.3875523E-1,6.683068E-2,-5.739764E-3,1.4186933E-3,-1.2971696E-2,-6.389634E-2,1.3174898E-2,7.6662994E-4,6.242445E-3,2.417396E-2,1.4484124E-1,-9.408463E-2,8.94959E-3,3.8359626E-3,1.4878884E-2,2.531439E-2,3.893032E-3,9.850508E-3,-2.1713637E-3,-8.783552E-4,8.17753E-3,-6.8653346E-4,-1.4770625E-2,6.0702395E-3,-2.4965862E-3,-6.122681E-3,9.223352E-4,1.8410776E-3,-7.7977506E-3,-5.672374E-5,1.0724104E-2,1.9045986E-2,3.7845608E-3,-9.951716E-3,4.3235207E-3],"categories":[],"categories_nodes":[],"categories_segments":[],"categories_sizes":[],"default_left":[0,0,0,0,0,0,0,0,0,0,0,0,0,0,0,0,0,0,0,0,0,0,0,0,0,0,0,0,0,0,0,0,0,0,0,0,0,0,0,0,0,0,0,0,0,0,0,0,0,0,0,0,0,0,0,0,0,0,0,0,0,0,0,0,0,0,0],"id":16,"left_children":[1,3,5,7,-1,9,11,13,15,17,19,21,23,25,27,-1,29,-1,31,33,35,37,39,41,43,45,47,49,-1,-1,-1,51,53,55,-1,-1,-1,57,59,-1,-1,61,63,65,-1,-1,-1,-1,-1,-1,-1,-1,-1,-1,-1,-1,-1,-1,-1,-1,-1,-1,-1,-1,-1,-1,-1],"loss_changes":[5.232269E0,4.115677E-1,2.2198381E0,3.0996132E-1,0E0,9.525744E-1,1.3676689E0,2.7352834E-1,4.8674524E-1,8.2607174E-1,6.035274E-1,1.1777554E0,3.994245E-1,3.519746E-1,2.573192E-1,0E0,1.7332637E-1,0E0,6.4755887E-1,5.488862E-1,2.873035E-1,1.1712589E0,1.0738239E-1,4.9525082E-1,2.3786716E-1,3.6209118E-1,1.8307328E-1,1.4476228E-1,0E0,0E0,0E0,5.1053166E-1,2.2376889E-1,3.887986E-1,0E0,0E0,0E0,1.4448562E0,2.5268865E-1,0E0,0E0,4.294405E-1,3.7758726E-1,1.6161743E-1,0E0,0E0,0E0,0E0,0E0,0E0,0E0,0E0,0E0,0E0,0E0,0E0,0E0,0E0,0E0,0E0,0E0,0E0,0E0,0E0,0E0,0E0,0E0],"parents":[2147483647,0,0,1,1,2,2,3,3,5,5,6,6,7,7,8,8,9,9,10,10,11,11,12,12,13,13,14,14,16,16,18,18,19,19,20,20,21,21,22,22,23,23,24,24,25,25,26,26,27,27,31,31,32,32,33,33,37,37,38,38,41,41,42,42,43,43],"right_children":[2,4,6,8,-1,10,12,14,16,18,20,22,24,26,28,-1,30,-1,32,34,36,38,40,42,44,46,48,50,-1,-1,-1,52,54,56,-1,-1,-1,58,60,-1,-1,62,64,66,-1,-1,-1,-1,-1,-1,-1,-1,-1,-1,-1,-1,-1,-1,-1,-1,-1,-1,-1,-1,-1,-1,-1],"split_conditions":[-1.1945975E0,2.4155345E0,-6.302739E-1,1E0,-1.067726E-2,7.1014184E-1,2.4808875E-1,1E0,2.0235386E0,-3.494308E-1,1E0,1E0,1.906202E0,-1.2237388E0,-1.3694453E0,2.8405944E-3,1.3860437E0,1.5974674E-2,1E0,1E0,-2.4079089E-1,1E0,-1.4551005E-1,5.1667076E-1,8.425905E-1,3.246818E0,-6.302739E-1,1E0,1.7158077E-3,2.4263458E-2,4.9397685E-3,1E0,-2.3173757E-1,1E0,-5.739764E-3,1.4186933E-3,-1.2971696E-2,1E0,1.1658492E0,7.6662994E-4,6.242445E-3,1.5102131E0,1.3478029E0,1E0,8.94959E-3,3.8359626E-3,1.4878884E-2,2.531439E-2,3.893032E-3,9.850508E-3,-2.1713637E-3,-8.783552E-4,8.17753E-3,-6.8653346E-4,-1.4770625E-2,6.0702395E-3,-2.4965862E-3,-6.122681E-3,9.223352E-4,1.8410776E-3,-7.7977506E-3,-5.672374E-5,1.0724104E-2,1.9045986E-2,3.7845608E-3,-9.951716E-3,4.3235207E-3],"split_indices":[2,1,1,371,0,3,0,35,4,0,396,450,1,2,2,0,6,0,167,336,0,381,2,0,0,5,1,425,0,0,0,11,0,193,0,0,0,271,2,0,0,3,5,25,0,0,0,0,0,0,0,0,0,0,0,0,0,0,0,0,0,0,0,0,0,0,0],"split_type":[0,0,0,0,0,0,0,0,0,0,0,0,0,0,0,0,0,0,0,0,0,0,0,0,0,0,0,0,0,0,0,0,0,0,0,0,0,0,0,0,0,0,0,0,0,0,0,0,0,0,0,0,0,0,0,0,0,0,0,0,0,0,0,0,0,0,0],"sum_hessian":[4.256E3,8.21E2,3.435E3,8.13E2,8E0,1.361E3,2.074E3,7.73E2,4E1,8.68E2,4.93E2,1.841E3,2.33E2,5.76E2,1.97E2,1.9E1,2.1E1,1.7E1,8.51E2,4.6E2,3.3E1,1.738E3,1.03E2,1.97E2,3.6E1,5.65E2,1.1E1,1.62E2,3.5E1,1.6E1,5E0,8.15E2,3.6E1,4.31E2,2.9E1,1.6E1,1.7E1,1.512E3,2.26E2,3.5E1,6.8E1,1.55E2,4.2E1,3.1E1,5E0,5.47E2,1.8E1,6E0,5E0,1.56E2,6E0,7.75E2,4E1,1E1,2.6E1,3.95E2,3.6E1,1.295E3,2.17E2,2.09E2,1.7E1,1.28E2,2.7E1,2E1,2.2E1,2.6E1,5E0],"tree_param":{"num_deleted":"0","num_feature":"525","num_nodes":"67","size_leaf_vector":"1"}},{"base_weights":[1.7766084E-3,-1.8507836E-2,5.8624446E-2,-3.7256293E-2,9.562092E-3,7.0146196E-2,2.505334E-3,4.092327E-2,-4.8352215E-2,3.206383E-2,-2.5140228E-2,2.0925409E-1,6.288979E-2,-1.4052251E-2,8.744007E-3,2.4700299E-2,2.07099E-2,-4.319688E-2,-1.805521E-1,2.7225235E-2,2.2876519E-1,1.9584183E-2,-5.918104E-2,2.6671964E-1,2.6766611E-2,5.7182346E-2,1.618548E-1,-3.879453E-2,4.4230796E-2,7.230752E-2,-2.1658886E-2,-3.613416E-2,-1.24998264E-1,-1.8801381E-3,-1.8459387E-2,3.2600686E-2,-9.020268E-3,-1.7018846E-4,3.0086689E-2,8.033459E-3,1.1031471E-2,-1.0292447E-1,-1.2361037E-2,2.4806479E-2,8.050895E-3,9.2301965E-3,-6.572042E-3,6.0651984E-2,-8.594022E-3,9.803746E-2,2.0302286E-2,-6.0546946E-2,3.1847819E-3,1.0877691E-2,-9.637675E-3,7.826485E-3,-5.4078638E-3,1.7966492E-3,-5.942024E-3,-3.0426856E-3,1.9750947E-2,-6.2809484E-3,-1.4979066E-2,1.9768444E-3,1.07981535E-2,-6.782756E-4,8.3874175E-3,3.2321261E-3,-8.950694E-3,5.4957916E-4,-1.130636E-2,5.167325E-3,-6.04461E-3,1.058903E-2,-4.1478153E-5,-3.120152E-3,-1.3505381E-2,4.6621165E-3,-5.0404174E-3],"categories":[],"categories_nodes":[],"categories_segments":[],"categories_sizes":[],"default_left":[0,0,0,0,0,0,0,0,0,0,0,0,0,0,0,0,0,0,0,0,0,0,0,0,0,0,0,0,0,0,0,0,0,0,0,0,0,0,0,0,0,0,0,0,0,0,0,0,0,0,0,0,0,0,0,0,0,0,0,0,0,0,0,0,0,0,0,0,0,0,0,0,0,0,0,0,0,0,0],"id":17,"left_children":[1,3,5,7,9,11,13,15,17,19,21,23,25,27,-1,29,-1,31,33,35,37,39,41,43,45,47,49,51,53,55,57,59,61,-1,-1,63,-1,-1,-1,65,-1,67,69,-1,-1,-1,-1,71,-1,73,-1,75,-1,-1,77,-1,-1,-1,-1,-1,-1,-1,-1,-1,-1,-1,-1,-1,-1,-1,-1,-1,-1,-1,-1,-1,-1,-1,-1],"loss_changes":[4.8891215E0,1.6452993E0,7.2059655E-1,1.6296048E0,9.800329E-1,9.073963E-1,3.425784E-1,8.1458986E-1,1.103481E0,7.1183145E-1,7.544109E-1,4.5762515E-1,4.7967649E-1,2.4569711E-1,0E0,4.8867923E-1,0E0,9.0552926E-1,4.6998048E-1,5.679256E-1,6.1386526E-1,2.9159424E-1,5.7296246E-1,1.8244386E-1,1.4442275E-1,4.9106598E-1,2.2595787E-1,2.0829092E-1,2.5465843E-1,4.0245372E-1,2.6564062E-1,8.0363595E-1,3.3226395E-1,0E0,0E0,5.7411027E-1,0E0,0E0,0E0,3.1828183E-1,0E0,1.9523335E-1,3.442044E-1,0E0,0E0,0E0,0E0,4.5031667E-1,0E0,1.0500944E-1,0E0,2.0610437E-1,0E0,0E0,1.3057339E-1,0E0,0E0,0E0,0E0,0E0,0E0,0E0,0E0,0E0,0E0,0E0,0E0,0E0,0E0,0E0,0E0,0E0,0E0,0E0,0E0,0E0,0E0,0E0,0E0],"parents":[2147483647,0,0,1,1,2,2,3,3,4,4,5,5,6,6,7,7,8,8,9,9,10,10,11,11,12,12,13,13,15,15,17,17,18,18,19,19,20,20,21,21,22,22,23,23,24,24,25,25,26,26,27,27,28,28,29,29,30,30,31,31,32,32,35,35,39,39,41,41,42,42,47,47,49,49,51,51,54,54],"right_children":[2,4,6,8,10,12,14,16,18,20,22,24,26,28,-1,30,-1,32,34,36,38,40,42,44,46,48,50,52,54,56,58,60,62,-1,-1,64,-1,-1,-1,66,-1,68,70,-1,-1,-1,-1,72,-1,74,-1,76,-1,-1,78,-1,-1,-1,-1,-1,-1,-1,-1,-1,-1,-1,-1,-1,-1,-1,-1,-1,-1,-1,-1,-1,-1,-1,-1],"split_conditions":[4.3270466E-1,7.1014184E-1,1E0,-6.404605E-1,1E0,-6.404605E-1,1E0,1E0,1E0,1E0,3.7820446E-1,-5.80861E-2,3.246818E0,1E0,8.744007E-3,-5.80861E-2,2.07099E-2,1E0,-7.86619E-1,1.906202E0,3.7820446E-1,1E0,-5.067103E-2,1E0,1E0,1E0,1E0,2.7791133E-2,-6.302739E-1,1E0,-2.2570202E-1,8.425905E-1,1E0,-1.8801381E-3,-1.8459387E-2,3.5974646E-1,-9.020268E-3,-1.7018846E-4,3.0086689E-2,1E0,1.1031471E-2,-2.649331E-1,1E0,2.4806479E-2,8.050895E-3,9.2301965E-3,-6.572042E-3,1E0,-8.594022E-3,1.4850216E-1,2.0302286E-2,1E0,3.1847819E-3,1.0877691E-2,1.9653238E-4,7.826485E-3,-5.4078638E-3,1.7966492E-3,-5.942024E-3,-3.0426856E-3,1.9750947E-2,-6.2809484E-3,-1.4979066E-2,1.9768444E-3,1.07981535E-2,-6.782756E-4,8.3874175E-3,3.2321261E-3,-8.950694E-3,5.4957916E-4,-1.130636E-2,5.167325E-3,-6.04461E-3,1.058903E-2,-4.1478153E-5,-3.120152E-3,-1.3505381E-2,4.6621165E-3,-5.0404174E-3],"split_indices":[4,3,18,1,18,1,299,11,167,344,1,2,5,8,0,2,0,425,2,1,1,435,0,435,8,447,65,0,1,22,0,0,43,0,0,0,0,0,0,381,0,0,43,0,0,0,0,336,0,0,0,36,0,0,2,0,0,0,0,0,0,0,0,0,0,0,0,0,0,0,0,0,0,0,0,0,0,0,0],"split_type":[0,0,0,0,0,0,0,0,0,0,0,0,0,0,0,0,0,0,0,0,0,0,0,0,0,0,0,0,0,0,0,0,0,0,0,0,0,0,0,0,0,0,0,0,0,0,0,0,0,0,0,0,0,0,0,0,0,0,0,0,0,0,0,0,0,0,0,0,0,0,0,0,0,0,0,0,0,0,0],"sum_hessian":[4.236E3,3.123E3,1.113E3,1.872E3,1.251E3,9.23E2,1.9E2,2.32E2,1.64E3,7.59E2,4.92E2,4.3E1,8.8E2,1.66E2,2.4E1,2.18E2,1.4E1,1.581E3,5.9E1,7.43E2,1.6E1,2.13E2,2.79E2,3.2E1,1.1E1,8.35E2,4.5E1,1.17E2,4.9E1,1.07E2,1.11E2,1.458E3,1.23E2,1.5E1,4.4E1,7.17E2,2.6E1,7E0,9E0,1.96E2,1.7E1,1.43E2,1.36E2,2.4E1,8E0,6E0,5E0,8.19E2,1.6E1,2.9E1,1.6E1,9.2E1,2.5E1,1.7E1,3.2E1,9.1E1,1.6E1,6.1E1,5E1,1.45E3,8E0,7.3E1,5E1,6.68E2,4.9E1,1.69E2,2.7E1,8E0,1.35E2,1.2E2,1.6E1,7.97E2,2.2E1,2.1E1,8E0,7.9E1,1.3E1,1.4E1,1.8E1],"tree_param":{"num_deleted":"0","num_feature":"525","num_nodes":"79","size_leaf_vector":"1"}},{"base_weights":[2.100317E-3,-1.527254E-2,5.662263E-2,7.241769E-2,-2.1540496E-2,7.114058E-2,-1.687347E-2,2.1935947E-1,4.8454065E-2,-2.6675552E-2,6.5076485E-2,8.223829E-2,6.8745483E-3,1.3598243E-2,-7.471514E-2,2.023979E-2,5.088466E-3,5.6652028E-2,-1.45640345E-2,-3.2189753E-2,6.1476227E-2,6.2210653E-3,-1.1658816E-2,7.191182E-2,1.4541931E-1,2.5299774E-2,-1.4281877E-2,4.3123294E-2,-5.534981E-3,-1.459606E-1,7.1498886E-2,3.915029E-2,1.8000357E-2,3.9728902E-2,-3.9472386E-2,4.240793E-2,1.5515058E-1,-3.6442322E-3,7.4683623E-3,8.1584945E-2,9.380761E-3,1.1909662E-1,2.104171E-2,6.5950476E-2,-1.3573098E-2,4.7782087E-3,-4.064229E-3,-6.7372983E-3,-1.7857708E-2,1.9253708E-2,1.3639055E-2,6.4707994E-3,-4.4031427E-4,3.5275954E-3,-6.958626E-3,-3.921796E-3,8.682958E-4,6.2321955E-3,-5.6395266E-4,6.025725E-3,2.6871419E-2,2.000659E-2,5.7602534E-3,-3.1980693E-3,1.2886785E-2,5.9962147E-3,1.9416641E-2,7.025607E-3,-6.005038E-3,3.6858456E-4,-9.89435E-3,-3.403323E-3,8.868757E-3],"categories":[],"categories_nodes":[],"categories_segments":[],"categories_sizes":[],"default_left":[0,0,0,0,0,0,0,0,0,0,0,0,0,0,0,0,0,0,0,0,0,0,0,0,0,0,0,0,0,0,0,0,0,0,0,0,0,0,0,0,0,0,0,0,0,0,0,0,0,0,0,0,0,0,0,0,0,0,0,0,0,0,0,0,0,0,0,0,0,0,0,0,0],"id":18,"left_children":[1,3,5,7,9,11,13,15,17,19,21,23,25,27,29,-1,-1,31,-1,33,35,-1,37,39,41,43,-1,45,-1,47,49,51,-1,53,55,57,59,-1,-1,61,63,65,-1,67,69,-1,-1,-1,-1,71,-1,-1,-1,-1,-1,-1,-1,-1,-1,-1,-1,-1,-1,-1,-1,-1,-1,-1,-1,-1,-1,-1,-1],"loss_changes":[4.072831E0,1.795491E0,1.111027E0,7.463765E-1,1.3578361E0,6.1793137E-1,3.0695048E-1,1.2499261E-1,3.796639E-1,1.4019425E0,1.6828662E-1,4.618888E-1,4.5311323E-1,2.8705546E-1,6.4589727E-1,0E0,0E0,5.2747715E-1,0E0,1.4214714E0,2.9049653E-1,0E0,1.0104775E-1,3.8558674E-1,2.531016E-1,1.9141544E-1,0E0,1.4019252E-1,0E0,1.5798932E-1,1.0204093E-1,3.1770754E-1,0E0,1.4597815E-1,1.1833827E0,2.538852E-1,3.533972E-1,0E0,0E0,8.5842156E-1,6.717878E-1,4.38349E-1,0E0,1.9513476E-1,1.2725158E-1,0E0,0E0,0E0,0E0,1.0000507E-1,0E0,0E0,0E0,0E0,0E0,0E0,0E0,0E0,0E0,0E0,0E0,0E0,0E0,0E0,0E0,0E0,0E0,0E0,0E0,0E0,0E0,0E0,0E0],"parents":[2147483647,0,0,1,1,2,2,3,3,4,4,5,5,6,6,7,7,8,8,9,9,10,10,11,11,12,12,13,13,14,14,17,17,19,19,20,20,22,22,23,23,24,24,25,25,27,27,29,29,30,30,31,31,33,33,34,34,35,35,36,36,39,39,40,40,41,41,43,43,44,44,49,49],"right_children":[2,4,6,8,10,12,14,16,18,20,22,24,26,28,30,-1,-1,32,-1,34,36,-1,38,40,42,44,-1,46,-1,48,50,52,-1,54,56,58,60,-1,-1,62,64,66,-1,68,70,-1,-1,-1,-1,72,-1,-1,-1,-1,-1,-1,-1,-1,-1,-1,-1,-1,-1,-1,-1,-1,-1,-1,-1,-1,-1,-1,-1],"split_conditions":[1.7995147E0,-1.149793E0,-2.8944783E-2,-3.0718195E-1,1E0,1E0,1E0,1E0,1E0,1E0,1.3968694E0,1E0,1E0,1E0,2.0418574E-1,2.023979E-2,5.088466E-3,1E0,-1.45640345E-2,-1.2237388E0,1.6057326E-1,6.2210653E-3,1E0,1E0,1E0,-4.077819E-1,-1.4281877E-2,1E0,-5.534981E-3,1E0,-4.1617703E-2,-5.80861E-2,1.8000357E-2,2.4155345E0,1E0,1E0,1E0,-3.6442322E-3,7.4683623E-3,-1.149793E0,1.9376878E-1,1E0,2.104171E-2,1E0,1E0,4.7782087E-3,-4.064229E-3,-6.7372983E-3,-1.7857708E-2,1E0,1.3639055E-2,6.4707994E-3,-4.4031427E-4,3.5275954E-3,-6.958626E-3,-3.921796E-3,8.682958E-4,6.2321955E-3,-5.6395266E-4,6.025725E-3,2.6871419E-2,2.000659E-2,5.7602534E-3,-3.1980693E-3,1.2886785E-2,5.9962147E-3,1.9416641E-2,7.025607E-3,-6.005038E-3,3.6858456E-4,-9.89435E-3,-3.403323E-3,8.868757E-3],"split_indices":[7,1,2,0,450,18,65,46,447,299,1,43,22,33,2,0,0,11,0,2,0,0,43,16,371,2,0,299,0,43,0,2,0,1,271,21,16,0,0,1,0,271,0,396,447,0,0,0,0,381,0,0,0,0,0,0,0,0,0,0,0,0,0,0,0,0,0,0,0,0,0,0,0],"split_type":[0,0,0,0,0,0,0,0,0,0,0,0,0,0,0,0,0,0,0,0,0,0,0,0,0,0,0,0,0,0,0,0,0,0,0,0,0,0,0,0,0,0,0,0,0,0,0,0,0,0,0,0,0,0,0,0,0,0,0,0,0,0,0,0,0,0,0,0,0,0,0,0,0],"sum_hessian":[4.296E3,3.259E3,1.037E3,2.16E2,3.043E3,8.66E2,1.71E2,2.8E1,1.88E2,2.874E3,1.69E2,7.38E2,1.28E2,1.13E2,5.8E1,2.2E1,6E0,1.83E2,5E0,2.706E3,1.68E2,1.45E2,2.4E1,6.38E2,1E2,1.18E2,1E1,8.4E1,2.9E1,3.9E1,1.9E1,1.68E2,1.5E1,2.48E2,2.458E3,1.42E2,2.6E1,1.9E1,5E0,5.52E2,8.6E1,8.5E1,1.5E1,5.7E1,6.1E1,7.2E1,1.2E1,2.4E1,1.5E1,1.4E1,5E0,8.6E1,8.2E1,2.41E2,7E0,2.066E3,3.92E2,8.2E1,6E1,2E1,6E0,2.7E1,5.25E2,6.6E1,2E1,6.5E1,2E1,5E1,7E0,5.4E1,7E0,9E0,5E0],"tree_param":{"num_deleted":"0","num_feature":"525","num_nodes":"73","size_leaf_vector":"1"}},{"base_weights":[-2.7157387E-3,-1.9299E-2,4.4129044E-2,-1.3859689E-2,-1.1120803E-1,3.4090627E-2,8.981428E-2,-8.448604E-3,-1.0670195E-1,-6.9899145E-3,-1.5681919E-2,2.1630036E-2,9.768353E-2,6.6944435E-2,1.7266065E-1,-1.4370461E-3,-9.250943E-2,-4.2532045E-2,-1.2408517E-1,2.5101945E-2,-1.2536094E-2,8.1384875E-2,3.25911E-2,-1.4969278E-3,6.3558654E-3,2.420798E-2,1.0735443E-2,-8.689619E-3,8.089843E-2,-9.998425E-2,1.2824179E-2,-6.8922476E-3,4.368713E-3,-1.0767545E-2,-8.3303085E-4,-3.52742E-3,4.7311254E-2,5.2995253E-2,2.2064086E-2,-2.0583037E-3,1.5180891E-3,1.4763307E-2,4.9884776E-3,2.2776918E-3,-8.748364E-3,1.091697E-2,-7.3258096E-4,2.9889857E-3,6.579067E-3,2.602031E-3,1.4048972E-2],"categories":[],"categories_nodes":[],"categories_segments":[],"categories_sizes":[],"default_left":[0,0,0,0,0,0,0,0,0,0,0,0,0,0,0,0,0,0,0,0,0,0,0,0,0,0,0,0,0,0,0,0,0,0,0,0,0,0,0,0,0,0,0,0,0,0,0,0,0,0,0],"id":19,"left_children":[1,3,5,7,9,11,13,15,17,-1,-1,19,21,23,25,27,29,31,33,35,-1,37,-1,-1,-1,-1,-1,39,41,43,-1,-1,-1,-1,-1,45,47,49,-1,-1,-1,-1,-1,-1,-1,-1,-1,-1,-1,-1,-1],"loss_changes":[3.3188071E0,1.5741707E0,5.061407E-1,1.495784E0,3.215313E-1,7.239946E-1,3.5581946E-1,1.6612451E0,1.7238355E-1,0E0,0E0,4.8523164E-1,6.9085586E-1,1.7433852E-1,1.2872124E-1,1.5563688E0,4.4212532E-1,1.704303E-1,1.5010548E-1,4.8229936E-1,0E0,7.710813E-1,0E0,0E0,0E0,0E0,0E0,1.1299826E0,3.8248408E-1,2.614038E-1,0E0,0E0,0E0,0E0,0E0,2.6494288E-1,1.4223182E-1,3.1236008E-1,0E0,0E0,0E0,0E0,0E0,0E0,0E0,0E0,0E0,0E0,0E0,0E0,0E0],"parents":[2147483647,0,0,1,1,2,2,3,3,4,4,5,5,6,6,7,7,8,8,11,11,12,12,13,13,14,14,15,15,16,16,17,17,18,18,19,19,21,21,27,27,28,28,29,29,35,35,36,36,37,37],"right_children":[2,4,6,8,10,12,14,16,18,-1,-1,20,22,24,26,28,30,32,34,36,-1,38,-1,-1,-1,-1,-1,40,42,44,-1,-1,-1,-1,-1,46,48,50,-1,-1,-1,-1,-1,-1,-1,-1,-1,-1,-1,-1,-1],"split_conditions":[4.3270466E-1,1E0,1E0,1E0,1E0,1E0,1E0,1E0,-2.3475534E-1,-6.9899145E-3,-1.5681919E-2,1E0,1E0,7.1014184E-1,1.5102131E0,1E0,1.8943821E0,7.1014184E-1,1E0,-5.067103E-2,-1.2536094E-2,1E0,3.25911E-2,-1.4969278E-3,6.3558654E-3,2.420798E-2,1.0735443E-2,7.1014184E-1,-6.404605E-1,-8.900009E-1,1.2824179E-2,-6.8922476E-3,4.368713E-3,-1.0767545E-2,-8.3303085E-4,-3.1925306E-1,1E0,1E0,2.2064086E-2,-2.0583037E-3,1.5180891E-3,1.4763307E-2,4.9884776E-3,2.2776918E-3,-8.748364E-3,1.091697E-2,-7.3258096E-4,2.9889857E-3,6.579067E-3,2.602031E-3,1.4048972E-2],"split_indices":[4,336,35,447,73,43,450,396,0,0,0,167,344,3,3,11,2,3,22,0,0,371,0,0,0,0,0,3,1,3,0,0,0,0,0,0,33,271,0,0,0,0,0,0,0,0,0,0,0,0,0],"split_type":[0,0,0,0,0,0,0,0,0,0,0,0,0,0,0,0,0,0,0,0,0,0,0,0,0,0,0,0,0,0,0,0,0,0,0,0,0,0,0,0,0,0,0,0,0,0,0,0,0,0,0],"sum_hessian":[4.268E3,3.153E3,1.115E3,2.979E3,1.74E2,9.17E2,1.98E2,2.817E3,1.62E2,1.39E2,3.5E1,7.69E2,1.48E2,1.58E2,4E1,2.602E3,2.15E2,3.6E1,1.26E2,7.56E2,1.3E1,1.43E2,5E0,2E1,1.38E2,6E0,3.4E1,2.393E3,2.09E2,2.1E2,5E0,2.5E1,1.1E1,1.15E2,1.1E1,3.31E2,4.25E2,1.27E2,1.6E1,1.481E3,9.12E2,2.9E1,1.8E2,1.4E1,1.96E2,1.1E1,3.2E2,3.34E2,9.1E1,1.11E2,1.6E1],"tree_param":{"num_deleted":"0","num_feature":"525","num_nodes":"51","size_leaf_vector":"1"}},{"base_weights":[4.2071887E-3,-1.3089098E-2,5.1151212E-2,-7.812895E-3,-1.03934094E-1,6.273656E-2,-6.108499E-3,-1.6233483E-3,-8.721063E-2,-3.0755566E-2,-9.906363E-3,5.847694E-2,1.7755835E-1,-2.073422E-2,7.5536096E-3,2.761517E-3,-1.3293311E-1,-1.0227842E-1,2.2759635E-3,-5.26319E-3,6.7201518E-3,6.360097E-2,-1.9781565E-2,-6.8903733E-3,3.5756853E-1,-3.6805235E-2,5.4163327E-3,8.382978E-3,-7.086191E-3,-1.2407353E-3,-1.6061181E-1,-7.371694E-2,-1.8029091E-1,6.7183964E-2,-3.2292511E-3,-1.161508E-2,6.0910843E-3,9.3438495E-3,3.378018E-2,-4.694729E-2,5.2421284E-3,1.249585E-3,-6.0660588E-3,-8.923115E-3,-1.935862E-2,-7.09174E-3,6.953783E-3,1.3909979E-3,-1.7576838E-2,5.609085E-3,-4.7366917E-3,-1.1119768E-3,9.161415E-3,-4.4741477E-3,7.2157546E-3],"categories":[],"categories_nodes":[],"categories_segments":[],"categories_sizes":[],"default_left":[0,0,0,0,0,0,0,0,0,0,0,0,0,0,0,0,0,0,0,0,0,0,0,0,0,0,0,0,0,0,0,0,0,0,0,0,0,0,0,0,0,0,0,0,0,0,0,0,0,0,0,0,0,0,0],"id":20,"left_children":[1,3,5,7,9,11,13,15,17,19,-1,21,23,25,-1,27,29,31,-1,-1,-1,33,35,-1,37,39,-1,41,-1,-1,43,45,47,49,-1,-1,51,-1,-1,53,-1,-1,-1,-1,-1,-1,-1,-1,-1,-1,-1,-1,-1,-1,-1],"loss_changes":[3.4440382E0,1.4842575E0,7.5833917E-1,1.4406073E0,2.3988914E-1,4.4387627E-1,2.8915435E-1,1.5679954E0,3.752811E-1,1.6785045E-1,0E0,3.7103438E-1,1.6279899E0,2.4802509E-1,0E0,1.3549606E0,2.8103042E-1,3.9231145E-1,0E0,0E0,0E0,3.2690096E-1,1.8995605E-1,0E0,2.1284175E-1,1.5767945E-1,0E0,1.516739E0,0E0,0E0,2.2952926E-1,3.5357302E-1,3.894676E-1,3.174863E-1,0E0,0E0,1.1156023E-1,0E0,0E0,1.7510906E-1,0E0,0E0,0E0,0E0,0E0,0E0,0E0,0E0,0E0,0E0,0E0,0E0,0E0,0E0,0E0],"parents":[2147483647,0,0,1,1,2,2,3,3,4,4,5,5,6,6,7,7,8,8,9,9,11,11,12,12,13,13,15,15,16,16,17,17,21,21,22,22,24,24,25,25,27,27,30,30,31,31,32,32,33,33,36,36,39,39],"right_children":[2,4,6,8,10,12,14,16,18,20,-1,22,24,26,-1,28,30,32,-1,-1,-1,34,36,-1,38,40,-1,42,-1,-1,44,46,48,50,-1,-1,52,-1,-1,54,-1,-1,-1,-1,-1,-1,-1,-1,-1,-1,-1,-1,-1,-1,-1],"split_conditions":[4.3270466E-1,1E0,1E0,1E0,-2.3475534E-1,1E0,1E0,1E0,1E0,1.7995147E0,-9.906363E-3,1E0,-1.4277279E0,1E0,7.5536096E-3,1E0,-7.86619E-1,8.8753694E-1,2.2759635E-3,-5.26319E-3,6.7201518E-3,1E0,-2.124238E-1,-6.8903733E-3,1.3860437E0,1E0,5.4163327E-3,1E0,-7.086191E-3,-1.2407353E-3,1E0,1.4864037E0,-1.4551005E-1,1E0,-3.2292511E-3,-1.161508E-2,2.8430206E-1,9.3438495E-3,3.378018E-2,1E0,5.2421284E-3,1.249585E-3,-6.0660588E-3,-8.923115E-3,-1.935862E-2,-7.09174E-3,6.953783E-3,1.3909979E-3,-1.7576838E-2,5.609085E-3,-4.7366917E-3,-1.1119768E-3,9.161415E-3,-4.4741477E-3,7.2157546E-3],"split_indices":[4,447,18,425,0,344,299,167,33,7,0,425,2,381,0,336,2,1,0,0,0,336,0,0,6,450,0,396,0,0,18,2,2,167,0,0,0,0,0,344,0,0,0,0,0,0,0,0,0,0,0,0,0,0,0],"split_type":[0,0,0,0,0,0,0,0,0,0,0,0,0,0,0,0,0,0,0,0,0,0,0,0,0,0,0,0,0,0,0,0,0,0,0,0,0,0,0,0,0,0,0,0,0,0,0,0,0,0,0,0,0,0,0],"sum_hessian":[4.238E3,3.098E3,1.14E3,2.93E3,1.68E2,9.48E2,1.92E2,2.72E3,2.1E2,3.7E1,1.31E2,9.17E2,3.1E1,1.69E2,2.3E1,2.634E3,8.6E1,1.86E2,2.4E1,2.9E1,8E0,8.61E2,5.6E1,1.3E1,1.8E1,1.44E2,2.5E1,2.483E3,1.51E2,1.7E1,6.9E1,1.39E2,4.7E1,8.33E2,2.8E1,8E0,4.8E1,5E0,1.3E1,1.32E2,1.2E1,2.288E3,1.95E2,4.6E1,2.3E1,1.28E2,1.1E1,8E0,3.9E1,8.15E2,1.8E1,4.2E1,6E0,1.25E2,7E0],"tree_param":{"num_deleted":"0","num_feature":"525","num_nodes":"55","size_leaf_vector":"1"}},{"base_weights":[4.4354642E-4,-1.3837765E-2,4.04229E-2,-1.8813452E-2,7.138677E-2,6.980141E-2,2.1188416E-2,-2.7890343E-2,3.4880634E-2,1.3016269E-1,2.304262E-2,6.352351E-2,2.1306407E-1,2.8482792E-3,4.43204E-2,-3.4973707E-2,3.97594E-2,3.0559786E-2,2.3276456E-2,1.029139E-1,2.7701378E-2,4.787747E-2,-1.6928404E-3,5.262821E-2,1.4306757E-1,-4.5724786E-3,2.6063047E-2,8.400204E-3,-8.951962E-3,4.032768E-3,-2.21098E-2,-4.1666135E-2,4.360599E-2,5.564568E-2,-6.9867144E-3,6.328348E-2,1.6796697E-3,9.842083E-3,-1.5861685E-3,8.356372E-3,8.399702E-3,-1.030744E-2,6.388859E-2,2.2744762E-2,9.228312E-3,2.4047788E-2,-2.4525127E-3,-4.591301E-3,6.082519E-3,-3.814933E-3,2.28542E-3,4.0991604E-3,-2.5988203E-3,3.3555066E-3,9.189138E-3,4.2992807E-3,1.1962849E-2,6.6132203E-4,-1.6916925E-2,-1.529572E-3,8.579585E-3,-2.2196493E-3,6.5946053E-3,4.168816E-3,1.1118646E-2,2.41133E-3,-8.796964E-3],"categories":[],"categories_nodes":[],"categories_segments":[],"categories_sizes":[],"default_left":[0,0,0,0,0,0,0,0,0,0,0,0,0,0,0,0,0,0,0,0,0,0,0,0,0,0,0,0,0,0,0,0,0,0,0,0,0,0,0,0,0,0,0,0,0,0,0,0,0,0,0,0,0,0,0,0,0,0,0,0,0,0,0,0,0,0,0],"id":21,"left_children":[1,3,5,7,9,11,13,15,17,19,21,23,25,27,29,31,33,35,-1,37,-1,39,-1,41,43,-1,-1,45,-1,-1,47,49,51,53,-1,55,57,-1,-1,59,-1,61,63,-1,-1,65,-1,-1,-1,-1,-1,-1,-1,-1,-1,-1,-1,-1,-1,-1,-1,-1,-1,-1,-1,-1,-1],"loss_changes":[2.4665136E0,1.3524394E0,6.395384E-1,1.4684583E0,4.941004E-1,3.7675643E-1,2.9247576E-1,1.2366896E0,4.646343E-1,3.9392698E-1,1.1070624E-1,3.602034E-1,5.855268E-1,2.484265E-1,1.2560356E-1,1.2300067E0,5.043843E-1,4.0711012E-1,0E0,1.8508506E-1,0E0,1.4271869E-1,0E0,2.7344978E-1,1.3403857E-1,0E0,0E0,2.2820799E-1,0E0,0E0,1.0221643E-1,9.1184115E-1,1.1020428E-1,1.6806155E-1,0E0,1.5018535E-1,3.2780403E-1,0E0,0E0,1.12783395E-1,0E0,1.0160728E-1,2.7385938E-1,0E0,0E0,2.238536E-1,0E0,0E0,0E0,0E0,0E0,0E0,0E0,0E0,0E0,0E0,0E0,0E0,0E0,0E0,0E0,0E0,0E0,0E0,0E0,0E0,0E0],"parents":[2147483647,0,0,1,1,2,2,3,3,4,4,5,5,6,6,7,7,8,8,9,9,10,10,11,11,12,12,13,13,14,14,15,15,16,16,17,17,19,19,21,21,23,23,24,24,27,27,30,30,31,31,32,32,33,33,35,35,36,36,39,39,41,41,42,42,45,45],"right_children":[2,4,6,8,10,12,14,16,18,20,22,24,26,28,30,32,34,36,-1,38,-1,40,-1,42,44,-1,-1,46,-1,-1,48,50,52,54,-1,56,58,-1,-1,60,-1,62,64,-1,-1,66,-1,-1,-1,-1,-1,-1,-1,-1,-1,-1,-1,-1,-1,-1,-1,-1,-1,-1,-1,-1,-1],"split_conditions":[4.3270466E-1,1E0,-6.302739E-1,1E0,-2.8944783E-2,1E0,1.5102131E0,1E0,1E0,1E0,1E0,1E0,-1.3694453E0,1E0,1E0,1E0,1E0,3.7820446E-1,2.3276456E-2,1E0,2.7701378E-2,4.6645758E-1,-1.6928404E-3,-8.992955E-2,-1.149793E0,-4.5724786E-3,2.6063047E-2,1E0,-8.951962E-3,4.032768E-3,8.8753694E-1,1E0,1E0,1.16761796E-1,-6.9867144E-3,1E0,1E0,9.842083E-3,-1.5861685E-3,1.3478029E0,8.399702E-3,1E0,2.6246837E-1,2.2744762E-2,9.228312E-3,1E0,-2.4525127E-3,-4.591301E-3,6.082519E-3,-3.814933E-3,2.28542E-3,4.0991604E-3,-2.5988203E-3,3.3555066E-3,9.189138E-3,4.2992807E-3,1.1962849E-2,6.6132203E-4,-1.6916925E-2,-1.529572E-3,8.579585E-3,-2.2196493E-3,6.5946053E-3,4.168816E-3,1.1118646E-2,2.41133E-3,-8.796964E-3],"split_indices":[4,299,1,381,2,344,3,435,26,31,17,450,2,39,425,450,36,1,0,33,0,2,0,3,1,0,0,46,0,0,1,11,33,2,0,9,38,0,0,5,0,45,2,0,0,167,0,0,0,0,0,0,0,0,0,0,0,0,0,0,0,0,0,0,0,0,0],"split_type":[0,0,0,0,0,0,0,0,0,0,0,0,0,0,0,0,0,0,0,0,0,0,0,0,0,0,0,0,0,0,0,0,0,0,0,0,0,0,0,0,0,0,0,0,0,0,0,0,0,0,0,0,0,0,0,0,0,0,0,0,0,0,0,0,0,0,0],"sum_hessian":[4.316E3,3.181E3,1.135E3,3.007E3,1.74E2,4.47E2,6.88E2,2.573E3,4.34E2,7.7E1,9.7E1,4.31E2,1.6E1,3.85E2,3.03E2,2.33E3,2.43E2,4.29E2,5E0,7.1E1,6E0,6.2E1,3.5E1,3.82E2,4.9E1,5E0,1.1E1,3.69E2,1.6E1,2.78E2,2.5E1,2.148E3,1.82E2,2.17E2,2.6E1,2E2,2.29E2,6.1E1,1E1,3.8E1,2.4E1,5.8E1,3.24E2,5E0,4.4E1,2.64E2,1.05E2,1.9E1,6E0,1.979E3,1.69E2,1.66E2,1.6E1,1.79E2,3.8E1,1.83E2,1.7E1,2.24E2,5E0,3.1E1,7E0,5E1,8E0,2.83E2,4.1E1,2.54E2,1E1],"tree_param":{"num_deleted":"0","num_feature":"525","num_nodes":"67","size_leaf_vector":"1"}},{"base_weights":[2.0259172E-3,-1.0774667E-2,4.064162E-2,-1.5604117E-2,6.36103E-2,5.194148E-2,-1.696786E-2,-2.3606468E-2,3.6659848E-2,4.869857E-2,1.393563E-1,5.6404404E-2,-4.0321663E-2,-4.92157E-2,4.1924037E-2,-3.047209E-2,4.0099934E-2,2.9851325E-2,1.0563178E-2,4.5990716E-3,-2.996093E-2,3.0952321E-2,4.9591297E-3,5.389426E-2,1.8953595E-2,2.4365218E-2,-1.5069732E-2,-2.9970653E-2,-1.3778955E-2,6.2247638E-2,-9.069009E-3,-4.188292E-2,2.1260787E-2,5.7752762E-2,-8.597611E-2,1.527312E-2,2.6197655E-2,-6.6037164E-3,6.100653E-3,5.1300243E-2,1.681785E-2,4.651944E-3,-6.984107E-3,-1.1807954E-3,-9.216859E-3,6.1125704E-3,-4.8577785E-3,-4.0594763E-3,3.4864002E-3,5.512625E-3,-1.5645863E-3,8.700836E-3,1.9511296E-3,-2.0353482E-3,-1.2095149E-2,2.3042425E-3,-9.341353E-3,3.7219983E-3,1.0715716E-2],"categories":[],"categories_nodes":[],"categories_segments":[],"categories_sizes":[],"default_left":[0,0,0,0,0,0,0,0,0,0,0,0,0,0,0,0,0,0,0,0,0,0,0,0,0,0,0,0,0,0,0,0,0,0,0,0,0,0,0,0,0,0,0,0,0,0,0,0,0,0,0,0,0,0,0,0,0,0,0],"id":22,"left_children":[1,3,5,7,9,11,13,15,17,19,21,23,25,27,29,31,33,35,-1,-1,37,-1,-1,39,-1,41,-1,43,-1,45,-1,47,49,51,53,-1,55,-1,-1,57,-1,-1,-1,-1,-1,-1,-1,-1,-1,-1,-1,-1,-1,-1,-1,-1,-1,-1,-1],"loss_changes":[2.1006775E0,1.1486744E0,6.904986E-1,1.256016E0,2.066803E-1,3.689592E-1,3.3647552E-1,1.1405174E0,2.5122595E-1,1.18217796E-1,5.457465E-1,3.5734916E-1,4.1140893E-1,2.5957653E-1,2.1294008E-1,1.3890214E0,5.7523286E-1,2.1067318E-1,0E0,0E0,1.1313024E-1,0E0,0E0,3.1744528E-1,0E0,1.2710215E-1,0E0,1.2755178E-1,0E0,1.08527124E-1,0E0,1.4628799E0,8.312064E-1,3.7589848E-1,1.18631214E-1,0E0,1.4417025E-1,0E0,0E0,3.131287E-1,0E0,0E0,0E0,0E0,0E0,0E0,0E0,0E0,0E0,0E0,0E0,0E0,0E0,0E0,0E0,0E0,0E0,0E0,0E0],"parents":[2147483647,0,0,1,1,2,2,3,3,4,4,5,5,6,6,7,7,8,8,9,9,10,10,11,11,12,12,13,13,14,14,15,15,16,16,17,17,20,20,23,23,25,25,27,27,29,29,31,31,32,32,33,33,34,34,36,36,39,39],"right_children":[2,4,6,8,10,12,14,16,18,20,22,24,26,28,30,32,34,36,-1,-1,38,-1,-1,40,-1,42,-1,44,-1,46,-1,48,50,52,54,-1,56,-1,-1,58,-1,-1,-1,-1,-1,-1,-1,-1,-1,-1,-1,-1,-1,-1,-1,-1,-1,-1,-1],"split_conditions":[1.7995147E0,1E0,1E0,1E0,1E0,1E0,-5.4081116E-2,1E0,1E0,1E0,-1.149793E0,1E0,1E0,1E0,1E0,1E0,1E0,-3.1925306E-1,1.0563178E-2,4.5990716E-3,1E0,3.0952321E-2,4.9591297E-3,1E0,1.8953595E-2,1E0,-1.5069732E-2,1E0,-1.3778955E-2,1E0,-9.069009E-3,1E0,1E0,-6.302739E-1,1E0,1.527312E-2,2.924867E0,-6.6037164E-3,6.100653E-3,1E0,1.681785E-2,4.651944E-3,-6.984107E-3,-1.1807954E-3,-9.216859E-3,6.1125704E-3,-4.8577785E-3,-4.0594763E-3,3.4864002E-3,5.512625E-3,-1.5645863E-3,8.700836E-3,1.9511296E-3,-2.0353482E-3,-1.2095149E-2,2.3042425E-3,-9.341353E-3,3.7219983E-3,1.0715716E-2],"split_indices":[7,450,18,381,45,425,0,435,9,9,1,26,16,22,447,271,36,0,0,0,29,0,0,39,0,45,0,336,0,193,0,299,16,1,18,0,1,0,0,371,0,0,0,0,0,0,0,0,0,0,0,0,0,0,0,0,0,0,0],"split_type":[0,0,0,0,0,0,0,0,0,0,0,0,0,0,0,0,0,0,0,0,0,0,0,0,0,0,0,0,0,0,0,0,0,0,0,0,0,0,0,0,0,0,0,0,0,0,0,0,0,0,0,0,0,0,0,0,0,0,0],"sum_hessian":[4.246E3,3.19E3,1.056E3,2.997E3,1.93E2,8.83E2,1.73E2,2.6E3,3.97E2,1.64E2,2.9E1,8.43E2,4E1,1.12E2,6.1E1,2.348E3,2.52E2,3.73E2,2.4E1,1.48E2,1.6E1,5E0,2.4E1,8.34E2,9E0,2.9E1,1.1E1,9.9E1,1.3E1,5.5E1,6E0,1.924E3,4.24E2,2.22E2,3E1,6E0,3.67E2,1.1E1,5E0,8.23E2,1.1E1,2.3E1,6E0,8.6E1,1.3E1,5E1,5E0,1.744E3,1.8E2,1.95E2,2.29E2,8.6E1,1.36E2,1.7E1,1.3E1,3.62E2,5E0,7.81E2,4.2E1],"tree_param":{"num_deleted":"0","num_feature":"525","num_nodes":"59","size_leaf_vector":"1"}},{"base_weights":[-1.4397115E-3,4.1625354E-2,-1.3669275E-2,3.0327577E-2,9.211271E-2,-1.8543553E-2,6.241819E-2,1.7382488E-2,6.41611E-2,8.088731E-2,1.5315956E-2,-2.3638051E-2,5.184894E-2,4.343688E-2,1.2276389E-1,2.191357E-2,-4.649056E-2,8.288208E-2,-1.8094743E-4,5.724007E-3,1.3336471E-2,-3.16029E-2,2.5594389E-2,1.05589494E-1,1.9632628E-2,6.338266E-2,-1.5600443E-2,1.9049825E-1,6.3285814E-3,2.4842545E-2,-8.156977E-2,-1.4771778E-2,-1.4366992E-2,-1.8091304E-3,9.061083E-2,-4.1918006E-2,9.947815E-3,2.1898853E-2,1.639172E-2,2.8400784E-3,1.4267726E-1,-3.4817487E-2,3.73803E-3,3.02245E-2,7.2675548E-3,-4.30028E-2,6.2357937E-3,2.1897497E-2,4.4558505E-3,2.341738E-3,-3.0058527E-3,2.2945001E-3,-1.4816778E-2,3.9506364E-3,-5.8383155E-3,2.1201622E-2,6.506039E-3,-4.107075E-3,2.5344067E-3,4.837694E-3,-1.7600198E-3,1.1987936E-3,8.294098E-3,2.4202537E-2,8.633399E-3,-4.8627616E-3,4.7085294E-3,1.4279818E-2,-4.6111146E-4,-5.70449E-3,6.599761E-3],"categories":[],"categories_nodes":[],"categories_segments":[],"categories_sizes":[],"default_left":[0,0,0,0,0,0,0,0,0,0,0,0,0,0,0,0,0,0,0,0,0,0,0,0,0,0,0,0,0,0,0,0,0,0,0,0,0,0,0,0,0,0,0,0,0,0,0,0,0,0,0,0,0,0,0,0,0,0,0,0,0,0,0,0,0,0,0,0,0,0,0],"id":23,"left_children":[1,3,5,7,9,11,13,15,17,19,-1,21,23,25,27,29,31,33,-1,-1,-1,35,37,39,41,43,45,47,-1,49,51,-1,53,-1,55,57,59,61,-1,-1,63,65,-1,67,-1,69,-1,-1,-1,-1,-1,-1,-1,-1,-1,-1,-1,-1,-1,-1,-1,-1,-1,-1,-1,-1,-1,-1,-1,-1,-1],"loss_changes":[2.252639E0,5.340065E-1,1.2376881E0,3.376404E-1,1.6082478E-1,1.1256313E0,