{"learner":{"attributes":{"best_iteration":"570","best_score":"0.17169974941337193","scikit_learn":"{\"_estimator_type\": \"regressor\"}"},"feature_names":[],"feature_types":[],"gradient_booster":{"model":{"cats":{"enc":[],"feature_segments":[],"sorted_idx":[]},"gbtree_model_param":{"num_parallel_tree":"1","num_trees":"601"},"iteration_indptr":[0,1,2,3,4,5,6,7,8,9,10,11,12,13,14,15,16,17,18,19,20,21,22,23,24,25,26,27,28,29,30,31,32,33,34,35,36,37,38,39,40,41,42,43,44,45,46,47,48,49,50,51,52,53,54,55,56,57,58,59,60,61,62,63,64,65,66,67,68,69,70,71,72,73,74,75,76,77,78,79,80,81,82,83,84,85,86,87,88,89,90,91,92,93,94,95,96,97,98,99,100,101,102,103,104,105,106,107,108,109,110,111,112,113,114,115,116,117,118,119,120,121,122,123,124,125,126,127,128,129,130,131,132,133,134,135,136,137,138,139,140,141,142,143,144,145,146,147,148,149,150,151,152,153,154,155,156,157,158,159,160,161,162,163,164,165,166,167,168,169,170,171,172,173,174,175,176,177,178,179,180,181,182,183,184,185,186,187,188,189,190,191,192,193,194,195,196,197,198,199,200,201,202,203,204,205,206,207,208,209,210,211,212,213,214,215,216,217,218,219,220,221,222,223,224,225,226,227,228,229,230,231,232,233,234,235,236,237,238,239,240,241,242,243,244,245,246,247,248,249,250,251,252,253,254,255,256,257,258,259,260,261,262,263,264,265,266,267,268,269,270,271,272,273,274,275,276,277,278,279,280,281,282,283,284,285,286,287,288,289,290,291,292,293,294,295,296,297,298,299,300,301,302,303,304,305,306,307,308,309,310,311,312,313,314,315,316,317,318,319,320,321,322,323,324,325,326,327,328,329,330,331,332,333,334,335,336,337,338,339,340,341,342,343,344,345,346,347,348,349,350,351,352,353,354,355,356,357,358,359,360,361,362,363,364,365,366,367,368,369,370,371,372,373,374,375,376,377,378,379,380,381,382,383,384,385,386,387,388,389,390,391,392,393,394,395,396,397,398,399,400,401,402,403,404,405,406,407,408,409,410,411,412,413,414,415,416,417,418,419,420,421,422,423,424,425,426,427,428,429,430,431,432,433,434,435,436,437,438,439,440,441,442,443,444,445,446,447,448,449,450,451,452,453,454,455,456,457,458,459,460,461,462,463,464,465,466,467,468,469,470,471,472,473,474,475,476,477,478,479,480,481,482,483,484,485,486,487,488,489,490,491,492,493,494,495,496,497,498,499,500,501,502,503,504,505,506,507,508,509,510,511,512,513,514,515,516,517,518,519,520,521,522,523,524,525,526,527,528,529,530,531,532,533,534,535,536,537,538,539,540,541,542,543,544,545,546,547,548,549,550,551,552,553,554,555,556,557,558,559,560,561,562,563,564,565,566,567,568,569,570,571,572,573,574,575,576,577,578,579,580,581,582,583,584,585,586,587,588,589,590,591,592,593,594,595,596,597,598,599,600,601],"tree_info":[0,0,0,0,0,0,0,0,0,0,0,0,0,0,0,0,0,0,0,0,0,0,0,0,0,0,0,0,0,0,0,0,0,0,0,0,0,0,0,0,0,0,0,0,0,0,0,0,0,0,0,0,0,0,0,0,0,0,0,0,0,0,0,0,0,0,0,0,0,0,0,0,0,0,0,0,0,0,0,0,0,0,0,0,0,0,0,0,0,0,0,0,0,0,0,0,0,0,0,0,0,0,0,0,0,0,0,0,0,0,0,0,0,0,0,0,0,0,0,0,0,0,0,0,0,0,0,0,0,0,0,0,0,0,0,0,0,0,0,0,0,0,0,0,0,0,0,0,0,0,0,0,0,0,0,0,0,0,0,0,0,0,0,0,0,0,0,0,0,0,0,0,0,0,0,0,0,0,0,0,0,0,0,0,0,0,0,0,0,0,0,0,0,0,0,0,0,0,0,0,0,0,0,0,0,0,0,0,0,0,0,0,0,0,0,0,0,0,0,0,0,0,0,0,0,0,0,0,0,0,0,0,0,0,0,0,0,0,0,0,0,0,0,0,0,0,0,0,0,0,0,0,0,0,0,0,0,0,0,0,0,0,0,0,0,0,0,0,0,0,0,0,0,0,0,0,0,0,0,0,0,0,0,0,0,0,0,0,0,0,0,0,0,0,0,0,0,0,0,0,0,0,0,0,0,0,0,0,0,0,0,0,0,0,0,0,0,0,0,0,0,0,0,0,0,0,0,0,0,0,0,0,0,0,0,0,0,0,0,0,0,0,0,0,0,0,0,0,0,0,0,0,0,0,0,0,0,0,0,0,0,0,0,0,0,0,0,0,0,0,0,0,0,0,0,0,0,0,0,0,0,0,0,0,0,0,0,0,0,0,0,0,0,0,0,0,0,0,0,0,0,0,0,0,0,0,0,0,0,0,0,0,0,0,0,0,0,0,0,0,0,0,0,0,0,0,0,0,0,0,0,0,0,0,0,0,0,0,0,0,0,0,0,0,0,0,0,0,0,0,0,0,0,0,0,0,0,0,0,0,0,0,0,0,0,0,0,0,0,0,0,0,0,0,0,0,0,0,0,0,0,0,0,0,0,0,0,0,0,0,0,0,0,0,0,0,0,0,0,0,0,0,0,0,0,0,0,0,0,0,0,0,0,0,0,0,0,0,0,0,0,0,0,0,0,0,0,0,0,0,0,0,0,0,0,0,0,0,0,0,0,0,0,0,0,0,0,0,0,0,0,0,0,0,0,0,0,0,0,0,0,0,0,0,0,0,0,0,0,0,0,0,0,0,0,0,0,0,0,0,0,0,0,0,0,0,0,0,0,0,0,0,0,0,0,0,0,0,0,0,0],"trees":[{"base_weights":[3.2153833E-3,-1.3907824E-1,4.3704495E-1,1.5579794E-1,-1.7641239E-1,8.3987707E-1,3.511633E-1,1.217628E-1,6.0318244E-1,1.462308E-2,-2.3149088E-1,4.0161416E-1,9.077896E-1,3.1892577E-1,5.203855E-1,7.385105E-2,3.1075546E-1,3.2663053E-1,7.013594E-2,-1.1008597E-2,1.1706452E-1,-2.2030514E-1,-7.653197E-1,1.7154269E-2,3.665296E-2,9.5444703E-1,4.798467E-1,2.4686663E-1,3.8325968E-1,3.8357142E-1,6.6845185E-1,2.364093E-2,2.381654E-1,1.21724974E-4,3.4259748E-1,4.2257538E-1,1.29568E-1,-2.3450866E-2,1.755921E-1,1.2503427E-1,-9.888532E-3,-2.6998198E-1,-1.2437815E-1,-6.448407E-2,-4.070017E-2,1.0361403E0,5.6466803E-2,5.143627E-1,1.4984393E-2,2.774209E-1,1.2930138E-1,3.5177967E-1,5.12622E-1,2.6872173E-1,4.5913506E-1,4.266563E-1,7.2929066E-1,3.264529E-3,-1.3847885E-2,2.9297985E-2,1.2411575E-2,2.9405689E-2,-4.7610502E-4,1.9132948E-2,4.5290288E-2,-2.6505962E-3,1.7403577E-2,-2.9535044E-3,1.2705414E-2,8.51969E-3,4.671477E-2,1.0623545E-2,-1.01014525E-2,-2.0785868E-2,-5.4533474E-2,-1.15148295E-2,5.6076217E-3,1.0008724E-1,7.59932E-2,4.434465E-2,1.3414001E-2,2.038491E-2,2.9762417E-2,1.5424243E-2,7.466456E-3,2.0729933E-2,2.9724343E-2,4.806147E-2,3.755188E-2,1.2485809E-2,2.666264E-2,4.465265E-2,3.084115E-2,1.307869E-2,3.6392838E-2,5.950751E-2,2.8561018E-2],"categories":[],"categories_nodes":[],"categories_segments":[],"categories_sizes":[],"default_left":[0,0,0,0,0,0,0,0,0,0,0,0,0,0,0,0,0,0,0,0,0,0,0,0,0,0,0,0,0,0,0,0,0,0,0,0,0,0,0,0,0,0,0,0,0,0,0,0,0,0,0,0,0,0,0,0,0,0,0,0,0,0,0,0,0,0,0,0,0,0,0,0,0,0,0,0,0,0,0,0,0,0,0,0,0,0,0,0,0,0,0,0,0,0,0,0,0],"id":0,"left_children":[1,3,5,7,9,11,13,15,17,19,21,23,25,27,29,31,33,35,-1,37,39,41,43,-1,-1,45,47,49,51,53,55,57,59,-1,61,63,65,67,69,71,-1,73,75,-1,-1,77,-1,79,-1,81,83,85,87,89,91,93,95,-1,-1,-1,-1,-1,-1,-1,-1,-1,-1,-1,-1,-1,-1,-1,-1,-1,-1,-1,-1,-1,-1,-1,-1,-1,-1,-1,-1,-1,-1,-1,-1,-1,-1,-1,-1,-1,-1,-1,-1],"loss_changes":[7.060793E2,9.487506E1,9.7143555E1,1.4607878E1,8.045758E1,1.4003784E1,1.2389862E1,8.130736E0,4.570917E0,4.50048E0,3.5102295E1,5.4446125E-1,7.609833E0,8.915573E0,6.982498E0,5.953665E0,1.7910442E0,5.9006E-1,0E0,3.1936574E0,6.8881416E-1,2.7648102E1,4.4433594E-1,0E0,0E0,6.3160095E0,2.7179432E-1,3.2761154E0,3.8501282E0,1.4628983E0,1.952034E0,1.8918324E0,1.6831017E0,0E0,1.4406223E0,3.6111784E-1,2.2912332E-1,3.1734862E0,2.302102E0,6.829257E-1,0E0,1.5663483E1,7.581255E0,0E0,0E0,2.8868408E0,0E0,3.6805534E-1,0E0,1.3890419E0,4.117136E-1,1.3428421E0,1.903801E-1,4.9960756E-1,4.1530228E-1,1.486888E-1,2.111206E-1,0E0,0E0,0E0,0E0,0E0,0E0,0E0,0E0,0E0,0E0,0E0,0E0,0E0,0E0,0E0,0E0,0E0,0E0,0E0,0E0,0E0,0E0,0E0,0E0,0E0,0E0,0E0,0E0,0E0,0E0,0E0,0E0,0E0,0E0,0E0,0E0,0E0,0E0,0E0,0E0],"parents":[2147483647,0,0,1,1,2,2,3,3,4,4,5,5,6,6,7,7,8,8,9,9,10,10,11,11,12,12,13,13,14,14,15,15,16,16,17,17,19,19,20,20,21,21,22,22,25,25,26,26,27,27,28,28,29,29,30,30,31,31,32,32,34,34,35,35,36,36,37,37,38,38,39,39,41,41,42,42,45,45,47,47,49,49,50,50,51,51,52,52,53,53,54,54,55,55,56,56],"right_children":[2,4,6,8,10,12,14,16,18,20,22,24,26,28,30,32,34,36,-1,38,40,42,44,-1,-1,46,48,50,52,54,56,58,60,-1,62,64,66,68,70,72,-1,74,76,-1,-1,78,-1,80,-1,82,84,86,88,90,92,94,96,-1,-1,-1,-1,-1,-1,-1,-1,-1,-1,-1,-1,-1,-1,-1,-1,-1,-1,-1,-1,-1,-1,-1,-1,-1,-1,-1,-1,-1,-1,-1,-1,-1,-1,-1,-1,-1,-1,-1,-1],"split_conditions":[1E0,-1.4553925E0,-1.4553925E0,1E0,-9.906082E-1,-6.278512E-1,1E0,1E0,1E0,2.3102846E0,1E0,-2.0379268E-1,1E0,1.7995147E0,1E0,9.629826E-1,-6.278512E-1,1E0,7.013594E-2,1E0,1E0,1.3478029E0,9.629826E-1,1.7154269E-2,3.665296E-2,7.1014184E-1,1E0,1E0,3.246818E0,4.3270466E-1,1E0,1E0,-1.340304E0,1.21724974E-4,1E0,-2.0379268E-1,-6.278512E-1,1E0,1E0,1E0,-9.888532E-3,1E0,3.246818E0,-6.448407E-2,-4.070017E-2,-9.757327E-2,5.6466803E-2,1E0,1.4984393E-2,1.8360995E0,-4.3672752E-1,-9.757327E-2,-1.3985866E0,-3.2035795E-1,-4.3672752E-1,-1.4277279E0,1E0,3.264529E-3,-1.3847885E-2,2.9297985E-2,1.2411575E-2,2.9405689E-2,-4.7610502E-4,1.9132948E-2,4.5290288E-2,-2.6505962E-3,1.7403577E-2,-2.9535044E-3,1.2705414E-2,8.51969E-3,4.671477E-2,1.0623545E-2,-1.01014525E-2,-2.0785868E-2,-5.4533474E-2,-1.15148295E-2,5.6076217E-3,1.0008724E-1,7.59932E-2,4.434465E-2,1.3414001E-2,2.038491E-2,2.9762417E-2,1.5424243E-2,7.466456E-3,2.0729933E-2,2.9724343E-2,4.806147E-2,3.755188E-2,1.2485809E-2,2.666264E-2,4.465265E-2,3.084115E-2,1.307869E-2,3.6392838E-2,5.950751E-2,2.8561018E-2],"split_indices":[197,1,1,218,2,4,31,43,31,3,489,2,18,7,43,4,4,18,0,306,203,5,4,0,0,3,16,18,5,4,16,266,2,0,266,2,4,360,16,292,0,246,5,0,0,4,0,29,0,2,1,4,2,2,1,2,46,0,0,0,0,0,0,0,0,0,0,0,0,0,0,0,0,0,0,0,0,0,0,0,0,0,0,0,0,0,0,0,0,0,0,0,0,0,0,0,0],"split_type":[0,0,0,0,0,0,0,0,0,0,0,0,0,0,0,0,0,0,0,0,0,0,0,0,0,0,0,0,0,0,0,0,0,0,0,0,0,0,0,0,0,0,0,0,0,0,0,0,0,0,0,0,0,0,0,0,0,0,0,0,0,0,0,0,0,0,0,0,0,0,0,0,0,0,0,0,0,0,0,0,0,0,0,0,0,0,0,0,0,0,0,0,0,0,0,0,0],"sum_hessian":[1.1434E4,8.611E3,2.823E3,9.67E2,7.644E3,4.93E2,2.33E3,9.01E2,6.6E1,1.711E3,5.933E3,6.8E1,4.25E2,1.962E3,3.68E2,7.21E2,1.8E2,3.5E1,3.1E1,1.37E3,3.41E2,5.814E3,1.19E2,1.8E1,5E1,3.81E2,4.4E1,9.3E2,1.032E3,1.95E2,1.73E2,5.54E2,1.67E2,1.7E1,1.63E2,2.2E1,1.3E1,1.286E3,8.4E1,3.31E2,1E1,3.828E3,1.986E3,9.9E1,2E1,2.82E2,9.9E1,3.8E1,6E0,7.36E2,1.94E2,8.36E2,1.96E2,8.1E1,1.14E2,3.8E1,1.35E2,5.11E2,4.3E1,6.3E1,1.04E2,1.52E2,1.1E1,1.2E1,1E1,5E0,8E0,1.199E3,8.7E1,7.4E1,1E1,3.22E2,9E0,3.739E3,8.9E1,1.805E3,1.81E2,7.3E1,2.09E2,3.3E1,5E0,6E2,1.36E2,6.7E1,1.27E2,1.52E2,6.84E2,5.6E1,1.4E2,3.2E1,4.9E1,4.3E1,7.1E1,5E0,3.3E1,1.28E2,7E0],"tree_param":{"num_deleted":"0","num_feature":"525","num_nodes":"97","size_leaf_vector":"1"}},{"base_weights":[-1.8291913E-3,-1.3010949E-1,3.9640996E-1,1.2783124E-1,-1.6699183E-1,9.893088E-1,3.31732E-1,6.1315036E-1,9.0135336E-2,9.970388E-3,-2.1614805E-1,9.2277676E-2,7.0736355E-1,5.056857E-1,3.0185503E-1,4.146447E-1,7.4769366E-1,3.7071937E-1,3.9622862E-2,-4.6767298E-2,6.3810945E-2,-2.5397503E-1,1.720618E-2,2.92623E-2,6.045037E-2,4.1994777E-1,6.175343E-1,1.6414866E-1,3.429444E-1,3.7819374E-2,3.1108612E-3,6.278935E-2,2.6156707E-2,2.4241109E-1,5.138851E-1,2.113911E-2,3.8103148E-1,-6.397594E-2,2.4033089E-1,1.13437474E-1,-2.0189641E-2,-3.2840964E-1,-1.714591E-1,4.2941738E-2,-8.357381E-3,2.571269E-1,4.38764E-1,6.470457E-1,2.8290229E-2,1.00110546E-1,2.4879669E-1,4.406123E-1,3.1308487E-1,2.1818649E-2,9.997328E-4,4.680579E-4,4.4175617E-2,7.903189E-4,3.750937E-2,1.2464227E-2,4.1997932E-2,-1.0781928E-2,-8.791427E-4,9.80339E-3,4.7426566E-2,5.9538535E-3,1.3374407E-2,-3.7795063E-3,9.55998E-3,-2.5052544E-2,-5.9038233E-2,-1.5730567E-2,1.7343054E-3,-5.1039616E-3,5.4390016E-3,2.5714392E-2,1.9239807E-3,2.7053723E-2,3.7683077E-2,5.430615E-2,3.4439433E-2,5.8938544E-3,1.8879272E-2,1.6794782E-2,2.8714143E-2,4.1314714E-2,2.954949E-2,2.3501348E-2,3.3765264E-2],"categories":[],"categories_nodes":[],"categories_segments":[],"categories_sizes":[],"default_left":[0,0,0,0,0,0,0,0,0,0,0,0,0,0,0,0,0,0,0,0,0,0,0,0,0,0,0,0,0,0,0,0,0,0,0,0,0,0,0,0,0,0,0,0,0,0,0,0,0,0,0,0,0,0,0,0,0,0,0,0,0,0,0,0,0,0,0,0,0,0,0,0,0,0,0,0,0,0,0,0,0,0,0,0,0,0,0,0,0],"id":1,"left_children":[1,3,5,7,9,11,13,15,17,19,21,-1,23,25,27,29,31,33,35,37,39,41,43,-1,-1,45,47,49,51,-1,-1,-1,-1,53,55,57,59,61,63,65,67,69,71,-1,73,75,77,79,-1,81,83,85,87,-1,-1,-1,-1,-1,-1,-1,-1,-1,-1,-1,-1,-1,-1,-1,-1,-1,-1,-1,-1,-1,-1,-1,-1,-1,-1,-1,-1,-1,-1,-1,-1,-1,-1,-1,-1],"loss_changes":[5.862666E2,8.261951E1,1.0656317E2,1.977563E1,6.607167E1,1.1050201E1,1.28124695E1,1.4631405E0,1.4299521E1,5.0555344E0,5.247696E1,0E0,1.194828E0,3.0007477E0,1.2103622E1,7.491379E-1,1.7492485E-1,2.5797367E0,5.40462E0,4.012849E0,3.5437706E0,3.1303925E1,1.1046269E1,0E0,0E0,4.2998886E-1,7.4954987E-1,2.6605349E0,4.5681E0,0E0,0E0,0E0,0E0,5.857582E-1,1.3754044E0,4.10962E0,1.2628961E0,2.8555722E0,1.7646532E0,1.0947704E0,1.2092923E0,1.632367E1,1.1822845E1,0E0,3.3694587E0,3.8920367E-1,2.9501724E-1,3.584175E-1,0E0,9.9981546E-1,7.651892E-1,1.6927872E0,2.4447021E0,0E0,0E0,0E0,0E0,0E0,0E0,0E0,0E0,0E0,0E0,0E0,0E0,0E0,0E0,0E0,0E0,0E0,0E0,0E0,0E0,0E0,0E0,0E0,0E0,0E0,0E0,0E0,0E0,0E0,0E0,0E0,0E0,0E0,0E0,0E0,0E0],"parents":[2147483647,0,0,1,1,2,2,3,3,4,4,5,5,6,6,7,7,8,8,9,9,10,10,12,12,13,13,14,14,15,15,16,16,17,17,18,18,19,19,20,20,21,21,22,22,25,25,26,26,27,27,28,28,33,33,34,34,35,35,36,36,37,37,38,38,39,39,40,40,41,41,42,42,44,44,45,45,46,46,47,47,49,49,50,50,51,51,52,52],"right_children":[2,4,6,8,10,12,14,16,18,20,22,-1,24,26,28,30,32,34,36,38,40,42,44,-1,-1,46,48,50,52,-1,-1,-1,-1,54,56,58,60,62,64,66,68,70,72,-1,74,76,78,80,-1,82,84,86,88,-1,-1,-1,-1,-1,-1,-1,-1,-1,-1,-1,-1,-1,-1,-1,-1,-1,-1,-1,-1,-1,-1,-1,-1,-1,-1,-1,-1,-1,-1,-1,-1,-1,-1,-1,-1],"split_conditions":[1E0,-6.404605E-1,-2.8907531E-1,-3.3434194E-1,-9.906082E-1,-1.4553925E0,-6.404605E-1,1E0,-1.2528801E0,1.3860437E0,1E0,9.2277676E-2,1E0,4.3270466E-1,1.3860437E0,3.20751E-1,4.3270466E-1,-1.3818653E-1,1E0,1E0,-1.340304E0,1.3860437E0,-3.3434194E-1,2.92623E-2,6.045037E-2,-1.8043537E-1,1E0,4.3270466E-1,-1.340304E0,3.7819374E-2,3.1108612E-3,6.278935E-2,2.6156707E-2,1E0,1.3860437E0,3.246818E0,1.7995147E0,2.0235386E0,-1.1945975E0,2.9939094E-1,1E0,1E0,1E0,4.2941738E-2,1.3478029E0,4.3731627E-1,-1.4551005E-1,-8.722742E-2,2.8290229E-2,1E0,1E0,1E0,7.5205725E-1,2.1818649E-2,9.997328E-4,4.680579E-4,4.4175617E-2,7.903189E-4,3.750937E-2,1.2464227E-2,4.1997932E-2,-1.0781928E-2,-8.791427E-4,9.80339E-3,4.7426566E-2,5.9538535E-3,1.3374407E-2,-3.7795063E-3,9.55998E-3,-2.5052544E-2,-5.9038233E-2,-1.5730567E-2,1.7343054E-3,-5.1039616E-3,5.4390016E-3,2.5714392E-2,1.9239807E-3,2.7053723E-2,3.7683077E-2,5.430615E-2,3.4439433E-2,5.8938544E-3,1.8879272E-2,1.6794782E-2,2.8714143E-2,4.1314714E-2,2.954949E-2,2.3501348E-2,3.3765264E-2],"split_indices":[197,1,0,0,2,1,1,31,2,6,494,0,31,4,6,2,4,0,158,306,2,6,0,0,0,0,22,4,2,0,0,0,0,16,6,5,7,4,2,0,21,489,251,0,5,2,2,2,0,31,31,20,0,0,0,0,0,0,0,0,0,0,0,0,0,0,0,0,0,0,0,0,0,0,0,0,0,0,0,0,0,0,0,0,0,0,0,0,0],"split_type":[0,0,0,0,0,0,0,0,0,0,0,0,0,0,0,0,0,0,0,0,0,0,0,0,0,0,0,0,0,0,0,0,0,0,0,0,0,0,0,0,0,0,0,0,0,0,0,0,0,0,0,0,0,0,0,0,0,0,0,0,0,0,0,0,0,0,0,0,0,0,0,0,0,0,0,0,0,0,0,0,0,0,0,0,0,0,0,0,0],"sum_hessian":[1.1472E4,8.678E3,2.794E3,1.085E3,7.593E3,2.72E2,2.522E3,7.6E1,1.009E3,1.651E3,5.942E3,1.68E2,1.04E2,3.65E2,2.157E3,3.4E1,4.2E1,1.52E2,8.57E2,8.04E2,8.47E2,5.113E3,8.29E2,1.5E1,8.9E1,2.12E2,1.53E2,4.98E2,1.659E3,2.9E1,5E0,3.7E1,5E0,8.3E1,6.9E1,8.15E2,4.2E1,7.6E2,4.4E1,5.32E2,3.15E2,2.685E3,2.428E3,3.7E1,7.92E2,2.5E1,1.87E2,1.35E2,1.8E1,2.86E2,2.12E2,3.82E2,1.277E3,7.3E1,1E1,5E0,6.4E1,7.97E2,1.8E1,1.8E1,2.4E1,3.24E2,4.36E2,3.5E1,9E0,3.11E2,2.21E2,2.65E2,5E1,2.592E3,9.3E1,2.148E3,2.8E2,4.59E2,3.33E2,1.9E1,6E0,5.1E1,1.36E2,1.14E2,2.1E1,2.42E2,4.4E1,1.61E2,5.1E1,1.79E2,2.03E2,1.091E3,1.86E2],"tree_param":{"num_deleted":"0","num_feature":"525","num_nodes":"89","size_leaf_vector":"1"}},{"base_weights":[-4.9735926E-4,-1.16498165E-1,3.6956614E-1,1.3108535E-1,-1.482117E-1,9.257624E-1,3.028665E-1,5.239835E-1,9.931397E-2,-2.0376089E-1,-1.924672E-2,1.0737488E0,6.616793E-1,4.7661954E-1,2.7065504E-1,3.347944E-1,5.5196986E-2,2.9848881E-2,2.837565E-1,-2.8581718E-1,-1.1794736E-1,-7.8562506E-2,5.209332E-2,8.699107E-2,3.3766154E-2,2.8216077E-2,5.5983014E-2,4.0524417E-1,5.731581E-1,1.4389807E-1,3.0700925E-1,4.2867225E-2,2.6360828E-1,4.3473843E-2,1.9533165E-2,2.1294798E-1,6.226009E-1,-2.725699E-1,-5.7491746E-2,4.8701748E-1,-1.310581E-1,-6.750463E-2,-3.8134485E-1,-1.4021842E-2,1.04177214E-1,3.5046894E-2,2.9422766E-1,6.0435194E-1,2.8202297E-2,7.7210486E-2,2.345397E-1,2.8496808E-1,4.315787E-1,3.242005E-2,1.38355065E-2,5.101118E-4,2.417526E-2,2.4402287E-2,1.2459488E-2,5.9952192E-2,1.7955469E-2,-2.2972476E-2,2.817339E-3,4.721377E-3,4.213311E-2,-1.242914E-2,-1.0067616E-3,-4.903135E-3,-4.4658054E-2,-1.483567E-2,-3.68321E-2,2.5698578E-3,-4.5294994E-3,6.585682E-3,2.266815E-2,1.1855338E-2,2.6126742E-2,4.9697466E-2,2.1812145E-2,3.5783332E-3,1.6342087E-2,1.5948953E-2,2.481208E-2,1.6413398E-2,2.4495818E-2,3.645845E-2,2.2590727E-2],"categories":[],"categories_nodes":[],"categories_segments":[],"categories_sizes":[],"default_left":[0,0,0,0,0,0,0,0,0,0,0,0,0,0,0,0,0,0,0,0,0,0,0,0,0,0,0,0,0,0,0,0,0,0,0,0,0,0,0,0,0,0,0,0,0,0,0,0,0,0,0,0,0,0,0,0,0,0,0,0,0,0,0,0,0,0,0,0,0,0,0,0,0,0,0,0,0,0,0,0,0,0,0,0,0,0,0],"id":2,"left_children":[1,3,5,7,9,11,13,15,17,19,21,23,25,27,29,31,-1,33,35,37,39,41,43,-1,-1,-1,-1,45,47,49,51,-1,53,-1,55,57,59,61,-1,63,65,67,69,71,73,-1,75,77,-1,79,81,83,85,-1,-1,-1,-1,-1,-1,-1,-1,-1,-1,-1,-1,-1,-1,-1,-1,-1,-1,-1,-1,-1,-1,-1,-1,-1,-1,-1,-1,-1,-1,-1,-1,-1,-1],"loss_changes":[4.8710046E2,6.787012E1,9.990085E1,1.215415E1,5.4860474E1,9.873398E0,1.3291946E1,1.8303089E0,1.1655081E1,3.7625916E1,9.774695E0,6.9976807E-1,7.8980637E-1,2.1262817E0,9.344543E0,2.6134014E-1,0E0,3.4965653E0,5.7091103E0,1.5290207E1,2.0908272E1,4.1705046E0,3.6151903E0,0E0,0E0,0E0,0E0,5.552635E-1,6.406517E-1,2.7443304E0,4.116867E0,0E0,2.7077055E-1,0E0,2.4245622E0,1.0058765E0,1.7840576E0,1.1948563E1,0E0,8.8808155E-1,7.385231E0,3.6495833E0,5.1067257E-1,9.1569304E-1,2.2520843E0,0E0,1.72544E-1,4.0532684E-1,0E0,1.0878311E0,3.9234447E-1,2.1716003E0,5.8940125E-1,0E0,0E0,0E0,0E0,0E0,0E0,0E0,0E0,0E0,0E0,0E0,0E0,0E0,0E0,0E0,0E0,0E0,0E0,0E0,0E0,0E0,0E0,0E0,0E0,0E0,0E0,0E0,0E0,0E0,0E0,0E0,0E0,0E0,0E0],"parents":[2147483647,0,0,1,1,2,2,3,3,4,4,5,5,6,6,7,7,8,8,9,9,10,10,11,11,12,12,13,13,14,14,15,15,17,17,18,18,19,19,20,20,21,21,22,22,27,27,28,28,29,29,30,30,32,32,34,34,35,35,36,36,37,37,39,39,40,40,41,41,42,42,43,43,44,44,46,46,47,47,49,49,50,50,51,51,52,52],"right_children":[2,4,6,8,10,12,14,16,18,20,22,24,26,28,30,32,-1,34,36,38,40,42,44,-1,-1,-1,-1,46,48,50,52,-1,54,-1,56,58,60,62,-1,64,66,68,70,72,74,-1,76,78,-1,80,82,84,86,-1,-1,-1,-1,-1,-1,-1,-1,-1,-1,-1,-1,-1,-1,-1,-1,-1,-1,-1,-1,-1,-1,-1,-1,-1,-1,-1,-1,-1,-1,-1,-1,-1,-1],"split_conditions":[1E0,-1.4553925E0,-2.8907531E-1,-3.3434194E-1,9.629826E-1,-1.4553925E0,-6.404605E-1,1E0,4.3270466E-1,1.3860437E0,1.7995147E0,1E0,1E0,4.3270466E-1,1.3860437E0,-9.757327E-2,5.5196986E-2,-1.4277279E0,9.774317E-2,1E0,-3.3434194E-1,1E0,1.3860437E0,8.699107E-2,3.3766154E-2,2.8216077E-2,5.5983014E-2,1E0,1E0,4.3270466E-1,7.5205725E-1,4.2867225E-2,1E0,4.3473843E-2,1E0,-1.340304E0,7.1014184E-1,1E0,-5.7491746E-2,-9.757327E-2,1.7995147E0,1E0,-9.906082E-1,-1.4277279E0,1E0,3.5046894E-2,-2.32934E-1,1E0,2.8202297E-2,1E0,1E0,-9.757327E-2,1E0,3.242005E-2,1.38355065E-2,5.101118E-4,2.417526E-2,2.4402287E-2,1.2459488E-2,5.9952192E-2,1.7955469E-2,-2.2972476E-2,2.817339E-3,4.721377E-3,4.213311E-2,-1.242914E-2,-1.0067616E-3,-4.903135E-3,-4.4658054E-2,-1.483567E-2,-3.68321E-2,2.5698578E-3,-4.5294994E-3,6.585682E-3,2.266815E-2,1.1855338E-2,2.6126742E-2,4.9697466E-2,2.1812145E-2,3.5783332E-3,1.6342087E-2,1.5948953E-2,2.481208E-2,1.6413398E-2,2.4495818E-2,3.645845E-2,2.2590727E-2],"split_indices":[197,1,0,0,4,1,1,31,4,6,7,18,31,4,6,4,0,2,0,489,0,292,6,0,0,0,0,18,45,4,0,0,65,0,158,2,3,306,0,4,7,477,2,2,251,0,2,29,0,43,21,4,9,0,0,0,0,0,0,0,0,0,0,0,0,0,0,0,0,0,0,0,0,0,0,0,0,0,0,0,0,0,0,0,0,0,0],"split_type":[0,0,0,0,0,0,0,0,0,0,0,0,0,0,0,0,0,0,0,0,0,0,0,0,0,0,0,0,0,0,0,0,0,0,0,0,0,0,0,0,0,0,0,0,0,0,0,0,0,0,0,0,0,0,0,0,0,0,0,0,0,0,0,0,0,0,0,0,0,0,0,0,0,0,0,0,0,0,0,0,0,0,0,0,0,0,0],"sum_hessian":[1.1343E4,8.637E3,2.706E3,9.8E2,7.657E3,2.87E2,2.419E3,7.1E1,9.09E2,5.351E3,2.306E3,1.8E2,1.07E2,3.74E2,2.045E3,3.6E1,3.5E1,6.62E2,2.47E2,2.733E3,2.618E3,1.259E3,1.047E3,1.75E2,5E0,1.4E1,9.3E1,2.21E2,1.53E2,4.58E2,1.587E3,6E0,3E1,1.1E1,6.51E2,2.07E2,4E1,2.655E3,7.8E1,5.4E1,2.564E3,1.217E3,4.2E1,4.62E2,5.85E2,1.66E2,5.5E1,1.31E2,2.2E1,2.66E2,1.92E2,1.354E3,2.33E2,9E0,2.1E1,6.24E2,2.7E1,7.6E1,1.31E2,2.9E1,1.1E1,2.535E3,1.2E2,5E0,4.9E1,2.127E3,4.37E2,1.204E3,1.3E1,1.4E1,2.8E1,2.22E2,2.4E2,5.24E2,6.1E1,1.2E1,4.3E1,1.23E2,8E0,2.14E2,5.2E1,1.36E2,5.6E1,2.89E2,1.065E3,1.97E2,3.6E1],"tree_param":{"num_deleted":"0","num_feature":"525","num_nodes":"87","size_leaf_vector":"1"}},{"base_weights":[3.069955E-4,-1.0778643E-1,3.3943182E-1,1.1153454E-1,-1.3894539E-1,8.3943E-1,2.808922E-1,5.2202845E-1,8.251464E-2,-1.9282612E-1,-1.7242849E-2,7.855703E-2,6.0005194E-1,4.3906668E-1,2.532676E-1,5.7632875E-1,2.6332992E-1,3.3723214E-1,4.2535942E-2,-2.2601858E-1,2.2342784E-2,-6.970529E-2,5.1719673E-2,2.5295617E-2,5.096371E-2,3.7097907E-1,5.388826E-1,1.4256823E-1,2.8548497E-1,5.482965E-2,3.2352235E-2,9.403092E-3,3.0378925E-2,2.315422E-1,4.4717968E-1,2.6707416E-2,3.6398062E-1,-2.9186216E-1,-1.5165746E-1,3.9801348E-2,-6.932811E-3,-9.1640405E-2,7.573775E-2,2.8833885E-2,2.0757015E-1,3.2968476E-1,4.660428E-1,4.7840747E-1,5.706437E-2,7.937323E-2,2.2474845E-1,2.6487613E-1,3.9113823E-1,2.1114932E-2,-1.5825879E-4,6.0939873E-3,3.9146353E-2,2.8242E-3,-2.4883559E-2,4.0039737E-3,3.5931647E-2,-2.460921E-2,1.2052217E-3,-1.3854235E-2,7.566986E-4,-7.811509E-3,1.8233418E-3,-8.4765265E-3,9.612966E-3,1.2815532E-3,1.0542593E-2,7.589113E-4,1.3399552E-2,2.6034076E-2,1.1783064E-2,1.1331562E-2,2.8085915E-2,3.9609123E-2,1.45271765E-2,4.1153144E-2,2.5468217E-2,3.8682094E-3,1.6135793E-2,1.484749E-2,2.5756985E-2,1.9951064E-2,3.0489014E-2,4.0410627E-2,2.7951993E-2],"categories":[],"categories_nodes":[],"categories_segments":[],"categories_sizes":[],"default_left":[0,0,0,0,0,0,0,0,0,0,0,0,0,0,0,0,0,0,0,0,0,0,0,0,0,0,0,0,0,0,0,0,0,0,0,0,0,0,0,0,0,0,0,0,0,0,0,0,0,0,0,0,0,0,0,0,0,0,0,0,0,0,0,0,0,0,0,0,0,0,0,0,0,0,0,0,0,0,0,0,0,0,0,0,0,0,0,0,0],"id":3,"left_children":[1,3,5,7,9,11,13,15,17,19,21,-1,23,25,27,29,31,33,35,37,39,41,43,-1,-1,45,47,49,51,-1,-1,-1,-1,53,55,57,59,61,63,-1,65,67,69,71,73,75,77,79,-1,81,83,85,87,-1,-1,-1,-1,-1,-1,-1,-1,-1,-1,-1,-1,-1,-1,-1,-1,-1,-1,-1,-1,-1,-1,-1,-1,-1,-1,-1,-1,-1,-1,-1,-1,-1,-1,-1,-1],"loss_changes":[4.196511E2,5.935533E1,8.051773E1,1.2791252E1,4.984285E1,8.681992E0,1.0613983E1,6.938362E-1,1.0276785E1,3.764122E1,8.455106E0,0E0,7.837639E-1,2.087593E0,7.4651947E0,5.142536E-1,1.8226969E-1,1.3849039E0,4.44273E0,2.226265E1,9.828068E0,4.247423E0,3.5904584E0,0E0,0E0,5.7203674E-1,8.364372E-1,2.4623375E0,3.357193E0,0E0,0E0,0E0,0E0,5.6083727E-1,9.41905E-1,2.4546807E0,1.0512133E0,1.170517E1,7.4510384E0,0E0,1.8029155E0,3.5246239E0,5.814842E-1,2.3656754E0,8.206258E-1,5.56139E-1,3.4115696E-1,3.2369614E-1,0E0,1.024002E0,6.722212E-1,2.2870483E0,8.983536E-1,0E0,0E0,0E0,0E0,0E0,0E0,0E0,0E0,0E0,0E0,0E0,0E0,0E0,0E0,0E0,0E0,0E0,0E0,0E0,0E0,0E0,0E0,0E0,0E0,0E0,0E0,0E0,0E0,0E0,0E0,0E0,0E0,0E0,0E0,0E0,0E0],"parents":[2147483647,0,0,1,1,2,2,3,3,4,4,5,5,6,6,7,7,8,8,9,9,10,10,12,12,13,13,14,14,15,15,16,16,17,17,18,18,19,19,20,20,21,21,22,22,25,25,26,26,27,27,28,28,33,33,34,34,35,35,36,36,37,37,38,38,40,40,41,41,42,42,43,43,44,44,45,45,46,46,47,47,49,49,50,50,51,51,52,52],"right_children":[2,4,6,8,10,12,14,16,18,20,22,-1,24,26,28,30,32,34,36,38,40,42,44,-1,-1,46,48,50,52,-1,-1,-1,-1,54,56,58,60,62,64,-1,66,68,70,72,74,76,78,80,-1,82,84,86,88,-1,-1,-1,-1,-1,-1,-1,-1,-1,-1,-1,-1,-1,-1,-1,-1,-1,-1,-1,-1,-1,-1,-1,-1,-1,-1,-1,-1,-1,-1,-1,-1,-1,-1,-1,-1],"split_conditions":[1E0,-6.404605E-1,-2.8907531E-1,-3.3434194E-1,9.629826E-1,-1.4553925E0,-6.404605E-1,4.3270466E-1,-1.3111627E0,1E0,1.5102131E0,7.855703E-2,1E0,9.629826E-1,1.3860437E0,1E0,1.4932605E0,-1.3818653E-1,1E0,1.3860437E0,-3.3434194E-1,1E0,1E0,2.5295617E-2,5.096371E-2,1E0,1E0,4.3270466E-1,3.246818E0,5.482965E-2,3.2352235E-2,9.403092E-3,3.0378925E-2,1E0,1.3860437E0,1E0,-6.278512E-1,1E0,1E0,3.9801348E-2,-8.992955E-2,1E0,1.3860437E0,1E0,-1.4277279E0,-1.8043537E-1,1E0,-1.4553925E0,5.706437E-2,1E0,1E0,7.5205725E-1,-1.3985866E0,2.1114932E-2,-1.5825879E-4,6.0939873E-3,3.9146353E-2,2.8242E-3,-2.4883559E-2,4.0039737E-3,3.5931647E-2,-2.460921E-2,1.2052217E-3,-1.3854235E-2,7.566986E-4,-7.811509E-3,1.8233418E-3,-8.4765265E-3,9.612966E-3,1.2815532E-3,1.0542593E-2,7.589113E-4,1.3399552E-2,2.6034076E-2,1.1783064E-2,1.1331562E-2,2.8085915E-2,3.9609123E-2,1.45271765E-2,4.1153144E-2,2.5468217E-2,3.8682094E-3,1.6135793E-2,1.484749E-2,2.5756985E-2,1.9951064E-2,3.0489014E-2,4.0410627E-2,2.7951993E-2],"split_indices":[197,1,0,0,4,1,1,4,2,494,3,0,31,4,6,65,4,0,158,6,0,494,494,0,0,43,31,4,5,0,0,0,0,16,6,292,4,306,251,0,3,251,6,360,2,0,18,1,0,43,31,0,2,0,0,0,0,0,0,0,0,0,0,0,0,0,0,0,0,0,0,0,0,0,0,0,0,0,0,0,0,0,0,0,0,0,0,0,0],"split_type":[0,0,0,0,0,0,0,0,0,0,0,0,0,0,0,0,0,0,0,0,0,0,0,0,0,0,0,0,0,0,0,0,0,0,0,0,0,0,0,0,0,0,0,0,0,0,0,0,0,0,0,0,0,0,0,0,0,0,0,0,0,0,0,0,0,0,0,0,0,0,0,0,0,0,0,0,0,0,0,0,0,0,0,0,0,0,0,0,0],"sum_hessian":[1.1444E4,8.679E3,2.765E3,1.079E3,7.6E3,2.87E2,2.478E3,6.9E1,1.01E3,5.267E3,2.333E3,1.76E2,1.11E2,3.64E2,2.114E3,5.5E1,1.4E1,1.35E2,8.75E2,4.563E3,7.04E2,1.325E3,1.008E3,1.5E1,9.6E1,2.22E2,1.42E2,4.79E2,1.635E3,3E1,2.5E1,8E0,6E0,7.2E1,6.3E1,8.36E2,3.9E1,2.417E3,2.146E3,3.9E1,6.65E2,1.152E3,1.73E2,8.81E2,1.27E2,1.61E2,6.1E1,1.11E2,3.1E1,2.73E2,2.06E2,1.374E3,2.61E2,6.3E1,9E0,7E0,5.6E1,8.17E2,1.9E1,9E0,3E1,2.299E3,1.18E2,1.893E3,2.53E2,1.63E2,5.02E2,1.08E3,7.2E1,8.5E1,8.8E1,7.75E2,1.06E2,4E1,8.7E1,1.8E1,1.43E2,5.4E1,7E0,8.7E1,2.4E1,2.2E2,5.3E1,1.51E2,5.5E1,1.218E3,1.56E2,6.4E1,1.97E2],"tree_param":{"num_deleted":"0","num_feature":"525","num_nodes":"89","size_leaf_vector":"1"}},{"base_weights":[1.4502207E-4,-9.9176265E-2,3.0996698E-1,1.0638595E-1,-1.2882772E-1,7.726438E-1,2.5781307E-1,5.0409776E-1,7.678875E-2,-1.9369522E-1,-4.0042944E-2,8.9710546E-1,5.7104295E-1,3.960832E-1,2.3311865E-1,5.445348E-1,1.3585705E-2,3.2085428E-1,3.2724097E-2,4.1559222E-1,-2.0398954E-1,-8.48115E-2,3.9937377E-2,7.278922E-2,2.734768E-2,2.6034422E-2,4.8185147E-2,3.295667E-1,4.878545E-1,1.2887356E-1,2.6323637E-1,5.132127E-2,3.0124623E-2,2.1231216E-1,4.8563555E-1,-6.1239453E-4,1.7899561E-1,-3.575204E-3,4.7361743E-1,-1.9339962E-1,-6.1764306E-1,-1.0876561E-1,6.860556E-2,2.1780036E-2,1.3888985E-1,2.784251E-1,3.9506733E-1,4.24902E-1,5.406515E-2,6.927132E-2,2.082484E-1,3.4646335E-1,2.3782471E-1,1.9025559E-2,8.7263546E-4,1.4235959E-3,4.2201556E-2,1.1209144E-3,-1.3117975E-2,1.252063E-2,5.006373E-2,4.091006E-2,1.0003005E-2,-1.4807578E-2,-5.3495977E-2,-5.0517004E-2,-2.3239069E-2,-1.01454435E-2,6.031806E-3,3.6328426E-3,1.46488445E-2,3.4949972E-4,1.3446822E-2,9.081442E-3,2.3294033E-2,9.597476E-3,2.5056422E-2,3.3440594E-2,3.7461494E-3,1.1440796E-2,3.539867E-2,3.4536412E-3,1.440361E-2,2.2702958E-2,1.4181655E-2,3.317849E-2,2.249731E-2,2.0272352E-2,1.0188166E-2],"categories":[],"categories_nodes":[],"categories_segments":[],"categories_sizes":[],"default_left":[0,0,0,0,0,0,0,0,0,0,0,0,0,0,0,0,0,0,0,0,0,0,0,0,0,0,0,0,0,0,0,0,0,0,0,0,0,0,0,0,0,0,0,0,0,0,0,0,0,0,0,0,0,0,0,0,0,0,0,0,0,0,0,0,0,0,0,0,0,0,0,0,0,0,0,0,0,0,0,0,0,0,0,0,0,0,0,0,0],"id":4,"left_children":[1,3,5,7,9,11,13,15,17,19,21,23,25,27,29,31,-1,33,35,37,39,41,43,-1,-1,-1,-1,45,47,49,51,-1,-1,53,55,57,59,-1,61,63,65,67,69,71,73,75,77,79,-1,81,83,85,87,-1,-1,-1,-1,-1,-1,-1,-1,-1,-1,-1,-1,-1,-1,-1,-1,-1,-1,-1,-1,-1,-1,-1,-1,-1,-1,-1,-1,-1,-1,-1,-1,-1,-1,-1,-1],"loss_changes":[3.5036896E2,5.2580383E1,6.6298035E1,1.2729598E1,4.3386154E1,5.9759827E0,8.30719E0,8.2884026E-1,1.0894983E1,2.7478745E1,1.1407417E1,5.7528687E-1,4.6821213E-1,1.9614487E0,6.5724564E0,5.9204483E-1,0E0,2.5660725E0,4.2034855E0,1.9920139E0,1.852301E1,7.51921E0,2.0493903E0,0E0,0E0,0E0,0E0,5.270138E-1,1.2360725E0,2.2325287E0,3.3015823E0,0E0,0E0,4.9312878E-1,1.1569242E0,1.686438E0,1.4117222E0,0E0,7.2763443E-1,1.6248291E1,1.1237335E-1,5.8936806E0,7.19067E-1,2.466926E0,6.177788E-1,6.523218E-1,7.037983E-1,4.6816635E-1,0E0,7.8244936E-1,3.7674809E-1,1.4549103E0,2.1075287E0,0E0,0E0,0E0,0E0,0E0,0E0,0E0,0E0,0E0,0E0,0E0,0E0,0E0,0E0,0E0,0E0,0E0,0E0,0E0,0E0,0E0,0E0,0E0,0E0,0E0,0E0,0E0,0E0,0E0,0E0,0E0,0E0,0E0,0E0,0E0,0E0],"parents":[2147483647,0,0,1,1,2,2,3,3,4,4,5,5,6,6,7,7,8,8,9,9,10,10,11,11,12,12,13,13,14,14,15,15,17,17,18,18,19,19,20,20,21,21,22,22,27,27,28,28,29,29,30,30,33,33,34,34,35,35,36,36,38,38,39,39,40,40,41,41,42,42,43,43,44,44,45,45,46,46,47,47,49,49,50,50,51,51,52,52],"right_children":[2,4,6,8,10,12,14,16,18,20,22,24,26,28,30,32,-1,34,36,38,40,42,44,-1,-1,-1,-1,46,48,50,52,-1,-1,54,56,58,60,-1,62,64,66,68,70,72,74,76,78,80,-1,82,84,86,88,-1,-1,-1,-1,-1,-1,-1,-1,-1,-1,-1,-1,-1,-1,-1,-1,-1,-1,-1,-1,-1,-1,-1,-1,-1,-1,-1,-1,-1,-1,-1,-1,-1,-1,-1,-1],"split_conditions":[1E0,-6.404605E-1,-2.8907531E-1,-3.3434194E-1,1.3478029E0,-1.4553925E0,-6.404605E-1,1E0,-1.2528801E0,-3.3434194E-1,1.7995147E0,1E0,1E0,9.629826E-1,1.3860437E0,1E0,1.3585705E-2,-3.859993E-2,4.3270466E-1,-6.278512E-1,1E0,1E0,1E0,7.278922E-2,2.734768E-2,2.6034422E-2,4.8185147E-2,7.1014184E-1,1E0,4.3270466E-1,-1.340304E0,5.132127E-2,3.0124623E-2,1E0,1.3860437E0,1E0,1E0,-3.575204E-3,1E0,1E0,1E0,1E0,3.246818E0,1E0,3.246818E0,-1.4551005E-1,1E0,-8.992955E-2,5.406515E-2,1E0,-4.3672752E-1,1E0,1E0,1.9025559E-2,8.7263546E-4,1.4235959E-3,4.2201556E-2,1.1209144E-3,-1.3117975E-2,1.252063E-2,5.006373E-2,4.091006E-2,1.0003005E-2,-1.4807578E-2,-5.3495977E-2,-5.0517004E-2,-2.3239069E-2,-1.01454435E-2,6.031806E-3,3.6328426E-3,1.46488445E-2,3.4949972E-4,1.3446822E-2,9.081442E-3,2.3294033E-2,9.597476E-3,2.5056422E-2,3.3440594E-2,3.7461494E-3,1.1440796E-2,3.539867E-2,3.4536412E-3,1.440361E-2,2.2702958E-2,1.4181655E-2,3.317849E-2,2.249731E-2,2.0272352E-2,1.0188166E-2],"split_indices":[197,1,0,0,5,1,1,211,2,0,7,18,31,4,6,65,0,0,4,4,489,494,494,0,0,0,0,3,31,4,2,0,0,16,6,266,360,0,29,428,8,251,5,251,5,2,33,3,0,43,1,20,18,0,0,0,0,0,0,0,0,0,0,0,0,0,0,0,0,0,0,0,0,0,0,0,0,0,0,0,0,0,0,0,0,0,0,0,0],"split_type":[0,0,0,0,0,0,0,0,0,0,0,0,0,0,0,0,0,0,0,0,0,0,0,0,0,0,0,0,0,0,0,0,0,0,0,0,0,0,0,0,0,0,0,0,0,0,0,0,0,0,0,0,0,0,0,0,0,0,0,0,0,0,0,0,0,0,0,0,0,0,0,0,0,0,0,0,0,0,0,0,0,0,0,0,0,0,0,0,0],"sum_hessian":[1.1382E4,8.62E3,2.762E3,1.086E3,7.534E3,2.77E2,2.485E3,7.3E1,1.013E3,4.352E3,3.182E3,1.67E2,1.1E2,3.72E2,2.113E3,6.4E1,9E0,1.53E2,8.6E2,7.1E1,4.281E3,2.04E3,1.142E3,1.62E2,5E0,1.5E1,9.5E1,2.21E2,1.51E2,4.76E2,1.637E3,3.7E1,2.7E1,9.5E1,5.8E1,7.02E2,1.58E2,8E0,6.3E1,4.177E3,1.04E2,1.765E3,2.75E2,9.67E2,1.75E2,1.3E2,9.1E1,1.18E2,3.3E1,2.74E2,2.02E2,3.77E2,1.26E3,8.4E1,1.1E1,5E0,5.3E1,6.46E2,5.6E1,1.53E2,5E0,5.6E1,7E0,4.108E3,6.9E1,9.8E1,6E0,1.608E3,1.57E2,2.31E2,4.4E1,8.66E2,1.01E2,1.53E2,2.2E1,2.5E1,1.05E2,8.5E1,6E0,8E0,1.1E2,2.24E2,5E1,5.4E1,1.48E2,1.79E2,1.98E2,1.102E3,1.58E2],"tree_param":{"num_deleted":"0","num_feature":"525","num_nodes":"89","size_leaf_vector":"1"}},{"base_weights":[-2.0906301E-3,-9.506748E-2,2.900364E-1,1.0791224E-1,-1.2087438E-1,7.2062993E-1,2.39338E-1,4.9044728E-1,7.798622E-2,1.4890079E-2,-1.5952869E-1,6.7376934E-2,5.035228E-1,3.7386197E-1,2.1602406E-1,5.3054297E-1,1.431409E-2,2.4524616E-2,2.1645017E-1,-3.5897475E-2,6.2335152E-2,-1.8932337E-1,2.750714E-2,2.1828756E-2,4.256571E-2,3.144218E-1,4.5341623E-1,1.15258604E-1,2.4580467E-1,4.4664085E-2,1.9687673E-2,3.7393764E-2,1.5479888E-2,1.6080151E-1,5.1070434E-1,-4.831407E-2,1.9013716E-1,9.9996105E-2,-4.6851995E-4,-2.5310776E-1,-1.1992865E-1,3.504207E-2,8.562452E-3,3.225149E-1,2.1935487E-3,3.9143093E-2,2.169876E-2,6.117391E-2,1.8160363E-1,2.2691871E-1,3.4323353E-1,2.0364246E-3,-2.8340656E-2,1.5708511E-3,1.5522401E-2,1.2186864E-2,4.4355568E-2,-4.968333E-3,1.0516112E-2,8.379145E-3,4.3005437E-2,1.2297739E-2,5.0988626E-3,-2.187121E-3,1.15389405E-2,-1.9233426E-2,-4.617305E-2,-1.1336926E-2,3.5965447E-3,-4.8161214E-3,4.7347797E-3,6.6128313E-3,2.6610682E-2,2.836777E-3,1.5526053E-2,1.890766E-2,1.0464729E-2,1.7057305E-2,2.6495073E-2,2.8951922E-2,1.814314E-2],"categories":[],"categories_nodes":[],"categories_segments":[],"categories_sizes":[],"default_left":[0,0,0,0,0,0,0,0,0,0,0,0,0,0,0,0,0,0,0,0,0,0,0,0,0,0,0,0,0,0,0,0,0,0,0,0,0,0,0,0,0,0,0,0,0,0,0,0,0,0,0,0,0,0,0,0,0,0,0,0,0,0,0,0,0,0,0,0,0,0,0,0,0,0,0,0,0,0,0,0,0],"id":5,"left_children":[1,3,5,7,9,11,13,15,17,19,21,-1,23,25,27,29,-1,31,33,35,37,39,41,-1,-1,43,45,47,49,-1,-1,-1,51,53,55,57,59,61,63,65,67,-1,69,71,-1,-1,-1,73,75,77,79,-1,-1,-1,-1,-1,-1,-1,-1,-1,-1,-1,-1,-1,-1,-1,-1,-1,-1,-1,-1,-1,-1,-1,-1,-1,-1,-1,-1,-1,-1],"loss_changes":[3.0757257E2,4.5022896E1,5.9339386E1,1.1027825E1,4.000409E1,6.7276E0,7.519226E0,6.844902E-1,6.6664433E0,4.0791416E0,3.3073105E1,0E0,4.2082977E-1,1.4124794E0,6.221138E0,2.0684624E-1,0E0,2.6013732E0,3.9458418E0,2.3141556E0,2.069684E0,2.2593063E1,6.3464303E0,0E0,0E0,4.7473335E-1,7.083397E-1,1.7037296E0,2.81221E0,0E0,0E0,0E0,2.385919E0,9.9619675E-1,4.4240665E-1,1.9424969E0,1.1631942E0,1.0460205E0,1.2910261E0,1.068161E1,8.830334E0,0E0,2.732741E0,4.44973E-1,0E0,0E0,0E0,9.0211594E-1,5.359969E-1,1.7975693E0,3.9661217E-1,0E0,0E0,0E0,0E0,0E0,0E0,0E0,0E0,0E0,0E0,0E0,0E0,0E0,0E0,0E0,0E0,0E0,0E0,0E0,0E0,0E0,0E0,0E0,0E0,0E0,0E0,0E0,0E0,0E0,0E0],"parents":[2147483647,0,0,1,1,2,2,3,3,4,4,5,5,6,6,7,7,8,8,9,9,10,10,12,12,13,13,14,14,15,15,17,17,18,18,19,19,20,20,21,21,22,22,25,25,26,26,27,27,28,28,32,32,33,33,34,34,35,35,36,36,37,37,38,38,39,39,40,40,42,42,43,43,47,47,48,48,49,49,50,50],"right_children":[2,4,6,8,10,12,14,16,18,20,22,-1,24,26,28,30,-1,32,34,36,38,40,42,-1,-1,44,46,48,50,-1,-1,-1,52,54,56,58,60,62,64,66,68,-1,70,72,-1,-1,-1,74,76,78,80,-1,-1,-1,-1,-1,-1,-1,-1,-1,-1,-1,-1,-1,-1,-1,-1,-1,-1,-1,-1,-1,-1,-1,-1,-1,-1,-1,-1,-1,-1],"split_conditions":[1E0,-1.4553925E0,-2.8907531E-1,-3.3434194E-1,-9.906082E-1,-1.4553925E0,-6.404605E-1,1E0,4.3270466E-1,1.3860437E0,1E0,6.7376934E-2,1E0,4.3270466E-1,1.3860437E0,3.20751E-1,1.431409E-2,-1.4277279E0,9.774317E-2,1E0,-1.340304E0,1.3860437E0,-3.3434194E-1,2.1828756E-2,4.256571E-2,1E0,1E0,4.3270466E-1,3.246818E0,4.4664085E-2,1.9687673E-2,3.7393764E-2,1E0,1.3860437E0,-1.3694453E0,1E0,1E0,1E0,1E0,1E0,1E0,3.504207E-2,1.3860437E0,-2.2871979E-1,2.1935487E-3,3.9143093E-2,2.169876E-2,1E0,1E0,7.5205725E-1,1E0,2.0364246E-3,-2.8340656E-2,1.5708511E-3,1.5522401E-2,1.2186864E-2,4.4355568E-2,-4.968333E-3,1.0516112E-2,8.379145E-3,4.3005437E-2,1.2297739E-2,5.0988626E-3,-2.187121E-3,1.15389405E-2,-1.9233426E-2,-4.617305E-2,-1.1336926E-2,3.5965447E-3,-4.8161214E-3,4.7347797E-3,6.6128313E-3,2.6610682E-2,2.836777E-3,1.5526053E-2,1.890766E-2,1.0464729E-2,1.7057305E-2,2.6495073E-2,2.8951922E-2,1.814314E-2],"split_indices":[197,1,0,0,2,1,1,211,4,6,494,0,31,4,6,2,0,2,0,306,2,6,0,0,0,23,45,4,5,0,0,0,292,6,2,494,16,20,21,489,251,0,6,0,0,0,0,31,20,0,27,0,0,0,0,0,0,0,0,0,0,0,0,0,0,0,0,0,0,0,0,0,0,0,0,0,0,0,0,0,0],"split_type":[0,0,0,0,0,0,0,0,0,0,0,0,0,0,0,0,0,0,0,0,0,0,0,0,0,0,0,0,0,0,0,0,0,0,0,0,0,0,0,0,0,0,0,0,0,0,0,0,0,0,0,0,0,0,0,0,0,0,0,0,0,0,0,0,0,0,0,0,0,0,0,0,0,0,0,0,0,0,0,0,0],"sum_hessian":[1.132E4,8.588E3,2.732E3,9.68E2,7.62E3,2.85E2,2.447E3,6.8E1,9E2,1.689E3,5.931E3,1.79E2,1.06E2,3.57E2,2.09E3,5.9E1,9E0,6.51E2,2.49E2,8.16E2,8.73E2,5.116E3,8.15E2,1.4E1,9.2E1,2.1E2,1.47E2,4.79E2,1.611E3,5.2E1,7E0,1.1E1,6.4E2,2.12E2,3.7E1,7.75E2,4.1E1,5.45E2,3.28E2,2.663E3,2.453E3,3.4E1,7.81E2,2.04E2,6E0,1.2E2,2.7E1,2.66E2,2.13E2,1.355E3,2.56E2,6.25E2,1.5E1,4.1E1,1.71E2,5E0,3.2E1,7.21E2,5.4E1,3.5E1,6E0,2.17E2,3.28E2,2.78E2,5E1,2.566E3,9.7E1,2.167E3,2.86E2,3.31E2,4.5E2,9E0,1.95E2,2.25E2,4.1E1,9.9E1,1.14E2,1.203E3,1.52E2,2.17E2,3.9E1],"tree_param":{"num_deleted":"0","num_feature":"525","num_nodes":"81","size_leaf_vector":"1"}},{"base_weights":[1.7289818E-3,-8.2088746E-2,2.6591808E-1,-1.1985497E-1,3.3723243E-2,6.78456E-1,2.191149E-1,3.6389855E-1,-1.2953337E-1,-3.52418E-2,8.356011E-2,6.001959E-1,8.295251E-1,2.3689273E-1,9.84204E-2,2.2451088E-1,4.2306566E-1,-1.8986909E-1,-6.831036E-2,-1.5235684E-2,-2.3041503E-1,4.4327892E-2,7.7338815E-2,2.94352E-2,4.95904E-2,6.925266E-2,1.9058282E-2,1.9405682E-1,2.7041897E-1,2.704009E-2,1.3587566E-1,1.5548763E-1,3.0152509E-2,4.595572E-1,2.1444763E-1,-1.7946896E-1,-5.786962E-1,1.3772808E-1,-8.24297E-2,4.1721173E-2,-2.2451632E-2,-1.3432994E-1,-3.7815768E-1,-1.9691661E-2,9.942152E-2,1.7101233E-1,3.0491897E-1,1.9083117E-1,2.8452525E-1,9.293463E-3,6.9112573E-3,1.731968E-1,2.5724027E-2,1.6558217E-2,-3.468094E-4,3.9327994E-2,1.2493108E-2,4.967323E-3,2.4694288E-2,-1.35954125E-2,-4.176029E-2,-1.9371059E-2,-4.7870126E-2,6.0158544E-3,3.6117714E-2,-8.309826E-3,4.298064E-3,2.9202502E-3,-3.7434837E-3,-1.3573474E-2,-7.2995864E-4,-3.2743037E-2,-1.2003089E-2,5.9856307E-3,-3.4689598E-3,2.1619651E-2,6.8563E-3,7.0271576E-3,1.571288E-2,1.2439079E-2,2.807888E-2,9.963626E-3,1.8734293E-2,2.0227771E-2,2.7661834E-2,7.8078485E-3,-7.633242E-4,8.063433E-3,1.5555584E-2,-2.6917371E-3,7.358796E-3],"categories":[],"categories_nodes":[],"categories_segments":[],"categories_sizes":[],"default_left":[0,0,0,0,0,0,0,0,0,0,0,0,0,0,0,0,0,0,0,0,0,0,0,0,0,0,0,0,0,0,0,0,0,0,0,0,0,0,0,0,0,0,0,0,0,0,0,0,0,0,0,0,0,0,0,0,0,0,0,0,0,0,0,0,0,0,0,0,0,0,0,0,0,0,0,0,0,0,0,0,0,0,0,0,0,0,0,0,0,0,0],"id":6,"left_children":[1,3,5,7,9,11,13,15,17,19,21,23,25,27,29,31,33,35,37,39,41,-1,43,-1,-1,-1,-1,45,47,49,51,53,-1,55,57,59,61,63,65,-1,67,69,71,73,75,77,79,81,83,85,-1,87,89,-1,-1,-1,-1,-1,-1,-1,-1,-1,-1,-1,-1,-1,-1,-1,-1,-1,-1,-1,-1,-1,-1,-1,-1,-1,-1,-1,-1,-1,-1,-1,-1,-1,-1,-1,-1,-1,-1],"loss_changes":[2.5531659E2,3.82918E1,5.3321213E1,3.099987E1,7.409191E0,2.3382416E0,5.311157E0,8.821659E-1,2.3884903E1,3.526695E0,3.576417E0,4.2619324E-1,1.531807E0,3.0186234E0,8.588877E-1,3.3510113E-1,4.8043633E-1,1.2971214E1,9.378457E0,3.2110305E0,1.0908566E0,0E0,2.6544304E0,0E0,0E0,0E0,0E0,2.3533936E0,1.2554779E0,1.1846742E-1,8.626175E-1,2.733609E-1,0E0,5.65855E-1,2.0573062E-1,1.0189407E1,2.6660156E-1,3.9930964E0,8.802082E0,0E0,1.1715646E0,2.3583066E-1,1.04427814E-1,5.2326626E-1,2.3157482E0,1.6575909E0,1.0129137E0,4.847269E-1,1.8196716E0,1.5155222E-1,0E0,2.0387602E-1,2.2649175E-1,0E0,0E0,0E0,0E0,0E0,0E0,0E0,0E0,0E0,0E0,0E0,0E0,0E0,0E0,0E0,0E0,0E0,0E0,0E0,0E0,0E0,0E0,0E0,0E0,0E0,0E0,0E0,0E0,0E0,0E0,0E0,0E0,0E0,0E0,0E0,0E0,0E0,0E0],"parents":[2147483647,0,0,1,1,2,2,3,3,4,4,5,5,6,6,7,7,8,8,9,9,10,10,11,11,12,12,13,13,14,14,15,15,16,16,17,17,18,18,19,19,20,20,22,22,27,27,28,28,29,29,30,30,31,31,33,33,34,34,35,35,36,36,37,37,38,38,40,40,41,41,42,42,43,43,44,44,45,45,46,46,47,47,48,48,49,49,51,51,52,52],"right_children":[2,4,6,8,10,12,14,16,18,20,22,24,26,28,30,32,34,36,38,40,42,-1,44,-1,-1,-1,-1,46,48,50,52,54,-1,56,58,60,62,64,66,-1,68,70,72,74,76,78,80,82,84,86,-1,88,90,-1,-1,-1,-1,-1,-1,-1,-1,-1,-1,-1,-1,-1,-1,-1,-1,-1,-1,-1,-1,-1,-1,-1,-1,-1,-1,-1,-1,-1,-1,-1,-1,-1,-1,-1,-1,-1,-1],"split_conditions":[1E0,1.7995147E0,-2.8907531E-1,-3.3434194E-1,1.3860437E0,1E0,1E0,1E0,1.3860437E0,1E0,-3.3434194E-1,1E0,1.7995147E0,1.7995147E0,1.3860437E0,1E0,7.1014184E-1,1E0,-1.3111627E0,-3.3434194E-1,1E0,4.4327892E-2,-9.757327E-2,2.94352E-2,4.95904E-2,6.925266E-2,1.9058282E-2,1E0,1.3860437E0,4.3270466E-1,2.2394654E-1,1E0,3.0152509E-2,1E0,1E0,1E0,-8.449016E-1,1E0,1E0,4.1721173E-2,-1.4277279E0,1E0,1E0,-8.740429E-1,7.1014184E-1,1.3860437E0,-3.2035795E-1,1.4932605E0,-5.826298E-1,-8.900009E-1,6.9112573E-3,-1.0499099E-1,1.7995147E0,1.6558217E-2,-3.468094E-4,3.9327994E-2,1.2493108E-2,4.967323E-3,2.4694288E-2,-1.35954125E-2,-4.176029E-2,-1.9371059E-2,-4.7870126E-2,6.0158544E-3,3.6117714E-2,-8.309826E-3,4.298064E-3,2.9202502E-3,-3.7434837E-3,-1.3573474E-2,-7.2995864E-4,-3.2743037E-2,-1.2003089E-2,5.9856307E-3,-3.4689598E-3,2.1619651E-2,6.8563E-3,7.0271576E-3,1.571288E-2,1.2439079E-2,2.807888E-2,9.963626E-3,1.8734293E-2,2.0227771E-2,2.7661834E-2,7.8078485E-3,-7.633242E-4,8.063433E-3,1.5555584E-2,-2.6917371E-3,7.358796E-3],"split_indices":[197,7,0,0,6,20,18,16,6,266,0,31,7,7,6,31,3,246,2,0,16,0,4,0,0,0,0,31,6,4,0,21,0,29,494,489,2,218,494,0,2,46,43,2,3,6,2,4,2,3,0,0,7,0,0,0,0,0,0,0,0,0,0,0,0,0,0,0,0,0,0,0,0,0,0,0,0,0,0,0,0,0,0,0,0,0,0,0,0,0,0],"split_type":[0,0,0,0,0,0,0,0,0,0,0,0,0,0,0,0,0,0,0,0,0,0,0,0,0,0,0,0,0,0,0,0,0,0,0,0,0,0,0,0,0,0,0,0,0,0,0,0,0,0,0,0,0,0,0,0,0,0,0,0,0,0,0,0,0,0,0,0,0,0,0,0,0,0,0,0,0,0,0,0,0,0,0,0,0,0,0,0,0,0,0],"sum_hessian":[1.1526E4,8.751E3,2.775E3,6.599E3,2.152E3,2.8E2,2.495E3,1.28E2,6.471E3,9.03E2,1.249E3,1.91E2,8.9E1,2.173E3,3.22E2,4.1E1,8.7E1,3.257E3,3.214E3,8.21E2,8.2E1,1.4E1,1.235E3,1.8E1,1.73E2,8.3E1,6E0,9.6E2,1.213E3,1.12E2,2.1E2,3.1E1,1E1,7.2E1,1.5E1,3.175E3,8.2E1,2.05E2,3.009E3,9E0,8.12E2,5.2E1,3E1,2.29E2,1.006E3,7.99E2,1.61E2,1.87E2,1.026E3,8.8E1,2.4E1,1.56E2,5.4E1,2.3E1,8E0,6.4E1,8E0,7E0,8E0,3.092E3,8.3E1,6E0,7.6E1,1.73E2,3.2E1,2.6E3,4.09E2,2.37E2,5.75E2,4E1,1.2E1,2.5E1,5E0,4.5E1,1.84E2,7.2E1,9.34E2,1.89E2,6.1E2,4E1,1.21E2,7.7E1,1.1E2,6.83E2,3.43E2,1.4E1,7.4E1,3.8E1,1.18E2,2.9E1,2.5E1],"tree_param":{"num_deleted":"0","num_feature":"525","num_nodes":"91","size_leaf_vector":"1"}},{"base_weights":[1.4258442E-3,-7.6214515E-2,2.4548559E-1,9.804577E-2,-1.0072882E-1,6.211044E-1,2.0257612E-1,3.9689687E-1,7.667399E-2,-1.4459936E-1,-3.1753097E-4,7.2165644E-1,4.4053394E-1,3.30902E-1,1.8047276E-1,4.3225217E-1,7.5823176E-3,2.6258457E-1,4.3069214E-2,-1.6985616E-1,2.274323E-2,-1.8414237E-2,1.1060331E-1,6.183702E-1,6.50589E-2,1.7746944E-2,3.751931E-2,2.7845505E-1,3.936356E-1,9.90049E-2,2.0445347E-1,4.2809535E-2,2.2673907E-2,2.036612E-1,4.8133707E-1,1.4141059E-2,1.640775E-1,-1.8712504E-1,6.0735617E-2,2.9219257E-2,1.8535847E-3,-3.455256E-2,9.3800604E-2,9.28248E-2,2.526067E-1,1.787822E-2,5.3318363E-2,2.8476298E-1,4.2176032E-3,4.2463288E-1,1.6059497E-1,7.253502E-2,2.093016E-1,2.9830995E-1,1.8773188E-1,1.7913563E-2,-5.765411E-3,1.2944018E-2,4.2427223E-2,2.1785279E-3,-1.2054956E-2,8.903948E-3,3.1392E-2,-1.605231E-2,1.1224715E-2,2.3615073E-2,2.1071783E-3,-2.8739471E-3,2.605113E-3,9.324179E-4,-6.467213E-3,1.780383E-2,5.4993564E-3,5.7451474E-3,1.5943319E-2,1.5543123E-2,3.023236E-2,1.8723708E-2,2.7233753E-2,2.9543461E-2,4.603513E-2,2.0884823E-3,1.6621206E-2,2.804885E-3,1.1941065E-2,8.59883E-3,2.4692634E-2,2.9303866E-2,1.8561687E-2,1.370331E-2,2.2182364E-2],"categories":[],"categories_nodes":[],"categories_segments":[],"categories_sizes":[],"default_left":[0,0,0,0,0,0,0,0,0,0,0,0,0,0,0,0,0,0,0,0,0,0,0,0,0,0,0,0,0,0,0,0,0,0,0,0,0,0,0,0,0,0,0,0,0,0,0,0,0,0,0,0,0,0,0,0,0,0,0,0,0,0,0,0,0,0,0,0,0,0,0,0,0,0,0,0,0,0,0,0,0,0,0,0,0,0,0,0,0,0,0],"id":7,"left_children":[1,3,5,7,9,11,13,15,17,19,21,23,25,27,29,31,-1,33,35,37,39,41,43,45,-1,-1,-1,47,49,51,53,-1,-1,55,57,59,61,63,65,-1,67,69,71,73,75,-1,-1,77,-1,79,81,83,85,87,89,-1,-1,-1,-1,-1,-1,-1,-1,-1,-1,-1,-1,-1,-1,-1,-1,-1,-1,-1,-1,-1,-1,-1,-1,-1,-1,-1,-1,-1,-1,-1,-1,-1,-1,-1,-1],"loss_changes":[2.1669899E2,3.7082497E1,4.4232956E1,6.7795916E0,3.35095E1,4.4843674E0,6.914917E0,6.7644787E-1,6.2373605E0,2.2383018E1,4.650977E0,6.779251E-1,4.516201E-1,9.7182846E-1,4.101265E0,6.6116905E-1,0E0,1.7760553E0,2.9743252E0,1.8340225E1,4.9782834E0,3.613913E0,7.736013E-1,1.4499321E0,0E0,0E0,0E0,2.604561E-1,1.0193939E0,1.3885336E0,2.4555817E0,0E0,0E0,7.249141E-1,3.1378984E-1,1.4948539E0,1.8889241E0,1.9015823E1,2.5811257E0,0E0,7.657332E-1,3.7298949E0,7.791877E-1,6.245551E-1,1.08902216E-1,0E0,0E0,3.9957047E-1,0E0,7.4336624E-1,1.28717E-1,1.1252823E0,8.7444353E-1,9.2969894E-1,1.9572716E0,0E0,0E0,0E0,0E0,0E0,0E0,0E0,0E0,0E0,0E0,0E0,0E0,0E0,0E0,0E0,0E0,0E0,0E0,0E0,0E0,0E0,0E0,0E0,0E0,0E0,0E0,0E0,0E0,0E0,0E0,0E0,0E0,0E0,0E0,0E0,0E0],"parents":[2147483647,0,0,1,1,2,2,3,3,4,4,5,5,6,6,7,7,8,8,9,9,10,10,11,11,12,12,13,13,14,14,15,15,17,17,18,18,19,19,20,20,21,21,22,22,23,23,27,27,28,28,29,29,30,30,33,33,34,34,35,35,36,36,37,37,38,38,40,40,41,41,42,42,43,43,44,44,47,47,49,49,50,50,51,51,52,52,53,53,54,54],"right_children":[2,4,6,8,10,12,14,16,18,20,22,24,26,28,30,32,-1,34,36,38,40,42,44,46,-1,-1,-1,48,50,52,54,-1,-1,56,58,60,62,64,66,-1,68,70,72,74,76,-1,-1,78,-1,80,82,84,86,88,90,-1,-1,-1,-1,-1,-1,-1,-1,-1,-1,-1,-1,-1,-1,-1,-1,-1,-1,-1,-1,-1,-1,-1,-1,-1,-1,-1,-1,-1,-1,-1,-1,-1,-1,-1,-1],"split_conditions":[1E0,-6.404605E-1,-2.8907531E-1,-3.3434194E-1,9.629826E-1,-1.4553925E0,-6.404605E-1,4.0817496E-1,-1.2528801E0,1E0,3.246818E0,1E0,1E0,4.3270466E-1,1.3860437E0,1E0,7.5823176E-3,1.2435995E-1,1E0,1E0,-3.3434194E-1,1E0,1E0,1E0,6.50589E-2,1.7746944E-2,3.751931E-2,1E0,-8.722742E-2,1E0,-1.3985866E0,4.2809535E-2,2.2673907E-2,-1.2820214E0,1E0,1E0,4.3270466E-1,1E0,-1.3818653E-1,2.9219257E-2,1.3860437E0,-1.2820214E0,-1.4277279E0,1E0,1E0,1.787822E-2,5.3318363E-2,1.7995147E0,4.2176032E-3,1E0,-1.3818653E-1,1.7995147E0,-6.117711E-1,1E0,7.5205725E-1,1.7913563E-2,-5.765411E-3,1.2944018E-2,4.2427223E-2,2.1785279E-3,-1.2054956E-2,8.903948E-3,3.1392E-2,-1.605231E-2,1.1224715E-2,2.3615073E-2,2.1071783E-3,-2.8739471E-3,2.605113E-3,9.324179E-4,-6.467213E-3,1.780383E-2,5.4993564E-3,5.7451474E-3,1.5943319E-2,1.5543123E-2,3.023236E-2,1.8723708E-2,2.7233753E-2,2.9543461E-2,4.603513E-2,2.0884823E-3,1.6621206E-2,2.804885E-3,1.1941065E-2,8.59883E-3,2.4692634E-2,2.9303866E-2,1.8561687E-2,1.370331E-2,2.2182364E-2],"split_indices":[197,1,0,0,4,1,1,2,2,494,5,20,31,4,6,65,0,0,43,306,0,494,251,16,0,0,0,33,2,31,2,0,0,2,10,266,4,158,0,0,6,2,2,494,27,0,0,7,0,31,0,7,2,20,0,0,0,0,0,0,0,0,0,0,0,0,0,0,0,0,0,0,0,0,0,0,0,0,0,0,0,0,0,0,0,0,0,0,0,0,0],"split_type":[0,0,0,0,0,0,0,0,0,0,0,0,0,0,0,0,0,0,0,0,0,0,0,0,0,0,0,0,0,0,0,0,0,0,0,0,0,0,0,0,0,0,0,0,0,0,0,0,0,0,0,0,0,0,0,0,0,0,0,0,0,0,0,0,0,0,0,0,0,0,0,0,0,0,0,0,0,0,0,0,0,0,0,0,0,0,0,0,0,0,0],"sum_hessian":[1.1432E4,8.674E3,2.758E3,1.069E3,7.605E3,2.8E2,2.478E3,6.9E1,1E3,5.292E3,2.313E3,1.76E2,1.04E2,3.6E2,2.118E3,6.1E1,8E0,1.51E2,8.49E2,4.598E3,6.94E2,1.99E3,3.23E2,9E1,8.6E1,1.4E1,9E1,2.02E2,1.58E2,4.84E2,1.634E3,3.3E1,2.8E1,1.22E2,2.9E1,6.87E2,1.62E2,4.278E3,3.2E2,3.8E1,6.56E2,1.741E3,2.49E2,2.9E2,3.3E1,1.1E1,7.9E1,1.96E2,6E0,1.38E2,2E1,3.93E2,9.1E1,2.42E2,1.392E3,1.14E2,8E0,5E0,2.4E1,6.38E2,4.9E1,1.34E2,2.8E1,4.109E3,1.69E2,3.9E1,2.81E2,2.94E2,3.62E2,8.72E2,8.69E2,3.8E1,2.11E2,2.45E2,4.5E1,2.6E1,7E0,1.08E2,8.8E1,1.06E2,3.2E1,6E0,1.4E1,2.66E2,1.27E2,4.7E1,4.4E1,1.15E2,1.27E2,1.181E3,2.11E2],"tree_param":{"num_deleted":"0","num_feature":"525","num_nodes":"91","size_leaf_vector":"1"}},{"base_weights":[-7.158764E-5,-7.294837E-2,2.2679152E-1,-1.0588426E-1,3.0247025E-2,5.638622E-1,1.8633951E-1,5.851918E-2,-1.2830247E-1,4.225792E-2,-1.7332076E-1,6.5847933E-1,4.0065283E-1,1.3610713E-1,2.3194994E-1,3.4607273E-1,3.1007739E-2,-1.4889856E-1,2.2460269E-2,4.012879E-2,3.6768433E-2,-1.1350808E-1,-3.1089792E-1,5.3419907E-2,1.8770542E-2,1.6764842E-2,3.404999E-2,2.4254589E-1,1.177623E-1,3.6457315E-1,2.1097529E-1,1.4327282E-1,4.2460302E-1,3.111655E-1,7.1789166E-3,-1.642895E-1,7.423944E-2,2.4841063E-2,8.404705E-3,2.6040243E-2,2.0348133E-1,4.8212623E-4,-1.4629106E-1,-7.903356E-3,-2.7252372E-2,2.1551676E-1,3.76707E-1,1.3724492E-1,3.3632938E-2,3.8951105E-1,1.5489249E-2,1.8932952E-1,3.082196E-1,-8.110386E-3,2.167691E-2,3.669025E-2,7.542098E-3,1.4995742E-2,3.4413096E-2,-4.7847563E-3,2.772509E-3,-1.4577169E-2,3.6951543E-3,2.2520622E-2,3.395711E-3,-2.0252327E-3,5.0173556E-3,-2.1097173E-3,4.869616E-3,3.8421083E-2,1.2522795E-2,-7.0816553E-3,-1.5636487E-2,1.5995145E-2,3.7595198E-2,3.4949105E-2,1.0571048E-2,6.827702E-3,1.2642574E-2,-1.2797471E-3,5.737435E-3,1.6509375E-2,3.279768E-2,1.6058473E-2,8.2956515E-3,2.6712468E-2,7.3622605E-3],"categories":[],"categories_nodes":[],"categories_segments":[],"categories_sizes":[],"default_left":[0,0,0,0,0,0,0,0,0,0,0,0,0,0,0,0,0,0,0,0,0,0,0,0,0,0,0,0,0,0,0,0,0,0,0,0,0,0,0,0,0,0,0,0,0,0,0,0,0,0,0,0,0,0,0,0,0,0,0,0,0,0,0,0,0,0,0,0,0,0,0,0,0,0,0,0,0,0,0,0,0,0,0,0,0,0,0],"id":8,"left_children":[1,3,5,7,9,11,13,15,17,19,21,23,25,27,29,31,33,35,37,-1,39,41,43,-1,-1,-1,-1,45,47,49,51,53,55,57,59,61,63,-1,65,67,69,-1,71,-1,-1,73,75,77,79,81,-1,83,85,-1,-1,-1,-1,-1,-1,-1,-1,-1,-1,-1,-1,-1,-1,-1,-1,-1,-1,-1,-1,-1,-1,-1,-1,-1,-1,-1,-1,-1,-1,-1,-1,-1,-1],"loss_changes":[1.8720377E2,2.9134403E1,3.7327515E1,2.3960564E1,5.088089E0,4.0124207E0,5.5753174E0,6.1570396E0,1.776178E1,4.9079857E0,8.839686E-1,4.056244E-1,3.6084366E-1,2.239132E0,3.4262466E0,9.612951E-1,4.7687507E0,1.7302391E1,2.7843678E0,0E0,3.459146E0,3.309343E-1,1.472857E-1,0E0,0E0,0E0,0E0,4.5771694E-1,1.641304E0,5.8672523E-1,2.2323837E0,7.422055E-1,4.5301628E-1,6.6318417E-1,1.2208279E0,1.7775665E1,2.124342E0,0E0,1.210078E0,3.3347442E0,1.3699336E0,0E0,1.528548E-1,0E0,0E0,3.946805E-1,2.670722E-1,8.544302E-1,3.6520338E-1,3.8910866E-1,0E0,8.546562E-1,1.0491714E0,0E0,0E0,0E0,0E0,0E0,0E0,0E0,0E0,0E0,0E0,0E0,0E0,0E0,0E0,0E0,0E0,0E0,0E0,0E0,0E0,0E0,0E0,0E0,0E0,0E0,0E0,0E0,0E0,0E0,0E0,0E0,0E0,0E0,0E0],"parents":[2147483647,0,0,1,1,2,2,3,3,4,4,5,5,6,6,7,7,8,8,9,9,10,10,11,11,12,12,13,13,14,14,15,15,16,16,17,17,18,18,20,20,21,21,22,22,27,27,28,28,29,29,30,30,31,31,32,32,33,33,34,34,35,35,36,36,38,38,39,39,40,40,42,42,45,45,46,46,47,47,48,48,49,49,51,51,52,52],"right_children":[2,4,6,8,10,12,14,16,18,20,22,24,26,28,30,32,34,36,38,-1,40,42,44,-1,-1,-1,-1,46,48,50,52,54,56,58,60,62,64,-1,66,68,70,-1,72,-1,-1,74,76,78,80,82,-1,84,86,-1,-1,-1,-1,-1,-1,-1,-1,-1,-1,-1,-1,-1,-1,-1,-1,-1,-1,-1,-1,-1,-1,-1,-1,-1,-1,-1,-1,-1,-1,-1,-1,-1,-1],"split_conditions":[1E0,1.7995147E0,-2.8907531E-1,-6.404605E-1,1E0,-1.4553925E0,1.7995147E0,-1.2528801E0,1E0,-3.3434194E-1,1E0,1E0,1E0,-6.404605E-1,-1.4553925E0,9.629826E-1,-3.3434194E-1,1E0,-3.3434194E-1,4.012879E-2,1E0,-1.3694453E0,-3.859993E-2,5.3419907E-2,1.8770542E-2,1.6764842E-2,3.404999E-2,1.2435995E-1,1E0,1E0,7.5205725E-1,-1.3818653E-1,7.1014184E-1,1E0,-1.4551005E-1,1E0,-1.3818653E-1,2.4841063E-2,7.1014184E-1,1.3860437E0,7.1014184E-1,4.8212623E-4,8.814664E-2,-7.903356E-3,-2.7252372E-2,1E0,2.8430206E-1,1.3860437E0,1.3860437E0,1.3860437E0,1.5489249E-2,1E0,1E0,-8.110386E-3,2.167691E-2,3.669025E-2,7.542098E-3,1.4995742E-2,3.4413096E-2,-4.7847563E-3,2.772509E-3,-1.4577169E-2,3.6951543E-3,2.2520622E-2,3.395711E-3,-2.0252327E-3,5.0173556E-3,-2.1097173E-3,4.869616E-3,3.8421083E-2,1.2522795E-2,-7.0816553E-3,-1.5636487E-2,1.5995145E-2,3.7595198E-2,3.4949105E-2,1.0571048E-2,6.827702E-3,1.2642574E-2,-1.2797471E-3,5.737435E-3,1.6509375E-2,3.279768E-2,1.6058473E-2,8.2956515E-3,2.6712468E-2,7.3622605E-3],"split_indices":[197,7,0,1,266,1,7,2,494,0,16,18,31,1,1,4,0,306,0,0,158,2,0,0,0,0,0,0,18,18,0,0,3,31,2,251,0,0,3,6,3,0,0,0,0,80,0,6,6,6,0,33,9,0,0,0,0,0,0,0,0,0,0,0,0,0,0,0,0,0,0,0,0,0,0,0,0,0,0,0,0,0,0,0,0,0,0],"split_type":[0,0,0,0,0,0,0,0,0,0,0,0,0,0,0,0,0,0,0,0,0,0,0,0,0,0,0,0,0,0,0,0,0,0,0,0,0,0,0,0,0,0,0,0,0,0,0,0,0,0,0,0,0,0,0,0,0,0,0,0,0,0,0,0,0,0,0,0,0,0,0,0,0,0,0,0,0,0,0,0,0,0,0,0,0,0,0],"sum_hessian":[1.1319E4,8.568E3,2.751E3,6.495E3,2.073E3,2.92E2,2.459E3,7.79E2,5.716E3,1.959E3,1.14E2,1.81E2,1.11E2,1.174E3,1.285E3,6.6E1,7.13E2,5.029E3,6.87E2,2.1E1,1.938E3,8.2E1,3.2E1,1.76E2,5E0,1.5E1,9.6E1,1.69E2,1.005E3,1.71E2,1.114E3,2E1,4.6E1,5.4E1,6.59E2,4.705E3,3.24E2,3E1,6.57E2,1.823E3,1.15E2,1.8E1,6.4E1,5E0,2.7E1,1.45E2,2.4E1,8.15E2,1.9E2,1.47E2,2.4E1,9.16E2,1.98E2,7E0,1.3E1,4.1E1,5E0,2.9E1,2.5E1,1.91E2,4.68E2,4.336E3,3.69E2,4.1E1,2.83E2,4.06E2,2.51E2,7.28E2,1.095E3,1.4E1,1.01E2,3.2E1,3.2E1,1.4E2,5E0,1.8E1,6E0,2.36E2,5.79E2,8.3E1,1.07E2,1.7E1,1.3E2,8.06E2,1.1E2,1.76E2,2.2E1],"tree_param":{"num_deleted":"0","num_feature":"525","num_nodes":"87","size_leaf_vector":"1"}},{"base_weights":[1.1270092E-3,-6.595911E-2,2.1081589E-1,9.335899E-2,-8.566743E-2,4.2287487E-1,1.6604587E-1,7.472311E-2,3.4508133E-1,2.1136226E-2,-1.1582557E-1,4.5899588E-1,1.9441502E-1,1.8220337E-1,3.6687896E-2,1.1482333E-1,-2.1965388E-2,3.453866E-2,1.4930531E-1,1.0634161E-2,1.6779104E-1,-1.3835442E-1,2.5952356E-2,4.2339715E-1,6.0813695E-1,1.6436612E-2,3.0325237E-3,1.615748E-1,2.5575215E-1,8.96137E-2,-3.14463E-3,1.2751576E-1,-7.311557E-2,-3.5652895E-2,2.4568811E-1,-4.080421E-3,2.1061438E-1,-2.3749156E-3,1.2709118E-1,1.3541144E-1,3.960324E-1,-1.5479615E-1,5.1235054E-2,-2.5987959E-2,6.012644E-2,3.4536424E-1,4.991765E-1,5.1380437E-2,7.455867E-3,1.4199267E-1,2.5583613E-1,3.175216E-1,2.042071E-1,2.0896114E-2,1.1852133E-1,-1.3230061E-2,1.1094427E-2,7.228322E-3,1.6043574E-2,5.3651636E-3,-9.338621E-3,-1.4043878E-3,-1.708265E-2,2.959084E-2,6.047468E-3,2.07432E-2,4.803303E-3,-1.1537705E-3,1.1703147E-2,1.45672215E-2,4.850917E-3,1.27715655E-2,3.8401436E-3,7.0678815E-3,4.5299817E-2,-1.3356908E-2,1.2087373E-2,2.6105726E-3,1.8687066E-2,1.0535714E-3,-3.4035826E-3,-1.4202746E-3,7.1890145E-3,1.8785477E-2,3.4262035E-2,4.5665868E-2,3.0161964E-2,6.1221463E-3,1.2980326E-2,2.5728177E-2,1.8414985E-2,3.0298952E-2,2.0439805E-2,1.9098716E-2,8.544512E-3,4.849751E-3,-4.452685E-3,1.0830462E-2,3.7086962E-4,-1.9067969E-3,6.849523E-3],"categories":[],"categories_nodes":[],"categories_segments":[],"categories_sizes":[],"default_left":[0,0,0,0,0,0,0,0,0,0,0,0,0,0,0,0,0,0,0,0,0,0,0,0,0,0,0,0,0,0,0,0,0,0,0,0,0,0,0,0,0,0,0,0,0,0,0,0,0,0,0,0,0,0,0,0,0,0,0,0,0,0,0,0,0,0,0,0,0,0,0,0,0,0,0,0,0,0,0,0,0,0,0,0,0,0,0,0,0,0,0,0,0,0,0,0,0,0,0,0,0],"id":9,"left_children":[1,3,5,7,9,11,13,15,17,19,21,23,25,27,29,31,33,-1,35,37,39,41,43,45,47,-1,-1,49,51,53,55,57,59,61,63,-1,65,67,69,71,73,75,77,79,81,83,85,-1,-1,87,89,91,93,95,97,99,-1,-1,-1,-1,-1,-1,-1,-1,-1,-1,-1,-1,-1,-1,-1,-1,-1,-1,-1,-1,-1,-1,-1,-1,-1,-1,-1,-1,-1,-1,-1,-1,-1,-1,-1,-1,-1,-1,-1,-1,-1,-1,-1,-1,-1],"loss_changes":[1.602393E2,2.711327E1,2.607219E1,4.4096365E0,2.4745392E1,3.7825928E0,4.75832E0,3.4480238E0,9.7376347E-1,2.6039534E0,1.9139801E1,1.677742E0,1.0367417E-1,2.9957657E0,5.402547E-1,1.5166807E0,9.7735846E-1,0E0,3.0394465E-1,2.3973308E0,7.278564E-1,1.6128555E1,1.4639603E0,1.6657181E0,1.1979542E0,0E0,0E0,2.8622284E0,1.2744236E0,2.1355754E-1,2.1536365E-1,1.5622358E0,2.6634204E-1,8.0054355E-1,2.187075E-1,0E0,1.00790024E-1,2.556381E0,5.590544E-1,2.0073128E-1,5.8078814E-1,1.775219E1,1.3891665E0,2.1377137E-1,1.1541708E0,1.3936577E0,1.039875E0,0E0,0E0,1.7273808E0,3.090706E-1,5.5443954E-1,7.762871E-1,1.1319003E-1,1.465882E-1,1.5084136E-1,0E0,0E0,0E0,0E0,0E0,0E0,0E0,0E0,0E0,0E0,0E0,0E0,0E0,0E0,0E0,0E0,0E0,0E0,0E0,0E0,0E0,0E0,0E0,0E0,0E0,0E0,0E0,0E0,0E0,0E0,0E0,0E0,0E0,0E0,0E0,0E0,0E0,0E0,0E0,0E0,0E0,0E0,0E0,0E0,0E0],"parents":[2147483647,0,0,1,1,2,2,3,3,4,4,5,5,6,6,7,7,8,8,9,9,10,10,11,11,12,12,13,13,14,14,15,15,16,16,18,18,19,19,20,20,21,21,22,22,23,23,24,24,27,27,28,28,29,29,30,30,31,31,32,32,33,33,34,34,36,36,37,37,38,38,39,39,40,40,41,41,42,42,43,43,44,44,45,45,46,46,49,49,50,50,51,51,52,52,53,53,54,54,55,55],"right_children":[2,4,6,8,10,12,14,16,18,20,22,24,26,28,30,32,34,-1,36,38,40,42,44,46,48,-1,-1,50,52,54,56,58,60,62,64,-1,66,68,70,72,74,76,78,80,82,84,86,-1,-1,88,90,92,94,96,98,100,-1,-1,-1,-1,-1,-1,-1,-1,-1,-1,-1,-1,-1,-1,-1,-1,-1,-1,-1,-1,-1,-1,-1,-1,-1,-1,-1,-1,-1,-1,-1,-1,-1,-1,-1,-1,-1,-1,-1,-1,-1,-1,-1,-1,-1],"split_conditions":[1E0,-1.4553925E0,-1.4553925E0,1E0,-9.906082E-1,1E0,1E0,1E0,-8.992955E-2,1E0,1E0,1E0,1E0,1E0,-4.3672752E-1,1E0,1E0,3.453866E-2,1.3860437E0,1E0,1E0,1E0,1.3860437E0,1E0,-8.722742E-2,1.6436612E-2,3.0325237E-3,3.246818E0,-4.3672752E-1,1.3860437E0,1.4932605E0,1.7995147E0,-6.700537E-1,1E0,7.1014184E-1,-4.080421E-3,1E0,1E0,1E0,-1.340304E0,1E0,1E0,1.7486755E0,-4.3672752E-1,-9.757327E-2,1.3478029E0,1.3860437E0,5.1380437E-2,7.455867E-3,1.3860437E0,-1.3985866E0,1.3860437E0,1E0,1E0,1E0,1E0,1.1094427E-2,7.228322E-3,1.6043574E-2,5.3651636E-3,-9.338621E-3,-1.4043878E-3,-1.708265E-2,2.959084E-2,6.047468E-3,2.07432E-2,4.803303E-3,-1.1537705E-3,1.1703147E-2,1.45672215E-2,4.850917E-3,1.27715655E-2,3.8401436E-3,7.0678815E-3,4.5299817E-2,-1.3356908E-2,1.2087373E-2,2.6105726E-3,1.8687066E-2,1.0535714E-3,-3.4035826E-3,-1.4202746E-3,7.1890145E-3,1.8785477E-2,3.4262035E-2,4.5665868E-2,3.0161964E-2,6.1221463E-3,1.2980326E-2,2.5728177E-2,1.8414985E-2,3.0298952E-2,2.0439805E-2,1.9098716E-2,8.544512E-3,4.849751E-3,-4.452685E-3,1.0830462E-2,3.7086962E-4,-1.9067969E-3,6.849523E-3],"split_indices":[197,1,1,218,2,18,18,18,3,306,494,11,26,43,1,266,158,0,6,494,16,251,6,43,2,0,0,5,1,6,4,7,2,23,3,0,16,251,65,2,43,158,2,1,4,5,6,0,0,6,2,6,20,36,73,78,0,0,0,0,0,0,0,0,0,0,0,0,0,0,0,0,0,0,0,0,0,0,0,0,0,0,0,0,0,0,0,0,0,0,0,0,0,0,0,0,0,0,0,0,0],"split_type":[0,0,0,0,0,0,0,0,0,0,0,0,0,0,0,0,0,0,0,0,0,0,0,0,0,0,0,0,0,0,0,0,0,0,0,0,0,0,0,0,0,0,0,0,0,0,0,0,0,0,0,0,0,0,0,0,0,0,0,0,0,0,0,0,0,0,0,0,0,0,0,0,0,0,0,0,0,0,0,0,0,0,0,0,0,0,0,0,0,0,0,0,0,0,0,0,0,0,0,0,0],"sum_hessian":[1.1387E4,8.628E3,2.759E3,9.49E2,7.679E3,4.78E2,2.281E3,8.86E2,6.3E1,1.691E3,5.988E3,4.11E2,6.7E1,2.027E3,2.54E2,6.26E2,2.6E2,4.2E1,2.1E1,1.58E3,1.11E2,5.167E3,8.21E2,3.38E2,7.3E1,6.2E1,5E0,1.588E3,4.39E2,1.08E2,1.46E2,5.87E2,3.9E1,2.49E2,1.1E1,5E0,1.6E1,1.423E3,1.57E2,1E2,1.1E1,4.755E3,4.12E2,3.26E2,4.95E2,1.72E2,1.66E2,6.8E1,5E0,1.319E3,2.69E2,1.95E2,2.44E2,3.3E1,7.5E1,1.38E2,8E0,3.92E2,1.95E2,9E0,3E1,2.28E2,2.1E1,5E0,6E0,1.1E1,5E0,1.318E3,1.05E2,8.4E1,7.3E1,7.7E1,2.3E1,5E0,6E0,4.574E3,1.81E2,3.76E2,3.6E1,9.7E1,2.29E2,1.37E2,3.58E2,7.7E1,9.5E1,1E2,6.6E1,3.14E2,1.005E3,6.9E1,2E2,9.3E1,1.02E2,1.78E2,6.6E1,2.2E1,1.1E1,6.5E1,1E1,1.26E2,1.2E1],"tree_param":{"num_deleted":"0","num_feature":"525","num_nodes":"101","size_leaf_vector":"1"}},{"base_weights":[-7.406674E-4,-6.1953947E-2,1.9193044E-1,-1.1746558E-1,-1.010635E-2,4.7975707E-1,1.5685056E-1,-1.5391542E-1,-3.5114877E-2,-9.788562E-2,2.297884E-2,5.620694E-1,3.446693E-1,1.18042134E-1,1.9740559E-1,3.356174E-1,-1.6256747E-1,3.7731294E-2,-6.340747E-2,-3.8353477E-2,-1.4395295E-1,3.051047E-1,1.4122742E-2,4.8683286E-1,5.0252747E-2,3.0298516E-2,1.7121147E-2,9.705361E-2,1.8948825E-1,3.3719742E-1,1.8092883E-1,3.86537E-1,-2.7767718E-3,-1.5365209E-1,-4.0182743E-2,2.5130713E-2,1.8025307E-1,-7.369375E-2,9.2931595E-3,-2.983032E-2,-2.1442413E-2,-1.548712E-1,1.5929843E-1,3.2589227E-1,4.39334E-3,2.110033E-2,-2.814257E-1,-4.120869E-4,4.2122893E-2,3.0508863E-2,1.2019127E-1,1.5875603E-1,2.7556762E-1,3.716345E-1,1.437495E-1,2.3133312E-1,1.3686387E-1,4.2368248E-2,2.3625292E-2,-1.1528117E-2,-3.513492E-2,1.1130865E-3,1.0709718E-2,3.593596E-3,1.9740209E-2,-6.431408E-3,1.4585548E-2,9.221377E-4,-5.6142476E-3,-1.3761226E-2,2.2337765E-3,2.0840785E-2,6.481707E-3,2.7561462E-2,8.489445E-3,7.552062E-3,-1.468532E-4,-2.421817E-2,-6.9345073E-3,5.458545E-4,6.3542426E-3,1.2724166E-2,6.4963647E-3,1.6338786E-2,8.226041E-3,1.6802493E-2,3.2433633E-2,2.3242801E-2,3.7204184E-2,4.5557233E-4,1.6593264E-2,1.941217E-2,6.4995675E-3,1.4905368E-2,8.565248E-3],"categories":[],"categories_nodes":[],"categories_segments":[],"categories_sizes":[],"default_left":[0,0,0,0,0,0,0,0,0,0,0,0,0,0,0,0,0,0,0,0,0,0,0,0,0,0,0,0,0,0,0,0,0,0,0,0,0,0,0,0,0,0,0,0,0,0,0,0,0,0,0,0,0,0,0,0,0,0,0,0,0,0,0,0,0,0,0,0,0,0,0,0,0,0,0,0,0,0,0,0,0,0,0,0,0,0,0,0,0,0,0,0,0,0,0],"id":10,"left_children":[1,3,5,7,9,11,13,15,17,19,21,23,25,27,29,31,33,35,37,39,41,43,45,47,-1,-1,-1,49,51,53,55,57,-1,59,-1,61,63,65,-1,67,-1,69,71,73,-1,75,77,-1,-1,79,81,83,85,87,89,91,93,-1,-1,-1,-1,-1,-1,-1,-1,-1,-1,-1,-1,-1,-1,-1,-1,-1,-1,-1,-1,-1,-1,-1,-1,-1,-1,-1,-1,-1,-1,-1,-1,-1,-1,-1,-1,-1,-1],"loss_changes":[1.3461726E2,2.492812E1,2.7636246E1,1.2545177E1,1.3018192E1,2.9261246E0,3.81884E0,1.2387726E1,2.65524E0,3.3539906E0,8.126611E0,2.9335403E-1,3.630371E-1,1.8526497E0,2.6373596E0,9.885349E-1,8.4774475E0,6.392446E-1,1.729409E0,1.037182E0,2.3372211E0,4.7908592E-1,6.5264144E0,1.8415661E0,0E0,0E0,0E0,1.4984827E0,6.6380024E-1,7.192173E-1,2.326542E0,2.74477E-1,0E0,7.454582E0,0E0,4.0367436E-1,2.3881996E-1,1.5350785E0,0E0,8.709922E-1,0E0,2.1030083E0,1.5584958E-1,2.993908E-1,0E0,5.191951E0,2.5034714E-1,0E0,0E0,2.9438043E-1,1.0725832E0,5.023413E-1,4.4242525E-1,5.176897E-1,1.9100544E-1,8.082981E-1,8.133297E-1,0E0,0E0,0E0,0E0,0E0,0E0,0E0,0E0,0E0,0E0,0E0,0E0,0E0,0E0,0E0,0E0,0E0,0E0,0E0,0E0,0E0,0E0,0E0,0E0,0E0,0E0,0E0,0E0,0E0,0E0,0E0,0E0,0E0,0E0,0E0,0E0,0E0,0E0],"parents":[2147483647,0,0,1,1,2,2,3,3,4,4,5,5,6,6,7,7,8,8,9,9,10,10,11,11,12,12,13,13,14,14,15,15,16,16,17,17,18,18,19,19,20,20,21,21,22,22,23,23,27,27,28,28,29,29,30,30,31,31,33,33,35,35,36,36,37,37,39,39,41,41,42,42,43,43,45,45,46,46,49,49,50,50,51,51,52,52,53,53,54,54,55,55,56,56],"right_children":[2,4,6,8,10,12,14,16,18,20,22,24,26,28,30,32,34,36,38,40,42,44,46,48,-1,-1,-1,50,52,54,56,58,-1,60,-1,62,64,66,-1,68,-1,70,72,74,-1,76,78,-1,-1,80,82,84,86,88,90,92,94,-1,-1,-1,-1,-1,-1,-1,-1,-1,-1,-1,-1,-1,-1,-1,-1,-1,-1,-1,-1,-1,-1,-1,-1,-1,-1,-1,-1,-1,-1,-1,-1,-1,-1,-1,-1,-1,-1],"split_conditions":[1E0,1.3860437E0,-2.8907531E-1,4.3270466E-1,-6.278512E-1,-1.4553925E0,4.3270466E-1,-3.3434194E-1,-1.4277279E0,-4.3672752E-1,-3.3434194E-1,1E0,3.7820446E-1,1E0,-1.4553925E0,1E0,1E0,1E0,1E0,1E0,1E0,1E0,1E0,1E0,5.0252747E-2,3.0298516E-2,1.7121147E-2,1.3860437E0,1E0,-8.722742E-2,1E0,-5.826298E-1,-2.7767718E-3,1E0,-4.0182743E-2,1E0,1.5102131E0,1E0,9.2931595E-3,1E0,-2.1442413E-2,1E0,-7.283364E-1,1E0,4.39334E-3,-1.2820214E0,2.0235386E0,-4.120869E-4,4.2122893E-2,1E0,3.7820446E-1,-4.3672752E-1,1.5102131E0,-6.409124E-1,-1.3818653E-1,1E0,3.7820446E-1,4.2368248E-2,2.3625292E-2,-1.1528117E-2,-3.513492E-2,1.1130865E-3,1.0709718E-2,3.593596E-3,1.9740209E-2,-6.431408E-3,1.4585548E-2,9.221377E-4,-5.6142476E-3,-1.3761226E-2,2.2337765E-3,2.0840785E-2,6.481707E-3,2.7561462E-2,8.489445E-3,7.552062E-3,-1.468532E-4,-2.421817E-2,-6.9345073E-3,5.458545E-4,6.3542426E-3,1.2724166E-2,6.4963647E-3,1.6338786E-2,8.226041E-3,1.6802493E-2,3.2433633E-2,2.3242801E-2,3.7204184E-2,4.5557233E-4,1.6593264E-2,1.941217E-2,6.4995675E-3,1.4905368E-2,8.565248E-3],"split_indices":[197,6,0,4,4,1,4,0,2,1,0,20,1,43,1,29,246,494,306,292,158,211,292,31,0,0,0,6,31,2,20,2,0,489,0,158,3,158,0,18,0,306,2,29,0,2,4,0,0,17,1,1,3,2,0,18,1,0,0,0,0,0,0,0,0,0,0,0,0,0,0,0,0,0,0,0,0,0,0,0,0,0,0,0,0,0,0,0,0,0,0,0,0,0,0],"split_type":[0,0,0,0,0,0,0,0,0,0,0,0,0,0,0,0,0,0,0,0,0,0,0,0,0,0,0,0,0,0,0,0,0,0,0,0,0,0,0,0,0,0,0,0,0,0,0,0,0,0,0,0,0,0,0,0,0,0,0,0,0,0,0,0,0,0,0,0,0,0,0,0,0,0,0,0,0,0,0,0,0,0,0,0,0,0,0,0,0,0,0,0,0,0,0],"sum_hessian":[1.141E4,8.66E3,2.75E3,4.181E3,4.479E3,2.96E2,2.454E3,2.897E3,1.284E3,1.225E3,3.254E3,1.8E2,1.16E2,1.258E3,1.196E3,4.9E1,2.848E3,3.59E2,9.25E2,5.36E2,6.89E2,9.7E1,3.157E3,9.2E1,8.8E1,8.9E1,2.7E1,9.76E2,2.82E2,1.22E2,1.074E3,4.3E1,6E0,2.778E3,7E1,3.32E2,2.7E1,8.76E2,4.9E1,5.19E2,1.7E1,6.66E2,2.3E1,8.9E1,8E0,3.086E3,7.1E1,7E0,8.5E1,2.53E2,7.23E2,2.12E2,7E1,1.02E2,2E1,4.97E2,5.77E2,1.3E1,3E1,2.691E3,8.7E1,3.03E2,2.9E1,1E1,1.7E1,8.55E2,2.1E1,2.57E2,2.62E2,6.09E2,5.7E1,8E0,1.5E1,8.1E1,8E0,7.34E2,2.352E3,6.3E1,8E0,1.72E2,8.1E1,3.59E2,3.64E2,1.14E2,9.8E1,5E1,2E1,5.9E1,4.3E1,7E0,1.3E1,4.61E2,3.6E1,2.13E2,3.64E2],"tree_param":{"num_deleted":"0","num_feature":"525","num_nodes":"95","size_leaf_vector":"1"}},{"base_weights":[2.0197455E-3,-5.4526553E-2,1.7915718E-1,3.0443186E-1,-6.152068E-2,4.44675E-1,1.4687048E-1,3.2588747E-1,7.80401E-2,-9.810911E-2,9.436398E-3,5.230058E-1,3.15659E-1,1.0849219E-1,1.8730669E-1,3.3966458E-1,2.642733E-3,-7.649049E-4,1.4318561E-2,-9.252139E-2,-5.0809026E-1,1.6962288E-1,-5.2373735E-3,4.2394016E-2,1.581003E-2,1.1998212E-2,2.6950011E-2,8.749998E-2,1.7772818E-1,3.260733E-1,1.7085318E-1,3.5221046E-1,1.143665E-2,-1.0100544E-1,1.58262E-1,-1.3942127E-2,-4.215638E-2,1.4313471E-1,3.7968683E-1,1.0513333E-2,-1.2797475E-1,1.23597525E-1,5.4827664E-2,1.354076E-1,2.820514E-1,3.621025E-1,1.3480423E-1,2.1093087E-1,1.3378833E-1,2.907907E-2,9.183832E-3,1.112829E-3,-9.442074E-3,1.1089019E-2,3.1390198E-2,8.957539E-3,1.8559434E-2,9.112023E-3,3.4569737E-2,-3.4796665E-4,7.838233E-3,-7.648543E-3,-1.9444125E-2,-5.6997244E-3,1.0362385E-2,3.4343004E-3,1.2784726E-2,-4.4738655E-3,1.2037379E-2,8.241217E-3,2.4988616E-2,2.5190502E-2,3.742263E-2,-5.9103966E-4,1.6930012E-2,1.5577156E-2,2.7134687E-2,1.4008754E-2,8.60781E-3],"categories":[],"categories_nodes":[],"categories_segments":[],"categories_sizes":[],"default_left":[0,0,0,0,0,0,0,0,0,0,0,0,0,0,0,0,0,0,0,0,0,0,0,0,0,0,0,0,0,0,0,0,0,0,0,0,0,0,0,0,0,0,0,0,0,0,0,0,0,0,0,0,0,0,0,0,0,0,0,0,0,0,0,0,0,0,0,0,0,0,0,0,0,0,0,0,0,0,0],"id":11,"left_children":[1,3,5,7,9,11,13,15,17,19,21,23,25,27,29,31,-1,-1,-1,33,35,37,39,-1,-1,-1,-1,41,43,45,47,49,-1,51,53,-1,-1,55,57,59,61,63,65,67,69,71,73,75,77,-1,-1,-1,-1,-1,-1,-1,-1,-1,-1,-1,-1,-1,-1,-1,-1,-1,-1,-1,-1,-1,-1,-1,-1,-1,-1,-1,-1,-1,-1],"loss_changes":[1.145378E2,2.179934E1,2.3590027E1,7.5546074E-1,2.208001E1,2.6914902E0,3.7924805E0,5.867939E-1,1.5374777E-1,1.2760002E1,6.80659E0,2.0256042E-1,3.1373692E-1,1.8176432E0,2.628418E0,2.546692E-1,0E0,0E0,0E0,1.1814945E1,2.8862E-1,1.2434101E0,5.1334057E0,0E0,0E0,0E0,0E0,1.1422501E0,1.221632E0,7.6378345E-1,1.543417E0,2.753315E-1,0E0,1.048312E1,7.2845984E-1,0E0,0E0,5.545263E-1,2.6391125E-1,3.0610023E0,1.0784154E0,5.547819E-1,6.333463E-1,6.3056207E-1,3.8599682E-1,2.2440434E-1,2.543637E-1,9.369278E-1,5.7377625E-1,0E0,0E0,0E0,0E0,0E0,0E0,0E0,0E0,0E0,0E0,0E0,0E0,0E0,0E0,0E0,0E0,0E0,0E0,0E0,0E0,0E0,0E0,0E0,0E0,0E0,0E0,0E0,0E0,0E0,0E0],"parents":[2147483647,0,0,1,1,2,2,3,3,4,4,5,5,6,6,7,7,8,8,9,9,10,10,11,11,12,12,13,13,14,14,15,15,19,19,20,20,21,21,22,22,27,27,28,28,29,29,30,30,31,31,33,33,34,34,37,37,38,38,39,39,40,40,41,41,42,42,43,43,44,44,45,45,46,46,47,47,48,48],"right_children":[2,4,6,8,10,12,14,16,18,20,22,24,26,28,30,32,-1,-1,-1,34,36,38,40,-1,-1,-1,-1,42,44,46,48,50,-1,52,54,-1,-1,56,58,60,62,64,66,68,70,72,74,76,78,-1,-1,-1,-1,-1,-1,-1,-1,-1,-1,-1,-1,-1,-1,-1,-1,-1,-1,-1,-1,-1,-1,-1,-1,-1,-1,-1,-1,-1,-1],"split_conditions":[1E0,-3.3434194E-1,-2.8907531E-1,1E0,4.3270466E-1,-1.4553925E0,4.3270466E-1,8.8753694E-1,-8.722742E-2,1E0,-1.4553925E0,1E0,1E0,1E0,-1.4553925E0,1E0,2.642733E-3,-7.649049E-4,1.4318561E-2,1E0,-1.1945975E0,1E0,1E0,4.2394016E-2,1.581003E-2,1.1998212E-2,2.6950011E-2,3.7820446E-1,1E0,-8.722742E-2,1E0,1E0,1.143665E-2,-6.404605E-1,1E0,-1.3942127E-2,-4.215638E-2,1E0,1.424666E-1,3.246818E0,1.3968694E0,-5.512124E-1,3.246818E0,-9.2919886E-2,-9.757327E-2,1E0,1.7504443E-1,1.6006024E0,3.7820446E-1,2.907907E-2,9.183832E-3,1.112829E-3,-9.442074E-3,1.1089019E-2,3.1390198E-2,8.957539E-3,1.8559434E-2,9.112023E-3,3.4569737E-2,-3.4796665E-4,7.838233E-3,-7.648543E-3,-1.9444125E-2,-5.6997244E-3,1.0362385E-2,3.4343004E-3,1.2784726E-2,-4.4738655E-3,1.2037379E-2,8.241217E-3,2.4988616E-2,2.5190502E-2,3.742263E-2,-5.9103966E-4,1.6930012E-2,1.5577156E-2,2.7134687E-2,1.4008754E-2,8.60781E-3],"split_indices":[197,0,0,29,4,1,4,1,2,428,1,18,31,43,1,211,0,0,0,158,2,218,18,0,0,0,0,1,31,2,20,23,0,1,31,0,0,8,0,5,1,5,5,0,4,31,2,1,1,0,0,0,0,0,0,0,0,0,0,0,0,0,0,0,0,0,0,0,0,0,0,0,0,0,0,0,0,0,0],"split_type":[0,0,0,0,0,0,0,0,0,0,0,0,0,0,0,0,0,0,0,0,0,0,0,0,0,0,0,0,0,0,0,0,0,0,0,0,0,0,0,0,0,0,0,0,0,0,0,0,0,0,0,0,0,0,0,0,0,0,0,0,0,0,0,0,0,0,0,0,0,0,0,0,0,0,0,0,0,0,0],"sum_hessian":[1.1431E4,8.666E3,2.765E3,1.64E2,8.502E3,2.97E2,2.468E3,1.49E2,1.5E1,5.609E3,2.893E3,1.81E2,1.16E2,1.27E3,1.198E3,1.42E2,7E0,9E0,6E0,5.536E3,7.3E1,2.41E2,2.652E3,1.76E2,5E0,1.5E1,1.01E2,9.78E2,2.92E2,1.23E2,1.075E3,1.32E2,1E1,5.356E3,1.8E2,5E0,6.8E1,2.17E2,2.4E1,2.352E3,3E2,4.62E2,5.16E2,2.11E2,8.1E1,1.02E2,2.1E1,5.12E2,5.63E2,1.25E2,7E0,6.91E2,4.665E3,1.69E2,1.1E1,1.64E2,5.3E1,5E0,1.9E1,2.012E3,3.4E2,2.37E2,6.3E1,1.3E1,4.49E2,4.66E2,5E1,1.5E1,1.96E2,1.3E1,6.8E1,7.6E1,2.6E1,8E0,1.3E1,4.59E2,5.3E1,2.14E2,3.49E2],"tree_param":{"num_deleted":"0","num_feature":"525","num_nodes":"79","size_leaf_vector":"1"}},{"base_weights":[2.156732E-3,-4.8600793E-2,1.5819563E-1,-4.2859945E-2,-4.196991E-1,4.136592E-1,1.2837408E-1,2.7053788E-1,-4.8948202E-2,-3.5012417E-2,-1.7798772E-2,3.9101772E-2,2.9785103E-1,8.893863E-2,1.6323163E-1,1.94539E-1,2.748586E-2,-8.12421E-2,1.3412786E-2,2.557902E-2,1.55301485E-2,7.389057E-2,1.7593725E-1,2.5712666E-1,1.4885354E-1,2.1041399E-1,-3.2163481E-3,-7.600518E-2,-4.728454E-1,1.4812155E-1,-1.1338271E-3,7.6653436E-3,9.87042E-2,6.617777E-2,2.1349053E-1,2.8596827E-1,1.388531E-1,1.397388E-1,3.029851E-1,1.896717E-2,6.0593965E-3,-5.447862E-3,-2.705784E-2,-1.3145427E-2,-3.9277185E-2,9.086414E-3,2.6878417E-2,5.5562676E-4,-1.7891573E-2,1.3891412E-2,-9.257916E-4,5.5038016E-3,1.1960988E-2,4.1315705E-4,2.1193495E-2,1.9424701E-2,-5.204806E-4,1.803225E-2,2.7916228E-2,2.6398306E-3,1.8465841E-2,1.3876551E-2,9.407866E-3,1.392423E-2,3.0291859E-2],"categories":[],"categories_nodes":[],"categories_segments":[],"categories_sizes":[],"default_left":[0,0,0,0,0,0,0,0,0,0,0,0,0,0,0,0,0,0,0,0,0,0,0,0,0,0,0,0,0,0,0,0,0,0,0,0,0,0,0,0,0,0,0,0,0,0,0,0,0,0,0,0,0,0,0,0,0,0,0,0,0,0,0,0,0],"id":12,"left_children":[1,3,5,7,9,11,13,15,17,-1,-1,-1,19,21,23,25,-1,27,29,-1,-1,31,33,35,37,39,-1,41,43,45,47,49,51,53,55,57,59,61,63,-1,-1,-1,-1,-1,-1,-1,-1,-1,-1,-1,-1,-1,-1,-1,-1,-1,-1,-1,-1,-1,-1,-1,-1,-1,-1],"loss_changes":[9.0415955E1,1.8315449E1,2.1240318E1,1.6216255E1,2.691536E-1,2.2488556E0,3.4240189E0,7.65522E-1,1.6767725E1,0E0,0E0,0E0,1.48283E-1,1.5227375E0,1.7203445E0,3.2994938E-1,0E0,1.1176735E1,5.5693946E0,0E0,0E0,1.6614943E0,6.848197E-1,5.1413345E-1,1.5435677E0,2.4788785E-1,0E0,1.1181028E1,2.4115753E-1,1.7211037E0,4.617805E0,8.9168066E-1,1.0977817E0,5.6717825E-1,8.287482E-1,3.6911392E-1,3.5471553E-1,7.7889633E-1,4.827819E-1,0E0,0E0,0E0,0E0,0E0,0E0,0E0,0E0,0E0,0E0,0E0,0E0,0E0,0E0,0E0,0E0,0E0,0E0,0E0,0E0,0E0,0E0,0E0,0E0,0E0,0E0],"parents":[2147483647,0,0,1,1,2,2,3,3,4,4,5,5,6,6,7,7,8,8,12,12,13,13,14,14,15,15,17,17,18,18,21,21,22,22,23,23,24,24,25,25,27,27,28,28,29,29,30,30,31,31,32,32,33,33,34,34,35,35,36,36,37,37,38,38],"right_children":[2,4,6,8,10,12,14,16,18,-1,-1,-1,20,22,24,26,-1,28,30,-1,-1,32,34,36,38,40,-1,42,44,46,48,50,52,54,56,58,60,62,64,-1,-1,-1,-1,-1,-1,-1,-1,-1,-1,-1,-1,-1,-1,-1,-1,-1,-1,-1,-1,-1,-1,-1,-1,-1,-1],"split_conditions":[1E0,1E0,-2.8907531E-1,-3.3434194E-1,1E0,-1.4553925E0,1.7995147E0,1E0,4.3270466E-1,-3.5012417E-2,-1.7798772E-2,3.9101772E-2,3.7820446E-1,1E0,-1.4553925E0,1E0,2.748586E-2,1E0,-6.404605E-1,2.557902E-2,1.55301485E-2,1.3860437E0,-3.2035795E-1,-8.722742E-2,4.6645758E-1,1E0,-3.2163481E-3,1E0,-1.1945975E0,1.2435995E-1,1E0,-6.404605E-1,2.6246837E-1,1E0,1E0,-5.826298E-1,1.7504443E-1,-1.340304E0,4.3270466E-1,1.896717E-2,6.0593965E-3,-5.447862E-3,-2.705784E-2,-1.3145427E-2,-3.9277185E-2,9.086414E-3,2.6878417E-2,5.5562676E-4,-1.7891573E-2,1.3891412E-2,-9.257916E-4,5.5038016E-3,1.1960988E-2,4.1315705E-4,2.1193495E-2,1.9424701E-2,-5.204806E-4,1.803225E-2,2.7916228E-2,2.6398306E-3,1.8465841E-2,1.3876551E-2,9.407866E-3,1.392423E-2,3.0291859E-2],"split_indices":[197,489,0,0,8,1,7,31,4,0,0,0,1,31,1,311,0,428,1,0,0,6,2,2,2,29,0,292,2,0,292,1,2,35,18,2,2,2,4,0,0,0,0,0,0,0,0,0,0,0,0,0,0,0,0,0,0,0,0,0,0,0,0,0,0],"split_type":[0,0,0,0,0,0,0,0,0,0,0,0,0,0,0,0,0,0,0,0,0,0,0,0,0,0,0,0,0,0,0,0,0,0,0,0,0,0,0,0,0,0,0,0,0,0,0,0,0,0,0,0,0,0,0,0,0,0,0,0,0,0,0,0,0],"sum_hessian":[1.1412E4,8.612E3,2.8E3,8.483E3,1.29E2,2.9E2,2.51E3,1.6E2,8.323E3,1.16E2,1.3E1,1.72E2,1.18E2,1.181E3,1.329E3,8.2E1,7.8E1,5.483E3,2.84E3,9.4E1,2.4E1,1.01E3,1.71E2,1.72E2,1.157E3,7.7E1,5E0,5.413E3,7E1,2.75E2,2.565E3,2.76E2,7.34E2,4.5E1,1.26E2,1.36E2,3.6E1,1.096E3,6.1E1,6.3E1,1.4E1,5.257E3,1.56E2,5E0,6.5E1,2.35E2,4E1,2.477E3,8.8E1,2.7E1,2.49E2,4.65E2,2.69E2,3.6E1,9E0,1.11E2,1.5E1,7.4E1,6.2E1,1.8E1,1.8E1,4.29E2,6.67E2,2.5E1,3.6E1],"tree_param":{"num_deleted":"0","num_feature":"525","num_nodes":"65","size_leaf_vector":"1"}},{"base_weights":[8.203072E-4,-4.6235725E-2,1.4884445E-1,7.560409E-2,-6.334724E-2,3.6686975E-1,1.2326092E-1,4.556653E-2,1.9560853E-1,-1.0555686E-1,-7.6135043E-3,3.4279115E-2,2.6672107E-1,2.0106058E-1,1.1007332E-1,1.6490263E-1,3.0058542E-2,1.7259885E-1,3.5247263E-2,-1.24027856E-1,2.7855933E-2,-1.8180918E-2,1.1554137E-1,2.9366845E-1,1.1697366E-2,1.5700464E-1,2.6055765E-1,1.2196937E-1,1.7092116E-2,1.8384196E-1,-1.0706806E-2,-1.4471936E-3,1.0941972E-1,1.5135145E-1,4.1163698E-1,-1.3849643E-1,8.5833795E-2,2.2753626E-1,1.35957645E-2,-2.608953E-2,1.523617E-1,2.5441846E-1,9.650502E-2,2.4504451E-2,6.752109E-3,7.384451E-2,1.8950075E-1,2.931129E-1,6.820104E-3,1.09645054E-1,1.9691281E-1,-4.7644835E-2,5.6736834E-2,1.8253537E-2,5.171328E-3,-7.701951E-4,1.5541329E-2,1.5870506E-2,5.61562E-3,1.0209819E-2,2.9666612E-2,1.16775995E-2,4.1222118E-2,-1.1952609E-2,9.589129E-3,2.1422705E-2,3.659853E-3,7.452175E-3,2.1907017E-2,1.4092066E-2,6.519614E-5,-3.4863395E-3,5.2660373E-3,1.0632614E-2,1.9550808E-2,7.835606E-4,2.4204776E-2,6.389039E-3,2.0425553E-2,1.1712062E-3,1.0568354E-2,1.2491495E-2,2.115738E-2,2.5431378E-2,7.979995E-3,1.1326656E-2,6.996508E-3,2.3048026E-2,1.3452995E-2,-5.137453E-3,2.2836833E-3,6.1708707E-3,-4.6108915E-3],"categories":[],"categories_nodes":[],"categories_segments":[],"categories_sizes":[],"default_left":[0,0,0,0,0,0,0,0,0,0,0,0,0,0,0,0,0,0,0,0,0,0,0,0,0,0,0,0,0,0,0,0,0,0,0,0,0,0,0,0,0,0,0,0,0,0,0,0,0,0,0,0,0,0,0,0,0,0,0,0,0,0,0,0,0,0,0,0,0,0,0,0,0,0,0,0,0,0,0,0,0,0,0,0,0,0,0,0,0,0,0,0,0],"id":13,"left_children":[1,3,5,7,9,11,13,15,17,19,21,-1,23,25,27,29,31,33,-1,35,37,39,41,43,-1,45,47,49,51,53,-1,55,57,59,61,63,65,67,69,71,73,75,77,-1,-1,79,81,83,-1,85,87,89,91,-1,-1,-1,-1,-1,-1,-1,-1,-1,-1,-1,-1,-1,-1,-1,-1,-1,-1,-1,-1,-1,-1,-1,-1,-1,-1,-1,-1,-1,-1,-1,-1,-1,-1,-1,-1,-1,-1,-1,-1],"loss_changes":[7.9468414E1,1.8058247E1,1.5259815E1,3.8283253E0,1.7858568E1,1.5486946E0,2.4858322E0,1.5742539E0,1.0485811E0,1.0652542E1,4.265078E0,0E0,2.8755665E-1,8.487072E-1,2.3330383E0,6.0368276E-1,1.9005691E0,8.8102674E-1,0E0,1.1546913E1,1.4944324E0,4.0771465E0,6.3561606E-1,1.9159317E-1,0E0,5.368099E-1,7.9467964E-1,1.6867714E0,6.2649417E-1,4.6189737E-1,0E0,8.7787956E-1,7.258749E-1,8.688283E-1,2.6257396E-1,1.004615E1,1.7697195E0,1.6675913E-1,1.0260403E0,4.6435676E0,1.749289E-1,3.4736824E-1,5.697508E-1,0E0,0E0,2.0998508E-1,2.9000902E-1,5.30715E-1,0E0,1.1183128E0,5.8998394E-1,1.2110084E-1,3.6118978E-1,0E0,0E0,0E0,0E0,0E0,0E0,0E0,0E0,0E0,0E0,0E0,0E0,0E0,0E0,0E0,0E0,0E0,0E0,0E0,0E0,0E0,0E0,0E0,0E0,0E0,0E0,0E0,0E0,0E0,0E0,0E0,0E0,0E0,0E0,0E0,0E0,0E0,0E0,0E0,0E0],"parents":[2147483647,0,0,1,1,2,2,3,3,4,4,5,5,6,6,7,7,8,8,9,9,10,10,12,12,13,13,14,14,15,15,16,16,17,17,19,19,20,20,21,21,22,22,23,23,25,25,26,26,27,27,28,28,29,29,31,31,32,32,33,33,34,34,35,35,36,36,37,37,38,38,39,39,40,40,41,41,42,42,45,45,46,46,47,47,49,49,50,50,51,51,52,52],"right_children":[2,4,6,8,10,12,14,16,18,20,22,-1,24,26,28,30,32,34,-1,36,38,40,42,44,-1,46,48,50,52,54,-1,56,58,60,62,64,66,68,70,72,74,76,78,-1,-1,80,82,84,-1,86,88,90,92,-1,-1,-1,-1,-1,-1,-1,-1,-1,-1,-1,-1,-1,-1,-1,-1,-1,-1,-1,-1,-1,-1,-1,-1,-1,-1,-1,-1,-1,-1,-1,-1,-1,-1,-1,-1,-1,-1,-1,-1],"split_conditions":[1E0,-6.404605E-1,-2.8907531E-1,1E0,1.3478029E0,-1.4553925E0,-6.404605E-1,-2.8907531E-1,1.2435995E-1,1E0,1E0,3.4279115E-2,3.7820446E-1,4.3270466E-1,1E0,1E0,4.3270466E-1,1E0,3.5247263E-2,1E0,-3.3434194E-1,1E0,-1.4277279E0,1E0,1.1697366E-2,-9.2919886E-2,1E0,7.5205725E-1,1.3860437E0,1E0,-1.0706806E-2,1E0,-8.992955E-2,1E0,-1.2309764E-1,1E0,-1.3818653E-1,-1.1636873E-1,-9.031843E-1,1E0,3.246818E0,1.7995147E0,1.7486755E0,2.4504451E-2,6.752109E-3,-9.757327E-2,1E0,-8.722742E-2,6.820104E-3,3.7820446E-1,-1.3694453E0,1E0,8.8753694E-1,1.8253537E-2,5.171328E-3,-7.701951E-4,1.5541329E-2,1.5870506E-2,5.61562E-3,1.0209819E-2,2.9666612E-2,1.16775995E-2,4.1222118E-2,-1.1952609E-2,9.589129E-3,2.1422705E-2,3.659853E-3,7.452175E-3,2.1907017E-2,1.4092066E-2,6.519614E-5,-3.4863395E-3,5.2660373E-3,1.0632614E-2,1.9550808E-2,7.835606E-4,2.4204776E-2,6.389039E-3,2.0425553E-2,1.1712062E-3,1.0568354E-2,1.2491495E-2,2.115738E-2,2.5431378E-2,7.979995E-3,1.1326656E-2,6.996508E-3,2.3048026E-2,1.3452995E-2,-5.137453E-3,2.2836833E-3,6.1708707E-3,-4.6108915E-3],"split_indices":[197,1,0,43,5,1,1,0,0,494,251,0,1,4,18,34,4,158,0,306,0,158,2,20,0,0,45,0,6,311,0,158,3,218,0,360,0,2,2,494,5,7,2,0,0,4,43,2,0,1,2,45,1,0,0,0,0,0,0,0,0,0,0,0,0,0,0,0,0,0,0,0,0,0,0,0,0,0,0,0,0,0,0,0,0,0,0,0,0,0,0,0,0],"split_type":[0,0,0,0,0,0,0,0,0,0,0,0,0,0,0,0,0,0,0,0,0,0,0,0,0,0,0,0,0,0,0,0,0,0,0,0,0,0,0,0,0,0,0,0,0,0,0,0,0,0,0,0,0,0,0,0,0,0,0,0,0,0,0,0,0,0,0,0,0,0,0,0,0,0,0,0,0,0,0,0,0,0,0,0,0,0,0,0,0,0,0,0,0],"sum_hessian":[1.1405E4,8.655E3,2.75E3,1.065E3,7.59E3,2.86E2,2.464E3,8.54E2,2.11E2,4.318E3,3.272E3,1.73E2,1.13E2,3.53E2,2.111E3,9.6E1,7.58E2,1.96E2,1.5E1,3.793E3,5.25E2,3.015E3,2.57E2,9E1,2.3E1,2.07E2,1.46E2,1.871E3,2.4E2,9.1E1,5E0,5.44E2,2.14E2,1.83E2,1.3E1,3.549E3,2.44E2,3.3E1,4.92E2,2.883E3,1.32E2,2.8E1,2.29E2,8.4E1,6E0,6E1,1.47E2,1.22E2,2.4E1,1.611E3,2.6E2,9.1E1,1.49E2,6.5E1,2.6E1,5.24E2,2E1,6.3E1,1.51E2,1.68E2,1.5E1,5E0,8E0,3.406E3,1.43E2,4.2E1,2.02E2,1E1,2.3E1,3.4E1,4.58E2,2.423E3,4.6E2,1.13E2,1.9E1,5E0,2.3E1,2.1E2,1.9E1,3.1E1,2.9E1,1.06E2,4.1E1,1.07E2,1.5E1,6.56E2,9.55E2,5.8E1,2.02E2,7.5E1,1.6E1,1.27E2,2.2E1],"tree_param":{"num_deleted":"0","num_feature":"525","num_nodes":"93","size_leaf_vector":"1"}},{"base_weights":[9.5473835E-4,-4.17237E-2,1.3524865E-1,7.7314235E-2,-5.819075E-2,3.4041712E-1,1.117219E-1,4.6072718E-2,1.9394696E-1,2.1343172E-2,-8.319217E-2,3.6065212E-1,9.137291E-3,9.8661914E-2,2.0241633E-1,1.2220607E-2,1.415884E-1,2.0663886E-1,-6.8738884E-3,2.752639E-2,-1.8514174E-1,-1.0259896E-1,3.3947628E-2,3.684975E-1,-1.9859804E-3,8.5873485E-2,1.8003193E-1,3.1426737E-1,1.8288663E-1,1.2348479E-1,-8.581445E-3,1.1400197E-1,3.2727054E-1,1.8531114E-1,3.9285383E-1,1.8024381E-2,1.4760572E-1,-2.1854257E-2,-8.702501E-2,-1.16589494E-1,6.615882E-2,1.6508732E-2,2.5745181E-2,4.0619728E-1,2.2902535E-2,2.3916565E-2,1.03329845E-1,2.713287E-1,1.4975911E-1,1.6007996E-1,3.1502392E-2,1.9261916E-1,3.4742432E-3,1.42940255E-2,-9.3486055E-4,1.9535591E-5,-1.9306026E-2,1.552581E-2,5.5183736E-3,2.8997736E-2,9.850597E-3,1.5549836E-2,-5.9175286E-3,1.6811293E-2,3.8371097E-2,5.063964E-4,8.774254E-3,4.458268E-2,9.484792E-3,-1.0372317E-2,1.2510339E-3,-1.0221623E-2,1.1170296E-2,4.0524183E-3,1.7286826E-2,1.4103223E-3,1.5127159E-2,5.1325515E-2,3.0912725E-2,1.075884E-3,9.259489E-3,1.2453235E-2,7.1027484E-3,2.5452139E-2,7.033709E-3,9.863902E-3,2.1461966E-2,2.2674449E-2,4.0932954E-3,2.0242257E-2,1.3554983E-2],"categories":[],"categories_nodes":[],"categories_segments":[],"categories_sizes":[],"default_left":[0,0,0,0,0,0,0,0,0,0,0,0,0,0,0,0,0,0,0,0,0,0,0,0,0,0,0,0,0,0,0,0,0,0,0,0,0,0,0,0,0,0,0,0,0,0,0,0,0,0,0,0,0,0,0,0,0,0,0,0,0,0,0,0,0,0,0,0,0,0,0,0,0,0,0,0,0,0,0,0,0,0,0,0,0,0,0,0,0,0,0],"id":14,"left_children":[1,3,5,7,9,11,13,15,17,19,21,23,-1,25,27,29,31,33,-1,35,37,39,41,43,-1,45,47,49,51,53,55,57,59,61,63,65,67,-1,69,71,73,-1,75,77,-1,79,81,83,85,87,-1,89,-1,-1,-1,-1,-1,-1,-1,-1,-1,-1,-1,-1,-1,-1,-1,-1,-1,-1,-1,-1,-1,-1,-1,-1,-1,-1,-1,-1,-1,-1,-1,-1,-1,-1,-1,-1,-1,-1,-1],"loss_changes":[6.5143524E1,1.6915758E1,1.3154594E1,3.8044572E0,1.5072105E1,1.203804E0,2.8762207E0,2.6802673E0,8.205223E-1,2.3262014E0,1.3114857E1,7.9551697E-1,0E0,2.2126026E0,5.5784893E-1,1.4255513E0,1.036922E0,6.9636536E-1,0E0,2.0062528E0,4.1025925E-1,1.1695351E1,1.1504292E0,5.485039E-1,0E0,2.0142965E0,7.230005E-1,4.0110016E-1,3.4566402E-1,7.278091E-1,1.0682571E0,6.653793E-1,1.0475516E-1,4.8456764E-1,1.1555052E-1,1.752139E0,1.4028823E0,0E0,1.2659465E-1,1.3124599E1,8.6137974E-1,0E0,1.0353549E0,2.8665733E-1,0E0,3.9388174E-1,1.0807343E0,5.451937E-1,6.33163E-1,2.1281835E-1,0E0,2.6295376E-1,0E0,0E0,0E0,0E0,0E0,0E0,0E0,0E0,0E0,0E0,0E0,0E0,0E0,0E0,0E0,0E0,0E0,0E0,0E0,0E0,0E0,0E0,0E0,0E0,0E0,0E0,0E0,0E0,0E0,0E0,0E0,0E0,0E0,0E0,0E0,0E0,0E0,0E0,0E0],"parents":[2147483647,0,0,1,1,2,2,3,3,4,4,5,5,6,6,7,7,8,8,9,9,10,10,11,11,13,13,14,14,15,15,16,16,17,17,19,19,20,20,21,21,22,22,23,23,25,25,26,26,27,27,28,28,29,29,30,30,31,31,32,32,33,33,34,34,35,35,36,36,38,38,39,39,40,40,42,42,43,43,45,45,46,46,47,47,48,48,49,49,51,51],"right_children":[2,4,6,8,10,12,14,16,18,20,22,24,-1,26,28,30,32,34,-1,36,38,40,42,44,-1,46,48,50,52,54,56,58,60,62,64,66,68,-1,70,72,74,-1,76,78,-1,80,82,84,86,88,-1,90,-1,-1,-1,-1,-1,-1,-1,-1,-1,-1,-1,-1,-1,-1,-1,-1,-1,-1,-1,-1,-1,-1,-1,-1,-1,-1,-1,-1,-1,-1,-1,-1,-1,-1,-1,-1,-1,-1,-1],"split_conditions":[1E0,-6.404605E-1,-2.8907531E-1,1E0,-9.031843E-1,3.7820446E-1,3.246818E0,9.629826E-1,1E0,1E0,1E0,1E0,9.137291E-3,1E0,6.311535E-4,-2.6251888E-1,1E0,9.774317E-2,-6.8738884E-3,1E0,2.0235386E0,1E0,-3.3434194E-1,-1.4553925E0,-1.9859804E-3,1.3860437E0,-6.404605E-1,-1.165456E0,1E0,1E0,1E0,-1.340304E0,-8.992955E-2,2.0235386E0,1.7995147E0,1E0,-8.900009E-1,-2.1854257E-2,2.8430206E-1,1E0,1.7486755E0,1.6508732E-2,7.0075506E-1,-1.3111627E0,2.2902535E-2,1E0,-1.340304E0,-2.8944783E-2,6.494529E-1,-1.4277279E0,3.1502392E-2,-1.3985866E0,3.4742432E-3,1.42940255E-2,-9.3486055E-4,1.9535591E-5,-1.9306026E-2,1.552581E-2,5.5183736E-3,2.8997736E-2,9.850597E-3,1.5549836E-2,-5.9175286E-3,1.6811293E-2,3.8371097E-2,5.063964E-4,8.774254E-3,4.458268E-2,9.484792E-3,-1.0372317E-2,1.2510339E-3,-1.0221623E-2,1.1170296E-2,4.0524183E-3,1.7286826E-2,1.4103223E-3,1.5127159E-2,5.1325515E-2,3.0912725E-2,1.075884E-3,9.259489E-3,1.2453235E-2,7.1027484E-3,2.5452139E-2,7.033709E-3,9.863902E-3,2.1461966E-2,2.2674449E-2,4.0932954E-3,2.0242257E-2,1.3554983E-2],"split_indices":[197,1,0,43,2,1,5,4,23,292,494,29,0,31,0,0,218,0,0,306,4,251,0,1,0,6,1,2,45,18,292,2,3,4,7,494,3,0,0,158,2,0,0,2,0,35,2,2,0,2,0,2,0,0,0,0,0,0,0,0,0,0,0,0,0,0,0,0,0,0,0,0,0,0,0,0,0,0,0,0,0,0,0,0,0,0,0,0,0,0,0],"split_type":[0,0,0,0,0,0,0,0,0,0,0,0,0,0,0,0,0,0,0,0,0,0,0,0,0,0,0,0,0,0,0,0,0,0,0,0,0,0,0,0,0,0,0,0,0,0,0,0,0,0,0,0,0,0,0,0,0,0,0,0,0,0,0,0,0,0,0,0,0,0,0,0,0,0,0,0,0,0,0,0,0,0,0,0,0,0,0,0,0,0,0],"sum_hessian":[1.1362E4,8.623E3,2.739E3,1.047E3,7.576E3,2.79E2,2.46E3,8.28E2,2.19E2,1.812E3,5.764E3,2.55E2,2.4E1,2.154E3,3.06E2,6.13E2,2.15E2,2.1E2,9E0,1.761E3,5.1E1,4.945E3,8.19E2,2.5E2,5E0,1.865E3,2.89E2,4.1E1,2.65E2,9.5E1,5.18E2,1.9E2,2.5E1,1.92E2,1.8E1,1.634E3,1.27E2,2.5E1,2.6E1,4.567E3,3.78E2,3.5E1,7.84E2,1.66E2,8.4E1,4.11E2,1.454E3,6.8E1,2.21E2,1.6E1,2.5E1,2.47E2,1.8E1,6.7E1,2.8E1,5.01E2,1.7E1,6.6E1,1.24E2,2E1,5E0,1.86E2,6E0,8E0,1E1,1.451E3,1.83E2,6E0,1.21E2,1.8E1,8E0,4.377E3,1.9E2,3.45E2,3.3E1,7.49E2,3.5E1,8E0,1.58E2,3.71E2,4E1,3.12E2,1.142E3,5.3E1,1.5E1,1.84E2,3.7E1,6E0,1E1,6.3E1,1.84E2],"tree_param":{"num_deleted":"0","num_feature":"525","num_nodes":"91","size_leaf_vector":"1"}},{"base_weights":[3.957503E-4,-4.0518377E-2,1.2794086E-1,-8.38122E-2,-3.7600152E-4,3.1517753E-1,1.0500936E-1,2.906723E-1,-8.887265E-2,-6.554271E-2,2.45527E-2,3.6402154E-1,2.37145E-1,1.9717641E-1,9.1496125E-2,2.6466303E-2,-6.7956415E-3,-4.9678737E-4,-1.1153352E-1,-6.0623E-2,-3.4844205E-2,6.3753605E-2,-9.374678E-3,3.005385E-1,3.4000203E-2,2.4757318E-1,4.095777E-3,2.1943514E-1,9.098054E-2,1.0387149E-1,-1.9639155E-3,-1.1474315E-2,1.7362668E-1,-1.0448078E-1,-3.2750577E-2,-5.304899E-2,-2.2663785E-2,7.049855E-2,-1.9409414E-1,-4.897097E-2,4.341017E-2,8.947446E-3,2.5590308E-2,2.1646703E-2,1.3919703E-2,1.7678602E-1,2.658906E-1,4.507021E-2,1.6757776E-1,9.580211E-2,1.9039196E-1,-3.6205507E-3,2.3874922E-2,2.2343094E-3,-3.5357517E-3,6.8078917E-3,3.5182584E-2,-7.6933955E-3,-2.743322E-2,-3.7757768E-3,-2.5794746E-2,5.8539947E-3,-3.5005987E-2,-8.756754E-3,-1.9963425E-2,-5.680381E-3,2.5546819E-3,3.962359E-3,-1.5753115E-2,-8.767204E-3,1.5114094E-2,2.2213155E-2,-2.804865E-4,-4.505141E-3,7.1137813E-3,3.7643192E-3,2.1487162E-2,5.258971E-3,9.392097E-3,8.315069E-3,2.0923026E-2,4.2930176E-3,-3.10798E-3],"categories":[],"categories_nodes":[],"categories_segments":[],"categories_sizes":[],"default_left":[0,0,0,0,0,0,0,0,0,0,0,0,0,0,0,0,0,0,0,0,0,0,0,0,0,0,0,0,0,0,0,0,0,0,0,0,0,0,0,0,0,0,0,0,0,0,0,0,0,0,0,0,0,0,0,0,0,0,0,0,0,0,0,0,0,0,0,0,0,0,0,0,0,0,0,0,0,0,0,0,0,0,0],"id":15,"left_children":[1,3,5,7,9,11,13,15,17,19,21,23,25,27,29,-1,-1,31,33,35,-1,37,39,41,-1,43,-1,45,47,49,51,53,55,57,-1,59,-1,61,63,65,67,-1,-1,-1,-1,69,71,73,75,77,79,-1,81,-1,-1,-1,-1,-1,-1,-1,-1,-1,-1,-1,-1,-1,-1,-1,-1,-1,-1,-1,-1,-1,-1,-1,-1,-1,-1,-1,-1,-1,-1],"loss_changes":[5.9667084E1,1.5045084E1,1.1857189E1,7.9445915E0,7.3038177E0,9.7839737E-1,3.0489616E0,9.008808E-1,8.232876E0,2.2116957E0,4.3263035E0,4.4910812E-1,2.1122026E-1,7.0466423E-1,2.503294E0,0E0,0E0,1.6115099E0,6.787781E0,2.044383E0,0E0,2.6517706E0,3.651449E0,2.7879333E-1,0E0,1.0053921E-1,0E0,4.1914082E-1,1.8885747E-1,1.2977161E0,2.8741422E-1,1.0249422E0,1.103262E0,6.275055E0,0E0,1.8486135E0,0E0,2.06567E0,1.2839282E-1,1.783602E0,1.1209995E0,0E0,0E0,0E0,0E0,5.316162E-1,3.825674E-1,1.8340601E-1,2.3038429E-1,1.1222725E0,9.3591356E-1,0E0,3.0498677E-1,0E0,0E0,0E0,0E0,0E0,0E0,0E0,0E0,0E0,0E0,0E0,0E0,0E0,0E0,0E0,0E0,0E0,0E0,0E0,0E0,0E0,0E0,0E0,0E0,0E0,0E0,0E0,0E0,0E0,0E0],"parents":[2147483647,0,0,1,1,2,2,3,3,4,4,5,5,6,6,7,7,8,8,9,9,10,10,11,11,12,12,13,13,14,14,17,17,18,18,19,19,21,21,22,22,23,23,25,25,27,27,28,28,29,29,30,30,31,31,32,32,33,33,35,35,37,37,38,38,39,39,40,40,45,45,46,46,47,47,48,48,49,49,50,50,52,52],"right_children":[2,4,6,8,10,12,14,16,18,20,22,24,26,28,30,-1,-1,32,34,36,-1,38,40,42,-1,44,-1,46,48,50,52,54,56,58,-1,60,-1,62,64,66,68,-1,-1,-1,-1,70,72,74,76,78,80,-1,82,-1,-1,-1,-1,-1,-1,-1,-1,-1,-1,-1,-1,-1,-1,-1,-1,-1,-1,-1,-1,-1,-1,-1,-1,-1,-1,-1,-1,-1,-1],"split_conditions":[1E0,1.3860437E0,-2.8907531E-1,-3.3434194E-1,-6.278512E-1,-1.4553925E0,-1.4553925E0,1E0,-9.906082E-1,1E0,3.7820446E-1,1E0,4.3270466E-1,1E0,1E0,2.6466303E-2,-6.7956415E-3,1E0,1E0,1E0,-3.4844205E-2,1E0,2.9939094E-1,1E0,3.4000203E-2,-4.3672752E-1,4.095777E-3,4.3270466E-1,1.7504443E-1,1.8652408E0,1.3860437E0,-1.4277279E0,-1.1945975E0,1E0,-3.2750577E-2,1E0,-2.2663785E-2,1E0,-8.084878E-2,1.7995147E0,1E0,8.947446E-3,2.5590308E-2,2.1646703E-2,1.3919703E-2,-2.2871979E-1,1E0,-6.278512E-1,-8.084878E-2,1.7995147E0,2.8430206E-1,-3.6205507E-3,1.9376878E-1,2.2343094E-3,-3.5357517E-3,6.8078917E-3,3.5182584E-2,-7.6933955E-3,-2.743322E-2,-3.7757768E-3,-2.5794746E-2,5.8539947E-3,-3.5005987E-2,-8.756754E-3,-1.9963425E-2,-5.680381E-3,2.5546819E-3,3.962359E-3,-1.5753115E-2,-8.767204E-3,1.5114094E-2,2.2213155E-2,-2.804865E-4,-4.505141E-3,7.1137813E-3,3.7643192E-3,2.1487162E-2,5.258971E-3,9.392097E-3,8.315069E-3,2.0923026E-2,4.2930176E-3,-3.10798E-3],"split_indices":[197,6,0,0,4,1,1,29,2,428,1,20,4,18,18,0,0,306,246,292,0,292,0,43,0,1,0,4,2,2,6,2,2,267,0,282,0,480,0,7,211,0,0,0,0,0,29,4,0,7,0,0,0,0,0,0,0,0,0,0,0,0,0,0,0,0,0,0,0,0,0,0,0,0,0,0,0,0,0,0,0,0,0],"split_type":[0,0,0,0,0,0,0,0,0,0,0,0,0,0,0,0,0,0,0,0,0,0,0,0,0,0,0,0,0,0,0,0,0,0,0,0,0,0,0,0,0,0,0,0,0,0,0,0,0,0,0,0,0,0,0,0,0,0,0,0,0,0,0,0,0,0,0,0,0,0,0,0,0,0,0,0,0,0,0,0,0,0,0],"sum_hessian":[1.143E4,8.655E3,2.775E3,4.163E3,4.492E3,3E2,2.475E3,5.4E1,4.109E3,1.242E3,3.25E3,1.8E2,1.2E2,3.13E2,2.162E3,4.9E1,5E0,8.39E2,3.27E3,1.228E3,1.4E1,1.507E3,1.743E3,9.4E1,8.6E1,1.13E2,7E0,2.57E2,5.6E1,1.909E3,2.53E2,7.91E2,4.8E1,3.197E3,7.3E1,1.19E3,3.8E1,1.47E3,3.7E1,9.96E2,7.47E2,1E1,8.4E1,8.2E1,3.1E1,1.39E2,1.18E2,3.7E1,1.9E1,1.75E3,1.59E2,9.4E1,1.59E2,3.59E2,4.32E2,3.8E1,1E1,3.092E3,1.05E2,1.167E3,2.3E1,1.464E3,6E0,1.7E1,2E1,7.83E2,2.13E2,7.3E2,1.7E1,5E0,1.34E2,1.13E2,5E0,1.1E1,2.6E1,1E1,9E0,7.35E2,1.015E3,7.4E1,8.5E1,1.08E2,5.1E1],"tree_param":{"num_deleted":"0","num_feature":"525","num_nodes":"83","size_leaf_vector":"1"}},{"base_weights":[-9.628236E-5,-3.7273012E-2,1.1692061E-1,-5.9975717E-2,3.2027412E-2,2.8637877E-1,9.7792044E-2,-5.6059502E-2,-3.956526E-2,4.148615E-2,-1.3059655E-1,2.9535434E-1,-3.8020196E-3,1.7654324E-1,8.6973384E-2,-5.0471596E-2,-3.58472E-1,2.972725E-2,3.7650384E-2,-8.637592E-2,-2.2273491E-1,3.362246E-1,2.2104527E-1,2.0304765E-1,8.131376E-2,3.218834E-2,1.0307137E-1,-4.5728672E-2,-4.1653854E-1,-1.5255775E-2,-3.0062126E-2,2.7560622E-2,1.4530618E-1,-7.4139505E-4,-1.10560596E-1,-1.0966779E-2,-2.4589777E-2,4.90066E-2,3.114498E-1,2.3201908E-1,4.4871457E-3,2.1356001E-1,8.376563E-2,4.8396334E-2,1.4579667E-2,1.3187977E-2,1.1046433E-1,1.7206614E-1,8.988608E-2,-3.1683168E-3,-2.7131509E-2,-1.5023645E-2,-3.4648065E-2,1.443399E-3,1.1044024E-2,2.628136E-2,9.55661E-3,-1.3828003E-2,-3.7810975E-3,2.7604941E-2,1.7435517E-2,1.49667375E-2,2.2566041E-2,1.9902911E-2,1.2693509E-2,-9.337142E-3,1.2516912E-2,5.5942647E-3,-9.2924E-3,-2.5023802E-4,9.322977E-3,5.333377E-4,1.48976715E-2,-1.2386976E-3,1.5387527E-2,5.819742E-3,1.1897234E-2],"categories":[],"categories_nodes":[],"categories_segments":[],"categories_sizes":[],"default_left":[0,0,0,0,0,0,0,0,0,0,0,0,0,0,0,0,0,0,0,0,0,0,0,0,0,0,0,0,0,0,0,0,0,0,0,0,0,0,0,0,0,0,0,0,0,0,0,0,0,0,0,0,0,0,0,0,0,0,0,0,0,0,0,0,0,0,0,0,0,0,0,0,0,0,0,0,0],"id":16,"left_children":[1,3,5,7,9,11,13,15,-1,17,19,21,-1,23,25,27,29,-1,31,33,35,37,39,41,43,45,47,49,51,-1,-1,53,55,-1,57,-1,-1,-1,59,61,-1,63,65,67,-1,69,71,73,75,-1,-1,-1,-1,-1,-1,-1,-1,-1,-1,-1,-1,-1,-1,-1,-1,-1,-1,-1,-1,-1,-1,-1,-1,-1,-1,-1,-1],"loss_changes":[4.9637E1,1.3627108E1,8.861332E0,1.1046366E1,3.2995455E0,8.6123466E-1,2.0779495E0,1.0892094E1,0E0,2.532285E0,4.4230318E-1,6.743946E-1,0E0,7.166071E-1,1.915968E0,1.0990423E1,1.963644E-1,0E0,2.1655197E0,1.5273279E-1,1.839484E-1,7.892113E-1,1.5861273E-1,2.5388145E-1,2.0828477E-1,7.37748E-1,1.5010281E0,1.12462435E1,1.4420033E-1,0E0,0E0,1.921651E0,7.3132277E-1,0E0,2.3205274E-1,0E0,0E0,0E0,3.556013E-1,1.08138084E-1,0E0,3.290434E-1,3.5715148E-1,2.0757326E-1,0E0,6.802842E-1,7.6026213E-1,1.0251942E0,1.408124E0,0E0,0E0,0E0,0E0,0E0,0E0,0E0,0E0,0E0,0E0,0E0,0E0,0E0,0E0,0E0,0E0,0E0,0E0,0E0,0E0,0E0,0E0,0E0,0E0,0E0,0E0,0E0,0E0],"parents":[2147483647,0,0,1,1,2,2,3,3,4,4,5,5,6,6,7,7,9,9,10,10,11,11,13,13,14,14,15,15,16,16,18,18,19,19,20,20,21,21,22,22,23,23,24,24,25,25,26,26,27,27,28,28,31,31,32,32,34,34,38,38,39,39,41,41,42,42,43,43,45,45,46,46,47,47,48,48],"right_children":[2,4,6,8,10,12,14,16,-1,18,20,22,-1,24,26,28,30,-1,32,34,36,38,40,42,44,46,48,50,52,-1,-1,54,56,-1,58,-1,-1,-1,60,62,-1,64,66,68,-1,70,72,74,76,-1,-1,-1,-1,-1,-1,-1,-1,-1,-1,-1,-1,-1,-1,-1,-1,-1,-1,-1,-1,-1,-1,-1,-1,-1,-1,-1,-1],"split_conditions":[1E0,1.7995147E0,-2.8907531E-1,1E0,1E0,1E0,-1.4553925E0,1E0,-3.956526E-2,-3.3434194E-1,1E0,-1.4553925E0,-3.8020196E-3,1E0,1.3860437E0,1E0,-6.117711E-1,2.972725E-2,1E0,-1.3694453E0,1.424666E-1,-1.3111627E0,4.3270466E-1,4.0817496E-1,-1.74755E-2,1E0,-1.3985866E0,1E0,-1.1945975E0,-1.5255775E-2,-3.0062126E-2,1E0,-1.4553925E0,-7.4139505E-4,-1.1636873E-1,-1.0966779E-2,-2.4589777E-2,4.90066E-2,-8.992955E-2,1.7995147E0,4.4871457E-3,-1.74755E-2,-1.8345316E-1,-5.3688806E-2,1.4579667E-2,1E0,-9.323256E-1,-1.2309764E-1,3.20751E-1,-3.1683168E-3,-2.7131509E-2,-1.5023645E-2,-3.4648065E-2,1.443399E-3,1.1044024E-2,2.628136E-2,9.55661E-3,-1.3828003E-2,-3.7810975E-3,2.7604941E-2,1.7435517E-2,1.49667375E-2,2.2566041E-2,1.9902911E-2,1.2693509E-2,-9.337142E-3,1.2516912E-2,5.5942647E-3,-9.2924E-3,-2.5023802E-4,9.322977E-3,5.333377E-4,1.48976715E-2,-1.2386976E-3,1.5387527E-2,5.819742E-3,1.1897234E-2],"split_indices":[197,7,0,477,266,29,1,489,0,0,16,1,0,18,6,428,2,0,360,2,0,2,4,2,0,31,2,246,2,0,0,251,1,0,2,0,0,0,3,7,0,0,0,0,0,35,2,0,2,0,0,0,0,0,0,0,0,0,0,0,0,0,0,0,0,0,0,0,0,0,0,0,0,0,0,0,0],"split_type":[0,0,0,0,0,0,0,0,0,0,0,0,0,0,0,0,0,0,0,0,0,0,0,0,0,0,0,0,0,0,0,0,0,0,0,0,0,0,0,0,0,0,0,0,0,0,0,0,0,0,0,0,0,0,0,0,0,0,0,0,0,0,0,0,0,0,0,0,0,0,0,0,0,0,0,0,0],"sum_hessian":[1.1406E4,8.657E3,2.749E3,6.521E3,2.136E3,2.76E2,2.473E3,6.465E3,5.6E1,2.02E3,1.16E2,2.69E2,7E0,2.95E2,2.178E3,6.35E3,1.15E2,2.1E1,1.999E3,8.1E1,3.5E1,1.69E2,1E2,2.29E2,6.6E1,4.96E2,1.682E3,6.271E3,7.9E1,1.3E1,1.02E2,1.83E3,1.69E2,2E1,6.1E1,2E1,1.5E1,1E1,1.59E2,9.3E1,7E0,2.09E2,2E1,5.2E1,1.4E1,4.01E2,9.5E1,2.66E2,1.416E3,6.145E3,1.26E2,7E0,7.2E1,1.687E3,1.43E2,1.8E1,1.51E2,2.9E1,3.2E1,1.13E2,4.6E1,5.4E1,3.9E1,1.23E2,8.6E1,5E0,1.5E1,4.7E1,5E0,3.48E2,5.3E1,4.1E1,5.4E1,2.6E1,2.4E2,1.1E3,3.16E2],"tree_param":{"num_deleted":"0","num_feature":"525","num_nodes":"77","size_leaf_vector":"1"}},{"base_weights":[1.9916806E-3,-3.1937055E-2,1.0770361E-1,1.4657958E-2,-6.4327575E-2,2.8727478E-1,8.675973E-2,2.2412203E-1,7.012307E-3,-1.1741574E-1,-1.6523879E-2,2.4680947E-1,3.6767823E-1,1.2000998E-1,6.1527804E-2,1.9561498E-1,3.0442817E-2,9.757617E-3,-3.8614385E-2,-1.321417E-1,-7.643195E-3,-4.144709E-2,4.9880795E-2,2.5690535E-1,-8.049845E-3,3.9081213E-1,5.3988183E-3,1.01302706E-1,1.8514071E-1,2.8822405E-2,1.0527467E-1,2.1177834E-1,3.493881E-3,1.943896E-2,-1.3171561E-1,-1.4541644E-1,3.4204952E-2,-3.859354E-3,2.2713957E-2,-4.8769917E-2,1.2454003E-2,-2.9894786E-2,6.554159E-2,2.0230658E-1,3.194967E-1,4.6221536E-2,3.5638103E-1,-1.294063E-1,1.0499907E-1,1.6995484E-1,2.5896467E-2,3.2491516E-2,-1.8417238E-1,8.37156E-2,2.3268221E-1,1.8276738E-2,4.332435E-3,2.0894764E-3,-1.5969727E-2,-1.2588098E-2,-2.5836218E-3,-1.2636221E-2,4.828423E-3,7.5194454E-3,1.5905172E-3,3.5249693E-3,-1.0229586E-2,-5.0012493E-3,4.670049E-3,1.0385913E-2,-5.127441E-3,3.708412E-3,8.840352E-3,1.9283213E-2,1.2371647E-2,3.1755168E-2,2.0287521E-2,3.1652667E-2,1.8380772E-2,-1.757724E-2,-5.3964136E-4,1.1406715E-2,6.912368E-3,1.41819315E-2,-5.1732706E-3,2.0566639E-3,8.450465E-3,1.8347249E-3,-2.4346236E-2,-1.5326163E-3,7.905736E-3,2.073291E-2,8.962252E-3],"categories":[],"categories_nodes":[],"categories_segments":[],"categories_sizes":[],"default_left":[0,0,0,0,0,0,0,0,0,0,0,0,0,0,0,0,0,0,0,0,0,0,0,0,0,0,0,0,0,0,0,0,0,0,0,0,0,0,0,0,0,0,0,0,0,0,0,0,0,0,0,0,0,0,0,0,0,0,0,0,0,0,0,0,0,0,0,0,0,0,0,0,0,0,0,0,0,0,0,0,0,0,0,0,0,0,0,0,0,0,0,0,0],"id":17,"left_children":[1,3,5,7,9,11,13,15,17,19,21,23,25,27,29,31,-1,33,-1,35,37,39,41,43,-1,45,-1,47,49,51,53,55,-1,57,59,61,63,-1,65,67,-1,69,71,73,75,-1,77,79,81,83,-1,85,87,89,91,-1,-1,-1,-1,-1,-1,-1,-1,-1,-1,-1,-1,-1,-1,-1,-1,-1,-1,-1,-1,-1,-1,-1,-1,-1,-1,-1,-1,-1,-1,-1,-1,-1,-1,-1,-1,-1,-1],"loss_changes":[4.068333E1,1.2961701E1,1.0315239E1,5.638903E0,1.2852669E1,7.522774E-1,2.058321E0,4.0402365E-1,4.581575E0,3.8775902E0,4.419722E0,7.4270535E-1,5.8615685E-1,1.2588863E0,2.0098705E0,2.4919367E-1,0E0,4.6400194E0,0E0,4.682518E0,3.5467562E-1,2.817001E0,9.146941E-1,5.268698E-1,0E0,1.353445E-1,0E0,7.358389E-1,3.844633E-1,6.4420295E-1,1.6146073E0,2.3292589E-1,0E0,4.647354E0,5.429051E-1,5.0751305E0,1.3156971E-1,0E0,5.416918E-1,2.7658348E0,0E0,6.775553E-1,5.1598763E-1,1.24825E-1,2.375946E-1,0E0,2.0113564E-1,1.5211937E-1,5.4773617E-1,3.9385653E-1,0E0,3.8997632E-1,3.6234888E-1,8.087654E-1,2.1668768E-1,0E0,0E0,0E0,0E0,0E0,0E0,0E0,0E0,0E0,0E0,0E0,0E0,0E0,0E0,0E0,0E0,0E0,0E0,0E0,0E0,0E0,0E0,0E0,0E0,0E0,0E0,0E0,0E0,0E0,0E0,0E0,0E0,0E0,0E0,0E0,0E0,0E0,0E0],"parents":[2147483647,0,0,1,1,2,2,3,3,4,4,5,5,6,6,7,7,8,8,9,9,10,10,11,11,12,12,13,13,14,14,15,15,17,17,19,19,20,20,21,21,22,22,23,23,25,25,27,27,28,28,29,29,30,30,31,31,33,33,34,34,35,35,36,36,38,38,39,39,41,41,42,42,43,43,44,44,46,46,47,47,48,48,49,49,51,51,52,52,53,53,54,54],"right_children":[2,4,6,8,10,12,14,16,18,20,22,24,26,28,30,32,-1,34,-1,36,38,40,42,44,-1,46,-1,48,50,52,54,56,-1,58,60,62,64,-1,66,68,-1,70,72,74,76,-1,78,80,82,84,-1,86,88,90,92,-1,-1,-1,-1,-1,-1,-1,-1,-1,-1,-1,-1,-1,-1,-1,-1,-1,-1,-1,-1,-1,-1,-1,-1,-1,-1,-1,-1,-1,-1,-1,-1,-1,-1,-1,-1,-1,-1],"split_conditions":[1E0,3.7820446E-1,-2.8907531E-1,-3.3434194E-1,7.1014184E-1,1E0,-4.3672752E-1,1.7995147E0,1E0,1E0,3.748353E-1,-3.3434194E-1,-1.4553925E0,1E0,4.502797E-1,1E0,3.0442817E-2,1E0,-3.8614385E-2,1E0,-8.992955E-2,1E0,-6.278512E-1,1.7995147E0,-8.049845E-3,-3.3434194E-1,5.3988183E-3,-5.512124E-1,1.7504443E-1,2.4155345E0,1.2241318E0,1E0,3.493881E-3,1E0,2.6246837E-1,1E0,6.311535E-4,-3.859354E-3,1E0,1E0,1.2454003E-2,-9.031843E-1,6.2229294E-1,-8.900009E-1,-8.992955E-2,4.6221536E-2,-8.992955E-2,1.4590311E-1,-6.404605E-1,-8.722742E-2,2.5896467E-2,3.246818E0,6.311535E-4,-6.278512E-1,1E0,1.8276738E-2,4.332435E-3,2.0894764E-3,-1.5969727E-2,-1.2588098E-2,-2.5836218E-3,-1.2636221E-2,4.828423E-3,7.5194454E-3,1.5905172E-3,3.5249693E-3,-1.0229586E-2,-5.0012493E-3,4.670049E-3,1.0385913E-2,-5.127441E-3,3.708412E-3,8.840352E-3,1.9283213E-2,1.2371647E-2,3.1755168E-2,2.0287521E-2,3.1652667E-2,1.8380772E-2,-1.757724E-2,-5.3964136E-4,1.1406715E-2,6.912368E-3,1.41819315E-2,-5.1732706E-3,2.0566639E-3,8.450465E-3,1.8347249E-3,-2.4346236E-2,-1.5326163E-3,7.905736E-3,2.073291E-2,8.962252E-3],"split_indices":[197,1,0,0,3,20,1,7,480,494,0,0,1,43,0,29,0,266,0,359,3,158,4,7,0,0,0,5,2,1,2,211,0,292,2,306,0,0,29,494,0,2,0,3,3,0,3,2,1,2,0,5,0,4,9,0,0,0,0,0,0,0,0,0,0,0,0,0,0,0,0,0,0,0,0,0,0,0,0,0,0,0,0,0,0,0,0,0,0,0,0,0,0],"split_type":[0,0,0,0,0,0,0,0,0,0,0,0,0,0,0,0,0,0,0,0,0,0,0,0,0,0,0,0,0,0,0,0,0,0,0,0,0,0,0,0,0,0,0,0,0,0,0,0,0,0,0,0,0,0,0,0,0,0,0,0,0,0,0,0,0,0,0,0,0,0,0,0,0,0,0,0,0,0,0,0,0,0,0,0,0,0,0,0,0,0,0,0,0],"sum_hessian":[1.1339E4,8.585E3,2.754E3,3.521E3,5.064E3,2.85E2,2.469E3,1.22E2,3.399E3,2.398E3,2.666E3,1.95E2,9E1,1.062E3,1.407E3,1.07E2,1.5E1,3.382E3,1.7E1,2.114E3,2.84E2,1.939E3,7.27E2,1.9E2,5E0,8.3E1,7E0,8.29E2,2.33E2,8.07E2,6E2,9.6E1,1.1E1,3.167E3,2.15E2,1.958E3,1.56E2,1.21E2,1.63E2,1.871E3,6.8E1,1.19E2,6.08E2,1.06E2,8.4E1,8E0,7.5E1,1.2E1,8.17E2,2.14E2,1.9E1,7.95E2,1.2E1,5.16E2,8.4E1,8.6E1,1E1,3.075E3,9.2E1,1.7E2,4.5E1,1.846E3,1.12E2,2.8E1,1.28E2,1.44E2,1.9E1,1.659E3,2.12E2,2E1,9.9E1,4.29E2,1.79E2,5.4E1,5.2E1,3.4E1,5E1,5.4E1,2.1E1,6E0,6E0,2.66E2,5.51E2,2.08E2,6E0,7.3E2,6.5E1,5E0,7E0,6.6E1,4.5E2,6.7E1,1.7E1],"tree_param":{"num_deleted":"0","num_feature":"525","num_nodes":"93","size_leaf_vector":"1"}},{"base_weights":[-4.7249117E-4,-3.191792E-2,9.88785E-2,-7.109076E-2,4.1227317E-3,2.4585943E-1,8.190548E-2,-6.4754054E-2,-3.414055E-1,2.5217718E-2,-6.4935826E-2,2.901214E-1,1.747649E-1,1.5469393E-1,7.20473E-2,-5.7971586E-2,-2.8925395E-1,-1.0957386E-2,-2.9868688E-2,2.1044648E-1,2.0109287E-2,-1.4611564E-2,-1.15490235E-1,2.5597058E-2,2.0677254E-1,1.9305699E-1,7.840215E-3,6.2133707E-2,1.7950709E-1,8.2122646E-2,-7.5566367E-4,-5.234384E-2,-3.014442E-1,-5.7840846E-3,-2.5159776E-2,2.2249843E-1,2.1415995E-3,2.2680225E-2,-2.7319826E-2,-2.2167243E-2,1.3059592E-2,-1.7512783E-1,-8.476368E-2,1.3654582E-1,2.9409206E-1,1.6418142E-2,5.4673385E-3,9.408605E-2,-6.770498E-2,1.3685049E-1,2.4165618E-1,7.3094256E-2,1.395407E-1,1.3955421E-2,-8.022959E-2,-3.801439E-3,-2.8176298E-2,-8.571164E-3,-2.543915E-2,1.8972496E-2,4.9761864E-3,1.3301582E-3,1.3825946E-2,-2.6649316E-3,6.9931466E-3,-1.0535828E-2,-2.9203683E-2,-7.428238E-3,7.7779065E-3,3.1187378E-3,1.6647639E-2,3.2370512E-3,2.9463455E-2,9.936303E-3,-1.415373E-3,-1.1733232E-2,4.252788E-3,3.539112E-3,1.4235818E-2,1.2208876E-2,2.3153288E-2,8.280877E-3,4.3682638E-3,1.2941179E-2,2.4066854E-3,2.7536636E-3,-3.0487748E-3,-8.915791E-3,3.3565504E-3],"categories":[],"categories_nodes":[],"categories_segments":[],"categories_sizes":[],"default_left":[0,0,0,0,0,0,0,0,0,0,0,0,0,0,0,0,0,0,0,0,0,0,0,0,0,0,0,0,0,0,0,0,0,0,0,0,0,0,0,0,0,0,0,0,0,0,0,0,0,0,0,0,0,0,0,0,0,0,0,0,0,0,0,0,0,0,0,0,0,0,0,0,0,0,0,0,0,0,0,0,0,0,0,0,0,0,0,0,0],"id":18,"left_children":[1,3,5,7,9,11,13,15,17,19,21,23,25,27,29,31,33,-1,-1,35,37,39,41,-1,43,45,-1,47,49,51,53,55,57,-1,-1,59,-1,61,-1,63,-1,65,67,69,71,-1,-1,73,75,77,79,81,83,85,87,-1,-1,-1,-1,-1,-1,-1,-1,-1,-1,-1,-1,-1,-1,-1,-1,-1,-1,-1,-1,-1,-1,-1,-1,-1,-1,-1,-1,-1,-1,-1,-1,-1,-1],"loss_changes":[3.577453E1,1.228055E1,6.8276653E0,7.095175E0,6.6054435E0,7.922802E-1,1.750803E0,6.1713142E0,5.183048E-1,3.2777867E0,2.69593E0,2.9549408E-1,1.2223172E-1,6.5063E-1,1.5991879E0,5.3917007E0,6.062393E-1,0E0,0E0,1.9395733E-1,3.1596332E0,7.2484076E-1,9.3968105E-1,0E0,2.3242617E-1,1.0854721E-1,0E0,2.824025E-1,5.436039E-1,9.7232246E-1,3.144017E-1,5.5681705E0,2.1797943E-1,0E0,0E0,1.7491055E-1,0E0,3.04802E0,0E0,6.335316E-1,0E0,1.3720183E0,5.377245E-1,2.0715111E-1,3.6540592E-1,0E0,0E0,1.8281963E-1,1.4920297E-1,5.2091265E-1,2.986679E-1,9.2177486E-1,6.178732E-1,2.4449925E-1,1.6955647E-1,0E0,0E0,0E0,0E0,0E0,0E0,0E0,0E0,0E0,0E0,0E0,0E0,0E0,0E0,0E0,0E0,0E0,0E0,0E0,0E0,0E0,0E0,0E0,0E0,0E0,0E0,0E0,0E0,0E0,0E0,0E0,0E0,0E0,0E0],"parents":[2147483647,0,0,1,1,2,2,3,3,4,4,5,5,6,6,7,7,8,8,9,9,10,10,11,11,12,12,13,13,14,14,15,15,16,16,19,19,20,20,21,21,22,22,24,24,25,25,27,27,28,28,29,29,30,30,31,31,32,32,35,35,37,37,39,39,41,41,42,42,43,43,44,44,47,47,48,48,49,49,50,50,51,51,52,52,53,53,54,54],"right_children":[2,4,6,8,10,12,14,16,18,20,22,24,26,28,30,32,34,-1,-1,36,38,40,42,-1,44,46,-1,48,50,52,54,56,58,-1,-1,60,-1,62,-1,64,-1,66,68,70,72,-1,-1,74,76,78,80,82,84,86,88,-1,-1,-1,-1,-1,-1,-1,-1,-1,-1,-1,-1,-1,-1,-1,-1,-1,-1,-1,-1,-1,-1,-1,-1,-1,-1,-1,-1,-1,-1,-1,-1,-1,-1],"split_conditions":[1E0,1.3860437E0,-2.8907531E-1,1E0,1E0,-1.4553925E0,-1.4553925E0,1E0,-8.449016E-1,-3.3434194E-1,-4.3672752E-1,8.762048E-2,3.7820446E-1,-1.3818653E-1,1E0,1E0,-1.3111627E0,-1.0957386E-2,-2.9868688E-2,1E0,1E0,1E0,5.796889E-2,2.5597058E-2,1.7995147E0,7.1014184E-1,7.840215E-3,4.3731627E-1,1E0,7.5205725E-1,8.8753694E-1,1E0,-7.283364E-1,-5.7840846E-3,-2.5159776E-2,1E0,2.1415995E-3,1E0,-2.7319826E-2,1E0,1.3059592E-2,1.3968694E0,1E0,4.955989E-1,1.16761796E-1,1.6418142E-2,5.4673385E-3,1E0,-1.8345316E-1,-1.4551005E-1,1.7995147E0,-4.3672752E-1,1E0,1E0,1E0,-3.801439E-3,-2.8176298E-2,-8.571164E-3,-2.543915E-2,1.8972496E-2,4.9761864E-3,1.3301582E-3,1.3825946E-2,-2.6649316E-3,6.9931466E-3,-1.0535828E-2,-2.9203683E-2,-7.428238E-3,7.7779065E-3,3.1187378E-3,1.6647639E-2,3.2370512E-3,2.9463455E-2,9.936303E-3,-1.415373E-3,-1.1733232E-2,4.252788E-3,3.539112E-3,1.4235818E-2,1.2208876E-2,2.3153288E-2,8.280877E-3,4.3682638E-3,1.2941179E-2,2.4066854E-3,2.7536636E-3,-3.0487748E-3,-8.915791E-3,3.3565504E-3],"split_indices":[197,6,0,246,18,1,1,267,2,0,1,2,1,0,18,489,2,0,0,36,489,158,0,0,7,3,0,2,65,0,1,428,2,0,0,311,0,158,0,306,0,1,360,2,2,0,0,43,0,2,7,1,9,65,43,0,0,0,0,0,0,0,0,0,0,0,0,0,0,0,0,0,0,0,0,0,0,0,0,0,0,0,0,0,0,0,0,0,0],"split_type":[0,0,0,0,0,0,0,0,0,0,0,0,0,0,0,0,0,0,0,0,0,0,0,0,0,0,0,0,0,0,0,0,0,0,0,0,0,0,0,0,0,0,0,0,0,0,0,0,0,0,0,0,0,0,0,0,0,0,0,0,0,0,0,0,0,0,0,0,0,0,0,0,0,0,0,0,0,0,0,0,0,0,0,0,0,0,0,0,0],"sum_hessian":[1.1447E4,8.696E3,2.751E3,4.166E3,4.53E3,2.82E2,2.469E3,4.073E3,9.3E1,3.471E3,1.059E3,1.7E2,1.12E2,2.91E2,2.178E3,3.956E3,1.17E2,1.4E1,7.9E1,9.1E1,3.38E3,5.32E2,5.27E2,1.21E2,4.9E1,8.8E1,2.4E1,6.3E1,2.28E2,1.913E3,2.65E2,3.869E3,8.7E1,1.3E1,1.04E2,8.5E1,6E0,3.358E3,2.2E1,5.12E2,2E1,1.76E2,3.51E2,3E1,1.9E1,7.9E1,9E0,5.1E1,1.2E1,1.39E2,8.9E1,1.657E3,2.56E2,2.25E2,4E1,3.81E3,5.9E1,8E0,7.9E1,7.7E1,8E0,3.23E3,1.28E2,4.66E2,4.6E1,1.46E2,3E1,3.37E2,1.4E1,1.4E1,1.6E1,5E0,1.4E1,4E1,1.1E1,7E0,5E0,4.4E1,9.5E1,3.4E1,5.5E1,6.23E2,1.034E3,2.12E2,4.4E1,1.62E2,6.3E1,3.2E1,8E0],"tree_param":{"num_deleted":"0","num_feature":"525","num_nodes":"89","size_leaf_vector":"1"}},